{"biases": [[[-0.15975444697207464], [0.5211583605721434], [2.5158493888652123], [-2.1958160271786613], [-3.497485176531399], [0.923339931593635], [-2.1657958242578617], [-0.023870076792551768], [0.9086691082254388], [-0.6279231033893068], [1.7025803329291744], [-3.002800413400279], [0.09648324806711073], [0.9360694278451192], [-2.899667001097132], [3.0252235638951332], [3.3444837301350394], [-0.4118747168800644], [-0.7112572215028936], [0.2141424665915703], [-0.099943741072102], [-2.860387501068013], [0.013883944358688251], [3.933820302732521], [-2.4234155948821274], [-2.9050778772109136], [2.313408413780996], [2.059226881123549], [-0.11760084415333337], [0.4003452757838873]], [[-1.7549229034120832], [-2.124464563706174], [-1.9029833090092165], [-6.976664255784894], [-5.428542336158448], [-3.778662228133224], [-3.637041787613556], [-5.610253393571538], [-7.39618299036376], [-2.9038605275682987]]], "weights": [[[2.1018832359098614, 1.254580142752209, 0.8458948951506196, -0.28075610774759885, 0.11080277951400096, 0.3947590298323068, -0.0965336580831247, 2.126295112477783, 0.6099156153677525, -0.07280090944382996, -0.25895055765458164, 0.2656848504710794, -0.7816950852636124, 2.179086255673662, -0.20359993064250956, 0.140795728171472, 1.541484941000702, -0.18374047775053273, 0.10191381214408059, 0.130838677287412, -0.01756893665950721, -1.64516230604512, 0.4605775953377931, -1.8516097848111177, 0.44587579888149825, -0.16936660624625177, 0.44471897086792944, 0.39919981045704384, -0.889683556525659, -0.5851747850035705, -0.5982921838268609, -1.313872326269178, -2.259330272127508, -0.3336774171257294, -0.023123411342424294, 1.5889456910034272, -0.8536017791067334, -1.2546842902611925, 0.6131098431127319, 0.07169918253856943, -0.6164916172939594, -0.36838705360473506, -0.026101943933445615, -0.15406866012711012, -1.742491916337357, 0.11002680136152697, 0.2067219700160907, -1.9267947345490442, 1.054051942614731, 0.3127315833309907, 0.3440375298141709, -1.8974741549322003, 0.20413775834009976, 0.23294445141879844, -2.6818631537929463, 0.7744752131650083, 0.7817050774097207, 0.27047011798221543, 1.222967799305566, 2.0646309021109994, 0.12550219506761434, 0.38997164180512767, -0.18229294912227303, 0.26308172108997013, 0.1828869799718941, 0.23482861364594046, -1.2817455006976306, 1.793044385609309, -1.7291756256260395, 0.6566270058167787, -1.0384475654407508, 1.5569159046857541, 0.7387161681393899, -0.8848560715087856, 0.7567730647465096, -0.23752305865986362, 0.304074371660672, -0.23886065657666733, -1.569380951844938, -1.0871260460869347, 0.8905604264891591, 1.9188755417534988, -0.48963660649741303, 1.355550250442911, 0.48083500498097426, -2.17055889725, -1.0337916687187854, 1.1068218976046202, 0.26051510459544824, -0.6867214101284697, 0.5162609207270467, 0.20684092609037416, 0.6912258396261262, 1.5390019380515214, -0.3993429133591002, 0.3303246066566453, -0.020231858519211613, -1.5213641447069308, -0.6282703198794672, -0.27226854077246954, 0.20443298824661324, -1.9500810439519223, 1.7723602968899563, 0.8965840542844451, -0.5611410849721193, -1.7370103047791612, 0.921522004817962, 0.6101934967356747, -0.38002003321681693, -0.8012257447334732, -0.3922158424796423, 0.9877421959346941, -0.0191728333515306, 1.3497899836071154, -2.164808611111866, 0.08108975008482118, 1.1732357881992999, -1.3719655110664546, 0.34218770757631034, -0.3937662916978234, 0.5079132817310639, 0.3391894189632783, 0.09473977399532957, 0.5732476973928644, 0.027243370326901613, -1.0164465913937069, -0.14827962326113897, -0.7813084945368516, -0.7689528722425961, -0.6394116880071904, -0.16966488039822195, -0.8866297099275557, 0.33014745675404283, 1.8420859320671457, 1.2878867610674753, -2.266020277303942, -1.5382063794245484, -0.17599857746495381, -0.3126632930824513, 0.2702662988508154, 2.6886168189773754, -0.5380015194935487, 0.8889504978339454, -1.629947510099066, -0.2987333719029248, 0.2485110592549874, 0.13739050750147777, -1.5483607400662611, -0.8345729004060084, -0.5666767801003962, -0.9154094641264358, 0.8737340792315093, 0.6884732052858666, 1.1764049605354863, -0.2031079005371734, 0.4734639321132862, -0.3496548748453604, -0.5221190534129162, 0.8250008123873419, 0.08862138927806835, -0.29109016428552514, 1.6897611618046813, 1.2046290417020085, -1.0092050216072752, 1.3788976350073383, -0.5122923094945957, 0.37565830924986815, -0.7159247434639626, -1.6732308929864157, -0.40665630522583973, -0.034850728898462864, 0.19722041066192847, -1.6360795116459972, 0.9491904055829056, -0.9823729301102553, 0.7432104048241127, 1.1060678586593702, -0.8656237373924178, -1.738032285758177, -0.5594144850899002, -1.1579070017389286, 0.056810543701529465, 0.08423191265701496, 0.14750466494717585, 0.8566562406428979, 0.35282504024675604, 1.901197105757379, -1.482791611240757, 0.5683156494014212, 0.4277856383672131, -1.1709381149344265, 0.907416233454781, 1.1719667503411566, -0.12947576380687992, 1.5725375614751318, -0.6303851059804065, -1.3670668207619352, 1.1883003788555924, -0.19533798005560618, -1.2969101412023953, -1.7331246733335752, 0.6510490474772679, -0.7619602545355157, -0.45431003409502213, 1.2251056359340422, 0.10400743459311637, 2.046782999854127, 1.348821643161905, 0.6628712208305961, -0.3103705175985561, 1.0625172715729934, 0.27939149638002125, 0.3390870639129972, -1.0206539849725438, 0.9014445488947755, 0.7301228656782344, 0.5293955254928902, -1.2502754955590283, 1.2814278626378566, 0.5110888897562564, -0.3281294020680008, 1.6893535739460557, 1.7278021910551664, -0.7017480718716039, -0.5769223678353662, 0.7225294040891761, 1.4693863785838328, -0.9354292125166302, 0.22053773553318806, 0.14974809699768105, -1.6009507707349109, 0.7951562440364999, -0.058008769706265235, -0.6780070361524585, 0.6655158002700606, -0.06215709284797057, 0.9696505680972113, 1.8097177749447706, 2.256127679292295, 0.32925949245820496, 1.9741413429526027, -0.4297269987851868, 0.4951763381530945, 0.29370743003566097, -0.9253712003582304, 0.9410293595157614, 0.3620790058826404, 1.0111540242381682, 1.0469337734863309, -0.5197376662024127, -0.3675126495407171, -0.1666881103932684, -0.0949207010896977, -1.1126678277338082, 1.6709391624695857, 1.0698067023913989, 0.9091643378318536, 0.7682867258428815, -0.14134483980943055, -1.0916509598349504, 0.38918849251010995, 0.30120694172237733, 1.1160840547447788, 0.5873152636918731, 0.2879911563099187, 1.291249086810276, -0.23594646862400742, -0.17200761515576332, 0.20773005669184336, 0.9506566842935814, 1.004982903381895, -0.2869596338415142, 1.3058493289429174, 0.32170662594223515, -0.32793684469954215, -0.20688921411591818, -0.2257337025376508, 0.49247535602528275, -1.2105221229885135, -1.3794076424612018, -0.22842517095252843, 0.36145559597501525, -0.15752221718184528, 0.5952410898283237, 0.33482446776325836, -0.3184788623670636, -0.13400031363587564, -0.38613748973015855, -0.28679344741603646, -0.8743594338117638, 0.22569807391327362, -1.079829239024094, 1.2727095986980785, -1.2277582437262489, -0.20321232052896687, 1.1536654851475487, 1.010000913818708, -0.21938092036348683, 0.355479265669954, -0.32012821418543247, -0.2491034155535423, 1.6313189135742825, 1.1384178604308313, -1.2916891564317245, -1.218690157488006, -0.2981980808542758, 0.3912489585477515, 0.587654522892655, 1.1554328348161829, 1.1994421247831668, 0.8759513095321051, -1.3151882531488917, -0.12630599312886814, 0.18221017315049481, -1.0121354546635373, -0.039353044851237105, -0.17922803004808338, -0.13319098950346792, 1.1762990555824842, 1.0486568901177553, -0.979921705101574, -0.00917906258068438, 1.9794503636543905, 1.0997655251568592, 0.08561311357079554, 0.8056415657034146, -0.6383396266552399, 0.05259897619904361, 0.1583311555574976, 0.3752076501226131, -0.872842327812701, -0.454944945984434, -1.1669367403087991, 0.11753617755909744, -0.6475995841815344, 0.10198357567877252, 0.23094095186234334, 0.1878442841835624, -0.5774416810972955, 1.2723615618566784, 0.8952469063875932, -1.3837160080625703, 0.7361949191725331, 1.001865162886091, 0.36371370671165504, -2.3142569578128627, 0.28513323018091835, -0.045111284106258524, -0.430470828125946, 0.7095289768441061, 0.33216054592293554, -1.8486299620550088, -0.2590024840992653, 1.060400178045841, 0.95021083289666, 0.11936707257178915, -1.0107609978127423, 1.042195490249112, -0.8794174638582858, 0.7717691255375242, 1.1213002014465936, 1.57206874879181, -0.5351134135340821, -0.6964304543881413, -0.7479869347031425, -0.20315971058355745, -0.27589473637813355, -0.9283172985271454, 0.7585151069650848, -0.5879545886014378, 0.6869663231735536, -0.19027138160175883, 0.9854515455686466, 1.023007025829117, 0.5046200110191523, 1.9313573227918275, 0.8184393709214488, -1.9564779046169662, 0.7916029472805118, -0.06069920476316959, 0.3113898932625176, 1.6556074766522775, -0.22881480488454853, 0.16770252694515247, 0.7954811273382971, 0.5287535348444466, -1.9608247670397614, -1.0858090913421192, 0.014332675666431448, 0.832643934784178, -0.14070567212117582, 1.7166420932611872, 1.4407203616394801, -0.6243429047453655, -1.0282083115845921, -1.0324071015252245, 0.5441075972876026, -2.8233613050122655, -0.39900597981755176, 3.915281683005244, -0.7095653581217581, 0.07913411785862697, 0.39622847021358126, -0.2115528798066932, 1.2513923630026764, 0.06898002413468005, 0.3747859201647386, -0.5702764960489364, 0.10687658711682622, 0.23622593166631617, 1.3321193742497206, 0.36735173396833337, -2.3184609957473037, 1.7694796073065824, -1.230672292609034, 0.3749002457691458, -0.7039575637180512, 1.8114169414263812, 0.22662915727094354, -0.1922762920645919, -0.9420396376072435, 0.1186176149895064, 0.1880406993425043, 0.016719471677290237, 0.959717156871549, -0.6374001745144544, -0.5064980644631117, 0.4352224725478076, 0.898371777722132, 0.46695793060652646, 1.1779048205025746, 0.8401502618167233, -0.42721493127100235, -0.3964110244696868, 0.3310856277113797, -0.43389232681926754, 0.04475204777399608, 1.74728659761983, -0.24231794920676983, -0.38615953470275793, 1.8567586535464842, -1.0707196139931403, 0.9024851270264341, 2.641454105440664, 1.2974556154776875, 0.0368072270452832, -0.41749533563357966, -0.027659950344715543, 0.7424325167664735, 1.2197189249867537, -0.9951150314386369, 1.1900051794217499, -0.9262074275955761, -0.23098239335600698, -0.6528959353661526, -0.830493276745552, 1.8241672153911135, -0.14728178375036663, -0.2994703909037, -0.005025579279098389, 1.8898018938780328, 1.3224347535847714, 0.28715229583208757, -2.2731306040203068, 1.614910117944991, -1.9376140240218118, 0.2936190661787736, 0.5949819214254807, -0.5429364861885775, 0.5693285772700978, -0.16339109222535236, -0.21981942416369432, 0.026020567311175507, -0.838561783675195, -2.5532809102677234, 0.7243273549657526, 1.840502531239749, 0.9500645126721338, -0.459479374935395, 0.7841241698321523, -2.315162818905313, 1.073417892496901, -1.7707636197970922, 0.3225989355910861, 0.672783811544953, -1.145017485393545, 1.6611171877975495, 0.8096986330288235, 1.855496803557732, 1.257895224325864, 0.09595917669779253, 0.8545305215612818, 0.8648911485395033, 2.2925123193589014, 0.7104313716936711, -0.6823776313879576, 0.592944082719777, -2.370618119688401, -0.46438915569404643, 1.7659942182022494, -0.542496340371888, -0.9667591009288037, 1.3709066201700406, -1.346266691863254, -0.7411238524193476, -0.8727034253133282, 1.0329789070594184, 0.6014536410801369, -0.5358105617307882, 1.8816576544932249, -0.7352738852207421, -0.005970137222977218, 0.08503019051772638, 1.0009927553236904, -1.5641800619848694, 0.9362598668117852, 2.312188556459199, 0.2038616392017585, -0.7647496176549347, 0.05038924845720375, -1.1003955069290792, -0.15733075746260122, 0.08900010036577247, -0.1075050623744329, 2.0469035862243166, -0.13040911895588045, -0.7162984119406195, 0.6467483916220201, -0.8789499255588986, 1.1771687412308403, 0.1374231911842709, -1.1372402124783858, -0.8519506784458454, 1.4168451842865037, -1.3585466063295237, -0.7177926218764878, -2.0751487869953613, 2.438179526286222, -1.911948753918698, 0.4005257359117618, 0.7024818615708035, -1.3052096514059235, -0.4468170977294465, 1.551744414059075, 1.5192818095630902, 0.39251943393686634, 1.3530629588927237, -1.8917268796271678, 0.9567298343194255, 0.46793121121346415, -0.1671568798155294, 0.8386838108774044, 0.7364035129885381, 1.8056552940804438, 1.3253764387945872, 0.030761790427828766, 1.1926190447525793, -0.057294115610156744, 1.9088196165645148, -0.6288373370671675, 0.10184719495533626, -0.6036745274919525, -2.4165458288061346, 0.5968696448896403, 0.8252433148053108, -0.9953769906689305, 1.5999576492581336, 1.2924921284547748, 0.5263281518159241, 1.3205896453243489, 0.8744051632614334, -1.8080829583474853, -1.7493742622203772, 0.18496467087014332, 2.6463909561349563, 0.4855344296817805, -1.2314650996074175, -0.922684229274831, -0.7294187597959954, 0.3235681890269642, -0.7229673340297429, 2.6925513077349743, -0.6315184038098841, 0.9389657502883979, 0.013034180863671366, -0.945225605810371, -0.5548864481904886, 0.25260216443342576, -1.1298854617338123, 0.23016584038738264, 0.057989999616122896, -0.508094392119417, 0.9386572372028856, -0.5372073344778204, 0.4118704074361681, -1.246703199538256, 0.8534072574320049, 0.914083253087778, 0.04757808859680628, 0.7201182896112511, 2.4903467019442753, -0.6665507494141543, -0.3145830953624414, -0.5073225776133244, 1.3206807903756341, 0.7151275369170749, -0.050033746466155826, 1.0838356944011376, 0.5775743356476377, 0.7786524228339374, -0.8533329387644498, 0.06828540372696872, 0.0816296291815841, 1.1283594122202782, 0.6383977713116703, 0.6287152605487917, -0.9999558066863256, 0.17201360345063788, 1.9061535700009284, 0.5132917561689677, -0.02176839296009405, -1.004042101650554, -0.7000062508065839, 0.49517208997121276, -0.19937427258644203, -0.26826879080951826, -0.056507262015064535, -0.30584327845078907, 1.3533841039888495, 1.773524928627487, 1.8962324107845223, 0.6260521840512958, -0.7506724874042303, -1.2947212202176839, 0.2603386021781091, 0.6033620363557867, 1.8711690631099986, 1.2852385546374823, 1.144198479055992, -0.7196817404047041, 0.27149876878064205, -0.06774547054145973, 1.4701475522184475, 0.14215936710109647, -0.15074031178502925, 0.3494808759338157, -0.8940249425669833, -1.1465033013954002, -0.3904751847419464, -0.5600837971908903, 0.30874395988753933, 0.6200513877191238, -0.5715627839093194, 0.3279080784004135, 1.3935420938824858, -0.36769098268592526, -0.5421510566818937, -0.4678011352377666, 0.6185221257496553, 0.8381582896555904, 0.2683794828612931, -0.5125044942117981, 1.368175377193534, 1.5920548428359902, 0.3411847228128416, 0.49071096863416475, -0.6853719592779157, 0.40231580671644646, 0.06489758704904357, 0.4928271279653112, -0.23995377056486028, 0.1440984162943306, 0.3757759964849006, -0.3622834107266865, -1.6241125061114117, -0.8249884404588295, 2.2179045839670803, -0.07374987850793889, 0.18157223813076023, 1.102190889343989, 2.0267026550755767, 1.2293861330696723, 0.16335945494412263, 1.228190276971252, -0.28012496377344004, -1.579272697050084, 0.8430506505323194, -1.1557138673469654, -0.6775802522628804, -0.7042369929948501, -0.9104417101557657, 0.12442479150032498, 0.17192305161349505, 0.8290243209607171, 0.08383693642178637, -0.7002745767033186, 0.1787253504362225, 1.3345788348895284, 0.2975068273168177, 1.4356933009629214, -0.6326111247700513, 0.13102708437881472, 0.6701335903467533, 1.5487732072780933, 2.433508742631397, 2.1356514766807386, -1.0186859776312036, 0.36707177173709865, 1.363525537324854, -2.4375198305488475, 0.8751124727842365, -0.5251021445896104, 0.6215901527415449, 1.5510709772370266, -0.45813104898233137, 0.24895903470605488, -0.8502148870046096, 0.00915102900319842, 1.7899011956984905, 0.9269235803476776, 0.17240334978317118, 0.2882135056760797, -0.2539473096949334, -1.1805183288740029, 0.00830885502552055, 0.0160439447269836, 1.1683253059957683, -0.022174856003852002, 0.6562468584020064, -0.3786282180849686, -0.26946751189533347, 0.2682017879165419, 0.1728020491630275, 0.7531330447829238, -0.23405194741765342, -1.4771755082235503, -0.40002793329180647, -0.08935421697443569, 1.111789483420006, -0.3201738136674812, 0.6105008173292541, -2.0521983929436254, -0.024628372548665543, -1.9672017592900815, -1.1330749330860992, 0.7408539971045507, -0.6611927203264832, 1.7883085581513476, -0.9663593973057305, -0.4283727851582023, -0.4842446829351102, 0.6723528090025511, 0.24648280242105863, -2.1668165121757568, -1.0222386849237006, 0.678538382102815, 0.5810065476246012, -0.25758294071684235, -2.442416724651747, 0.23223495466193977, 1.5232126516825555, -0.4896987591915464, -0.3708069996815602, 0.17803160223568137, 1.2720248874114701, -2.786379796204718, -2.2192230441269576, 0.5162770132371997, 0.2526243325463115, 2.0261585329529774, -0.7927679423907019, 0.270292466009134, -0.8101812955408934, -0.3439965365421222, 1.4279555720720023, -0.9769583073598593, -0.7909176644078085, -1.8736941917235055, 0.6162898822946048, -0.09330794838849045, -0.5829305657838143, -1.1979233949544732, -1.6571772119946158, -1.4397015168373646], [-1.090636129434446, 0.1885948431865293, -0.5079605273997666, -2.4458104786039923, 1.2004232854306454, 0.091425543236195, -0.6289401694318631, -0.3673108488205223, -0.69707920214969, -0.3073187600657754, 0.4967724757872195, 0.7799594088869157, -1.3864359640214072, 0.004596669622669682, -0.0992369123406327, -1.6254962511970945, 0.9156980368443985, 0.7372070601438413, 0.9545881118714945, -0.013053031450165975, -0.6744039906961466, 1.4931744722425244, -0.707531761006273, -1.0944652672344544, 0.23087410072531048, -0.21746788335287856, -0.13385019817857594, -0.3053146188226462, -2.1511641479296855, 0.4180765786517768, 0.10802207881163163, -2.481889453677401, -0.5504374996120934, -1.4759987664464245, -1.2193773227024194, -0.6487329853646215, 0.7330868040693453, 0.19226208891292762, -1.649212473346076, 0.007891592027459184, -0.9461323847183503, -1.4823412113294518, 0.617364268279717, -2.2178998122044993, 1.2650486835227517, 1.9446801154629954, 0.7973711182035249, -1.288229768093061, -1.4684369548818175, -0.45206786228204937, -0.4690600551451678, -0.28800913034890424, -1.1535935403603443, -0.3184663115373038, 0.05423822558027554, -1.1322640581068235, -0.8730584939358507, 0.09265676557050304, 1.6578436307684041, 0.19164431198600085, -0.2387909993928635, 0.3159967464713971, 2.062113402667268, -1.7150563491702397, -0.03310582365893718, -0.7092083977070991, -1.5744931832239761, -0.8333472784622521, -1.099223256159623, -0.17011403456147256, 0.47374882839040666, 2.064579677184477, 0.6801992868329984, -0.1506687778203397, 0.6449521622581764, 0.2781486629841399, 0.37883894883159497, 1.3692152140546343, 0.8442482473354416, -1.20058664651344, -0.7058884126061475, 0.6110723492751006, -0.3643605946746138, 0.23998387548639039, -0.18921513232274997, -1.5474102499597937, 0.7688771107564157, 0.059681198194226646, 0.6177278922213107, -0.13181575271835064, -0.5817157224082411, 0.6915399389603968, -0.7960020045023085, -0.4903284260189002, -0.5266789516428718, -0.29041123407910563, -0.3216818919609427, -0.6969547928276035, 0.2784805233345266, 0.457703660758671, 0.8280104830879622, 0.17747512809589447, -0.6299862282369172, -0.29010406067047156, -0.2106198989051941, -0.028957623018677877, -1.4488901233019311, -0.15332222195725967, -1.5818288970785719, 0.9330853394355032, 0.30287364302686015, -0.23920460540663163, -1.1429476665555838, 0.7032424482455623, 0.46954401714355126, -1.7445334801251564, -0.40990807293358306, 0.2561625403568277, -0.48925506101715904, 0.1862661141668774, -1.5833592079966288, 0.18041205930377432, -1.1206802434802632, -0.8386448175425645, -2.098055770452141, -1.3968164454377825, -0.16871731908441617, 0.08943766047564945, -0.07529989516900197, -0.6656141642580048, -1.9102955500313967, 0.2836509430865756, 0.364685743732491, 0.7712139188274015, 0.7707988155382267, 0.6596568628539186, -1.558912421238657, -0.5137363879047461, -2.067857684257955, 0.8514848841138044, 0.3031047333850052, 0.22659957106375025, -0.927366606260478, 0.3441307425376981, -0.4223422003882135, -0.338810146336445, 0.8054391531102351, -0.6809619175565311, 0.6427725283711381, -0.6989131510919652, -0.3380687423758242, -3.0946182064127576, -0.3291974213278892, 0.7467914965582422, -0.8179672096693438, -0.3535437562654435, -1.1607428686352246, -2.7773053246581503, -0.45082637891162114, -2.135952282066322, -0.8901345909600613, -1.486927828651873, 0.534961003857146, -0.5090367227807415, -0.29943844697888816, 0.2810311489042802, 0.48387809177426266, 0.02004023823838787, 0.5662214782256182, 1.213831495992937, 0.6336321797413478, 0.8098888364972967, 0.471063925513057, 1.4183420055982165, 0.9164453679085429, -0.9642453705319927, -0.9054472151288544, -2.066099672231281, 0.39126720000556275, 0.5576670383917448, 0.273241109274826, -0.025121630930582096, 1.0411573818857494, 0.42491354538861287, 0.119942258762009, -0.6451134214847303, -0.18889648583798233, -2.208959009401566, -0.24935459274867014, -1.6179769081311852, 1.205031416874058, -1.2642059548904017, 0.08736068294344253, 0.12037315085317536, -0.0019281911023885604, 0.6056594048538971, -1.1676509456492168, 0.2901297629339929, 1.0149354123467917, -0.0929079427839581, -0.42011998568242054, -0.4391398511773687, 0.9605250343005042, 0.9395498213071967, 1.504251816647311, 0.6771774655140114, -0.6926596517789764, 3.0228469440880192, -0.14087902133697655, 0.013315004647407322, -0.2935782405455966, -1.798177881968088, 1.3719750705894287, 0.6553082985959298, 1.371128620826079, -0.4557804315394868, 0.4025279104821071, 0.9995488949057428, -1.2415965675146876, -0.22085975260792184, 0.7684483985481768, 0.5428354644261344, -0.3498587636903239, -0.5623165172546918, 0.07878833430611304, 0.09769480093310162, 1.4165069992480899, 1.0930908356220552, 0.3223909404727067, -1.7787065531660962, 1.8748565516266145, 1.800928081640018, 0.9147550076660037, -2.3510653946235855, -0.0616401786946543, -0.024515284610372848, 0.5631204192672982, 0.16803511818210815, 2.169694958535044, -0.7742596096105594, -0.5315539371403448, -0.9902990742739367, -0.33644716782293954, -0.9332431221040769, -0.6545581743590622, -0.7425850803124753, 0.09828246634519903, -0.3963292651563885, -1.8475323345375607, -0.6262256747662762, 0.33848367994958795, -0.5711455001666038, 0.7770711913936371, 0.33558072123594207, -0.12454504604867864, 0.2510797058233643, 0.7558143248350783, -0.46405023676114515, -0.022554330298774954, 0.9633120180991456, -0.7821822670737623, 0.7969199263635828, 1.2160909683982697, -0.22016782973372806, 0.45130259882838536, 0.19992387448136, 0.3930277551614192, 1.8485963695587462, -0.600553513121699, 0.5081016907006204, 0.2571449523312133, 0.5066310916411575, -0.2867861950369142, 0.6154382864580193, -0.6514019996593801, -0.5252263902012988, -0.2971930146990046, -1.0224430393576671, -0.28027253752014897, 0.992720435286291, -1.2183122327845624, -0.8158753814385843, -1.9258263214390943, 1.1882778304041992, 0.9829895372277461, 2.0383026883202353, 1.0626554480635415, -0.8027634082259064, -0.4363299364625822, -0.9827174696818066, 0.465990276480853, 2.1546595189369717, -0.880326177508362, 2.9392051105348322, 0.3684407276625654, -0.7873029122211977, -1.3089437235042236, -0.9312694568189118, -1.0789833231058643, -0.6527323684498181, 0.028567713968961458, 0.3975384396933573, 1.303541492014837, -0.3379738408826941, -1.2423139762656608, -0.23112613973859558, -1.490231006348051, 0.2101892024273521, -0.5678196052001351, 0.225246350727119, 0.4108143252336499, 1.5341531344189308, -0.31681690632413073, 0.3210128109103285, -0.36957394317572867, 1.7514165225483682, -0.2397305688815849, 0.47346862977546694, 0.18191578524663068, 0.20086905802410557, 0.1659236434432143, 2.3231048107901593, 1.959780950759934, -0.017815741351978796, 1.902920021666588, 0.7611580954053897, 1.9843911790028794, 0.05709506699048537, 0.964118752537597, 0.8717058909385041, 1.2859891370918877, -0.07388039056371166, -0.5629337727079147, -2.123548683949642, -0.17216448815986782, 0.9494897808241826, -0.3840623183672809, -0.5588015698329931, 1.4049723363904127, 1.24866903709744, 0.557234123234452, 1.5852060133164303, 1.0742681373454266, 1.6876094213621893, 1.1638079599562596, 0.40533153173952513, -2.409489550656613, -1.5187888513311223, -0.00236866704563261, -0.3631946652423646, 0.01920016140407348, -1.9913943909416476, -1.107038311076028, 1.812711523715273, -1.1894683301640598, 1.1474635684022105, -1.2125687455313572, -0.25633308651607917, 1.1053889037962596, -1.408954842968825, -0.046264074933243804, -0.19275316642683796, -0.6091740834653967, 0.013370514481052967, -0.289536475801076, -0.045604546772701676, 0.40681875796930156, 1.784895175644152, -0.361231265750703, 0.9610678070336646, -0.0002516818633588596, -0.9493773566336703, -1.6324117899963557, -0.8651744394419014, -0.48253615921625637, -1.9538277331596474, -2.5794038610409498, -5.129176089438051, -2.5307334584093675, -0.7085017496412366, -0.8359572984552902, -0.7798335369395873, -1.3255229747973793, -1.3259728284276657, 0.22271565434857543, -0.3391849592391699, 1.830569225315046, 0.06386826047097367, 1.2378699503678616, 2.2461308438709287, 1.3104606330131952, 0.19392121953038896, 1.2753041977170143, -0.7127927114920929, 0.5641607039285235, 0.18687474724384454, 0.26986513193444545, -0.08094780795955926, 0.8372901628431584, -1.821481248380319, 1.0842847909967654, -0.5723033301570406, 0.5971848995074814, -2.2502298087725316, -2.1223124752170928, -1.9423911017662938, 0.4239658645814351, -0.7408134137413385, -0.6525468650724126, -1.446891098779453, -0.908434855489477, 0.26477169365960723, -0.0929663452308772, -0.22952204860140077, 0.7055341015341168, 0.19503179756311986, 1.226982725240989, 0.6173470150769877, 1.0919099976447268, 0.34789208502115526, 0.007267969394825538, 0.33386466628855294, 0.44749093394186146, 2.622792667375945, -1.0523639991473746, -0.870365910747545, -0.20591983943418402, -0.29207746400188217, -1.2636781025949329, 0.023447978026858864, -0.9543788575843409, -2.927830446014217, -2.07327386789375, -1.0702175285229465, 0.7851620633368047, -0.6390847434685353, -0.37571669609268193, -0.12051545616563487, 0.7535358841370362, 1.3775979731175976, 1.5677915706496666, 1.0071840541650148, -0.2664065001408396, 0.24037390200610417, -3.010749969276196, 1.288832780845955, 0.722920339829331, -1.2103543365164755, -1.1037677131591725, -0.08890529827837157, -2.0061864122480286, 0.3719313621884199, -0.8517424993628699, 1.18259440012892, -0.8313691381533426, 1.6090838862679278, -2.108803380631545, -2.7952848617644235, -2.9735225744254947, -3.073909604937841, -1.0739263674024444, -0.8199074667364253, -0.27574492427536107, 1.600061646681669, 1.0292754856170587, -0.5402006310149773, 1.157912660885533, -1.3123723593064984, -0.30346592052342175, -0.8883544499192777, 0.35130563220321204, -1.5033602428443322, -0.38953541172245504, -0.32494312631875827, 0.10649037628906281, -1.6795627969581675, 1.5002822309372301, -0.4527451787844554, -0.17315049913777758, 0.9371432324036403, 0.11558921031964772, -1.2363754805207892, -1.1124786239089695, -1.1067671165055646, -1.519585800176242, -3.1385237883134596, -1.7007468503585286, -1.7800549587683683, 0.02906804936512154, 1.9727310185381965, 1.347248790783117, 1.783767481810519, 0.12037609700703969, 0.9478069150446123, -0.7117122085332609, 0.8159313430963173, 2.142386885576946, 0.12636065857650988, 0.4133141649204264, -2.058957888591497, 0.4173484063236752, -0.635917877576818, 0.7245564532640534, -2.082266037597652, -0.9378682982786001, -1.0688140694167052, -0.18820503090429552, -0.35564127742515605, 0.11640427944704235, -1.1935352754325295, -0.9534271794384221, -1.5219193121846657, -1.0308071770966334, -0.9873557125821296, -3.9426966235152046, -2.679106186098343, -1.3000626912248208, 2.6296092972989955, 2.928300218645906, -0.5095624204744663, -0.9324464667634649, -1.1474751887332335, -0.8314488915439354, -0.7124367118143156, -0.5907526442900072, -1.1293280688682772, -0.5795459843376483, -0.058248286293938974, -0.3995161429934352, -0.7894885280779202, 0.9081108444471053, 0.29471280843937786, -1.12243022867916, -0.6962653402639751, 0.6112051256236851, 0.2448127221933693, -0.932373662328303, -1.237486425045259, 0.006788993927945749, -1.0749088112347123, -1.270506626068687, -1.652174551707772, -1.7917344802217499, -0.4096404594894869, -0.8464554613554776, 1.131702344439345, 1.2482362394300337, -0.12235883290176577, -0.15941950505991018, -1.3056347400196335, -1.7970016068838368, -0.7324493676140713, -1.6716774040254208, -2.7813751187427878, -2.164266387565072, 1.132677341798655, -0.8550559052511183, -1.39508237751383, -0.7197117927840367, 0.8392128833904351, -0.08491153025473251, -1.95794391601924, -0.39643802557223257, -2.474344284903825, 0.4483945091241749, -0.5789200143932947, -1.1298088884069162, -1.4462324218756757, -2.649064177612858, -1.6403393165862965, -1.226827357327802, -0.8839851958947166, 0.15033243962323503, 2.4281216834812764, 1.3680160598211524, 0.3492710704005491, 1.469796359996773, -0.13488817609935574, -0.767820074684663, -0.606786736188844, -0.03331846100249237, -1.6410941858448327, -2.987385043846372, -1.3173442412574048, -0.5245843081333302, 1.6369953311678316, 0.6383862917290644, 0.09348575850118204, 1.2189277401372036, -0.3363640331883046, -0.6666140023599222, 0.7027535140594124, 0.36557858821364414, 0.5337123332097334, 1.2993307527945082, -2.532936032064673, -1.455715882523802, -0.6646989900246867, 1.6969160031430581, -0.1462590899104982, 1.274292000160676, -1.377443457531108, 1.954912887608178, 1.2135416151443017, 1.1119974143938738, 1.0318567072185976, -0.38571740066390264, 0.7766573367146701, -1.3915786542702278, -0.16946803320411274, -0.5947053748388836, 0.6353036328143742, 0.1015883587810757, 0.10352156727155268, -1.4107006734342236, 0.19155446442227161, -1.6702891216431348, -1.8951013340021146, -0.7537461822766425, -1.8834863683446175, -0.47628053806040127, 0.31600415745265925, -0.6972361641641932, -3.290831234345579, -2.5630550555994245, 0.9805136629315, -1.0493288257369666, -1.6939725761530906, 0.21672338547768852, -0.6288815274316784, -0.38538091454081147, 0.33902123146644203, 0.7126890204392726, 2.1699406635468295, 1.3127339856791902, 2.2445696502918113, 1.0280950577210477, -0.5694663975602234, -2.0067723927094927, -0.36321419948008193, -0.14095377108139587, -0.8034610854673394, -0.5804629558347317, -0.3536888322417986, 0.08553165109073163, 1.7001275138409948, 1.5336814467203967, 0.7798743974247941, -0.751337245197418, -0.9494437087745083, 0.5578913004638356, 0.9724163754782342, -0.07540561562873319, -0.5202826410201139, 0.49084272394620543, -2.3955329835759542, -0.2591608463092435, -0.08480339369469841, -0.7533874528627018, -1.1178406375654546, -1.8537260284188508, 0.2250734416666943, -0.5113541208844589, -0.24848715541821967, -2.1330871068984014, -0.13998574967370572, -0.4693591779718286, -0.8379095355278929, -1.7851630006281909, 1.2529725826570757, 0.4279946122907058, 0.6240837553088395, 0.19357893830544956, -1.2504375950543962, 1.5029049383832234, 0.6061185372009548, -0.52500337931332, 0.24687959373137658, 1.9407121693050648, 0.16644311828922073, 1.261860307429644, -1.9043438083619426, -0.6004999216955783, -0.7783687768330609, -0.8044896036494431, -0.25016043911185226, -0.21876975052767356, 1.1829785635194447, -0.9467674045245487, 1.2065720332375625, 0.5160898750821774, -1.809488084306712, -1.0190052219893515, -1.2685582826078483, 1.4404683373275804, -0.026332631631584915, -0.8589219071674543, -2.0132055837870295, 0.811969821597214, 0.38621432212403595, -0.9666342907526793, -0.03404617238936123, 1.3053761399408599, 0.42379203821185796, 0.31720180120760305, -0.16690241757158236, -0.38849061400228274, 0.04779792731570958, 0.5026497384060744, -0.01802902604941965, -1.746280865457723, -0.12463120160136845, -0.893924911448949, -0.006327948656380552, -0.19962865352578013, -0.5452348511845999, -0.6589128296789458, 0.4910200775207603, 0.039606243580196175, -0.1412204622841158, 0.0337181161020488, 0.5051134136169716, -1.4569525746795209, -0.2587452317272697, 1.0242237754029409, -0.2831467626919481, -0.35600055281684806, 0.19371840327226256, -0.16904258527221477, -2.7007566395703275, 0.4144031906063604, 0.2811612818873302, -1.2259651881111242, -0.7546751418979412, 1.056879567313347, 0.6055815937552768, 0.011232032693820022, 0.8111636455899438, 1.1823550705051784, 1.4135780218741598, 1.085727581750811, 1.7900093437858844, -0.1334495441023593, -1.3082168761129727, -0.43972310637254075, -0.6560074472383028, 1.1290029961716441, 0.5514700086514992, 0.1728834960865903, 0.7021593358940855, 0.20518662606332658, -0.8402641248843002, 1.2424420012913286, -0.44449879752298227, 0.5238213352351562, 0.8281044772481786, 0.9057193601739673, 1.3898371880923832, -0.24615270329956204, -0.18629962806804423, 1.5600238623998874, -1.6830349913325562, -1.0277547600405728, -0.16595596250878675, 0.5538702310036192, 1.6417060849100307, 1.0691326836972919, 1.1119189804605594, -0.537785766623415, 0.09465482999767545, -0.613100599345624, -0.7943823998987404, 0.30309665080938547, 1.2834651668793684, -0.3464553759942995, 0.010868419316108484, -0.01323086940340286, -1.128316947108662, -0.5009290745116318, -0.9671805583039769, -0.11760725272303649, 0.20556886921494374, 0.07496436153688521, -1.6082561713754], [0.9605014351534336, -0.18480963782512036, -0.08380579721735912, -1.228651642458906, -0.6481172621749594, -0.10199954977988455, 0.2187303841199817, -0.11978674436011358, 1.3202488591712849, -1.1004351070525817, 1.9090116314948566, -0.8073207692337981, 0.36391581716868543, -0.7662047361285073, -0.9714423704608312, 1.785618307235918, -0.3633921260938509, -0.6763874667063158, 0.39165717940219674, -0.3107042374037175, 0.49207084843368604, 0.32013759538679826, -0.9369687780193429, -0.34841516031691167, 1.6382052242158502, 0.357307034435388, -0.24297743889185494, 1.091507964667009, -1.2711510967566928, 1.1553026178048151, 0.2211243414773309, -0.17501377175090754, 0.9305535635500061, -0.6024758926610573, -1.1922629534826858, -0.10019701833727274, 0.05745511884215672, 0.2852994198667693, 0.3651530294151557, 0.1685630304274039, -0.49967268588330216, 0.42537356086590217, 0.06398072532089392, 0.2439944472423938, 0.13793860279634973, -0.6575524938077365, 0.35753370677392887, -2.0206100005759797, 0.24118001444240433, 1.8588444099920267, 2.0358056109051827, -0.008777672879974508, 0.17049632916714152, -0.05891149044134387, 3.2601622422391725, -0.13514037924853547, -0.7367473520935203, -0.8122880689186334, -1.4201913642908934, 0.6542437273603466, -1.9715644585465693, 1.1186509326718341, -0.23699879513200744, -0.5893872818480319, 0.41430301629809807, -0.18271857848867057, -1.3569171595714862, 2.0222311157275947, -0.12249677492203613, 0.2013297675597328, 0.3184052470342354, 1.1139226032735443, -1.4180533576102923, -0.7051245577143169, 0.42542586566657115, 0.2506118735464025, -0.28136362130440573, -0.10096831461329654, -0.4891496181260356, 0.4346640165780321, 0.019696286776066035, -0.18711643426620958, -1.4759527397929544, 0.13723825364180317, 0.10187439724516094, 0.385340018847355, 1.4693786419956807, 1.7460386450643979, 0.44371749222182544, 0.2841090689273738, 0.5715483150899265, -1.0136760447214435, -0.1863788736164892, 0.19280851454919734, -0.839275594273418, -1.8921833424107466, -0.8248320038147549, 0.1182290250689343, -0.31155994098723705, -0.41928433710630514, 0.4947804296620446, -0.58213576684479, -0.57381628131013, 2.536468310799704, -0.9514063883004464, -0.8598221664332429, -0.4857933895157075, 1.5936579277880691, -0.11780107405515439, -0.3686498353190001, 2.0118925626380113, -0.24818763821880388, 0.436586346339272, -0.22464601689162228, 1.080627759999011, 1.3149088041608534, -0.8793129235584709, -1.846211671474237, 0.36200063216161454, 0.7699627969965185, -0.7276181391545323, -0.8676754218499684, -0.9869557701317051, -0.343005095010042, -0.19898092141051366, -0.2391914920102823, -0.3921791153697622, 0.5658269308550861, 1.0992166929311527, -0.8362175064704298, -0.034843156895250596, 1.9105063817036216, 0.03345248213888257, 0.7520878080622707, -0.10906618703247845, -0.48465703029667767, -0.7646430792164964, 0.11533021267622418, -0.9543400095839693, 1.4174721603413336, 0.6215226501965904, -0.5338133659966482, 0.2987071604148404, -0.16286586466252156, 1.511623941922385, -0.5849910977994857, -0.6386750158294974, -1.2402927450213428, 0.029155993590929224, 2.7875979858059963, -1.212481791694678, 0.5030665684511809, -0.5546160059481418, 0.021704821309390453, 0.2781967834114679, 0.31780857782415733, 0.11423309993788389, 0.8792195082600962, 1.2006296603658662, 1.719510984752339, 0.8643407831240347, -0.5284647931405522, 0.27482824583245813, -0.14557439703451877, -0.3332010831587669, -1.1251717355323823, -0.5768121808915139, -0.4978116996226647, -0.07031120825310601, 0.9154893255188481, 2.1190410703495286, 1.366702510373032, -0.3235867900601173, -0.2165860150009789, -1.9112973900291768, 0.5974546359862923, 0.29799561505620525, -2.50888477464444, 0.6297026873116368, 1.2544919990804344, 0.18935321046637177, 0.4380641435278651, 1.536855027354732, 0.5807998960982933, -0.25684528463773393, 0.35308094968247944, 1.543383825819055, -0.4226030847751358, 1.1354813366583012, 0.0797423924243523, 2.3220933480940276, -0.25899359125147864, -1.8857024565450007, -0.632692503085256, -0.7241239833125057, -1.3030929009913568, 1.2873061606035032, -1.193713947275298, 1.3361762849559298, 0.6333609520817925, -1.95585524497595, 0.9464521557366932, -1.3908766338522778, -0.2744074971620387, -0.023156138075660405, 0.4090471623127644, 2.2691025131912044, 1.5364488375488263, 0.6336734575953343, -1.3496822659710506, 1.1881699109317287, 1.6459631853361318, 1.4345165784008977, -1.362501954910938, 1.060307748475957, -0.6420249116299015, -0.5180753892213591, 1.450305681569423, -1.102144494025557, -0.10944772182148467, -0.41543608922554615, -0.07097455983814874, -2.20839319773332, 0.289639224142729, -0.6810524199016462, 0.9506678106659284, 0.2747074764303176, -0.4096680450602453, -0.47922582544243414, 0.17966416449590755, -0.18613244645040755, -0.3739895590283246, -0.08723998251787296, 0.013703787343573706, 0.1896708905741904, 1.1485264620140658, -0.9956222235408072, -0.6475324517433565, 0.04533471089514239, 0.48493734135830624, 0.0549384434074988, -0.24802345397703465, -0.007111674854887427, 0.24505069473485352, -0.306479212569866, -0.24348166405727178, 0.5001386772200991, 1.0616279327380544, 0.9950675160685838, -1.0071781870754162, -0.3176511560474173, -0.12743918486840036, -0.7727677375047091, -1.1227263850466587, 1.2165355459967293, -0.9097703372528215, -1.1443416962807538, -1.4670490234275024, -0.1598020875097545, 0.45350992041573646, 0.15622131932174935, 1.1633068966765194, 1.95745151037542, -1.2910726224241778, 1.1588641867638332, 0.7086530708163555, 0.9616586298189651, -0.9298862900189059, 1.6126875184547576, -0.5961367949767583, 1.8126334120814263, 0.7739354869795027, -0.4735108597950462, 0.7013227139510638, -1.106300956401951, 1.5751201481496313, 0.18955279784780024, 0.29893564686547086, -0.0783974829100714, 0.5313068314851848, 0.050414971427897616, -0.3440112838623028, -0.8234310100381971, -0.7822313714981215, 1.0697417357580554, -0.5664716666118546, -0.3368201773170862, -0.8293244152125853, -0.6150486355289324, 0.11527917478477144, 0.5984258438251895, -0.24032250948485273, -0.1743197976547227, 1.0439013305566174, -0.47543586498524015, 0.8460549099706717, 1.8779320967002686, -1.2124542574984354, -0.03986955766059916, 0.49287285751152415, 0.3766085252901138, 0.09720129612554967, -1.6139801309334159, 0.9688944183374399, 0.041751662799626874, -0.39948458102805945, 0.15338184505764532, 0.4718052719877212, -0.7370985903250085, 1.142975666342415, 0.8418243744661535, 0.4847630668477694, 0.1576446069911086, -1.1605009888383357, -0.21236292841945484, 0.10837977899479914, 1.3062437090373846, -0.231095183750034, 0.11391538550858345, 1.202532615919813, 0.5082384669874351, -0.9595017735720153, 1.3591293401459468, 0.6669458380383403, -0.9216672060431701, 0.8261819463396554, -0.724488104774925, 0.5373247965783507, 1.475922818708949, -0.26592327010572303, 1.5759941833219155, -1.2100632209657625, 1.4286466948422003, 0.0038563600682172605, -1.2905421816994662, -1.3552800939516025, -0.8519284687747305, 0.8769504268367972, -0.9842972854109926, -0.7036682748895888, 0.36755803484522614, 1.0294425641971032, 0.7280398137509397, -0.7030459409367377, -1.1850752675742549, 0.2451081001832829, 0.05034186133051159, 1.114792712465487, -0.517428524453383, -0.07658258153375094, 0.9034234466374266, -1.0426292106958426, -0.2742770956150612, 1.9685765067044034, 0.3010756820081721, 0.17734396111824924, 0.9867867227271412, -0.3705431984869122, 0.3097632204028319, 2.0718753739813986, -0.4887417516710405, -0.2519666909597181, -0.18301004966786294, 0.052199277098351676, -0.2322953350497337, -0.6942543075330533, 0.48896810337427793, -1.3319769075487409, 0.10915047859635683, 0.4474322741130977, 0.22919644844794682, 1.3385156680059933, -0.9489123429392792, -0.1074366883364829, -0.7314832518374607, -1.0606130341108082, 0.156192216126859, -0.47526564564439566, 0.4633051125426198, 0.6493137250927166, 0.4975046346573541, 2.1410491858282827, 0.03168100407827605, 0.10015343923738894, 0.6541324128681729, 1.1032975846203452, -0.7512120109993493, 0.057982134251788754, 1.1409392817999562, 1.2339977826513422, -0.6233367040328789, -0.1989377163606734, 2.1753642096221153, -1.5005451801218064, 0.30886516271286824, -1.1275061972325156, -0.37342657204116647, 0.1575265947078423, -0.8669973257429062, 1.4438412553335342, 0.8840298552434953, -1.7777731131472918, 0.2540300467127719, -0.12046743534519214, -1.1260055013852874, 0.6697258121905192, 1.5048227032477128, 0.6833497438899467, 0.8962974351027596, 0.16550108915516434, 0.8757437448543164, 0.6470100943902746, 0.6525216574896039, -1.348162986529519, 2.0786224550514625, -1.4908352345324616, -1.2016419330710093, -0.04474662550470763, 0.23765465952145837, -0.526186312032459, 0.5853849284634288, -0.5820016999562945, -0.863284607370822, 1.3330904058464412, -0.01251100652679322, -0.8515941436802409, -1.6010153081540326, 1.4052066774456156, -0.5754582221042718, 1.3172362612128254, 1.2695551284763067, 1.5536403948190074, 0.7185777223363762, -0.2575730857319848, -0.4018754688236842, 1.6693434753259533, 1.2836544779524282, 1.2910192326860763, 0.1149684193378237, 0.723013420136939, -2.074007127609318, 1.8747711889540346, -0.5931196377952582, -0.5994139385289083, 0.3564001361865961, 1.4798710324631708, 2.230762030453025, -0.881357145519198, -0.6571389300420794, -2.411418214989047, 0.8274790839756617, -0.4303018279533377, 0.50574727720494, -0.3815097599482225, 0.568387392903987, -0.2449582427846764, -0.19686528709569312, -1.2073193513167162, -0.7836519967182201, 1.048852917337371, 1.1675410132314883, -0.8573964557592185, 0.04378425746384975, 0.3212133330133728, -0.21562203736664398, -1.1546744005996021, -0.7583397200066672, 2.377720160602393, -0.8929171483606109, -2.612105051989427, 0.8919341946476144, 1.8287230331182402, -0.16324459878858985, -0.934138636777035, -0.20738625966179, 0.46815742819120926, 0.4374858089173223, 0.4291137921051339, 0.7458636032970026, -0.5975318470606182, 1.371102366977827, 0.664704548895401, -0.1271529555056769, 0.17959444934847357, 1.4917595062348317, -0.08090207670556786, -0.34630641559156866, -0.5256671365634342, 0.09995982022625849, -0.5643629848650163, 1.1235570577692688, -0.4994594671091861, 0.6445195569976165, 0.718717667062257, -0.2576670199781209, 0.698570924306593, 2.220864556905058, -1.2864751927158944, 0.7001939576086692, 1.455169110173034, -0.2421978618379284, -1.144131777033692, -1.2351216669474312, 2.3453773214515814, 0.19012810189654092, 0.6217264695900293, 0.4428942105344735, 0.4763111759874291, -0.44645211770827864, 1.0904908544129555, -1.2879748473206993, 1.185728613753187, -0.6817871373607894, -0.27689738738794206, 0.7964102614585371, -0.15964765419870308, 1.983897566723002, 1.370826958731277, 0.6896571426924226, 0.020913594270239737, 0.36361821169193226, -0.45733602376522886, -1.8025368302890281, -1.9315357489270544, 0.4476456852869732, 0.1360861133295143, 0.6381466428967117, 0.3645814761408228, 0.7267334618752681, 0.6291747975200559, -1.1996978243626115, 0.6799130840613848, -0.7959607838410291, -0.3845486209925185, -0.13828321537613966, 0.36580269477038074, 0.7087270914003622, 1.020743734120428, -1.881798692727396, 1.284413865277709, -0.3260932900820074, -1.227448523502704, 0.34291173021614146, 0.31537380333543014, 1.0458176882598844, -1.5730086981784377, 1.0424863594157927, 0.6152108942802519, -0.18204727627631384, 0.7877439497173003, -0.6558196124477341, -0.7200505070344188, 0.6592027194179195, 1.6028836787661362, 0.8267871940702661, -1.5716067359896975, -0.3629267733517544, 0.9507620270728929, 1.7357813044533037, -0.4141846240668318, -1.4790575315371957, 0.37541933956559276, 1.5478913052144196, -1.3337804042821355, 0.32417146718377154, 1.520844764593879, 0.2840031347420709, 1.0037139779550892, -0.3617136652936219, -0.12274305820671098, -0.06778442298923644, -0.29855679968058285, -0.21044983778727866, 0.49499200734334037, 0.8090741269831901, -1.0467918901360722, 0.006207689931666271, 1.2813113357863277, 0.3904628190286485, 1.177367481692853, -0.7021445635782155, 0.08091193559690173, -0.941129900076606, -0.18844365348909914, 0.9084200852927715, 0.21535554848641877, 0.878874340596719, 0.04283974734925669, -0.605241418091339, -0.18840560579149218, -1.1679238964296987, 1.0793203984971897, 0.4912115911560854, 0.5223120082774803, -0.4074075722530586, 0.1319073868203813, 1.1130903465692394, -0.07435363056874161, 1.8657902303155636, 2.2498508967548765, 1.4478962678309346, 0.2665129699520492, 0.20241079065061318, 0.33262583110822563, 0.4863071381077184, 1.3862237098137578, -0.8363749311750707, 0.544670490107865, 0.6801855547952247, 1.5262007750281565, -1.2792733307217605, -0.6804044788674858, 0.7360115441567283, -1.4345145136081308, 0.21781869078068286, -0.6205834185606774, 1.6606630445993886, 0.5694607191743372, -0.949396243095957, 0.6356871637974346, 0.7918516474917704, -0.40065631592258455, -2.2823381670427287, 2.2574068357238453, 0.21010735736752983, 0.5213981212761309, 0.5286433622081586, -2.694658184513223, -0.48696091106222267, 0.974444294833384, -1.3731845312934883, 0.7799221058156824, 0.40315371258331745, -0.9195573750396419, 0.07362983385438504, -1.534213793789777, -1.2313757563027707, 0.4998339444467366, 1.7063552870457188, -0.2783863848970689, 1.1996338364324426, -0.17059315743479644, -0.5027326427254096, -0.4000094634334961, -0.38611455296150266, 0.95886351401863, -2.2474117723569313, -1.2210916774372287, 0.6242497014895731, -0.5317729036097897, -0.2205606044573359, -1.9983661132269321, -0.5489782232219067, -0.2966048024576131, -0.28274251813332096, 1.2031353538134275, 0.3743563128870005, 0.41697108271683364, 1.3457046985170733, -0.9986366299995542, 0.29054530024577635, -0.26341486299789224, -0.7944003249760986, -0.7794298516710523, 0.5190832674422046, 2.4750866045496016, 0.31693553186084517, 0.8918047966925837, 0.06315487736563527, 1.0309911048738085, -1.8351826641013542, 0.8755036902289011, -0.22546121278846792, 1.2559731023036336, -0.9354230038078998, -0.31321139512445534, -0.8151730025743906, -0.9020233568913864, -1.3349218586247686, 1.5104720456529315, 1.6892064238635076, -2.256873395964239, 1.070927049177235, 2.0398270536169947, 0.17266896179965682, 0.21353918880489595, 0.9084809346196, 0.8035730106153318, 0.5725678757747236, -1.2623309362917767, 1.3079863020875424, -0.6531192093787385, -0.7651103796694624, 0.49755837516658163, -0.4544929501615857, 1.2303524071471943, -1.7157776551945876, 0.13851205643532896, -1.0639508085944942, -0.4166789737761743, -0.3482646862243848, 1.9144292667646856, -1.4915759603030252, -2.6546569833843865, 0.13900204204075875, 1.1165706615440476, -0.2410973973424022, -0.3541971165616627, -2.349408095968363, 0.02060642009245442, 0.015267660943396053, 0.013268017311707027, -0.7007889669571723, -0.17441150342857217, -2.4850591839699208, 0.18053576942451954, -0.17800296234306962, 0.7496231430410428, 0.46079747182029235, 0.46784247852197897, -0.07832202844900017, 2.0544140589640763, -1.0104907195146544, 1.9657329747983125, 0.3739917528811645, 0.7489870509760581, 0.6081095234489206, 0.9889996949150752, 2.031298160683808, -1.9043737502152915, 1.5878645462621117, -0.7021145752696977, 0.09262092896286683, 0.6367270994619608, -1.6956380682945253, 0.4456243344284569, -1.2271127509954098, 0.5504531232138482, 0.7905530366637272, 1.7012698884676578, -0.860271529360636, -0.6294828803023083, -0.9796586732118087, -2.5658169293534074, 0.779900969203559, -0.47253259034783623, 0.5667377459558949, 0.24030475270929558, -0.9362071178096316, -0.1734537097475134, -0.9009732574783486, -0.5045082880808324, -0.2383380440395181, 0.339099760965494, 0.5545497276439243, -0.4621036716474578, 0.8751068065724313, 0.415225352082872, 0.403573746274492, -0.4317981700658396, 0.10894209126840378, 0.71698860157994, -0.3047006488882187, -0.5211551451529691, 1.5710064269312054, 0.2964925153113732, 0.429589150977318, 1.6989699893649588, -0.31501216421672956, -0.6798083945271184, -1.7868066567499867, 0.1596191873723404, 1.7438499034022288, 1.0600115072419567, -1.3385156465808468, 0.3093027646009686, 0.048334001897789844, -1.2903460148720851, 0.6053048650123759, 0.7491626586204779, 0.5774114344332477, -0.23156261419237525, -0.9435153222632701, -0.361693557762244], [0.48454898044605466, -0.3146920998875815, -0.9558937857392168, -1.9848490331988582, 1.0508782604059963, -0.27742587277161684, 1.9308765943578656, -0.868732135672391, 2.094399641559325, 0.9106547436340763, 0.8113330889663636, 0.012822938436402965, -1.36353501838391, -0.5711408264830826, -0.5348557742141943, -2.6176396905250487, 1.9448225404170008, 1.5863711503691462, -0.15823869210779812, 0.8576076043254454, -0.28562592273625076, -0.6482755174775446, -0.37921281791453804, 1.2251535102090467, 1.5020068288461421, -0.35538941910978583, -0.07212681338948665, -0.6001382083581778, -1.788784130590864, -2.0630433728038673, -0.9204822169312072, 0.7473262913205782, -0.0231273713070467, 0.8225819499752237, 0.36517013377031116, -0.03263461115155962, -0.09556433325222728, 0.29614096802855117, 0.4714796451164355, 0.28627277154232383, 0.5521519718038177, 0.009412559710665552, 0.5309282350696951, 0.6733826738475505, -1.356018657464627, 0.2912644642613631, -0.7328664671450174, 0.41690569384780773, -1.2398193171830167, 0.5252626750054824, 1.2628165436152277, 0.7360409344530919, -0.7439486871731399, 0.23798729872711866, -1.6355325491442987, -0.4071288373731012, -0.606928451150439, 0.1305273405273376, 0.6474293495983076, -0.974643479516218, -0.7082655925812436, 0.5825097612372807, 0.044241387349207885, -1.172713664097779, -0.24854416251078987, 0.49867651136241853, -0.042244359477298814, 0.5263940381979949, 1.914513727004827, 2.4470939778592586, 0.813078980091832, 1.7195062114205433, 2.0436289944446338, -0.20399772701518196, -0.3470461117255699, 0.041121679154978254, -0.4540713049363363, -1.3848972881798558, 0.3501829078539415, -0.6153824987399771, 0.8523839774898624, 0.522202045026781, 1.205535948001098, -0.9251576088157896, -0.5149696952941751, -1.8563027893077515, 1.565490698172105, 0.2734988849747563, 0.4774848293021927, -1.7269485373648688, 1.597823927451592, 3.357351390334853, -0.8319976903403224, 0.3448871761716616, 0.03945002086774578, 2.3336077366282453, 0.23658217879663598, 1.3474263012708634, 3.2536659694352283, 0.7194451808296607, 1.4419401372515446, 2.268241416253089, 2.2538560683491546, 2.3182536699505434, 2.922257454981203, 1.0879165588238278, 0.27661413637452104, 0.7931240689869773, 1.1644668523985375, -0.675391288896535, -0.8943746356691209, 0.20956925903875884, 0.012977032234315917, -0.5887225853498633, 2.0368573064196402, -0.25078210762939146, 0.3949052383347499, 2.210383866407109, 1.6390843393193988, 0.6430541057998616, 1.6670888276990787, 0.13638667634558327, 3.3961740608846593, 0.16694724269652575, 0.6400322100203271, 2.656907180769571, 0.6177633378323378, 2.2076413223251476, -0.3082821069117443, -0.6293912878498571, 1.0069920277677054, 1.459828206056621, -0.940322131668799, -0.05267841027693688, -0.41551248755347564, 0.9060782327804681, 0.008524859448400531, -0.3535440896799999, 1.1248448288661106, 1.3315953190057088, -0.5719114249160935, 0.6658647544381825, 0.015851861859628107, -0.2587699409522706, 0.12147774269677819, -0.17863259601223483, 0.9266868065803177, 0.5497970112653039, 0.9455029053258688, 1.0487968023716432, 1.3987100392508365, 0.30520386205160743, -1.4660340636797153, 0.01093538887180361, -2.0830783369064894, 1.1697849998590157, 0.7814200555379873, -1.9146258768101307, -1.318119968875018, -0.6137247321306069, -0.8600525508110289, 1.4211546211725932, -1.6401525284039031, -2.547652981829644, 2.5501981191548833, 0.05279239621485445, -0.9192718643527181, -0.30123121340143855, -0.23881552564160308, 0.24399945781482044, -0.2206462776775783, 1.5937007904512472, 0.26911662914082496, 1.7397786852600186, 1.398712614373395, 0.6285246233105407, 1.7469707411315565, 0.6940148894446616, -0.027895677954912563, 0.42935341366854984, -0.6864580242044227, 0.21844551609044185, 0.7920606860155144, 0.6217222612713909, -0.13708570418309837, -2.165552932077007, 0.7028661926616625, -1.162942266013671, -1.1736035120930346, -0.2883805293884586, -0.732219639053863, -0.9395436683092546, -0.6920999041128016, 0.06658582106811899, 0.4761368232140195, 1.002712053603985, -0.7515316819163773, -1.1421547417368842, 0.42520949404594766, 1.0602982557929717, 2.5780271038188642, 1.0645971146511877, 2.45610325811697, 2.5576886321636363, -2.5323445622901297, 0.15854514971720138, -0.949586351964559, 1.886216599945007, 0.2643969064898242, -0.1456655337969674, 1.5926157457851546, -0.4616608253280369, -0.20658328596960984, -1.8944319720907155, -1.311302721272793, 0.3042880914643054, -0.9249459388650783, 0.14773304866306666, -0.23653284598163837, -3.4408180509532427, -1.9273133425491749, -0.8542596949814596, -0.6025548494699665, -0.7174049912083584, 1.4637470327251314, -0.7637864664964927, -0.3746288081707787, 1.0316496148627352, 1.5322169562196952, -0.1768295587901607, -1.4041056742687499, 0.9110731493116849, -2.0681536520286343, 0.13061137788180893, -0.5095313124045229, -0.6267898412460483, 1.4661926510495862, 0.18261589635117959, 0.9224611485757261, 2.0083233523454767, -1.7985875133598834, 0.89857651773199, 0.16452862753386419, -0.5188640100607611, 0.266077176520201, -0.007534884375517402, 0.0567087761162247, -2.9345247161138652, -0.38591945717710224, -1.6664907976845207, -0.4668085439176513, 0.17785976620884297, -1.2553219761161436, 0.7299244188539984, 2.0912810259116923, 2.574961609158341, 1.0487503055965082, 0.6923554210037854, -2.125602767230017, -0.4256878674177243, -0.013884416052792132, -0.3445028670629769, -1.3359873025691533, -2.6328210446233142, -3.0892051813386727, -2.00815089433833, -0.8110832399114539, 0.9224150673646307, 0.9936958417865533, 0.917285277775954, -1.8457291252384471, -0.6304925461133489, -0.8200463401338598, -0.8666943678806125, -1.2705019561511484, -2.994343415853654, -3.5518403712250204, 0.9729372774441982, -2.3433045198120785, 0.07348689705228074, 0.1648637739715773, 0.500373760762322, -0.45817541609743967, 0.9373560256610214, 0.26024002594194556, -1.137917532290269, -1.4939442296639363, -2.4069467680876393, -3.889302107507323, -3.8317521853245187, -3.407804698283559, -2.1351912599515055, -4.210018632052225, -2.4987700230164425, -0.8927372142218251, 1.6292624201371515, -0.9142872568240243, 0.407627381167473, -1.6235703436468487, 1.8154886692791485, -2.154672779172703, -0.5716359305432673, -1.0206166510302013, -0.3942143419560718, -0.96084372661704, 0.46147603242085294, -0.27135037869026574, -1.6362513416628113, -0.29972909946689463, 2.7122647417674504, 1.1053251156238848, -0.8929814991777504, -1.450234666285089, -1.6120327482472276, -2.898548738906815, -2.7418042463545658, -2.168513853194653, -0.6070997569458029, -3.2703541738447592, -0.8639115275270421, 1.592391125726665, -1.9388561640936313, 0.6075921649987489, 0.19135120831467026, 0.9189982222377746, -1.05884891624605, 0.15352964247581222, -1.8624196812897746, 0.6636988997937572, -0.9974812944482955, 0.28180202308042235, -0.7299998132922529, 0.6801733993957009, 0.4272631053892918, -0.3817649235914994, -1.5220546548596074, -1.1360931723063143, 1.194027243569099, 0.18065437613468857, -2.0843250806879325, -0.666306396420833, -1.9136142967035463, -1.440759848467047, -2.821424506225639, -2.052417654768091, -0.6245605701176794, 0.04319930530039417, -0.5530255414369278, 2.1128985545801626, -1.4909132224977384, 0.5741110689944074, 1.104431545326557, 1.0966485645741157, 0.14263199025202, -0.32979204450527205, 0.8590419460011605, 0.22075396408874276, -1.2394443671401147, 1.1868489466465293, -1.1330225185641631, 0.7311498912531881, -0.3430544794988189, 0.4197298910554772, -0.37171702427604564, 0.8841818149591266, -0.9672428460715978, -0.033839647514474505, 0.29140928379824377, -1.7204093759379082, -1.3875967183291458, -1.179478641401866, 0.42223676416133216, 1.4879123093735076, -1.9316181569362265, 0.7385524633905421, -0.5059967263986938, 0.8488975650997216, 0.9811026581342123, -0.08952387340200357, -0.7222131139786835, 0.3417683757731988, -0.7884234427948702, 0.9438009704708996, -0.4173339645865886, -0.4743467238515651, 0.23330011223658836, -0.5887244876068498, 1.8346130691955294, 1.3720875289905303, 0.3082519879464295, 1.8816896627771087, 1.0180156309863109, 1.445841053293636, 1.5979226669639848, 0.3404296274134815, 2.525449279393061, 0.14447074462627196, -0.17363690417671976, -0.195965238455983, -0.5415149459854816, 1.2013348125509393, 0.16188619295927384, -1.520933636120945, -0.006028423227313445, 0.4819973197016406, -1.186018462025838, 1.280816335636387, 0.241621161444341, 0.23182005510682327, -0.6922770043378068, 0.8451119008246348, 0.0660348921405267, -1.4286100305888108, 0.2970089653713437, 0.016688407832674255, 0.8348055078423284, -0.5956961895558911, 1.015607932604809, 1.1680736038737698, 0.3807032126579357, 0.2418686708001975, 0.47904013844945514, -0.2356134580032283, 0.4282612615950206, 1.7945442097055206, 0.9218440078075388, 0.6226957279907317, 3.7703401716887073, 0.4139123965436445, -0.1963895040212746, -0.21120768208829802, 0.9760325757071379, 0.5603555997349939, 1.2905722902849108, 0.587104867195508, 0.9387053654275463, 1.276059391995856, 1.7296859010208618, -0.6359293361954592, 0.9770539787188917, -0.9470438608447063, 1.6676980132311034, 1.1468445802112943, -0.27979401171564844, 0.4197062692796452, -0.2229374621480186, -0.09728841423860671, -0.7232435755963359, 0.9875013399721054, 1.5500677024457996, 0.06598029893261595, 1.1523657143863606, 2.6665373050163628, -0.3126422967950611, 0.8447553251325552, 0.031898197909993584, -0.3780157122345968, 0.5774710577275813, -0.13905379295728515, 0.0008732038549383818, -0.5443878399837044, 0.8968600971412248, -0.6796898398265447, -0.2132911985818648, -1.5388539398205903, -1.0629002829090497, 0.9095470179471441, -0.7482730810130442, -0.3944467987886292, 0.6966361660680168, 0.4503643282654316, -0.25539763585162956, -0.3253081055118288, 2.1988249537272844, 0.5423916081827634, 1.375346666751846, 0.8923968488016727, 2.167616357995244, 1.7397713041783225, 2.0929592555618175, 1.3276188097558947, 0.9078166573745432, -0.8814096637223982, 0.6762318581217173, -0.4375009878759026, -1.147402029903715, -0.3721834957912293, 0.2822036726906877, -0.33559924818595854, 1.6550652811238882, 2.3265789116218936, 0.39366369958461395, 0.34911606062478157, -0.0026962477362214936, 0.529777086285288, 2.0546451406976027, 2.4590754931319125, 0.6243322205682582, 2.088761145656986, 0.17777074194538398, 0.8933555825044872, 1.73905589925949, -1.5755504155238382, 1.4947794145585218, 0.8927813760575831, -0.6320504549620778, -0.8584481771724852, 1.3551332487581358, -1.1718000696829525, 0.24194544779835736, -0.7710031495407274, -0.46196488712587935, 0.8514597525094689, 0.6367216464040631, 0.723756379884625, -2.45625914173961, 0.8886308855917014, 0.7525394546447659, 1.576438947933171, 0.2992206569924665, 0.37794787167557525, -0.27751688364650784, 1.047849453888676, 2.341536313143145, 1.2965062908140679, 3.171046121437598, -0.6127694034689142, -0.20799169299256806, -0.5360804041429307, 0.5845581189174834, -0.9603644488564265, -0.8984503423101257, -0.3797035060652463, 0.6373845558949472, 0.9694428447064006, 2.459698459291848, 1.5757448731605976, -0.3272059242779723, -0.2899056006843591, 1.20641265704216, 0.1913770542863947, 0.22147948834395262, -0.6908324582246542, -1.1856501547140086, 0.9954588228885796, 1.2669554528278573, -0.8864022457123417, 1.0199727091899011, 0.03530905263018912, 1.6542507659238632, 2.1011832786580507, -0.7894147175452606, 0.9157779735528968, 2.306689460635616, 1.9477584423266905, 1.9421737904001666, 1.0644272964093058, -0.5113921797862482, 0.772631393826676, -0.9017966958185127, 0.5566437704155979, 0.040602459468171204, -0.3241945661005844, 1.1261095554169112, 2.1782502512907578, 0.42812247016824656, 0.5620096858810593, 0.6479995926594939, 0.22809681557820793, 0.0769488520574334, 0.9925472873665917, 0.46812098875271957, 0.8141657200421482, 0.36838734970770887, 0.3820670646532819, 2.068603981171476, 1.3474441544341447, 0.7321819072327947, 1.81857673499084, 1.3208831224676272, 1.0713898151870076, 0.28551120826310394, -0.5803349471639769, -1.583514151923935, 1.0759612175566309, 0.4786626743719856, 0.8970449859344499, 2.800033372434478, -0.846157193876788, -0.22174488514995597, 0.13031694957638415, 0.48881737143634135, 0.8511645439969008, 1.6505357082233059, -0.20656617478912714, 1.6528596774783963, 1.2253141451536682, -1.1778061055472333, 1.4099385836670875, -1.5781641169338265, 0.3401087754797983, -2.3240432609488453, 0.4306408309862863, 1.499787421870682, -0.042016212738697496, -0.3399605707201471, -0.6860897808472389, 1.6675584865182222, -0.29307061006058255, 0.4212676948997881, -2.1395622840402373, -0.640165887816101, -1.346867519918773, 0.7046518211719748, -2.0055751816829517, -2.192076920107126, -0.8648993038205953, -1.26142354017991, -0.017612803961652514, 0.2753673765879083, -1.308742115059421, 0.9990724274928211, -0.15715756735462125, -1.4197344414833188, 0.8946568191498249, 0.10006588043574267, 1.0314847573336718, -1.2510053997943817, -1.651254577492123, -0.41038948285946664, -0.8512486774523508, 0.5032546926565734, 1.3924634451416928, 0.32883441081372533, -1.8008248196782757, -0.5388425259520446, -0.9106770073681817, -1.9282207542169265, -1.595987054517429, 0.3903914197059068, 1.1184783853553582, -0.759706386894166, -0.8671101309994923, -0.009585233412965846, -1.1238261947474073, 0.5592826683241857, -0.7448228374846114, 1.7459204424274455, 2.188149749656165, 1.2867671858227583, 1.2701449517685897, 0.6844742314176384, -0.2788071042546826, 0.10422852047553069, -0.05683044989971411, -0.815580325629436, 0.044819798499100214, -1.3543563331049224, -1.0827980013728964, -1.0415035506910866, -1.788173203830658, -0.5024682188905549, 0.24661621909213546, -0.10401890507872202, -0.7583013661892435, -0.12432736164680001, 0.4199422276683233, -0.1770648740473186, -0.7730909994535458, -1.4444614039108874, -1.8177172247664635, 0.11566631338500095, -0.8124986107648764, 0.5266255720804042, -0.7334502481387873, 0.52369806141098, 2.191267010784506, 0.9579352949046621, 1.7697649045061628, -0.04857250421091035, 0.6685000772821509, 1.285657243597616, 0.6184281703866986, 2.273732677782255, -0.11214596810674556, 0.6980633838130763, 2.4307446143636438, -1.8351432235250902, 0.9906979688446412, 2.1454805160957013, -0.2296272084362647, -2.987956834908693, -2.2041587993076313, -0.41439946233405567, 0.607996777865622, 0.833985391407794, -1.1422973456624883, -0.5455944879927167, -1.6513230531957326, 1.9067434495508182, -1.0179444196518503, 0.5343017564099445, 0.12215820917594614, -0.9357561959805756, 0.9095052529928767, 0.3043007417589363, 1.6183727697536172, 0.1494139142893851, -0.25656248682456056, -0.3468588935278661, 1.3484045294029472, -0.9735648250883204, 1.0016299191552924, 1.524450080123156, 0.904762176530637, -1.5520990098280238, -0.19180531879968016, -1.5183235962738777, -0.3489626976478963, -0.5585904087199942, -1.3726575390452966, -0.2270278972888694, 0.0924495831331606, -0.3820986355564958, -2.3089464128230013, 0.7563862285784233, 0.20384613077850922, -1.6922302485835623, 0.8459871399996236, -1.5858277405892618, 0.6462462276585271, 0.3393173857049507, 2.4683165792929445, -0.6058621788315904, -1.6140604756418913, -1.5423020876368023, 0.3465984512252272, 0.48448131765158187, 1.105888952140228, 0.12929649234352186, -1.0893434129708144, 0.017250025487400265, -2.00750509644706, 1.0630049086215316, -0.5860373081985312, -1.047399650893157, 0.2083693053770213, -0.5381807832629923, -0.8271928869682754, 0.00431301448599744, -0.5610532087637919, 0.20593145069775765, -0.5103791501954604, -1.3477862012656048, -0.6296932504366427, 1.6391856773920213, -0.833059583130078, 1.1789486163551508, 1.1614491013907458, -1.225059600398623, -0.3170991199593944, 0.8582041954902211, -0.29789151238515604, 1.8536452485027541, 0.2877559911110527, -0.8652419108804926, -0.6107511669047984, -0.4868601593666511, 0.728459922861024, 0.9813379530398323, 0.10431040806099885, 1.6514203076473268, -1.3407001995919277, 0.2609061655387213, -2.0624173294386763, -1.3021437459938074, 1.1292626398754233, 0.855306278527087, -2.065299693598516, -0.23466679731658935, 1.346137790798684, 1.8304605929688398, 0.6274155899093776, -0.28100210254816077], [-0.11789929642200095, 1.4267152451133114, -0.25401225452301146, -0.8707442764827179, -0.7153757278631541, -0.6243946340035571, -1.1754080079727551, 0.30199860768340425, 0.6839130027483168, -1.4255597811804754, 1.084170524371113, 1.0978669996593975, -0.5656443662562701, -0.19813624438064778, 0.8418695783259692, 1.0526979101704124, 0.696928081871544, 0.9157952647892826, -2.535480067096422, -1.606489589429365, -0.6527942908432571, -1.2432543657150608, -0.4250398777530743, 0.6340915196117488, 0.7060630890901393, 0.14777612781761798, -1.6382422818826687, -0.5077942669839453, -0.7204063812608827, 1.502284239854888, 0.7243321003546566, 0.34823153549242014, -0.7359678388025102, 0.2773836643608883, 0.9219245619211206, 1.6107320833823258, -1.3052757021787862, -0.149315261768229, -0.3099125826665123, 1.2452177041983472, -0.884293223600787, -1.7076090027800126, -0.03518104319959447, 0.21692284046559251, -0.2883501683793875, -0.9818741097074448, -0.40200214808322116, 0.7338190879977636, -1.1614719634163948, -0.6927551899458624, -1.1820309024423639, 1.0760621053402672, 0.8234255482156275, -0.8576707348096161, 1.3644342947896175, 0.313511854659626, 0.2944442547305518, 2.0516090370810294, 1.4420554767386708, -1.1729812570818747, -0.4372679311116716, 0.7774966736357033, 0.9941495399487698, 0.17478481821492042, 0.8451690082036099, -0.3965616898292754, 0.531401535592682, 0.013609377477650883, -0.11437130381183332, -0.385985299803182, 0.9965123552239954, -0.8195059454423191, -0.7100605646237603, -0.7882567495895704, -0.39427420212201086, -0.46215404449638675, 1.6523247794133282, -1.9288946991742395, 0.5632648467451206, -0.5545659662511113, 0.47632693684862565, 0.6739611557247321, 0.8715436872025036, 1.6893821154052087, -0.4234423315801518, -0.06411280599725089, 0.887269775847806, -2.7182358467593155, 1.6923465606763897, 0.9143616946965768, -0.3450543647169989, 0.90901227994398, -0.2762679581027503, 1.1822692834493724, -0.2931043782140621, 1.1190215673690103, -0.3188471984157293, -0.11366635400945009, -0.7088013011226981, 0.27233701618519296, -0.2750695958789762, -0.47990453240574515, 0.6494461250478977, -0.9574243682036302, 0.21856468387449193, 0.4214978843659775, 0.2732827094964507, -0.07523659507093394, -0.5110986014965287, 0.5165672706646276, 0.719499985841095, -1.4637322358878588, 0.1403900368428813, 0.5417016355448112, -0.9702560830777895, 0.15497616179056, 0.29571961345361525, -0.2665220559708321, -1.2275412800195742, -0.7156899664220739, -2.0544493875459193, 0.33665311702458267, -1.7748699551258365, -0.7011870381109676, -0.7445170617855533, 0.5812315200189226, -0.8110403483716806, 1.4539960160827752, 0.07681137158336335, -1.0297176822534024, -1.9199199982911828, -0.6629771972433993, -2.124006384621461, 0.3688156455168304, -0.08084607722614248, -1.0421236734189907, 1.0620327815364567, 0.06642109019182821, -0.06208283038274018, -0.41653930910499254, -0.5633578262826942, -0.2341849967058078, 0.1141964693653015, -0.8213325859335241, 0.23328323351678115, 0.7879400647066147, -0.4743945798500587, -2.156189762222427, 0.4933688818725661, -0.5103557263663594, 1.0896327008528688, -1.002800661011152, -2.1329404746084917, -2.4672804734525227, -4.26329925191065, -1.9498585242991633, -1.1644118383263216, -2.323719620959369, -1.618883300328013, -1.7952681909207164, -1.644988366119835, -0.6205847551926734, -1.1671237157502374, 1.0173402608327555, -1.019852967436916, -2.021364529927823, 1.6812824665024462, -0.29845633571868146, -0.1902196876628801, 1.213387861833906, 0.4438026092092176, 0.41450715186892867, 0.46176149082900086, -0.235890666233915, -0.7614876486074776, 0.672200686952078, -0.38138358389890414, -0.5794986716027357, 2.297841262449234, -0.002136915060051264, -0.06311398737336067, 1.1442544749365589, 2.211755178924112, -0.3219430769452236, 0.8078299662347351, 0.9012691245533108, 0.6048557454277117, 2.112714764268939, -0.7349814902174937, -0.4256330512164066, 0.5023438327135061, -1.897890417271614, 1.2932033335207471, -0.3083872343705048, -0.8113745016656264, 0.765384020794577, 0.6814488125151246, -0.872265403155492, 1.7188805750329272, -1.3414144845652938, 0.24217784327321873, 0.1357820076788138, -0.22055897989094408, -0.8461883449018394, -0.3449029507585027, 0.95201075123934, -0.0315912209790402, 0.3190877892055153, 4.234913294315239, 2.4934517205764246, 2.4712154096531593, 2.1698111809954885, 2.4133619548214047, 0.90958921343435, 2.115681892233462, 1.533910343609075, 3.146695508621462, 1.7210830652314135, -0.877925160610433, -0.956429444997239, -0.8244351806111225, 1.326755319308534, 0.7860019498779508, 1.5834028208242887, 1.3507963120899538, 0.6214552716324753, -1.1464770071213575, -1.7191883737909448, 0.16908472157807825, 0.2089128083345046, -1.258102356540064, 1.591563077964878, 0.9849046078040252, 0.11390899921274113, 0.19042745458382185, 1.0301056475954968, 1.8648463851021677, 2.309598146214043, 1.327456408228222, -0.4173896683126524, 1.6196866620601147, 1.7737792779127932, 1.30618844200501, 3.2180613792700608, 0.20313097628075874, 0.6040780519119564, -0.02155111350094452, 0.6992693006685391, -0.032272156406983804, 0.010616437177036836, -0.35377346792091846, -0.19926471019369524, 0.6486788744306907, -1.8193684504246312, 1.1664214373123558, 0.023021831074970394, -1.2653641372456264, -1.0606124264575727, 1.4231171224733121, 0.41621723898188506, -0.15750309604233523, 0.5763130613119267, 0.36575574669465666, 1.0709750619503937, 1.1511423572781294, 2.1158813621712813, 2.4129984447330806, 3.489770170626967, 1.967016265011917, 0.3731126711678882, 2.5974722987952195, -1.1077331108642055, -0.39568780613119325, 0.40539888201728436, -0.040975815130981356, -1.9260403241875839, 0.4572749012691183, -0.9032094738599493, -2.8597521187301047, -1.204995228706133, 1.0100499282113269, -1.5871447796160216, -1.3203906860039307, -0.953705366137333, -0.533325916652691, 0.637468795936157, -0.49454091652213916, 1.4777368663746928, 1.0076012027865053, 0.7383342076597094, -1.109250015339998, 0.7903963668576072, -0.6282819476505017, 2.3580521698221286, 1.8022855013749195, -0.06772038614453169, 0.9479017537397505, -0.7681997999075693, -1.2797831470596495, -1.2820065068147246, 0.2566353056011576, -0.8034219429049618, -0.20443543616613719, -0.06980452241165407, -0.33596466235902656, -0.2365770638579495, -0.4861322529961791, -0.3936623647490553, -1.310527536189334, -0.3847519477796455, -1.2840439278169313, -0.2539408014591749, -0.5950719186452511, 1.425452964765797, -0.4755767210799325, -0.8871804368545106, 0.38932506484707224, -0.5923109201911371, -0.4609489890029155, -0.25105959774226483, -0.4509980362350245, 0.7088910593259155, 1.2539787360281414, -1.1099169116679775, -0.5134005961470675, 0.11655821819131489, 1.8463824995414944, -0.4314600145315336, 0.7116518380015429, 0.5770744968961341, -2.3872212098275005, -0.2145256039657331, 0.5103942470736412, -0.8341904827899037, -0.9352730944342195, -0.36116046833770543, -0.0031088856069155383, -0.2322998144733923, 0.24503824996565815, -0.3837438928962293, -0.1313810391157589, -0.3750523434119801, 0.24863476673949933, -0.5372537551092491, -0.13200957999425075, 1.0529939431693143, -0.9419330072519215, -0.6657252011989957, -3.2651155899348328, -2.2034086579239487, -1.1937729769969592, 0.41007365135093, -0.09965450592407346, 1.0948926081311796, 0.633934680687717, 0.15209980820955551, 0.21438659367848564, 0.2772546111095312, -1.839904369454994, 0.2215402733140094, -0.19151774083184153, -0.8703380125680709, 1.4968199110261864, 1.9701488365980946, 0.12968748389948695, 0.6183208741570136, 0.8310983936600663, 0.3160252290381788, 1.6830788507303827, 0.5682084879894013, -0.049296239916020855, 0.9546607990338709, 1.5488755111996177, -0.4677881613678442, -0.04832588615811471, 0.6769026408543205, -2.94635207940677, 1.0610664596545851, 1.0944555832073546, -1.2308016437696687, 0.6904623937495296, -0.023160947529831524, 1.0108629647086893, -2.2199799796876802, 0.08199109653413272, -1.2686827673541667, -0.9995085356324623, -2.751257882972446, -1.0342283687852447, 1.3051788831847588, -0.6886662976887289, 0.20381691871665492, 1.184339586724136, -1.207024685822449, 0.8624611838452764, 1.0508006444397104, -0.8823712697857728, -1.2640935873823003, -0.9215339778297063, -1.652202893079101, -1.8813005662320823, -0.32906037111742376, -2.141065663607224, -0.6711815120920663, -0.3849494517262706, -1.1051530707369903, -0.006696336887123517, 1.185607703979844, -0.1366461931645929, -0.06092006866210926, 0.41083655252976325, 0.2666500917048705, 0.33145912972472413, -0.0016763148768084103, -0.97463394358137, -1.1812020981707314, -1.7948007368151677, -1.004228986467092, 0.4731284237997654, -1.0354815275239075, -1.5571559644750943, -0.24327842805415958, -1.171555757135084, 0.21503032032393107, 0.5717128566658329, -0.08109436921814041, 0.45889113722586194, 0.6977672541108932, -0.44891489183654887, -1.6316086610963465, -1.6194207690029578, 0.7000607219097144, -0.683208143291539, -1.2682260600934758, -2.0660177449272354, 0.4422642369079302, 0.6970922459113331, 0.9736371185752067, 0.9545295358248413, -0.12259709386016675, -0.31118239256792674, 0.34881845088159447, -0.8259195658142655, -1.8417357843763098, -1.3725916135354053, -0.14799702759261765, -0.15574740212332794, 0.4703475447078106, 0.121775966745326, 0.6290046254840848, 0.7048162881844293, -0.23277302189915902, -0.059208133975756014, 0.8562003519541839, 0.18878654911874698, -1.2955127790476566, -0.27195608216368344, -1.8339913082461585, 0.367049980778119, 0.4478078034593339, -0.20831853688791752, -0.4704616559680634, -1.05674789615849, -2.715631163892557, -0.8543121869316846, -0.4043061186641567, 0.6503216443855456, -0.9888914992046124, -0.599917351351239, -1.8221448536262914, -0.03746491541233146, -2.0910268407662267, 0.5387188249274829, -0.3056881915261256, -0.39297757651431614, 0.3382906077102171, -0.19536937261862855, 0.3816639599244317, -0.11389149372495463, -0.757105115707692, 0.6446550263860473, 0.43065310203885376, -2.096649853207253, 0.5841252102778746, 1.1874809782310383, 2.070730732407225, -0.8849872022354559, -0.49402718389998324, -0.4276950460841127, 0.02902941258825138, -2.7441398826796637, -0.8916720283314743, 0.31069807601042526, -1.0304470322260963, 0.9168596718803274, 0.34106913901416513, -0.5603007193617858, -2.120185015163128, -0.2991241783776244, -2.9944455057188164, -2.3047053679012426, -0.4570960411375658, 0.41320791874692653, -1.5007339831586177, -0.09039222150949291, 0.6526165207820178, -0.16778061069668782, -1.7734761771307495, -1.3653935297007895, -1.1300572759906913, -1.0201039174046118, -0.33066941947091794, -0.1679437795498715, 0.07421877682386169, -1.9796915345860586, -0.1838935813206588, -0.2002421797004217, -0.6666652438269817, 1.1192152571708267, 0.5030901253850131, -0.38669860356590496, -0.3498427084251374, -1.1583524294305816, 1.3879641770963336, -1.637129922918818, -1.0560747985078938, -0.07954510097050156, -1.6529090713779138, -0.20804334857305753, -0.48764677236773246, -0.9313514551325004, -0.013870043106454321, -0.7797956085599139, -0.4284161489763092, -0.09317999581690734, -0.42989697328583987, -1.1505728896289666, -0.4944373485723207, -0.8360240297468807, -2.7828753499024756, -1.5362073251082624, -1.4752665581928535, -0.566715279636563, -0.4629028158180288, 0.6538842050080995, 0.5542412399705214, -1.8275158726027825, -1.129761192770845, 0.42635129296987656, 0.7559640002411502, -0.3594639985793488, 0.5885982887796176, -0.558336250217294, -0.7720159645081303, -0.4538435625021782, -2.3724248427106103, -0.20855911974675012, -1.474548634958458, -0.3886588597099804, 1.2427825512646722, 1.0117215637184591, -1.4598886411339294, -1.232376734126884, 0.9264591819908485, -1.73098723605215, 0.33027759708208887, -2.1240739401536572, -3.494161971632363, -1.0196076546068138, -2.491926276103082, -2.560776913113325, -1.116675694586503, -3.520644682967145, -1.588000233290161, 1.0624227340663088, -0.02305950948888115, -0.9845141914026331, -0.7927721975570063, -0.8527962254732517, -0.4221229940241546, -0.33269198859566934, -1.1000176711397858, 0.06604450328767232, 0.055468841074914545, 0.3718900570167687, 1.3823968461249585, 0.5737324981336243, -0.6314378948773972, 0.5268649512461315, 0.7333801975390246, 1.3020084327400867, 0.0011442549288200902, 1.2344401114525243, -2.1688520721799507, -2.4748655112547815, -3.3088265693695234, -2.3091298277932006, -0.4134072918673232, -2.8323612148365274, -2.3542636892275595, -1.0334586912635404, -0.6988877542444681, -3.26629238477175, 0.01971837089229646, -1.6816435220508348, -3.51977007685156, -2.3735570244879503, 0.5396805234111026, -0.6648224484900649, -0.3374539103481698, -0.10828081372400307, -0.8276044597334723, 0.5939124820820266, -0.3150063362364014, 0.9364821015475304, -0.4338982471433875, -0.17081539169097942, 2.201116862200515, 0.6496626135764115, -0.751115947677372, -1.201446984544629, -1.4569158100387447, -1.6500050056578148, -1.2511971606358925, -0.08735697678356312, -0.20620048591888018, -0.27219002252557073, -1.6358331642962252, -0.1946989609149777, -1.709058110796908, -0.8135316741776832, -1.1115057945292683, -0.026842153640976845, -2.1877552942258713, 0.029312918794452008, -0.04605720407761829, 1.3263177996159954, 0.4800202415504034, 1.6188125005323353, -0.4713983323021165, -2.198243344662601, 0.12398297963814306, 1.8994080424182431, 0.9217628723129659, -0.9703891360262609, 0.4719151544152742, 1.2251062755092992, 0.33070285052236487, 0.16118029077137733, 0.8847066814627739, 1.8081124321557631, 0.6911439702486821, 1.0815819336595567, -0.7190603139662212, 1.1500585167247637, 1.0749328210280156, -0.6823188793787744, -0.4155731247733125, -2.352204069460117, 0.2751453334294852, -0.5501430196909161, -1.1823942641952814, -0.6356972451552506, -1.8591245339604763, -1.5364133248275522, -0.8441829722067131, 0.9529011449048087, 0.5578517897740125, -0.19590312698506668, 0.7739368440173086, -0.1752355672642465, -0.9423291694730919, -0.7782186901060442, -1.0197932819873772, -0.3180569365420712, 0.22232748747890607, 0.450354996646103, 2.4545285934367294, 3.8653359356624786, 0.92764465258229, 0.7191137800670425, 1.1610513603301793, 0.004891518075973338, 0.8702697093881895, 0.559039316036403, 1.4538204612167898, -1.16069366647572, -1.637180060503998, -0.45776567729047607, -0.3240603063835767, 1.4133131292204368, -1.1094028776472389, 0.07974574311514514, 0.033301352442254135, -0.4033770705842935, 0.5043004423776399, 0.5661220636015886, -0.9703118464844773, 0.42898603375924094, -0.048889444917332846, -0.13625674391880024, -1.5832438632749153, -0.4446774384607989, 0.48307442662298655, 1.7215510787546602, 0.4728818522395194, 0.9888448039099106, 2.4210859375434888, 4.397900981994993, 1.270253581993127, 2.310463672154136, 2.1764011102296026, 0.8175875736205205, 2.3070489630885933, 2.1858760360269893, 2.154143772177731, 1.5129415777984896, 3.3164996205423347, 2.5438967333182902, 3.328116083799854, 2.1231254442351863, 0.31201013627498964, 1.3816577161308383, -0.3873894454912343, -0.03329912223752833, 0.7252900177099584, 1.2832910276515883, 0.2504874533542883, -0.520780730007045, 1.333129469064976, 0.18460301656757883, -1.065653215707789, -0.12637348172017035, -0.3036969535737568, -1.2018146472743079, 1.525370183617627, 0.2958268548602731, 2.094081481767955, 2.066317854939129, 1.1488992596992909, 1.300077980213126, 2.73318136085191, 1.9075185147222018, 4.191867208312724, -0.17647281944566887, 1.5482952829731433, 1.878626090206826, 1.0069818998849474, 0.6332252363587594, 1.7034225469485746, 0.6813555970641386, -1.9927103048982675, -0.49202824408765844, -0.3675398417595355, -1.422976139078987, -0.08727177473660586, 0.6587184004571571, -0.6415030528544672, -0.12158543131485856, 0.8453424949311891, 0.09928920245047146, 1.711401600115146, -0.2944101347162131, -0.18168694893166504, 0.8523995374584761, -0.5933811241341342, 0.8324194829605595, 0.5504611183522835, -0.11928168265128483, -1.1210803459706997, 1.5895681725507667, 0.6319510554709553, -0.902189293072882, 0.45492137877298516, -1.0258518009593267, 0.7951794568046637, 1.6661100977488834, 0.9156200095809861, -0.3892001026062531, 0.14991332917680078, 0.3536740302595227, -0.17388967599794133, 0.272218220596654, -0.4812227490546841], [-0.13377268036382345, -0.5214573658163603, -1.1354161012675874, -0.8382486626731455, 0.41317458013442554, -0.005393028834769516, 0.7397426353846608, -0.16381221127911663, -1.2407975638161295, 0.24170809247309932, 0.706224021001416, -1.470033105150166, -0.47206517438725165, -0.3536487940350698, -0.01569752967640821, 0.6098210284994593, -0.022623603204396305, -1.2105854490858916, -1.1255285672474056, -0.2112599519087694, 1.2950192530495248, -1.3131834116976098, 0.5870870260370505, 0.5208828384600335, 0.6328908582385427, 0.17364894830519942, 0.07551200512138118, 0.04848955510369027, -0.5367217550403445, 0.10308130364012275, 0.9522427787857319, -0.8375477816253255, 0.8790104054931931, -0.6918523624384708, 0.07189924183636229, -0.2777116402012176, -0.24267603628456227, -0.7653648110859828, 0.4113368616884618, -0.7580438260240869, 0.15275357409277435, -0.5730217450065376, -0.4621355769282399, 0.5783330417677105, 0.9035463406594749, -2.1031344255384505, 1.2580777110631092, 0.21624008871995248, -1.8945108365646335, 0.1045108825911298, -2.3007694297507277, -0.8212093331366437, -0.3548196748737304, 1.5803642265978457, -0.16119647010511462, -1.3253858826477642, -0.554118201528777, -2.1170417785645803, -0.5843338164742435, 1.1477288243168737, -0.909688116109563, -0.9757914473692979, 0.043990271882060554, -1.25842631545533, 0.5789103142650623, -2.0939442654247817, -0.42227005217002106, -1.73831837853739, -0.12080896407488662, -1.4752951137705994, -2.289793959204521, -0.09077836969157506, -0.7697609968660747, 0.0711952019371277, -1.928070530941364, -0.9294558121351238, -1.02122283058893, -0.5441200048635362, -0.35293379565822286, 1.1101814270102255, -2.227887928414041, 1.512647459833687, -0.051319385941340896, -0.23290846706337304, 0.7680249804915574, 1.0237701601227103, -3.0878539528996813, 1.9728956435362628, -0.9058894207034016, 0.48391999783848466, -0.9100825484736177, -1.7291719458106072, -0.9246396697063523, -1.6410397652302497, 0.28300104373608626, -0.42906341230262657, -0.6918997462434017, -1.4226211513295963, -1.66376372669216, -1.4133136412159266, -1.1360431284811545, 1.5042331689832047, -0.0035342297530230183, -1.114636664142794, -0.4218511580023213, -1.8772582891847154, 0.22227350403689725, 0.20322854186747752, -0.352398418211581, -0.04523091873152013, 0.3205789615294448, -0.3577648308589971, 0.5962237296720369, -1.4751983233171575, 0.1955625686828845, -0.12450355329975947, 0.41215987748817046, -1.4435316935520173, -0.9348652846512213, -1.1768288991772713, -1.4666870029388506, -1.1414412755061034, -1.8913460463007816, 0.9168428333185009, -1.5219329420142291, -0.7198662934698135, -0.4976854297272736, -0.814292021288436, -1.0544722754762184, -1.6766868138586892, -2.206198773983873, 0.06692439604255544, 0.4188637037631366, -1.1698800159781417, 0.7553818314903901, -1.0297982339453555, 0.6043490733826825, 0.9376695206623327, -0.31923763304312514, 1.4216301085379115, -0.14998643473461104, 2.0364477793599045, 0.2418302705235652, 1.572275972686023, 0.9284140483431316, -0.3037544681674386, -0.5022869718343793, -2.217541181632522, -0.43228643745670986, -1.6109566307169267, -1.1607609859853283, -0.3639981856556908, 0.020790288318437412, -1.2561995514458728, -0.28623655047829805, -1.0147252589972302, -1.0828186428656805, -1.817413335118399, -2.6910802903995803, -1.777089811750852, -0.7025620176604, 0.24977241131443667, 0.3008576528187187, -0.6770660251075182, -1.7854632714214833, -0.8076295184548894, 0.842853446576242, 0.11129469832912255, -0.06742326899731907, 1.1997474657207654, 2.048244595595059, -0.8659511196965347, -2.1729584951621437, -0.4278962791518322, 0.12738287139207144, -0.34008168216490153, 0.09136610722732703, -0.2233456661570552, -0.7546460705460055, -2.853366717662649, 0.36030161957920853, -0.7558713274089507, -0.4395023445345837, 1.7020470560175238, -0.829945524588241, 2.891387433625296, 0.8968268501457902, 1.3244293115524537, 0.15877742083327798, -2.47593456278164, -0.15000591483796638, -1.1727943269674548, -1.4595180940383752, -1.0435519596340601, 0.994481024526781, 1.3048293070673989, -0.02238527373062466, -1.446369902260014, 1.0428990484282132, 0.2813629797127886, -0.10525368372704218, -0.41854298560752357, -0.7259712363868278, -0.9335338141062088, -0.23783814173823464, 0.6899615124853539, 1.7113716610264458, -0.6119175626831328, 1.4294850020559913, 1.4814592135546862, 0.9588102222488494, 1.9202111838809877, 1.3424101318974933, 2.005263641688093, 1.9517193634528653, 0.574249907341321, 2.0784426837037846, 0.3925061370336165, 0.316404425894178, 3.5351998622202525, 0.5556313358210593, -1.1503749628420932, 0.48859162381609417, -0.6467197589095771, -1.6298053202941338, 1.7097579838862818, -0.11229060605043881, 1.7555650914934644, -0.10596534551109789, 1.6535328779872025, -0.41313517043894243, 1.2258689716906594, 0.3544935653237652, -1.603109942099236, -0.08965776914876218, -0.4271837249810907, 0.05869225774119516, -0.6953228479750692, 1.2107433102352154, -0.5299829181005239, 1.6650312378104757, 0.8230772673070645, 1.6446064376390188, 2.5073707022885214, 0.7873571881033918, 1.1706957080296754, 1.6275954751144721, 2.2812568131472815, 0.5159522397782582, 0.6384608250263576, 1.3036372052255367, 0.0858257775378741, 1.2933926308709167, 0.2112306781968375, 1.822329387047748, 1.113305506229984, 0.6313944209794047, -0.2538523256344791, 0.48403534635927403, -1.0095807675845094, 0.45496806022623854, 2.629504587664428, 0.6996340101203979, -0.8516832580949715, 1.3606153947721302, 0.7906821254446856, 0.25888292803961, 0.2071109649804936, 1.7005005280616285, 2.0464657950317675, 1.3878764947510938, -0.9382145562930054, 0.9707680362373229, 2.5263659531287526, -0.8150311454155847, 0.6412036656459044, -0.2725571452297187, 0.12776322393275247, -0.6972594407832574, -0.23919891780758445, -0.035192479475848484, -0.029597980931226703, -1.1229106691645279, 0.3228638792563443, 0.21498758471334323, -0.06078570472307401, -0.1142446090032773, -0.12392893301844307, -1.1756137872483001, 2.2133533037869304, -0.5934834238920387, 2.329515524174244, -0.738880656908385, -0.38900657732027283, -0.35032173303287917, 0.8616499294538768, 0.9079275277766887, 0.21569051390628302, 1.2007126448667707, 1.7256320220390358, 1.0037555354304746, -0.5986350737492496, 0.826671121290078, 0.19456475682878746, 0.5060962275022566, 2.0510945272383228, 0.8392239893981072, 0.01101942136230551, 0.5384285140183915, -1.0585437219581253, 0.46078829734953114, -0.31104363652442574, 1.89944714979278, 0.19028914405762865, -0.5864972297004023, 0.4186931210681534, -1.6938857238139955, -0.10932406933184445, 2.1777357029655824, 0.4047192074377661, -0.26829944851265825, -0.23317420189586494, -0.3808707018231809, 2.5557260118988423, 1.068860759197122, 0.5158936861933453, 0.6663642836031898, 0.332091015449439, -0.6358855110794293, -0.03824725564717759, -1.1575446361184227, 1.5082943350096836, -0.11075029061950546, -0.7399906781892392, -1.3262301320028103, 0.7647492337408675, 0.17189732882072692, -1.6262085199358252, 0.393093055517359, -0.7196942815194727, -1.2296482542132978, -0.9060550333234482, 0.6018801217073849, 1.4184598324815132, 1.4417089599900543, 1.9083741635681508, 0.33522443952878134, 0.8911907083018977, 0.0895258308848259, -0.9513813479466843, -0.17535341944858282, -1.2260047933561091, 0.14453617723645665, -0.20731962917622015, 0.10342128097264387, 0.5277257414619573, -0.5336727625834911, 1.877147883034333, 1.325394131224304, -1.5095354174057192, -0.2625135673506533, -0.2315792549182748, 2.305079889706863, -0.05769013896550353, 0.1794794405715588, 0.4782960400881593, -1.7284706838559845, -1.1736036958852158, 0.3219337082865409, 0.029404340937040068, -0.8410375001843255, 1.9979521614586502, 0.376260699275997, -0.14738532576035437, 0.2881581446963964, 0.09299578090254347, 0.2758556395420447, -0.8658736031367533, -0.5538841630983515, 0.49850264603904554, -0.7306881636443144, 0.3724945864952564, -0.8635363126823135, 0.6948229147752636, 1.8128386602130684, -1.3568468310298762, 0.5362920225232961, -1.216735213685758, -0.15737437375071292, 0.41174642747654056, 1.1149042667470301, 0.7928358143411468, -0.2106496718865311, -0.39497996224368115, -0.8266588182851596, 0.6492154961018779, 0.4280394235768716, 2.5671292627555156, 0.6418947711567274, 1.8250804190336833, 2.7387631428245474, 0.847177433524961, 0.6991443091513807, 1.8710482712212961, 0.9043198217055648, -0.5492330875290479, -1.9623154916642387, -1.6712143299159168, 1.2564168128584452, 0.8449109921448319, 0.7806538527371009, -0.501905227704769, 0.1272848844957036, 1.0855128128621003, -0.5821999952571371, -0.36457045969328544, -0.3446013795659037, -0.3840726658305785, -1.8766838107803527, 0.6997720315440031, 0.8459764971812724, 1.4885609546470544, 0.29197718011538015, 1.3636021492725658, 1.0891894059648062, 0.5268129436229914, 1.7518187109165708, 2.196182791381666, 2.100433423062978, 1.7951149734497305, 2.455243183009753, 0.5696898128426677, -1.282802258416082, -1.922961177927365, -3.103934760081506, -2.2090526277617633, 1.0467930592131662, 1.7909709145831143, -0.5576256120868476, -0.4801327535300639, -0.15712945232966827, 1.1140196127847457, 0.2672314031198863, 0.017013967404104907, 0.10998028990655737, -2.06112533762778, -0.09355015248939569, 0.6820056743566877, 0.7480897209478898, -0.15501233638798043, 0.505872764651417, -0.6602737808101238, -0.47804719648013005, 0.9657582614938081, -0.3796115597555285, -0.2973941063950661, 2.2512502091229156, 0.2231489055555719, 0.6998445952155792, 0.16648922745714045, 1.7152290893637714, -0.8830233216624029, -1.8244026517586887, 0.001058546820171862, -0.7357472264614681, 1.991469448506057, 0.1286282765573929, -1.6385322162835494, -0.6445348179625865, -1.1171254653614, -2.4656285401981637, 1.4636803809405718, 0.24035057874698665, -1.973585980236626, -0.7990028908442665, 0.8179163570426056, 0.13676924914462066, 0.9361887725026875, 1.6196432019770945, -1.5007323796427636, -1.070346053813814, -0.45229631266412995, 0.29068213118383207, 1.2603426041900623, 0.11495130906470094, -0.7014078151718294, 0.17633522629239057, 1.6670514847465552, -0.4292651065349969, 1.3888339901082336, 0.08133688665998869, -0.26462766141504623, 0.5895060827900581, 0.5907165729506512, -0.03670343622496134, -2.3676600978815685, -0.5883236563583774, -0.9493274055397922, -0.6087715789559381, -0.8282192234337068, 2.480037836501041, 0.8991470651945137, 1.0055986803818509, 0.7998542628114211, -0.451266769201885, 0.49307094277283897, 1.2120531493023052, 0.5562385597215876, -1.4974852267570404, 0.3857804770934479, -1.198147765540151, -0.1306066835382049, 1.4530589668340406, 0.3885228993793726, -0.9433873383165164, -0.18351489502187773, -0.3857469504400788, -0.33540055945541913, -0.419591994604416, -0.3398272362048571, -1.8230764999494813, -1.2633591477696857, 0.7700217877934846, -1.1599911200848736, 0.6560937712150631, 0.15978336001409715, 0.5851740665748287, -3.5970443749559156, -0.5198208708149935, -0.4542491450642878, -0.688600005381513, 0.8708821215032962, -0.8412381739437812, -0.5328864367341455, -0.6060009668554528, -0.6393551115561574, -1.0100748260395958, -1.7434778067630214, 0.005576322023308908, -3.0059047425272385, -0.19096955166225124, -3.251274263700722, -1.7015940502680258, -2.019548463171995, 0.14000027965463713, -1.9595132982299472, 0.6510369495613306, -2.0316728727223574, -0.7242559473257459, -1.1254792306065813, -1.0397117553987805, 0.12585611766252472, 0.34306330467251916, -1.6760959122236256, -1.4659034147477068, -1.2925291738745792, -0.5801784819214492, -1.334940898511183, 1.3220283679271676, 0.8332307440657104, -0.12344689410814248, 0.2020522161231427, -0.6631121762364733, -0.7386206469439106, -2.4046632461491035, -1.1213463648519362, -0.7160379863897856, -1.8927316104441692, -1.8505764580141038, -2.0095729671935505, -1.5698243427551852, -2.3501532595177776, -1.7964885580442755, 0.32145504436580513, -0.4656162960205629, 0.4875159285807046, -2.317398996599262, 0.7656888329443251, -1.1537753887359412, -0.2580759517839247, -0.4876462790367985, 1.335602411840116, -2.214662292116762, -0.6458536079653361, -1.248452573180776, -0.8209459271270587, 0.787924557581436, -0.4041698106750644, -0.18974363303859249, 0.6785652955103855, -2.5594880511284304, -1.4624760173948148, -1.318037052011563, -1.8361112559781796, -0.04988840532652556, 0.5874598930021888, -2.649052573973053, -1.5527334397222285, -2.859452982884468, -0.9759178348175996, -0.3649049084105438, -2.0362318685968277, -1.2849716389592236, 0.8566326265445353, -0.07926929212346384, -1.402558854247744, -2.9780151918877396, -0.7949353139126594, 0.5188216201167057, -1.4900470123105938, -0.0715704685294043, -1.2108086968730982, 0.8170094457666072, 0.6271991113181057, -1.326962288912048, -0.5193041193388216, -0.2545618806774021, -0.38824210583406, -1.0335392424883088, -0.9879529235626412, -0.9439435028523422, -1.2256921842582744, 1.032467351404226, -1.0707948583206985, 2.166393746378335, -0.2115381636442695, -1.5945671654624667, 0.7614171150918594, -0.6159206340569389, -0.21827883461636352, -1.8279548293563062, -0.020811185333963745, 0.14182945566305621, 0.3679957783711556, 0.735412783906317, -2.7789764386545506, -1.4131446874899332, 0.9004214312940328, -0.00870972767737968, 1.7696347194376163, -0.8269353257793611, 0.8740332583387015, -0.6677164598316866, -0.19454450015154975, -1.4646397704309855, -1.441857043069502, -1.5928265898296912, -0.8364373794437988, -1.9721862201421836, -0.5658402533471643, 0.3270470987533746, 0.7217190301716973, 0.38817816552048384, -1.111867883573499, -0.20069247098311405, 0.5440004453560565, -1.7291736418067127, 0.48452890894936296, 1.3633970976954288, 0.012153600033483826, -0.20115970704914837, -1.0110925439117753, 0.0345962560015074, -1.3932778429392119, -0.31206251448712996, -0.31219915877452303, 0.9931246515605506, 0.17737859192953973, -0.3224115540336036, -1.2066803435463493, -0.7046385603260908, -0.8821691964550827, -0.5780184296915305, 0.10078994721400288, 2.079483476514497, -0.0003848134308946033, 0.39429524980441527, 0.8823723918883271, 0.6968305595309593, 1.2488194283337528, 1.0817538825759212, 0.4582161176096197, -0.2935874943267217, 2.1040012755474407, 0.21324421513421396, 1.4661412389700479, 0.08478694875164812, -0.939357916546583, 2.1324781960006542, 0.9100768286030236, 0.26727394000870924, -0.7834915738679288, 0.7534546173975871, -0.669564304470464, 0.2932112088077859, 1.2390847682688015, -0.27718141493597664, -0.03048211251816947, -1.0902183156804475, -1.566416604376388, 1.064140249470367, -0.3199842652311439, -0.4039820976916432, 1.2529569530891282, -0.05175576781495029, 3.8322121581919486, -0.5242855092171014, 1.4814057309131918, 2.247453575731112, 1.285130561729186, 0.33373120004188445, 1.9102574255675142, 0.9084701049530578, 0.10017640679605715, 0.7500102654907093, 0.5176747631420695, 0.07926403735866717, -0.33552511520874073, -0.24348461034350824, -0.10012750720747773, 0.2766361967613429, -0.5571733242769309, 1.8000740395896084, 0.7149976656162484, -0.15265554999283729, 0.49866107747200616, -0.34645522028094927, 0.3008160135608911, -1.1755354276801329, 0.41377964438124193, -0.1697740739960853, -1.4447558145581492, -0.9639137900503412, 0.59396396639198, 1.2225589699844088, 0.4857527322587916, 0.4618454810889039, 1.035647291701002, 0.07835492323212237, 1.4645409720864795, -0.32597902536133355, 1.9565359328807135, -0.80103564558453, 1.1657601008434553, 0.4178022934446697, -1.3158601088650492, 0.3522184728110081, -0.24363937724130888, 0.8269511719473914, 1.8721289437727886, -0.16786561297481653, -1.8241803869363526, 0.6084933227152443, 1.0114301064502498, -0.5994211984867434, 0.12782712649888237, 1.8418640404107127, 0.6440782523866512, -0.8295732536508781, -0.295552992937238, 2.163465435806719, -0.6602285212007974, 1.27202779200277, 0.20741205074233765, -0.43151849645426865, 1.3387422752459566, 0.18383844690259382, -0.5434492902347277, -0.554344777504169, 1.125557579499101, 0.12450775439048907, -0.24510137823424774, 0.5979843028784317, 0.07614694636958662, 0.8889141200086909, 0.7534076419000773, -0.893579962584655, -0.08839819918397261, -0.5972572225191393, -0.36343532048565347, 0.6966983369881641, -1.055688179320178, -0.3077433164872536, -0.28089056449221117], [0.9990588798097292, 0.04800560004337612, 0.840046130217554, -0.30902021843462285, -1.0342282107963054, -0.7457302916422127, -1.1815607915303428, 0.57055493315982, 1.1498736397238798, -0.9218456463819742, 1.1782839182090252, 0.9389697450339205, 0.09448172784645466, -0.7858407984577103, 1.5323814257152164, 0.7464387253186425, 0.6994614706738272, 0.014068832783913661, 0.29316590500583734, -0.7604497301506229, -0.42890704512277456, -1.4655965881668767, -0.21752986408803723, 1.3343644871429403, -1.8605088259939122, 1.0701142135596746, 1.1957012580368018, 0.28440751442661905, 0.0438485046140207, -1.0812699186228794, -0.020199238047725238, -1.1776231023709818, 0.3707551293750348, -0.5034406860472758, -0.024774296201187974, -0.9838851030738986, 0.22242948074554966, -0.7543948115610646, -0.06260400843964326, -0.5373622105799418, 2.4917322482045696, -0.34842291558397737, -1.2810966504155445, 0.1766835975870972, -0.19791070373412303, -0.3604260456861628, 0.26302264287065347, 0.08556817214929402, 0.1973124399936299, 1.2492082302101721, -2.2220200862580235, -0.7716028599211681, 0.6838409730524727, -0.7279334084946876, 0.06263330977161811, 0.005154492202291842, -1.184119017953865, 1.7518879172500736, -0.9051238470607516, -0.22248109651177228, 0.0966537691785965, 0.9683090801493796, -0.4512045974219843, 0.7960009278205864, -0.7158119374428841, -0.7494680302297665, 1.5956718746897254, -0.726881675723338, 1.2337362343619536, -0.9881019977213606, -0.5352099856006238, 0.026926767206681572, 0.9054607780390067, -0.46882597021812705, 1.3892413188032722, -1.2416904453646374, 1.4592223233107806, 0.5574399275303569, -0.007292302889876781, -0.7919093055485986, -0.4475357871560815, -0.9660400413199438, 0.14797414681670112, 1.07335950132955, 0.3847262453421401, 0.13655665794614144, -0.9000508646920176, -1.147967315149567, -1.2777850215906033, 1.8028671618428773, -0.1948023705324575, 0.6880903611880977, 1.5918305147646101, 0.6504960075845109, 0.14471514957365403, -0.5340383758231871, 0.09493805778007153, 1.0306172772426556, 0.41505335873565163, 0.6142712404816915, 0.1050087516744186, -0.1163384484539756, -0.8524217291371688, -0.48619828430494355, 