{"biases": [[[0.8584227868478085], [-4.802231027937869], [-3.171940300007526], [3.5459083251695023], [2.033147044543004], [-1.2921084478467493], [-4.059253713249299], [-1.4515876959119483], [1.582524931787087], [-0.6513880156976678], [-3.8474037557458], [-0.8633846814051427], [1.250885975296785], [-1.1623313077070614], [-3.126719355579665], [-5.043174360162584], [0.09131227769029451], [0.6102751395016308], [-2.8016609206637337], [-1.479082640711371], [0.7210923477810394], [2.342817560963723], [-2.859295465426398], [-3.986932576366669], [2.0656709840459366], [-2.4023585472341247], [-3.925934334873999], [-0.9478718248492382], [-0.581610611107241], [0.32286819533834427], [0.41351775080396913], [-0.25226879085546444], [-2.209401004154098], [1.141162806911444], [-3.135059146601955], [-0.4025665548835338], [0.23865132109969983], [-0.5793504336337196], [-0.03852555008366857], [-0.7026007518138649], [0.2982392625594023], [0.15567070864864682], [1.6991731584109575], [0.17187601413105769], [-3.0742304467216712], [-3.9097297040792065], [1.844610994152763], [-4.281781958290793], [-0.946630209738042], [-1.4443942118381647], [1.0691914477762536], [-2.133794921714448], [-2.8666586851946625], [0.2870124064334949], [0.892985005394885], [4.463872040271946], [0.8415671778625825], [-0.16103850758131735], [-5.6853273260393244], [-0.6472386660792776], [-0.8080609229781792], [-2.35418811671201], [-4.897539742097301], [1.593576925011085], [-2.4732762983391625], [2.6830783308403308], [0.25806379982070793], [2.0619488569579483], [-2.7101480284324855], [1.0620343687306864], [-0.8721915401472315], [-4.134944752581003], [-0.6659331015707503], [-1.5638912016865647], [-2.8315635748154615], [2.913133632215483], [-0.8327907069008952], [0.9478990077930626], [0.03797665466475206], [-6.3759783818906515], [-2.705250693475749], [-0.41491515348610186], [-1.6683927720142817], [-1.6903836040939562], [1.7484404331651924], [-1.2432437426285896], [-2.478299891320202], [-0.37441326071164605], [-2.6810926119827374], [-0.6277146084136225], [-2.1308436884175914], [2.530673188573699], [-3.3163931703410765], [3.931281725191499], [-2.855068509884438], [-1.4599126029575038], [1.4389760526069744], [-4.679228429929494], [-3.589291133458455], [2.308138196506527]], [[-3.353119513644518], [0.16418630822002198], [-5.571293087122175], [-2.954421303279567], [-2.1161351401556736], [-4.8419043876586], [-3.407895659372394], [1.0612350395896026], [-2.5906289673634877], [0.7411994382276803]]], "weights": [[[0.2744944764104676, 1.7407875192430584, -0.6855480933750591, 1.5090746846250522, 0.12274878413776846, -1.0882553128608223, 1.010494150629572, 0.10981954294160713, 1.5084147450810577, 0.12332721474540632, -0.7766016886717342, -0.12947905361659798, 1.675888241335143, -0.6302162881663437, -0.1852611194359239, 0.6243647816753095, -0.6243660051396454, -0.6825511968515029, 0.9737856320645254, 1.1976524724568243, 0.1308189874920866, 0.15833667735374715, -0.6870129380216413, 0.36269721270155164, 0.4087945110589045, -0.9111566977921219, 0.37758962749105524, 0.7862030284081584, 0.610701803575191, 2.3609499215651555, 0.2513456897424602, -0.15313871958591146, 0.6051398391518135, -1.4343379070829458, 0.3527884945422859, -0.193050180018095, 0.9709244379648719, 0.05304043064229957, -0.07614391244166019, -0.5190365376227888, 0.15742582047461678, -1.0668235731599471, -0.17720505688092664, -0.9093058369285526, -0.25368305405603814, 1.53235768470109, -0.005773856325229053, -0.04691684998883645, 0.3530802801600457, 0.12900275876408726, 0.1419147359751268, -0.2140922738263077, -0.5739802840203905, 0.0438952719138521, -0.2854228750646515, -0.3986128829344676, -1.1178400019221346, 0.9997879654706736, -1.0519988569194096, -0.015617998479287475, 0.980933821071116, -1.63951654163413, 1.277595847352133, 0.4501977708496788, 1.2447399756666995, 0.2324935213692843, 1.8878185777639072, -1.0583285491850967, -1.0805023946360373, 0.7703785942783985, 0.17868606961629627, 0.9500479271504936, -0.3596312875677711, 0.3501924228511974, 0.9006753849987954, -0.7431088268881489, 0.11834576235435884, -1.5239573825646018, 2.6798426836416036, -0.10783062715282259, 0.9291871435421045, 1.5319959504033285, -0.1538081294062643, 1.4854647001768304, 0.3330712219827146, 0.33507001777957485, -0.5430745494763298, 2.7407105852356226, -1.9724980232421283, -0.4676985189909249, -0.17925822198382096, -0.01938435537280591, -0.20762682024785856, -0.4187018124638177, -0.6543414987630061, -0.7650838107695184, 0.155789467724151, 0.38201654589856515, 0.7975350206869251, 0.19191907929286295, 0.7295484245795609, -1.2355315114285088, 1.3035358932467866, -1.7153133981870594, 0.5032019437738132, 0.6412550352230881, -0.7035700424572632, 0.027964282551756384, -0.8470042232716544, -0.1380674508198775, 0.38549751631047363, 0.2293053805025233, 0.46283880820153817, 1.847258734837565, -0.6040351965455868, 0.21920426062194828, -1.3006031295000235, -0.8199176630755566, 1.342526019837093, -0.9871962999275805, -0.06412156436384638, -0.039110944553521494, 1.175796040250068, -1.6644626900887787, -1.335080670940265, 0.5413046660359261, -0.20152167036776686, -0.09426207001574428, -0.20539099009255216, -0.5448348231334336, -0.3595751583938187, 1.1897284792291543, 0.5455143394577159, -0.7189743864232386, -1.2099295749415564, 1.7150547003466765, -0.6719326223362997, -1.7378739210625185, -0.10046515194384524, 0.16062202304606954, 0.6451366045131471, -0.6553053950547527, -0.17288719872546107, -1.1327870901494372, 1.083001908245495, -0.7025852779185685, 1.429868960422931, -0.2742517389556966, -0.9299943984287995, -0.5440801385560999, -1.3394188531582232, -0.010285879800547265, -1.5926963058279753, 1.4440639664283068, -1.6293303508555026, 0.6059033778863874, 0.3899704193566701, 0.6139795455077994, -0.8462716788524914, 1.0559786990892683, 1.2425855060801194, -0.38957907718664775, -0.6008797708819024, 0.2135280101427938, -0.7069488931339024, -0.4839307094897635, 1.2266160375067554, 0.9557410791444949, -0.3952343670283462, 2.143643348941786, 0.7442084888328726, -0.19111877338809602, -1.1727125608586106, 0.8184333575682787, -0.12270492179524457, -0.28744312773655456, -1.139665519758896, -1.0158648990415116, 1.7093969688098685, -0.3053254922519849, 0.6351004028752287, -0.7055129178794621, 0.6695918312609213, 0.7531883696765875, -0.0904618802835894, 0.13523275211656408, 0.5827240837817971, -0.2232067992333555, 0.20804741605488813, 0.32616256546208405, 0.8812443036034872, 0.15981142572362367, 2.119504284828796, -0.3518631328683928, -0.32207619091337286, -0.2055630039273218, 0.22491406122913885, 0.8884968566481722, -0.38524993053226225, 0.4214041545288208, -0.016292409356864813, -1.4128451986074122, -0.95271382880222, -0.06450954230695677, 1.3076031387760645, 0.3446809915561009, -2.7238689774251448, -1.9480137755777136, 0.35586545644279327, 0.7752999530391413, 1.04731201679823, -0.26203396016616676, 0.5292594472589209, -2.006313432537023, 0.9682913350618962, 0.9547255244450538, -0.872384337004724, -1.3207475661074828, 0.2787370014277102, -0.08039057962801323, 0.23227969708931867, -1.6239342052679206, 0.1940071376279774, -0.7719170866808809, 0.3935550886770098, 1.8249305825035829, 0.5888602070090129, -0.3254839265825185, -0.36742115990308083, -0.1222487974471881, -1.2980187723427634, 0.5183998745745545, -0.8205191424043257, 0.4691628890376248, -0.4903792477514327, 1.562006289032999, -1.0575797040122383, -0.5307119425629041, -1.3317653559501759, -0.010767874390348889, 3.220262760186884, 1.0868770006712885, 1.6562444796623639, -0.26729255948709646, -0.41032626062100663, 1.6706474617177238, 1.6163469069128793, 0.5344443701427471, -1.8210681988242814, 0.2761226635910124, -0.20529183393674263, 1.131224090141702, 1.1659787528455554, 1.616713445709441, -0.0959269525947717, 1.2147494953315048, -0.5366737429017114, 0.38999033979453596, -1.2957046584085083, -2.495853857552713, 1.420162350315892, -0.5411557578412134, -1.0326519135776002, -0.8464923515327388, -0.28654505972441063, 0.4648745583639425, 1.4046054315537149, 0.28168071268922423, -1.262443235109101, -1.528897710994054, 0.16257502777464164, 0.2733777204365917, -0.07840987629790429, 1.8435462420287763, 2.2410722922081017, -0.9098827934170846, 1.3347196594946507, 0.054970130081515155, -1.2292624327002988, 0.31889148879732415, 2.087092610013753, 0.8524918428533265, 2.41646102885785, -0.6173491995856205, 0.4332742082287877, 0.8140424165707484, -0.010724051131713493, -0.6421405583554003, -0.2118452523969125, -0.7115115711014525, -0.6282677890198319, 0.007841741090298004, -0.14018820960364675, -0.2195546538914242, 0.40274679051851886, 0.11598327468610475, -0.40788343672395083, 0.6521803260473973, 0.7583305098501226, -0.06953554726803088, -0.27129679596262457, -1.157995665702792, -1.7266239597714956, 1.2249589251363127, 0.7454025093682103, 2.5941938702047165, -2.057889983552488, 0.812280823867373, -0.5108023555929178, -0.13784976599548748, 1.1995813880776915, -0.7202061175520925, -1.4958627377741756, -1.668947048767735, -0.8566904144867423, 3.2634714240042757, 0.9393472237744699, -0.4841153437583669, 0.8944203613971287, 0.6667476501496876, -0.3339295905752087, 0.06982356896407683, -0.46214769995221744, 0.7488020321865965, -0.8049335850849519, 1.3973576862242127, -0.25292602284830895, -2.1554097911500336, 0.16284694693718121, 1.7172744420718418, -1.6021663457716067, 0.44109462349004896, -0.8158586027010143, -1.093291779278696, 0.2627495000892739, 1.2027229968213708, -0.6577738729103907, -1.2348370042615642, -2.2141985494475622, 1.497783707300571, -0.2618598174442866, 0.8615679874275258, 0.1689546329782938, -1.391192713744529, -1.1185981646248375, -0.6649480393783688, -0.6726237993653271, -1.525020638140353, -1.1575782775625236, -1.839932475378375, -1.9432836135305955, -2.536548238570543, 0.2499275104326338, -1.2231420228938255, 0.7963918263894825, -0.33295792063691004, -0.046447613966713056, -1.292891595147752, 0.37212262817971536, 0.596107424754564, -0.05709011562002112, -1.098064980881319, 0.0581505077770021, 1.7451536478227363, -1.484230748491232, 0.6846425973625733, 1.6579451107292522, 1.5347612475581869, 0.9146700351944359, -0.33728498723515915, -0.33093597510550343, 0.4863132917831605, 1.0641370125960785, -0.9343027043932948, 0.6633033688235135, -1.4620670183758548, 0.6974041645164286, 0.06582645041444793, -2.1385853925512865, -1.6678527469409363, -0.8674003178575467, -0.3085892271975019, 0.4934931624469059, -1.7806360741667369, -0.34231223139206224, -0.7431065416102758, -1.3451757625417404, 1.3676042179301395, 0.7578218414211405, 1.5418185770070951, -0.44184423840422893, 1.1347555014877797, 1.216482123005034, 1.3412578847324763, 0.3028602136008574, -0.21178597983378933, -0.25322353100922546, -0.22351578338342426, 0.3190476531494101, 1.6647123656507408, 0.049643155583267665, -0.3333423893115513, -1.5092641106900395, 0.13991954952432678, -0.1663278638218523, 0.621613902622899, -1.5150018644066017, 0.7129435684098722, -1.7416229624090043, -1.7447989482916704, 0.22005163361687902, 1.032891761841937, 0.7406263250596238, 0.9767954704728765, 0.6866182378699517, -1.5625382075066048, 0.414731053323943, 0.14064934884665847, -0.5689679444007059, -2.3586566908547217, -0.8454223253695407, 0.7408953399280626, -0.044731223327195264, 1.6945677975443858, 0.5660034025655286, 2.047450605788474, 2.432334669142484, 0.09808917204000064, -1.0183337888156425, 0.7218247659820973, -0.901783287364513, -0.17726156116453937, -0.4989494071556584, -1.4565680494694897, -1.5271805937763925, -1.658986575382122, -1.615397545377052, -0.5437032149404329, -0.1424244519934951, -0.8501356822780395, 0.6801100177703429, 0.3886572333816882, -0.5643656704777315, -0.15097255070937038, 1.720272171693478, -0.10771682999332483, 0.36254756039826685, -1.20111536580166, -1.6975291387215918, -2.0400020102995082, -1.0576794224704595, -1.4807135333921626, -0.4007960118245137, 0.6225413530650888, 0.9800220740071091, -0.5704902218929614, -1.3503615823225203, -1.4772068941783771, -0.9731556468562526, -1.868038731695152, 0.16972672381560375, -1.554431849085796, 0.23130586100208533, -1.9131285814562258, -0.12715019590956336, 1.1156159789996756, -0.4634709034840334, -0.10023299916991717, -1.5635216484984782, 0.48796121171789564, 0.019534948992253772, 1.3735913359170355, -0.6927015561558406, 1.0768889305441232, -0.30066904604476913, -1.4828798860075068, -0.451925046790677, -1.0299019228410398, 0.2710531943398162, 2.014670036416493, 1.5215428382092422, 1.315653128607138, -0.8575003251822756, -0.4746566871887203, 2.1421345807155574, -1.2943186161924858, -2.1945043550230556, -3.3864218628742098, -1.2259051627926034, -4.128397086296395, -1.2281973318283188, -1.8422151106129832, -0.8190072023277913, 0.02604784251343052, 0.404186416884899, 1.0111358713459246, -0.8520982934591288, 0.7799454870845656, 0.3889540970593886, 1.2629240073595362, -0.5712136425477676, 0.29146196144327674, -1.7431507633948153, -0.8835468508271078, 0.5409953017782743, -1.5296507853317356, 1.2922627627081293, -0.9845709571380622, 0.9811612057305586, 0.9406615750546269, 1.6092986591948064, -0.09910980541649315, -1.657571974519309, -1.9504110973804336, -0.4362523229549409, -3.5483216011251573, -2.066278952490609, -1.9902631048394563, -2.7115411520347346, -1.6707086963805495, -0.5456785541517745, -1.8512278159129354, 0.017267442720288444, -1.2357547563455487, -0.8553940434953816, -0.4426122034270264, 1.5906564764431577, 0.6463094978348235, 0.10624187584833282, 0.5064453065334318, 0.36839574941951747, -0.6750917182941539, -0.257250366433771, 0.6340029956145025, -0.4720029104682291, -0.5674782842858573, 1.7946013158230714, 0.02236336397062387, -0.7236936407705972, 0.3432364886304896, 0.9715220663367352, -0.2522768657167814, -2.0579908272648786, -2.3187572645797045, -1.084855812035962, -2.2229050434993813, 0.04844251923206515, -0.23873273323967817, 0.014561654445973196, 0.4144657020819383, 0.03805387966787173, -1.563295992181514, -0.08270293495474176, 1.5054829066324609, 1.5893093838056251, 1.1664771144858717, 0.5940688885463621, 0.4600833943493436, -1.1853937422302, -1.4180289006115885, 1.4612849273942308, 1.4159553523319641, -1.7427124755111583, 0.6694488924707747, 0.1184504718772773, 1.1733629859537371, 0.5984677584566787, 0.08292785428455413, -0.608301568570636, 0.6623101173326615, 0.9867358137822543, 0.12434548524674717, 0.9709651280658902, 0.12590544955689853, -1.2387404933751005, -0.4635744056293996, -0.29972609579525583, -1.2636811454796075, -2.279260388518941, -0.4759930427011388, -0.8493027983458631, -0.29650910670247477, -1.038797275757342, -0.8124707170310898, -0.5881711154589587, -2.3983668348522387, 1.151940355696249, 0.7986838592824612, -0.5851559743879888, -0.7544028721332797, 1.716932884838006, 0.3691746742337298, -1.3963207807995515, 1.844697155218529, 0.8326672149793057, 0.25071761024368144, -0.9599328704399761, -0.1042693771833697, 0.6240544084107247, -0.21664975110322593, 0.08650147101776055, 0.12437214282312074, -1.2900470867105331, -0.7116179904289166, 1.059605006776063, 0.6401290990715715, 0.03545410151797617, -0.11902848473488295, 0.7078170674912841, 0.15264348328765334, -0.04546470014849532, 0.09219307451881957, -0.9834109696853559, -0.22760260749479772, 2.903623569918646, 1.2640532941585774, 0.3741040065579058, -0.28890192418977, -0.4325986104872486, 1.0903599712675476, -1.1565700785363653, 1.1181652292015534, -0.2636417443159253, -0.5334744761312233, 1.1091334487066398, 1.027405495495742, -1.1009810753899716, -0.6526444808109358, -2.3058824285370054, -2.0858290973809988, 1.36548148571285, -0.3549656142863971, -1.6759154903647138, -2.3119108842814566, 1.434377278728305, -0.7449171026280691, 0.09884152301690426, 0.3808492674606979, -0.25196792920284755, 0.11597961809242607, 1.8823466353326896, 0.550490949899175, -0.397131511954855, -0.3928978101486465, 0.036480487097413, 0.6032559720988325, -2.0273707640298535, 0.7970405855049157, -0.09989044156745297, -0.31777758170305564, 1.09887730026862, 1.6128634542368943, 2.2167401801066147, 2.307274527931379, -0.03778720478970929, 0.8538151996129103, 0.7980384732223541, -0.21963133743778632, 0.31452572391480194, 0.4911938873446585, 0.37369228023100903, 1.8362867962404905, 0.3607962924527332, -0.11237943169326184, -1.7566654138604978, 1.915468407697869, 0.6621532321122064, -0.3236254909981019, 1.04381553999264, -0.6150312087041712, 0.41562299845455103, 0.771362166790097, -1.9044113887928125, -1.7680176056746815, 0.8268491966854067, 0.4561757795148845, 0.5833537686574823, -0.6051022996607294, 0.4981372466563486, -0.4062524916749145, 0.7397844155215425, -1.033777346244898, 1.585756242535067, -0.8004588264165201, 1.5590338629638982, -0.9923704650694307, -0.16815503229571363, -1.5981340495885392, -0.011376659501121773, -2.3043501739082433, -1.118126902216567, -1.14198247965754, 0.15532883994333954, 0.428683674485472, -1.1250558029346938, -1.5625526223944188, 0.14966417578785843, -0.9931627268347528, 2.3462971047042624, -0.42160075092969723, 0.4506853806447489, 0.9110469712014866, 1.2592889239557359, -0.3081307608571707, 0.42272061326364185, 0.006298063748705915, -0.7674226029624854, 0.9126258245608662, 0.7604784284005882, -1.0396903328302247, -2.513725115082788, -0.12220978175440983, 0.08871131541749684, 0.5742445534218279, 1.8563402202289367, 0.9488281650315215, -1.1301333184482076, 0.4868319952462985, -1.093706997326658, -0.13939958182143802, 0.011408117262652489, 0.07854491582560874, 0.7923125536123046, -0.8909917597988858, 0.5292182574939899, 0.9238299542306163, -0.2846597679604868, 0.9360281472597985, -0.37333165663475026, 1.1789992976847814, 1.6705696168034447, 1.0617934907001219, 0.3175488465317824, 1.69072092699263, -0.23327713478535003, 1.0375705973172444, -1.3861251810943827, 0.544069619134573, 1.4829097850909951, 0.6367312641902363, 1.869114686187884, 0.9966405667149102, -2.1295501591985198, -0.7073625139817716, 1.1291163825821824, -3.7310501137758094, 0.8062640817099038, 0.21493512844045362, -0.5771352425498452, 0.5227155163565887, 1.1668213182566778, -0.4949850158780884, 0.46901532900697207, -0.537645141796165, -1.1405437343163822, -0.8781234048009102, -0.21070049710850927, -1.4674255582750027, 0.29254035380377724, 0.5916668609282962, 1.8316026120302362, 1.127469953121248, 0.43667315034577303, 0.38832056779209756, -0.817354863341885, -0.7866463939839029, -1.1804226250613163, 1.2942805379512545, -2.0195034550723983, 0.14159366180880276, -1.0227334555073824, 0.21095415758953068, -1.4211272877969878, 1.2913832783861496, 1.9171216899124874, 0.45482427229838973, 0.4831526160521788, 0.8275028453643476, -0.5139348402333214, 0.2261113227746281, -1.3047514390323913, 0.22974076118837228, -0.45686947616594015, 1.1283127661894405], [-0.6475518595912418, 0.34965517672389035, 0.6284488305612307, -1.1573824881724144, 1.5319883279763027, 0.13043193958000554, 2.4652265309134687, -0.08308537976281406, 0.2969602824278845, 0.1736972473655449, -1.4274152842567611, 0.27980725569059195, -0.6131874289746109, 0.6285217723701931, -1.2529889552274913, -0.6357003258368008, 0.7206965987668447, -0.9596501676052251, -0.6569066691406029, -0.8879331376160025, 0.35175692234885203, -0.3516682473326692, -0.6474617506390193, -0.16462110486473036, -0.6277407001777154, 1.3821795927041438, -0.2596635029180853, 0.27281483955617447, -0.5131437577435076, -0.2881110900148143, 0.5885844503961325, 0.17004853105680992, 0.048009948185581804, 0.39312231703686495, 1.23506370802942, -1.2343994533281368, -0.2751815789248109, -1.1346625505039278, 0.09316961588932561, -0.05606713945479165, -1.8404664988859243, -0.43060219848938214, -1.600808908566561, 0.2339517047498273, 0.8517929663104654, 1.202521597524485, -1.2486859188315877, 1.2118735710546291, 1.1310518235957783, -1.647388595196733, -1.0760151214587856, 0.3454699655619425, -0.015632678153555284, 0.6467204409926527, 1.4583782196999062, 1.454068365040874, 1.0050241842138936, 1.786053540747201, -0.38521317469054855, 0.5401967026908886, -0.3775897903544555, -0.11160891804768958, -0.3972559707876252, -1.9712545721868862, 0.5915239799109359, -2.1109070235922394, 0.35730409723579454, -0.25316510115581126, 0.07124192858338046, -0.7097890669132757, 0.34585948110905484, -0.828059106817649, -1.377901472129423, 0.02440520392992545, -1.0641904796284207, -1.4766690900158577, 1.2971309910606905, -1.1969370134797188, -1.9680974147815269, -0.5575164468410955, 0.6139983621533266, -0.3930032793861451, -0.5372792205008174, -0.7155336070677023, 0.45300171857183813, 0.9112534304902092, -0.304086384093606, -0.8717505301822189, -0.39225817404234026, 0.27699870764366047, -1.4526386910623579, -2.2531935537664, -0.21128015923595644, 0.18241397331915002, -0.5722403700934193, 1.2990916816270575, 1.9546425419818205, 1.1695817375841981, 2.0158008563479313, 0.4885134645367861, -0.1396471900137871, 0.04410122400122765, -1.4823887873718047, -1.3131455920944008, -0.05154339312958962, -0.34320382182341586, 0.7266751708797797, -1.9908908165268278, 1.3830308438280612, -0.8423890301755721, -1.1830310029667728, 0.46605289241975173, -0.9933815180067236, -0.12563867326536418, 0.9913226514812236, -0.4904610248113709, 0.35350158296778184, 1.4257558475300791, -0.03602019199480164, 1.113324749913491, 1.0602301424595817, 0.5309010145915105, 1.4041370452075903, 2.4109646251730315, 4.345503644723898, 3.1802241079568776, 1.2918022627394774, 0.09574518490253578, -2.3541783534059197, -1.5293251432381822, -1.292958173093366, 0.6514516485371724, 0.22140965279401795, 0.0035276119572440756, -1.1393927270190074, -0.3402245639170076, -1.0243600153091466, 1.3443604518350643, -1.0931982562144915, -1.5496148082060768, -0.8904097947560673, -0.8948516160451908, 0.339927295439556, -1.1806546971925416, -0.1573430643820112, -0.254036993623788, -0.11502813683384858, 1.1784293179345902, 0.9032317412797884, 0.3576262231839691, 2.3016434150926814, 5.3666809052655635, 3.024779286436135, 2.40482192580587, 2.371367723242181, 0.24004134678868808, 1.9161317260549497, 1.4723043123767892, 2.1403805965819, -0.11312631635356395, 0.30023488660400754, 0.033975158831372004, -1.3111437117370623, 0.7709446884760807, -0.43220726510544527, -0.3591699945006423, 1.2800805940066324, 0.7867607369057, -2.1658184610200473, 1.171903663977652, 0.5110705107497276, 0.8839093969230271, 1.2336637540461044, -1.272735729453997, 2.511682260501722, 0.4954996822143848, 0.4055351775799979, 1.0763375533742774, 2.0916160238641535, 1.7775178546438568, 2.2286560720149544, 1.5898009436075962, 1.457333111358685, 1.3802608376919103, 1.899465418007375, 1.0010490307434163, 2.1619294292697115, 3.081099047219055, 2.687470433039039, -0.4692404836106526, 1.9868443182901439, 1.4679166562690833, 2.000245032039188, 0.891815148401541, -0.2948464762595032, -0.2842090201184171, -0.3598077498954098, 0.7207705289188381, -0.4305006986481935, -1.4203215462558838, -0.6624290248858972, -0.5628538674975219, 0.6968506001662809, 0.15011494726189267, -0.37119867132034856, 1.4502313024978852, 0.4670720262308859, 1.383536223324252, 3.1646674799379197, 1.5281849554043525, 0.44565713039933286, -0.19679855821085857, 0.8795499348713852, 0.5414969641878515, 0.8596102641515172, 1.212047639574295, 1.0515548822400855, -0.979828767408239, -3.249885370003848, 0.6548036920082275, 2.1683512185600717, 0.03786680378692458, -1.1827219838279537, 0.9745925340713552, 0.9563660289668603, 1.6099423534950823, 1.4394837225066057, 0.16200581667890013, -0.3701101034920477, 1.1645996685372433, 0.43575471796827286, 0.3630302903810633, 0.9524249164791828, -0.00020728193238908854, 1.7937595637796657, 0.48770283296586137, 0.9734983162535984, 2.1423912992043723, 0.5474642882965727, -1.2886798280461718, -3.5086176531526334, -2.2397507221470465, 0.24937742876583452, 0.21476420827035692, -0.13554209921364407, 1.277135286673197, 0.019187139046082824, -1.061681829142742, -0.6945059897207335, 0.8905950541120907, 1.4339571315237567, 1.7106736006836663, -1.056406433589088, -1.0380050525319688, -0.9097745525304318, 0.4980179121261044, -0.4965677871432067, 2.73955349977103, 1.4425734226094546, -0.18244314732681485, 1.3667662710510817, 0.2845486719876106, 0.07344424541223114, 0.9647021092160032, 0.8392715957949619, -1.7440468179881818, 1.3915918207210294, -1.443851663486796, -2.6691293043371984, -1.4587176404013638, -2.459287980413062, -1.2816192106963158, -1.0381937652949653, -0.13432011803082977, -0.2091571613690603, -0.7279661846560311, 1.1773696331610697, -0.4581620289636045, 1.3067472533601867, 0.27131553233027406, 1.296728492976487, 0.20728662797174977, -0.464412081808581, -0.832919445692815, -0.9910656990229882, -0.1472533400461893, -0.0740703795414181, 0.004634284329184748, -0.33173113477061994, -1.379410457820616, -2.645784482935418, -0.7772749302430468, -0.6699910249029616, -1.4073501563227795, -1.041900230064422, -0.9314124639818143, -0.6899985661397106, 0.32352200072123555, -1.7522833389839112, -0.5361389376462281, -0.45410284781192944, 0.0232476690679456, -1.6269367619516504, -1.5907072395501183, 0.3761248397787366, 0.4681548461442217, 1.1417086807502392, -1.1525663311178687, 1.6740486191777484, 0.17731954742510567, 0.3558864579485921, 1.1769496894010512, -0.4066791620660647, 1.9283932237234251, -1.3994589420454455, -0.9179413577839745, -3.021450782372012, -1.0172198231382443, -2.3579859529235354, 0.19395350976121017, 0.8674609746780373, 2.0559944493169073, 2.643314891482227, 2.6901004927542975, 0.007861203983959123, 0.12971367781966875, 0.48901314101753585, -0.577911205969148, 1.0369248041706456, -3.600790208086679, -2.3132229775995965, -0.7109954278569512, -3.1023663451261885, -0.4336128854056233, 0.9322260700829674, 3.2962955053820298, -3.2493573423318454, -2.1982740739120574, 0.6465823244716419, -0.5273590607889187, 1.1296423448095079, 0.4543055156814877, -1.5784790418476848, -3.66363801793914, -2.67824459972554, -2.4904800286854467, 1.9645697948383145, 2.783837754996479, 2.6372377299493444, 1.9779680687717918, 2.9241571573016323, -0.18109417156678262, 0.31318186102179807, -1.0925713547995521, 1.1186845900015108, 1.2326908915887693, -1.4517126204238717, -2.6187615496364343, -1.2680822465952803, -2.1205539263980477, -1.5884550255490157, -0.7919316395754527, -0.5323233826735192, 1.7729047171602161, 1.3426796214459065, -0.15137669135447315, -0.8632104788919952, -1.27052027578286, 2.5188776728354143, -0.2964818783863243, -3.4413306585205294, -4.889036556633874, -2.562136866606796, -1.1333715616975681, -3.604125495098476, 0.7298759249538084, 3.4807645627995365, 3.3233185497017748, 2.264421936472464, 0.8884334183625875, 1.3700265416219113, 0.5629140110809261, 1.379759112634927, -1.6815808144340612, -1.3811515259057898, -1.440288080142531, -1.8340419070927745, -4.176704697677991, -2.090915973078709, 1.128504575301771, -1.4187734908909433, -0.7860605810301773, 0.8156715971462919, 0.08467278915919059, 1.0951665907689951, -0.005423740844477593, -0.08618003900546857, -1.735393526484858, -2.6167488672743295, -3.1342217128538477, -4.61051955386011, -4.068810193141536, -3.424603441092896, -2.164376123677113, -1.1634412935768383, 2.619522857128377, 3.0542077693932823, 1.9699609322913267, -0.8349230838024962, -0.49111586375186905, -1.2556075972288905, -1.2338262246416138, -2.8003712600770028, -2.5475642135684136, -1.967973581510838, -0.6275357031400295, -0.5245634209505505, -1.1980264949187998, 0.0584605882273905, 1.1731109714287304, 1.0024079888133877, 0.33978324854357617, 1.6074303396138812, -1.4413143930092247, -0.1000592303739734, -2.7149217241806616, -1.2094017653950833, -0.9496442100746705, -2.3758037894698405, -3.4932738504082326, -1.1526745285540985, -2.592851728116724, -0.516163547352388, 0.27727129601449874, -0.29470026103049357, 0.9006170925566094, 0.9950846497174048, -1.3420349082874317, -2.141475929822773, -0.9124962829287065, -3.057208358142149, -2.131469896798209, 0.372310806500052, -0.034815311477755476, 2.594080648708315, 0.507821537135974, 1.0778122856748937, 0.4137389990277214, -0.32860856869598976, -0.42668289358603667, -0.19124468545813045, -0.17844296971143214, -2.15032434788802, 0.10269686420457617, -2.604517988130727, -2.1412400570404286, -0.7617654430549682, -0.20548715415237223, -3.2690552750674517, -3.5073307796885436, -0.33847732894766214, -0.2818633434461765, 2.1297297861294084, -0.018829334903040822, -1.1498824008173847, -1.2576600234604003, 0.26885381431157557, -2.141950706508325, -2.371389721398409, 1.1030374897422057, -0.498801606546041, -0.24322508128425757, 0.20354616675905052, -0.21814585029267114, -1.4281166686145412, -1.985655556667226, -1.7687903579338031, 0.7464554173219429, 0.7622346406898298, -0.6591672629263817, -0.04972881316186169, -0.42913047862772224, -1.4564943867717977, -2.125197592396902, -1.949786386397298, -2.5314601515532904, -4.033560124746049, -5.0799448190849885, -1.470092208459332, -1.4309052157636428, -0.2542628447545226, 0.8941678830354735, -2.400380736689277, 0.1615007423332071, -0.015234076408935832, -2.0200673275492216, 1.4841150188810959, -0.3783817623255154, 0.9053660533284995, 1.9707308388140934, 2.408333206805129, 0.20833794701177688, -0.013742895731835509, 0.46491255081405636, 0.7676300806075931, 0.8397790088928271, 1.5932635507605837, 1.252317353464741, 0.9022524117362087, 1.4476334080581963, 1.4260860775795012, -0.6207697681905175, -0.2626713026523757, -1.6638762339860096, -3.366934271708983, -2.476028910769419, -4.0300203357550615, -3.5182080983265016, 1.7868943025822126, -1.0464298587177834, 0.2011841201799479, -0.3922368166002709, -0.04756544593375365, -2.1657052923339677, 2.3375288715627582, 1.4187459118805235, 1.9048323061311754, 0.16543556463954778, 2.5079215070419583, 0.21603620861054057, 0.5413597046055413, 2.331129385146883, -0.0841959093395091, -0.03222327581315793, -1.6570069130936684, 1.5955126936274577, 0.44415913122490946, 2.6585110994292376, 1.015598226479074, 1.9477178132213824, -0.06604025875730452, -0.5954396584245355, 0.1910019625100727, -3.6283676357779537, -2.7412932508001804, 0.7298853676199903, 1.4318778268083727, 1.7916417191713554, 3.6256180237851487, 1.436634951220445, 0.8103818376909695, 0.22445674583867856, 3.021408153774011, 2.1215493997189236, 3.799297311389959, -1.1127462743455556, 2.20742964673563, 0.9582726923056599, -1.2413151510664275, 0.5703722994148106, -0.38562427305747443, 0.7001267756627931, 0.8493052326993228, 1.433260276184307, 1.7093273361165517, 2.609495390487325, 2.732947214171183, -0.7319134358489814, 1.2730915933698037, 1.95635689315754, 2.1890335388373905, -0.4525782348208352, -2.7738521482285274, 0.8306591794926179, 0.38161692081756093, 0.6229379264309158, 0.6454901977150352, 3.2990378888104415, 1.2768137175586682, 2.4585935053795485, 1.6513673099088009, 4.216490718795506, 0.8508970284960596, 0.2194674620977712, -0.30928593170255714, 0.426743688456225, -1.5955529045094994, 1.3596892706853492, 0.7322465675465458, 0.17306761573871554, 1.4392115581077893, -0.06274683992949469, 3.2953822011084486, 3.1757125330144915, 0.8974601539306141, 1.8607636847417162, 2.7838449611969436, 1.8820983844014139, 0.09495687195328728, 0.19399319209491173, 0.3517349540769135, -0.2868100908280995, 1.0821594895490836, -0.17886943840131445, 1.0161453699249425, 2.302701688909556, 0.07882647406836057, 1.8477313597213179, 1.0840732656737098, 3.319758390136833, 2.626748411934094, 1.4538442646044558, 0.7449813472938079, -0.12225630116290782, 0.5064438411122353, -0.6171546533949377, -1.9142682189760476, 0.7702053466231829, 0.13745017201664053, -0.23980295919196648, 0.4472101159604788, 1.6776649187630015, 0.18715788600468847, 0.3309706851421799, 2.2301692224951326, 0.30297096696005416, -0.002706884386944301, -0.7426954493692997, -1.0192811581047831, -0.8614001388196967, -0.7310013885989372, -1.606608275869707, -0.6745245529462669, 0.5022093012904573, -0.2876457740489723, 1.001328841476358, 3.224635608496375, 2.2408797267531324, 1.9987193696985381, -0.5399826023592427, 0.1092297268828159, -0.5344224797368364, -0.953673473634464, -0.4844384093850628, 0.7486498230538196, -0.1931793566108849, -0.33915584803381305, 1.0151917333056986, 0.7711565764412968, -0.5827955122503301, -0.12318588403161884, 0.9953015140662566, 0.45721987984935136, 0.4160089315283188, -0.8008066363937483, 0.3168255555261703, 2.316552872445449, 0.5309913995977208, -0.5983411419426661, -0.25800812852483035, -0.1103654929620342, 0.2946763223671742, 0.4725197132671812, 1.0581548837552857, 0.24362409939802912, 0.23226667690780167, 0.759201326712063, -0.4828014949553118, -0.7675497879935161, 0.27575902340657, 0.5873710650135977, 1.023015491935286, 1.661044135028299, -1.0631297298527984, 0.1842720592501649, 0.8454994910553852, 0.490417851737596, 0.9544643502649508, 0.11497357613948993, -0.037573120903476906, 0.14019062043395208, -1.301215326371501, 0.07300410189061032, 0.9572415758829882, 0.4503438694318931, 1.4032015509667848, -1.339866307730458, -2.231358804574904, 0.2310493751184804, 1.6211548977165327, 0.7842240026582746, 0.07566443263879612, -1.219214530958197, 2.0675300499514355, 0.5508792981146337, 0.23265784518593752, -0.6769978304074471, -0.40847421687036195, 0.024568819584874606, -0.7733546996830462, 1.2415023292706233, 0.28649270450118836, 0.5258437312966335, 1.0759770194652807, 0.03605169279722281, 0.5735201191930026, -1.4432438858361398, 1.548621922093579, 0.31235147964843524, 1.3345763591697068, 1.0031902150447025, 1.2922211403850543, 0.8747343399817382, -0.7110538208808463, -0.9763252818028975, 1.172516127526138, 0.2211583367334597, 0.6542241812400648, 0.015973739604198487, -1.4795985648262289, 0.09156566901000124, 0.2065678967999656, 0.29521713867746774, -0.216479214375778, -0.603743058494062, -1.389087077113845, -0.14502354863577008, 1.9153460235728628, -2.8752133657345196, 0.8463915665648648, 1.564684978500351, 1.00049514270871, -0.915938948918585, 0.8506041608013929, -1.0037732648463904, 0.43030769737896996, 1.5544848781214249, 0.597766328459347, -0.6869147259299888, 1.7184985797154373, 0.5757911555509095, -0.3225627800340721, 0.19484360413875879, 1.0533017036470067, 0.3804386483440805, -1.6362074793258379, 0.07065965093063911, 0.25751070859703323, 0.8832696221753918, -1.1249997498981574, 0.278576577881049, 0.3928085106708919, -0.8673875670438339, -1.3711003714614145, -0.36320482800901593, -0.7771585678869057, 0.3770142054391457, -0.5229633205638943, 1.479233242809375, 0.02163767389447371, 0.4959236386048924, -1.1472235641279207, 0.6110186318199313, -1.2982401384706925, -1.6256122323733586, 0.800588297287174, -1.8415465675918283, -0.7979285106773226, -1.157545104981332, 0.4719026944685836, -1.1286841713130837, -0.0693154926152935, 0.022545063312622213, -0.5319301860572647, -0.130904480385452, 1.152013135074144, 0.054558461505842364, 0.3478182749730774, 0.08987689883637269, 0.9440885562716987, -0.21067672522212771, -0.9330265279017714, 0.02207221917349823, -0.36504881245075904], [-0.1742461814658623, -0.501686755971805, -0.7480530918909843, 0.3286477248159408, 0.8603782028549493, -1.8217720930865213, -0.8752799451275235, 0.9062685807373397, 0.39377939498746106, -0.33478321952756546, -0.5966079530819882, 3.6687862300506433, 1.6355704564326627, -0.8639701618862101, 1.7075809245922358, -0.7448044787205567, -0.2245005105618315, -0.9868372829942389, 0.2236324673564944, 0.12435826253900262, -0.16894792502364278, 0.2813792505121375, 1.762406858933583, -0.22514289409665347, 0.13153415441720706, 1.0862021842635947, -0.6278077627536701, -0.6047028073234338, -0.3753240308241057, -0.38371678970157275, -1.2736218443842915, 0.14803136480636625, -1.0134672758796415, -0.4103775159449735, -0.4661952275977722, 0.5565909389602232, -1.3574710162817134, -0.18780266248890512, 2.056515654123886, -0.18923147320373573, -0.19807254616278805, 0.7585966418679375, 1.8831075740645424, 0.6415959674497292, 0.2817774012626503, 1.1975099549329427, -1.2919459267861815, 0.10763765289675936, 0.2848109095068085, -0.8757586308004373, 1.8333937935615563, 0.9837995078696207, -0.5117582801863971, 1.7623637619716663, -0.4313606266550405, -0.0847650984988502, -0.12003057910350641, 0.10926457818439111, -0.2474335867412244, 0.663192737325475, 0.6267673340289308, 0.3689933467945736, 1.2622603057501691, 0.4736536636791069, 1.409460196187514, -0.7597113161767833, 0.3512381579836944, 0.4357136903327271, -0.6156549848937551, -0.34354655444000637, 1.3107269396426529, 2.3732230123723705, -0.1724879958608706, 0.7155974843021216, 0.6599534357712024, -0.036324612956744294, 1.3938428492518335, -0.8439230485620746, -0.16260606192420413, -0.107888000634119, 1.6151005724312781, -0.2605887239155989, -1.8774855034355764, -0.23223835234431572, 0.8678913525115947, 0.017777165939327082, 0.23908559588197972, -0.0012249855076297868, -0.882294473477159, 0.5236238128218091, -0.9087002816172489, -0.0988827137426167, 1.7704729954922849, 0.5611442251949759, -0.4167911780959167, 0.168352853673284, -0.7731661739259692, -1.2344147889466528, 1.1091006874051623, -0.3579134367255941, 0.36586787546002625, -0.4129259424230839, 0.1404603232500726, 0.12966049088442494, -1.2970998765176684, 0.252342167380329, 1.8846377606556783, -1.501402711614679, -0.37735249217915745, -0.6633825906152304, 1.1806219126931705, -1.489784753925959, -0.7484460125168736, -1.011836736878879, 0.6445164117805788, -0.11413657587810198, 0.7129495843899082, -1.4326471592355776, -0.32856880644018444, -0.2437858952516983, -0.4994657140152414, 0.2957646406822787, -0.4993286199733345, -0.12119342448820844, 1.1949645889139793, 1.6169789935001262, -1.6611126160350718, 0.6927897997563801, -1.0739333539026044, -1.6402488332998915, -1.6366644331861766, -1.0867248386823907, -2.084289502122671, 0.2186592803184628, 1.4363305839283584, -0.8244011185435106, 0.5712321741797797, -1.5543853636324678, -0.4747074408338081, -0.6499783347580003, 1.5604618970522788, 2.1858315526953467, 0.4987436295207686, -1.0783332293298777, 0.10539108099245349, 1.1828730546443602, -1.0812887174913606, -0.9859621996937833, -2.6366992148048642, -0.3526567369424392, -0.22210250586329902, -0.5118958417261746, -0.3610481988578501, -0.026928966029110733, 0.4420584545251906, 0.28397620283183295, -2.0598501483390863, -1.6035771671240442, -1.3622142148793952, -2.0171969631983995, -3.4064551680449684, -3.9786472810334637, -4.284220360878537, -1.5769278990070592, 0.35286561206763345, 1.2555911428321012, -2.0550200759482258, 0.4920763404756966, -0.9245251660741497, 0.5990388342736047, -0.2690397705575395, -0.39497414215789783, -0.933149557438455, -0.48874589807524993, -0.10060084564588971, 0.7723210436976443, -0.34907993820505906, -0.14296071000614988, -1.2398334679277447, -0.7954144807769604, 0.8285899225461028, -0.03566705031216502, 0.9552922719332929, 0.4123261669687287, 0.9689259618003668, 1.1089851605448933, 0.8179055420882712, 0.3726512317289893, -1.4070068557938569, -2.958493884869763, -0.884502424687458, -0.9794953175055385, -0.7880883385257871, -0.7079961664618599, 0.610086752364823, 1.2830859544873774, -1.1639183677740599, 0.8483837103185622, 0.08994852586191428, 0.6286093322653303, -1.1530790584893484, 0.7182309265966891, 0.01935766008098448, 1.9487643653342896, -0.4976000777124958, 1.182622494593745, 0.10062271023321373, 2.300612978850265, 0.006056125247643441, -0.4688232356766363, 0.7603524200400824, 0.09420329827024773, 0.7678428820588813, -0.6505870310349059, 1.7128177705573817, -2.128418012015653, 0.8534834589474831, -0.8923452449299487, -2.587484712180249, -1.8891722178021468, -0.6199891030955088, -1.6548594820021714, -0.5538264309999844, -0.7381963187718192, 0.39193835314234143, 0.40715830431380784, 0.9317355285592335, -1.862440707153756, -0.7688970526327521, -0.18957202651577698, 0.37948843416731104, -0.3642819942861717, -0.2047540304402028, -0.15412545551619833, 0.31367223302993635, 0.8545388725592705, 1.6597846665831675, 0.546003252302884, 0.8824494346634025, -1.5068769769348025, -2.3787167376364433, -1.5236172434128434, 1.267522255788383, -0.11972521359256602, -1.0864195212969903, -0.7557191512166271, -2.6179129519670967, -1.0427464264817667, -0.034886315374874174, 0.40272429395806564, -0.3240387462532859, -0.3370790665238898, 0.0363777349869477, -0.316618871600243, -1.038824870062542, -0.7270848189385847, 0.930791790640174, -0.19011137987000704, -1.3245284173170981, 1.788027638494552, 0.3654929276128096, -0.7395547320913171, -1.0532483014047753, -2.225137197743185, 0.19397590869569278, 2.923626858776062, 1.958216158257952, 0.37951912008360705, -1.9024790850690827, -2.112973503658194, -0.48658856530881656, 0.1056329430632168, -1.8601705196407257, 0.3248216183590406, -1.0235481893047462, 0.00975315448286386, -0.5948761583248517, -0.33894928174503947, -2.9188968207317822, -0.862682290073577, 0.4065299098496067, -0.018079261474893835, -0.2349951232428375, 1.0656147515224799, 1.7735287408835798, -1.7898637929961718, 0.40782578418508686, -0.896106939412284, -0.35777529868107455, -0.6120465852634206, 0.47383565652752546, 0.406518334390387, 1.377670356564799, 1.590120078995581, 3.4681078714004596, 4.592870889935794, 0.2554037769159106, 0.43711680662347885, -0.8962427588991694, 1.459759666515441, -0.28409312286265487, 0.30763227213542454, -2.0962699627179275, 0.606750962000162, -0.45961827817375867, -0.8328080250356535, 1.0746479665718291, -0.7326994375994389, -0.0772844874334974, 0.32487912582444534, -1.3420767390041495, 1.265812855840957, 0.47702144292393184, -1.408359844612746, -1.3741090127711693, 0.7085624754242774, -0.74958085276448, 1.5740222821123484, 0.5344151967924604, -1.1508941702909474, 0.17826318248668077, 2.326412936406892, 4.298637655794957, 5.251433594629886, 0.8034298115069846, 1.435684115062539, -0.25836148840254297, -0.6714412176545682, -0.30663234096900754, 0.8069035188813838, -2.5080564563825565, 1.1866843213027334, -1.7015094201421703, 1.2158563520219579, 0.36829472265696706, 1.552918830650163, -0.9602234382285236, 0.37327633578518754, 0.0721656126308146, 0.24897515544707646, 1.3553433396551753, -0.29502082523963036, 1.188891001339283, 1.6540066922467136, 0.3545565722140956, 1.926247281303472, -0.45642288788551094, -0.7028553493847141, -1.3674374094626305, -1.4389728413393952, -1.0091213120748894, 2.2011672290965496, 2.036310949752134, -0.3283417715432612, -1.4467350314779577, -0.5554037788677061, -1.4684598416184667, -2.0266468191432234, -0.04387811553259608, -1.0364666315768942, -0.38504070410828334, -0.1636963523325555, -0.14066624664233185, 1.007684897258652, 0.3437457651598886, -0.5118714048807415, 0.43515664250051256, -0.23330850736719375, 1.1872826001732422, -0.6319616233345007, -0.5510642481433519, 0.1447797495208765, -0.5545907934941383, -1.1432348058539583, -0.49020752359112585, -1.322348988167465, 0.6551385318722437, 0.03586474965449552, -1.8124073753526826, 0.5179915469161512, 2.874120282476434, -0.8304851285392799, -0.852004310012336, -1.3712099217411482, -0.18320954800013803, -0.1685205765663328, 0.007620399874414752, 0.5534877968018159, 0.8415014782076067, 0.02263612170547902, 1.3297255191074782, -0.10380812770313937, -0.32112742743047085, -1.81151696363088, 0.8450590682010012, 0.4582786175662616, 0.416496665730163, -0.25453682002215766, -1.7034441627674461, -1.7255504837430595, -0.8298575562637043, 0.8089878378681229, 0.6299400365197727, 0.6146896571061545, -1.368143555697388, -3.047394342199233, -0.5744565795095513, 0.8216025201547428, 3.875289770419234, 0.5692549574816721, 0.5418886476778624, -0.4901817317165548, -1.7763509032939142, 0.8337412624546688, 2.1435823182000675, 2.736862562154276, 1.658890585980975, 3.0755839573468067, -0.49783907738661276, 1.5129136499129703, -0.6365752137201791, -0.7068763919827974, 0.18842122805524017, 0.6143483748431244, -0.8304471650717755, -1.0288073852819986, -0.4451540277153955, 0.37792802227469413, -0.9546022927340881, 0.03982421612209698, 0.06428461709828004, -0.6799217215309548, 1.925330272574554, -2.4606706839386425, -0.7037735951058165, 1.7377152201815134, 3.6762002777425185, 0.40580934682605596, -2.2537731010147146, -2.2078835240922583, 0.9847568617319747, 2.0429270042921366, 1.5271211850137045, -1.9164220816573692, 0.3615709367570224, -0.24051469742399262, 0.8261482005215721, 0.12592600414383953, -0.08228291880671001, 0.9042805608172865, 1.9360274421628745, -0.8037398875253337, 1.939344960121625, -2.584027035694111, -1.841045462654895, -1.4289849736908324, 0.02136694157827283, -1.4982283841021946, -2.2202149619938023, -0.14270684948418802, -2.932660408241179, -2.5814115893247584, 2.627326162228703, 2.8468532056554388, 0.5589248146131629, -1.2624453089552756, -2.956559853951804, -0.6234798891717438, -0.5822568149930608, 0.030792183532824664, -1.878042778643584, -0.5652940547876592, 0.11834620812083524, 1.0665951192012408, 0.04427481093776593, -0.8575105311531088, -0.47596474252672005, -1.3790976940461814, 0.479055530358085, -0.21216007504262469, 0.8593632430249792, -0.8819165453675852, -0.8421919913152586, 0.1478412151154102, -0.6245520910130463, -0.21713930038653625, -1.391788751475659, -0.8300217695741751, 0.06821804133119073, 3.3718441091582627, 3.3578003620097805, 1.0884761319759921, -2.0435698606315973, -4.448512531776996, -3.9337543757489692, -2.092463027218329, -1.9724939258130145, -0.7106167067516739, -1.4095209217081606, 0.06381630836222169, -0.5476121373937075, 0.44418724731379294, -1.2975473329282423, -0.7111142983297002, -0.8587703018921778, -0.7861720112090379, 0.0979956792590426, 0.5676089959387868, -1.603503243466853, 0.6518513612414218, -0.10721615768261317, -2.278825510741548, -0.07032598652742729, -1.8457039748454607, -3.767514899546774, -2.323624611227713, 2.341648216348293, 1.2685810153293053, 4.060852801819104, -1.48369319296158, -5.245058838398831, -2.8835614310388875, -1.7065326646170442, -2.37291807204468, -0.7413814935619472, -1.5544982554709232, -1.84149279847756, -3.0821055105158903, -1.0610689407732112, -1.4627356482509504, -1.5332444958747542, 2.0505158387001323, -1.587962680357159, -0.3974403337833688, 0.8169303950332828, -1.3405722748673903, -0.20659436800254619, -0.50921898484672, -2.5791336064133232, -2.6395777684573027, -1.7192651004979693, -3.559729173834779, -2.098690216821568, -0.7168042464618275, 1.1902344062256807, 2.36347941305228, -0.5752047015337174, -4.249093878460488, -3.630391007704723, -3.5872287769224527, -1.9878726555614101, -3.504150975528531, -2.0694928087229836, -2.439444260595966, -3.7230712340235326, -0.5806093800146083, 1.0609031546073822, -0.6000561710764755, -0.298674607376343, -0.152435197140788, 1.5756360662954092, -1.3439051477114394, 0.5942841222232916, 0.10223283714255167, -0.31792514006356776, -2.201275024988359, -1.4481509564423658, -1.908498104632109, -3.4939813655067913, -0.49108830527658104, -0.8088813506730727, -0.8030227272915798, 2.7247083364078204, -1.279649265506955, -1.0207408403314648, -0.23451208889736708, -0.3260460247220875, -3.0289037960598217, -1.5689994763212112, -2.201737111079978, -0.40648826534194443, 0.50667693876643, 0.07901103123223124, 1.187215369330764, 0.3872306701955164, 0.15806517450283025, 2.082720566650389, -1.526302148933653, -0.23214155634080533, -1.1842956455096485, -1.4368896117183496, 1.204925193907977, 0.27176892351805304, -2.15652744544766, -1.757836124114941, -4.570926488752343, -1.9337284435962512, 1.1807023340799037, -0.5597575019070223, 0.7064567409995989, 2.2157446742339126, -2.0313779951565913, 0.6191010513000428, -0.8461176859967431, -0.5613656252577057, 0.1683086219107791, 0.008179575467886963, -0.7051720486555986, -0.0197313913962649, -0.8331126856353753, -0.12670352187710313, -0.3374348898273521, -0.5871350551123411, 0.7524665900215389, -0.5355715932646294, 0.5354377921581437, 0.757350214833234, 1.7691884285916515, -0.21272961134893414, 1.382594479682851, 0.007877576366833948, -1.422836002404478, -0.3829741869028148, -1.5280143407980455, -0.9787024643798334, 1.3548751875085256, 1.314970411507106, 0.5433880921578595, -3.3537786670496477, -2.1323512270833125, -2.5805743933199086, -0.662177173879792, -0.14898806195141687, 0.18247042409250946, -1.792151259804575, -1.507504548960325, -1.7709768375294248, 0.6369720800581745, 1.7556051742551217, 1.9289282950053215, -0.7017902293111812, 0.1627414956628126, 2.4644824921513178, 1.4968129079018215, 1.8691763735520321, -1.5357030284856603, -0.5107177601693714, 0.10668407431382007, -0.5213352580632877, -0.9865821283824664, -0.17619030862274454, -0.8996230559831953, -2.039853412910838, 0.17041221897906225, 1.5903019930222535, -0.820267405401757, 0.07855180087806846, -0.8028181478967998, -2.609077090960402, -1.91334438458991, -0.2631280252309964, 3.1628893849735054, 0.6959745534741832, -1.096262441246347, -0.6550980867958196, 0.3816707403856499, 0.1279386338106157, 1.0422291340908147, 0.5489115778703472, -0.9057374142497673, -0.17223783395356315, 0.9425153968002355, 0.10998091633979723, -1.7372659249325846, 0.3035700953836871, 0.8501404336021823, -2.2319741291079542, 0.6156128999435685, 1.393743549719176, 2.729790737805065, 0.6037973782911398, -0.44156700742889377, 0.10114181191801096, -1.3392350304301504, -2.2430181102108846, -1.1259119013183376, -3.592224435283101, -1.7747827271066936, -0.5199594067503178, 1.4272702712390193, 0.6709705716894582, -0.11549797763042989, 0.6331542337765099, -2.635456172836758, 1.0140777472640774, 2.5734413615869483, -1.0461722407191496, -0.2748021163086097, 0.07078490155257175, -0.4307800091300591, -0.5344071061934025, 0.0007282932305063397, -0.5810805723476993, 0.228126685028637, -0.3522184922490559, 1.0586996634582304, -0.4869606481853417, -0.6112518875750204, -0.3193639471717686, 0.5595455097806307, 0.12878016233935136, -0.17535895625852183, 0.08899691124307126, -0.5153008639699078, -0.8811873947589424, -0.7677212344801364, 1.55588822786888, -0.25534097983092763, 1.3968949545193696, 0.23431310203851677, 1.153140473075607, 0.6313941238922745, 0.588647612729178, -1.0654991994045449, -0.681263891661243, -1.4209870272464342, -0.2717233928834894, -1.1192755668261634, -0.1037898336585452, 0.33241290474819774, 1.0511290187734634, -0.6249513586323178, -0.4881600920229174, 1.0623722926116694, 0.079149832908277, -1.9942437219768736, -0.9792949401306467, 0.11963328218676009, -0.16215856752800864, -1.7649070476505788, -0.7451108348829963, -0.6018146727632999, -0.06487216836610511, -0.5597184012495665, 0.6682005657285335, 0.8194428543901393, 0.7434960479627304, 0.3180564695783799, 0.3017320428114305, 0.058493780269720415, -0.2641138128161274, -0.768417453377876, 0.48409950864943846, -0.05841849788666685, 0.6247917487707234, 0.474462490198344, -0.02504181268355672, -1.4540597833635394, -0.6776032896783256, 1.4969663930890027, 0.23762683083572161, 1.8748804206506624, 0.23575570008962027, 2.015644465122267, 1.8296263093386083, -1.4683166996678245, -0.35489827995239753, 1.7614767945290384, -1.930098452117453, 1.246342014921468, 1.3721135629602756, 0.11831871495417036, -0.1911437948722417, 2.6226309143334645, -1.2848160498316779, -0.56530547185506, 2.025277548485823, 0.08146609338446809, -0.19979104910242632, 0.3570196520424946, 0.39029146267235665, 1.7166561768502484, -0.498812752456043, -0.819610879785708], [0.8817564121286757, 1.6843264338637167, 0.1651434732550272, -1.5227084260494468, 2.1500538842609123, 0.5505668728819721, 1.2451268636013255, -0.5010685097257829, 0.04688676278553289, -1.0420279571746973, -0.220339092156805, -0.25381374453795424, 1.779688325106799, -0.7159719140575308, -1.0509898703530898, 1.0919550397399467, -2.1468266327126164, -0.22153063461639902, 0.7563401107133867, -0.3836516653770148, 1.2600338902220662, -0.22473683889860474, 1.6956787547908851, -1.1981384904911854, -0.6119163700270097, 0.37837783487938403, -1.0417901620559777, 1.0713163946474336, -1.896122947781495, 0.29307285078411077, 0.7044146702638582, 0.9156490964294152, -0.5092354585777022, 0.5153847840887608, 0.18059118187206497, -1.5852318197624002, -0.7099304427014163, -0.7778713942170169, -1.7650395765228206, -1.26193037753168, -2.0318765499949576, -0.9100764299869972, -0.4482708857030763, -0.15236320962748803, -2.061098224858803, -0.8081572343240198, -0.5246369585489509, -0.8641727637254771, 0.6570430069697266, 1.913117543140589, 0.4441816029051232, -0.2581647419825687, -0.5492765864890204, -0.43009667324174006, 0.10619045869522865, 0.23596606121663297, -1.8060561268442117, 0.15337180974016146, -0.1762848557986832, 2.1859317289711733, -1.4370962602735526, 2.101106122821317, 0.7692841202331051, -0.505132263993153, -2.782440476491195, -0.64854673913581, 0.9839099447789346, -1.1872947805242478, 0.9891259986335061, -0.17110080347520223, 0.46883729091142956, 1.3816584892834163, -0.1575758487960816, 1.3751334488583933, 1.4373879420680569, -0.9604857923871555, -0.1275048136942688, -0.3713141434838907, 0.7221320359167682, 2.008015682490144, 1.896017755045382, 0.7277945361274862, 0.3796436843021862, 0.5485749692839703, 0.3364237893463263, 0.4654041486242944, 0.6984964217073089, -0.7028728925330688, 1.4177925765477166, -0.4488269524573766, -1.3556256589556235, -0.2396398547984118, 1.7629928526466112, 1.3813561189270835, -0.27558153524314116, 0.38033200252406696, -0.8538335441656419, -1.4535490054844729, 0.06108066467898954, 0.2061890058459487, 0.7485729549142303, 0.8418372904283884, -0.8557043811269134, 0.08803601231255315, -0.5626385542248106, 0.22398026584716216, 0.5511514907209847, 0.7970369500000238, 1.3790878340444312, -0.004873398953532938, 0.8395411340427866, 1.0360199455535903, 0.24194482729936667, 0.8382779804465971, -2.0260637709802394, -1.1582282776289918, 0.318876428841313, 0.4102193843201714, -0.3115977534293726, 0.04672753993859604, 0.2135612343842072, -0.7803520630157612, -0.5596548633679258, -2.390159194173548, -1.5949862679023419, -0.6331678245472901, -1.345953534814044, 0.9144885017624098, 1.8069212366803353, -1.7532127324534585, -0.8438075898240831, -1.648024946846054, -0.19605419581488673, 1.2762627264116473, 1.4676101120902973, 1.9125895764669114, 0.10206497248211774, -0.4482270202472734, 1.9364184136143705, -1.1206833163418028, -2.0156321583941423, 0.2996862238398896, 0.48181288631764396, 0.49915464148823, 0.3486073471969061, 0.6896394613445964, 0.5218582002072951, -0.8050829163840532, 1.043448766474257, 0.9519382476533528, -2.451567138851577, -1.1252075963100328, -1.491653317951458, -1.2987877638373722, -2.1231109111107083, -0.6214616367112292, -1.5690177042677003, -0.9802240497127112, -0.543189235404151, 0.04331396240683391, -0.8020663510620141, -2.0369781472363906, -0.25494451986888345, -0.24254655508145206, 0.9231820232568972, -1.130232242990197, -2.5500542118556737, -0.5724609999538794, -1.3405551331346373, -0.15321707663504852, -0.5434200492415046, -0.39757152105453925, -0.7213006624237406, -0.3680434262372481, 0.46270896308459347, 1.361061704764718, 1.2367725048441063, 0.36975876300843513, -3.227210966830393, 0.38650055136943556, -1.0632115809799114, -2.204335713274331, -0.8669408614337435, 0.6419996395352202, -1.0768220102329042, -2.7268358275587166, -1.328417610988808, -0.213373342240975, -0.40772763669956125, 0.45155647416353817, 0.3223405464039678, 0.8459378981540908, -0.7614016326908856, -1.7348267745295614, -2.0063076591662297, 0.5643780126735161, 1.4209465924163558, -0.4561649193328693, 0.9163670186041541, -0.7265086529023167, 0.5399352640101782, 1.8173923319856566, 1.2011288929617783, 0.7246339002859747, -0.21647304088402977, 0.8991394014931229, 1.055546287308801, -0.26140149180450756, -2.289837300808026, 0.19091623789342071, 1.528123984108798, -0.8241788543671451, -1.9386027229432294, -1.4482114530505277, -0.9820494508279827, -0.8433622063564331, -0.6882870463800066, 1.5207823420156492, -1.434823732360889, 1.6445592943640108, -0.2681000463484873, 0.1798728064847204, -0.6751468304453294, 1.4104959009455358, 1.1612836676914922, -0.3801148603722317, -2.239420909013205, -0.14730991222162068, -0.8583479232445831, -1.0510567012495882, -1.7091178955922015, 0.4786742351984982, -0.5410845820121212, 1.1311302119888875, 0.9140318790096954, -0.8807064375617082, 0.6234489898068684, -1.9923585649460707, -1.2957143356700718, 1.7476171935699663, -1.0227731383773886, -2.4352041483689213, 0.5975769272064357, -1.2637129645205682, -1.0466090138484216, -1.777825306148914, 0.29196210254405786, 0.4979158823818941, -1.1088710399719717, -1.0265533551340982, 0.07932858256665602, -0.5609953192977849, 2.287504446492109, 0.15312184583083857, -1.2646123356342676, 1.6034761589335975, 0.1440149603874128, 0.9371298800724495, -1.217709863815488, 0.14477278774269478, 1.5114519643010318, -0.25250970358041175, 0.2790492175329499, -0.1822092553486651, -2.695613740286239, -2.8411906912650937, -0.7127715850931085, -0.4755671885713249, 0.7001049511550609, 0.5121604585727575, -1.1156783776570538, -1.7577115885343413, -0.5044600608236299, -1.677563345546475, -0.1462517024481081, -1.5967403008388579, -0.8817273914362613, 0.2536331424856786, -0.6233792381776156, 0.7152212544068123, 0.16687391865818105, 1.4442266372004875, 2.9627854459481995, -0.1674687318994839, -0.5044236213196422, 1.3686777831409733, -0.08721147474716462, -0.5156631377199651, -0.02880288592475868, -0.8611384120745234, -1.2415889485680764, 0.049631447134289526, -2.0263740023390775, -3.0570631819446623, -2.176505245591528, 0.8453933683527624, 3.4295416548541926, 1.4407890006945703, -0.7374453686765532, 1.0093171114257995, -0.6429823096026613, -1.8876182710727818, -1.3514231094305997, -0.5520757737098374, 0.81549199127985, -1.2000997598013077, -2.075914253840543, 0.3373224866722296, 0.9195078736434328, -0.35295660100618775, 0.5569390463198497, -0.09231245184421394, 1.0151926774782372, 1.9218794220954425, 1.209470745484836, 0.6916269601054065, -0.029554757910133126, 1.6893911262929284, 1.3897453027813005, 2.5343925767099713, 1.445810749036795, -5.170528782160452, 0.5450345071197309, 1.5545757287088198, -0.06931942755051879, -1.405778003922069, -0.9893507091520614, -0.16782145596824616, -0.5104629609577037, 0.9493106095284889, -0.6903832554836911, -0.1546787634091191, 0.7710594214020756, -1.4511425344218147, -0.5460207925611373, -0.2355735981069047, -1.6886701225191518, -0.05770681043476015, 0.8156164014056965, 0.1660301572329942, 1.9844437120170415, -0.23378167663949606, -0.2119971463426701, -0.26741478245446004, 3.1329815873000806, 0.9050148177703831, -0.47972888375141015, 2.059633558818058, 0.7088540592654978, -4.325077044386428, -1.8117084677818651, -0.5701981996136005, -1.9734659135302572, -0.4098126765959879, -0.753433230254426, 0.70799538608674, -0.7869046082040757, 2.350100282113431, 0.7934768337252752, -1.155549791595992, -0.4539816047000527, -1.1514133741332495, -0.6085359556803582, -0.9072012018902995, 0.13855574760440384, 1.3021697135465415, 1.4228060455521507, -1.2122809634102614, -0.1436545106380594, 0.44692865618835476, 1.535933618380864, -0.17082904766293308, 0.22188368458034372, -1.9901797364939655, -0.34864465040497816, 2.4945187087012015, -2.6768703817362427, -6.163451512397457, -1.6605132537909997, -2.6957392159905407, -1.7033891776464538, 0.376662292855474, -0.3638885644505881, -0.07040304429918101, 0.7621996654148965, 1.7194554370133137, 0.20900809447310056, -0.2078439535700869, -0.7277185885401446, -0.4969273796526315, 0.17688422506850024, 0.5579061495199128, -1.6751218547957727, -0.49615673699294244, -0.9061482447676461, -1.6943123140024725, 0.8541889923938051, 1.0226594929103119, 0.8547553862824221, -2.0733134741102264, -0.6028021631989656, -0.4432228901870201, 1.0458103460746042, 1.9470441724142733, -3.52296872599497, -5.012469863131905, -0.036485259578487396, -0.12769519913113733, 0.9031372523757768, 2.346887438496047, -0.5104363166973315, 2.08608369832148, -0.1404175844912138, 2.0484213380443363, -0.19607045336128803, -0.341530648788921, 0.6148879493023242, -0.3297766274349572, -1.9801708600693126, -0.9417654110136076, 0.5407578968574869, 0.2834768399116582, -1.301271994132139, -0.19120170086210167, 1.371659525713375, 0.5723904063783646, 0.03694571209211089, -0.2071973539416312, 0.08994586370065098, 0.0426090048773247, 0.9242170588699894, -1.4003371833694227, -3.2350801967127474, -2.7255432307112715, 1.9018437243752713, 2.497294511784536, 3.0065202426885103, 1.7083197330004984, 1.0853841520270056, 0.14584324549768174, 1.9616094590763626, 0.9941860319293709, 0.7281886524720863, 0.533934051225035, -0.2396390227367047, -0.2224911210766648, -0.28356923999008354, -0.8466366618188832, 0.24645712323041294, -0.7500877193958494, -0.7054983890505492, -0.49651805974038765, 0.8593196691104366, -0.5095699819811667, -0.711073755263832, 1.0596656552717567, 0.6924420808272712, -0.7424780225185165, 0.4615698860568845, -3.353128490388898, -2.72325138259119, 1.2809238715345803, 2.7728149578852808, 4.926132128452322, 3.617732008875644, -0.5024112926291411, 0.2116838777721717, -0.5898284130228807, 3.0607773815777586, -1.1571505553170665, -0.18490787452747243, 1.1365012807615122, 0.780871722901202, -0.0923508185429178, -2.297147719459212, -1.6977737898620755, -0.40885662271873163, 1.2384024913801215, -2.3817623527035496, -0.042934101960175636, 0.3882018242346781, -0.2489433753543992, 0.3956618201227451, 0.8637421766869577, -0.6230255266736929, -2.977498407502483, -6.427861458979558, -2.385195142858502, -0.8991921315025054, 4.499362541214056, 3.1917934475615897, 1.905641398057873, 1.3598603974979124, 1.5482911538863793, 1.44341301681868, 0.7462769416435275, -0.19511005029389136, -1.2537724763220843, 0.6582874609871914, 0.4255035668343682, -0.40358286835769813, -1.9723827932574536, -0.27739425505106297, -1.9946180443443045, 0.706186815609866, 0.9248691671549775, 2.119951678926736, 0.8411409042964717, -0.5227879808059167, 0.2485270129184619, -0.24553761219568118, -1.1594861586511291, -2.0502227483095075, -3.2366107046065893, -5.789386787686451, -0.968513734171597, 4.428058177779308, 2.671412849906128, 2.291532347337932, 2.35200169199353, 0.11192412245007421, 1.3119585902080895, 3.14147088612401, -0.521961176623913, -0.6609011286763656, -0.1811516920963211, -2.0982262192587062, -0.9289144631275947, 0.882879390547621, 0.11018538274207824, -0.26413355894574553, 1.153255524138349, -2.039337304497694, -0.8454279750324084, -0.19336975228642397, -1.0981583823107506, 0.11989493794173375, -1.6708648572820524, -1.6674151178898122, -3.288869802534489, -3.640692171836805, -2.797833228906931, -3.816114279181763, 0.5173349088011105, 2.1406040364824475, 1.344899419527181, 1.0730225843228982, 0.6908539970200762, 0.6065859371463953, 1.7536600706861618, 0.9742222638990607, -1.6661344263840885, -1.7562483659300083, -1.8733224455976125, -1.5317935381443626, -1.5402204829765007, 1.6068288990301491, 0.15962339758747637, -0.21953084354950275, -0.0494592256684542, -0.3165421600925676, 1.3983406413406472, -0.035793421675344377, -0.9102256592935756, -0.7472362579818946, -1.6490826784353956, -2.7139128517354556, -3.2115192822490464, -2.4687504922175365, -2.9800113056883837, -1.0396422124707432, 3.2816828047085025, 3.6061730261711187, 1.5350684938118537, 2.2022250779537833, 0.09536480900669433, -0.5827104094293355, 2.8416385670455786, -1.5085029462498845, -0.5595834223664808, -0.3140791205954416, -0.21393306897476777, -2.812044637820447, 0.5485565869155468, 0.6828415905145298, 1.4383164585718513, -0.3632603599786741, -2.028733637645724, -2.4068713689675114, 0.2830915970044467, 0.8586870731016832, -0.7583921611520172, -0.10564963137828454, -0.6805798920909724, -2.2997705350303974, -1.5284662992215705, -1.5540196474873884, -1.2607688852422796, -1.1557635566884783, 1.6738170983247713, 1.4278837789913668, 0.2055820264949284, 1.5285529548358094, 0.726568137453147, 1.6944946643442267, 1.5818228646462313, -1.0760428830510274, -0.7187528221125359, -0.04623749727783845, 0.37352744632183715, -1.7030060113820045, 0.4465821682910617, -1.6352103439726744, 0.6488368832389395, 0.44171174670408514, 2.043710001475336, 1.6771180625096078, 0.8012762407084749, -0.15121245728648308, 0.596908773758077, 1.1040893291820626, -2.7296849780727652, -1.2793758753214048, -3.0956841968315096, -0.7631759285833938, -1.504857056587831, 0.967426004458105, -1.7402545931395066, -1.7140263482228335, -0.03166542487511413, -0.3518120225553267, 0.16931836977336406, -0.27273451413784044, 1.145978775645626, 0.1338962991526858, 0.5912517770582372, 0.48051777463799844, 0.74809746740362, -0.3711873188858286, 0.7437557692818997, -1.7196588029945625, 0.6360444686240867, -0.8888365311209144, 1.4961975005405672, -1.0864746929077098, 0.9392018073028731, 0.7915199860960501, -1.1576063406915562, -1.5933921851817545, -0.8585658173681201, -1.9262822470630983, -2.7760257108203814, -2.0624790866448732, -1.1322453391298997, -2.2365150704956482, -2.33036868553275, -1.3119357726998906, -0.30211669314813644, 1.0621920898295827, -0.7179427951688746, 0.47139818516078336, -0.9636731613933185, 2.1329604317130944, 1.886252304240229, 1.8648358369819769, 1.5235364135418552, 0.24691071434635833, 1.5336853681185056, -0.015348149890553994, -0.731906544627302, 1.7172740875085848, 0.0017983642538753689, -0.11378717904902384, -1.6668812904308217, 0.8002405697410456, -0.28904350480018676, 0.7859822264057843, -1.9114642388811285, 0.3863044965510554, -0.7582832466914705, -0.8364231075182729, -1.0769660888754837, 0.5927423639490437, -1.1969885371717153, -0.1070713439891512, 0.705431367028333, 2.6171320228417074, 0.8525083474433458, 1.2772737772908618, -0.39801056591688805, -0.6112066890414141, 0.8281125191094751, -0.7935877001054825, 0.45901993740841546, -0.8173167550939114, -2.1250145032745658, 0.20297079555105205, 0.5987765644300765, 1.6831444303613143, 0.924256033641131, -1.0421513835853218, -0.5215625375458253, -0.4616771071273418, 0.7509765662825012, -1.0921438358142401, 0.7707724633295815, 0.20658555790372765, -1.359465721813214, 0.2304422507006558, 1.2261871296043187, 0.22008960448179385, 0.41740623121305337, -0.2059860285664496, -1.407779904809719, 0.9318200344011714, -1.8000615028470315, -0.38752613629678395, -1.3768653493167278, -0.9442363837289448, -1.5241723550263773, -1.0846192377625068, -1.7979656944914342, -0.3387421062317785, 0.2672968410836949, -1.271119796780528, -0.8748745653652377, -1.0156815089688997, 0.9184582649104641, -0.9837970927632934, -0.22265451419010465, 1.2152009662744958, 0.6400541153652903, -1.1635826743370983, 1.7958853380829236, -1.152659865286046, -1.0411566776341759, 2.1622101708818584, -1.222124786657352, 0.06738309616433237, -0.3418172812826262, -0.45295611772644767, -0.9361907401146659, -0.16250878092673743, -0.3346684230882053, -2.5395702587316107, -1.0443202912357106, 1.0866819295872747, 1.6945115569220246, -1.1289078295243227, -1.7744708118856696, -1.6639281185429884, 1.7914752953545852, -0.4676987716327066, 0.008160570545811697, -0.8371203539028154, -0.8484288210764125, 2.223734851001041, -0.6306503491244042, 0.8698930833639307, -0.7946682118098153, 0.09098909117093787, 0.43400259371951, -1.0896910779713858, 0.6412908729697315, -0.7352400536445316, -2.7996297485762787, -0.1283543512082389, -2.1354173992966747, -1.1325770491897695, -1.6706872152622843, -0.46006386154260903, 0.4121842233369029, -0.3353570847823563, 0.42026330803531314, 2.602235247898223, 0.2053963302008345, 1.9865514775293953, 0.16280974047895294, 0.8110483431031354, 0.4668758625121854, 0.11091195344578635, -1.0885552952020496, 0.9269052447748175, -0.548120685303389], [1.1925006363776254, 1.39505136244645, -1.9529962751672705, -0.7238370064767587, 1.0088920574021463, 0.891258884989161, 0.7731180787782316, 1.1748799953879283, -0.9658261545889001, 0.5237156663773658, 0.6456816219748812, 0.21412226073146634, 0.8464691655586027, 0.0328446435799532, 0.2806634687351724, 0.8403143266082351, -0.5370445135724491, 0.06857793022895979, 0.25126184168752763, 0.05561258640100363, -0.3224860055347527, 0.010901094501764508, -0.02488397330796212, 1.479406297955819, 0.737699519627048, -0.31181404346570213, -0.43424693062424274, -0.14841472457599703, 2.130652602872222, 0.45203587300630493, -0.8819893098096071, -0.8847437309889152, 0.4964118838295985, -1.795870381548981, 0.2058853733015586, 0.34262070581553544, 0.2916400625492748, 0.2855224021763688, -0.3151188546369554, -0.08681266388896605, -1.2915284805834872, 0.14318597217504508, -0.8208826291631759, -0.4048062276871015, 0.17471479673615148, 1.379264182293566, 1.01229417503527, 1.878092686386297, -2.238674810664746, -0.35041134455398676, -0.3317531250798053, 0.3788930563257477, 1.1689695931272803, 2.167741209292467, -1.1327487704066044, 1.2861096283537898, -0.04574366428084634, -0.6330829909231938, 0.9374486478552243, 0.8722523838149141, -0.7181662689275875, 0.7760096295907426, -1.1678969040042368, -0.33562296098683086, 1.0923521526512128, -0.5632840514543268, 0.4181704811018242, 0.8478943442751562, 0.4479991623677298, 0.6154401109436284, 1.8849452192277916, 0.3497959794842515, 1.1102704439061633, -0.08485022907174382, 0.7359436885270935, -0.3760033030561959, 0.858806348045162, 0.499782998001025, 1.0463957310737646, -1.0110733873665763, -0.7766653610524498, -0.407992657356571, 1.2162067964134482, -1.3854999330710063, 0.17868026860181394, 1.019569811851117, -2.1625731674910296, 0.11269791703768617, 0.7181900177082005, -0.5559505041905233, -0.35696478030489787, -0.4482924090274056, 0.4361940459002183, 0.7026319638513882, -0.8972555796384092, 0.2599176689642261, -0.37269666133153867, 0.28247407789727386, 0.04019856268295956, -0.39052788573929437, -0.44361812357210667, -1.4567776175825502, -1.1535243167081985, -0.378851571894392, -1.1360040652604755, 0.24444140975441442, 2.3524691077258923, -1.0226841413537973, 0.10528378810598751, 0.6275871034336048, 1.0098088055179455, -0.8459429647151766, -0.1172337651085298, -0.5365901478397029, -0.3980812936902439, -2.772813708676907, 1.072725382907273, 1.092607046992027, -0.02722337003935464, -0.33741259741448465, -1.5127062102800046, -0.3571297588112204, -0.24954015842938174, -2.7139508258124376, -1.8362295197609617, -0.10212528224855504, 1.1160127049945139, -0.4538026519976637, 0.23561224610468567, -0.48448628885301337, -1.2917513032174481, -0.6359935457649094, -2.3495863939510784, 0.2986747073260886, 0.5278487198084059, -0.5603610285293033, 0.40265997389355823, -0.06577820064906473, 0.6308171254440105, -1.1565273090842167, -0.1473985343991759, 1.5466404659729656, -1.3077428478194153, -0.42912989642730764, -0.5347230012144196, 2.2596220815068264, -0.21535498397223474, 0.6352318748682954, 0.46268547044332003, 0.5898061444264645, 0.07803089368334494, -1.7643030234735175, -2.5825255458627083, -2.3207449403949143, -1.7652471067086946, -2.5173067037880794, -2.6357533622445644, -1.067482070760298, -2.8909840039129393, -3.6655338419429278, -1.9540325153708211, -0.8186688960699415, -0.9525329557541465, 0.8095095157622914, 0.7143688769254357, -0.05474478261055248, 0.07463260108815342, -0.5965393064373244, 1.611838916367382, -0.00424322217332729, 0.8132856727959742, 1.5339970408831674, 1.0150944196300284, 0.697109218271319, -0.6010392780493791, 0.8740876405158371, -0.6100901631897613, -0.2199962703109861, 0.05944533916541781, 1.3906646786440144, -0.1389129208468044, -0.3840586565754416, -0.11330721586217889, -1.0095741157849951, -1.776629531338843, -2.70965359554495, 0.7294737060776678, -0.44137253441740143, 1.1043901632655475, -1.6303218399125965, -2.3721937939242643, 0.1733307914157366, -0.6389531042193262, -1.0482392522947264, -0.304553116424703, -1.4394948535243541, 0.22640473843245149, -0.006893332038506398, 1.0068166867288093, 1.3645437093305954, -0.28193528399971374, 0.49204253528315167, 2.680981750966665, 1.2093276701140685, 1.167545966242789, 1.5838547108916303, 2.165719999215216, 0.4434572469168477, 0.4048658099314035, 1.9360422499362389, -1.7118841764145678, 0.38396657515934657, 0.04751563881319876, -1.1765628181638685, 1.949769123410501, 1.7015427322109253, -0.9072918136568422, -1.6371820755424624, -2.336823967020163, -1.0684826761322437, -0.5358044149367907, -0.10627323234446351, -1.0235640616569235, 0.1457537956368067, 0.8661131244431427, -3.134994238044516, -0.7692249899055627, 0.1134982135742095, 2.283109265647344, -1.5257473555157326, -0.9449393880642399, 2.745069774764363, 0.10473019242280909, 0.9214422867092731, 1.64012347584909, 1.0965069778627454, 2.2783646279820475, -0.5329935990403741, 0.7003172274128715, -0.5316102961214201, 0.5322839657162248, -1.1329274819856325, -0.9823789631599732, -0.5582713370461299, -0.4058016060935904, 0.789860285555563, 0.768640415709283, -0.1597597868806124, 0.12941248479785822, -0.044856954184154814, 0.15293486644750692, 0.4905626727222012, 0.017608459636162987, 1.2639118812294736, -0.4698828249905883, 0.6990773620556101, 1.8592444960080197, -0.8532377187966425, 0.39530234444121776, 0.5690290595326454, 0.557725643239622, 0.28112221417870037, -1.4376527359681943, -1.7313345190667133, -1.3056125339225868, -1.4436868266579306, 1.2537404331805706, -1.6258653476073583, 1.1449174501495152, 0.06770193339536706, -0.1829996342955908, 1.2045301249782736, -0.5347447561090658, 1.2702028302082722, -1.3689225321106824, 2.2655225847885085, 0.45056369729421747, 0.10855087445697596, 0.6185553207093214, 0.9280010225743621, 1.0692548316228865, 2.5262877147605445, -0.7968142410571712, -0.07543641757445235, 2.0406537586035243, 0.39374956713232584, 1.6956365566618596, 0.856598641773219, 1.417349344297693, 3.2734197893105375, -0.11927855864327302, -0.9270442796306987, -4.327838091269189, 0.5961466651719433, -0.6108086773484219, 1.0322782892105802, -1.3554864495883672, -1.7477934098650998, -2.0300107850800004, -1.7339695636258095, -0.14509086759884424, 1.590545146888823, 1.4071261404891016, 0.6210633299166727, 0.4666892600751519, -1.264974847499417, 1.1050246391230631, -0.006778860999489092, -1.7185700737596128, 0.3277239601862199, -0.6163433602930949, 1.1376028216263838, 1.2411728754328029, 0.1638726967798356, 0.9557794129423701, 1.2795945851252357, -0.6495654527825205, 2.4163416266142113, 0.2639952674623992, 1.1779911870341915, 1.0552818364583365, 1.5342645442920424, -0.37912801338901825, -3.106845900726784, -2.24945268007112, -0.6713534816637288, -1.0862937942388713, -0.909818790019343, 0.9743951342860142, -0.5658584779806477, 1.500188366537732, -1.476107522802462, 1.109091602189941, 1.3999293745836263, 1.4667494824892864, 1.5208101542792969, -2.297849884793405, 1.0864968192442805, 0.6769566111061208, -1.7048394924989911, 2.373820005468333, 0.5217694267923073, 2.8857787473716074, 0.5960406850901091, 2.168871093617541, 2.430460677299709, 2.775740382188483, 1.8516861041000823, -1.1666780932732013, -0.03950455377511436, -4.284184929860199, -2.6509664371091777, -0.671945753735394, -0.5415793727310719, 1.440414595702973, 3.0225122649483036, 0.6321854598749563, -0.1644837518916253, 1.5568627421242107, 1.5104483969251592, 1.32354925594542, 0.9759199445165023, 2.239029530624177, 0.15753904202122404, -0.5591211406625032, -0.12208691979961306, 0.6024403745562653, -0.2647393973272341, 1.1047215727899995, 2.09627965260818, 0.4893878642771165, 0.91318297778505, -0.11898714874002322, 0.7748514641285924, 2.1462713045771844, 1.8498052974688395, -1.7643765876951771, -2.6325302951774825, -3.8496243523997853, -0.5075387177949438, 3.2389805198983153, 2.222150079758841, 2.245450911280446, 0.6107698872644677, 2.3427957170506772, 1.553366985220723, 1.0458582995561256, 0.08359702863680674, 1.0928656488770543, 0.9829946085159168, 0.5670678940126077, -0.7908597259604806, 0.06741930121268618, 0.735624107578223, 0.8197203156256682, 2.721791865209609, -0.7232162291470167, 0.515268436255399, 1.0469526133579432, -0.3036649902280611, 0.48348623927208567, 1.2161027901481833, -1.178412088506279, 3.036199347904257, -0.6561020056492748, -0.824051017846152, -1.392087254997092, 3.012238670507485, 2.6877064380639966, 3.11686252862157, 1.5926044369901768, 4.797735139651733, 0.19475066244641073, 0.5748366730896635, 0.3696818650207476, -1.5658232563100098, 0.29864632738830577, 0.6609013244467437, -0.5188572882260807, -0.3960584921490808, -1.2035582042245387, 0.5750419182534029, 0.2657428129447697, -1.4790885466283756, -1.338100811958113, -1.0803865413936866, 0.10420417039214981, -0.16195603974219225, -0.7545671990655459, 0.17107049322786982, -3.2432054798169205, 1.4287103387733364, 2.429905532630077, -0.07540006001568385, 3.8791070147909443, 3.930597031381924, 0.24690058073806115, 2.455545077222902, 1.497554148072037, -0.45629820121879, 1.1679501438828814, -0.984919610157701, 1.1714293738827624, -0.4328316331749316, 0.22753262471489843, 2.3541076788367823, -0.49040082140954017, -1.1396898393962482, 0.22527477428795026, -0.25254708861907704, 0.5824049395869921, -0.2758506689599472, -1.2297448141038947, -1.2932965260395934, 2.6700488891869982, -0.059837070751409545, -0.614218253141156, -0.8984541078854061, -0.8405588822297311, -0.7356535275542339, 2.157806680473609, 2.110074972043015, 2.7378909122670385, 1.485005512561735, 0.25358887177322714, 3.277519062363844, 3.4098752314324283, 1.2248199291350643, 0.09423643254889513, 1.4606641204986504, 0.6221252763129701, -0.6544499850153614, -0.889878539366322, 1.0763481349440427, 1.089348528760218, -0.18050085458722143, 0.3725549888638498, 0.35448198815536086, 0.1970963190341773, 0.666175100161227, -1.8682639008200124, -0.39784261386165415, -0.8352557475805512, 0.7592034698892143, 1.4324166191667003, 0.7480296329512344, -1.210381973036533, 1.6915623049082558, 3.0890807778020957, 3.9078355964514855, 2.931313144358154, 0.746382635728151, -0.9723327844106021, 2.190053828375444, 2.3365041160992837, 0.2448531960666479, 1.0856286387228957, -0.17776655248672002, 0.2962843506905136, 0.9151834207286832, -1.2554998474823957, 1.0501565822706462, 0.47727046310417937, 0.5980156742830963, -0.10788292981594343, -1.650026070070035, 0.09801353552671775, 0.2834514133815473, -0.9124592826308967, -1.7765236635538784, -2.0369022382435227, -2.140280927110901, 2.7889756566515334, 0.03296565913343371, -0.5025167000482663, 1.2572629527315171, 2.0818107947479896, 2.3185480383553507, 2.925713319078783, -0.6022119530527064, -1.0397226434009774, -2.0240378402358137, -0.5267544276761683, 0.3473479825554365, 1.7563697498659934, 0.8957156738693435, -0.913345518477765, -0.40369870441882233, 0.39109056782347623, 1.2718286434353248, 0.17726443553098387, 2.155826887282617, -0.7698702136495168, 0.4792268832952554, 0.6669841915448194, -2.8604451832809, -1.6385866865170853, -1.3867196868756295, -1.161833553777892, -0.21737026368945064, -2.0330102422305423, -0.7441986162338795, 0.12700559145205975, -0.20884698134676433, 1.4994873411578988, 0.8975638207830859, -0.9286747514421605, -0.46480654915930436, -1.917820748216636, -0.6107143383930846, -0.5897210437348152, -0.5172894414667526, -0.737807804452888, -3.9895899228898135, -2.82574901305705, -1.8180947128061038, 0.1848252462854107, -0.8606053529804147, 0.1457319197496681, -0.30994843634036956, 0.5018467907091363, 1.2223511181727342, 0.7954551176223074, 0.17292864217277104, -2.343267561101072, -2.650225124301173, -2.8629223623142224, -2.932496300157257, -0.935909374733136, -2.1955579174580504, -2.145378174605293, -3.2259723906310263, -1.8390360437025093, -2.5353992481729084, -0.769716812447759, -2.184789239174183, -3.110142264447634, -2.184797131978132, -1.0599016962297474, -1.2003418776072428, -1.3714921852094346, -0.5929896646303425, -1.1230603920750617, -0.34670686301480597, -1.2833231599263597, -2.831467684956767, -1.289137266416814, -0.8610297703582744, -0.4124150456115195, 1.491321689786384, -0.060300818809576495, -0.6839327306318372, -1.4081936663524195, -1.301099581939417, -2.59425171243402, -3.8331109577633873, -2.7646504128292415, -3.498125430427723, -4.049590564263053, -3.612335700740419, -3.2170907817198104, -4.518707403416853, -2.931191436160963, -1.9769739819770116, -2.5604748880878683, -2.6068561906783354, -1.8590887487660999, -0.00785390076085083, -0.5472935939759933, 1.203192146614265, -1.3769001647231511, -1.236550890695802, 1.3238384731088522, -0.7591398198507407, 0.5478651265036554, -0.512146385010679, -0.266869636279208, 0.5257962370358776, 0.26077346407540136, -1.9993314904133137, -0.011043058428947821, -1.332392425779515, -1.1557192512413663, -1.4418090129778942, -0.43120559611562176, -1.2377063978568645, -1.5148236453336457, -0.9907301153053466, -2.0697317913666327, -2.6546849596537947, -3.0226333918371977, -2.0711871831027477, -0.5550208729730356, -0.12390796470033463, -1.86245481955579, 0.1206608156524351, 0.40441391525797304, -0.7208038642568636, -0.6826182212506998, 0.05795902432736963, -1.6258294130044488, -0.3638902622974704, 0.20450362165805175, -1.5970269036434117, 1.0789968787320308, 2.7395014273925784, 0.5633807448936792, -1.711107610969607, -0.9974330802727125, -0.9243078583962705, 0.4489807079745449, 1.3773012230072328, -1.2778842952100637, -0.9464377464495428, 0.2166245568818552, 1.6463871929788265, 0.1398402854432702, -0.7810606747369603, 1.3022881097550032, 0.6261885951758623, 0.5497948532272995, -1.1526858312028259, -0.044144884694683986, -0.9544292506703677, -0.5307714671425192, -1.9564474893340278, -0.910485841221023, 0.0675409426449074, 0.3025295829367068, 0.1256428667877971, 0.06547998882705465, -0.6864162598469313, -0.9985644328415169, -0.63612326253426, 1.338023445789021, 0.8155494179774624, 1.7788093224500598, 1.1702189670661947, 1.4130390673955098, 0.6479356656039357, 1.2428636994460027, 0.18641366311633262, 3.260897756367167, 0.9867582283080897, 2.0129894894179796, 1.2927782671238783, 0.9426430128309637, 1.4519116661174045, 2.0708742983435067, 0.7564643866102375, -0.1167023139323468, 0.6899636187734248, 0.5570275727993468, -0.3407853117462745, 1.543702445341563, 0.5752739207707666, 1.1768296831542753, 0.2873319604661544, 1.174850060566938, 0.030903455629441332, -0.6463517557506663, -0.8235652006367616, -0.5754656633837384, 0.5691044080782456, 0.3118313364542992, 0.5501472824858283, 0.9431470173028429, 2.1502688633374456, 1.8620267332754143, 1.0105158106151382, -0.07760280376074125, 1.547526736447518, 0.9253169038482645, 2.623183057317744, 4.5005330083643935, 3.6800097755430965, 0.7141152278389457, -0.6993863334612507, 1.2241751537287908, 0.9246331338803889, -1.5321635062563628, 2.1041004998205475, 0.750046147226482, -0.32460789169662724, -0.4096185588550742, -0.4163733983780621, 0.08276408522094944, 1.6320931940499013, 0.147849559250548, -0.4276483958738772, 1.305702709676144, 0.35438598511554875, -0.6820587459988651, -0.926377605304397, 0.886135977472766, -2.262278275882767, 1.0457991892036473, 1.4591023650869348, 0.14939755446680156, -0.6950677499879433, 0.9559955470798385, -0.6379404985441659, 0.30794933596260304, -0.250447913181414, 0.48751220549518653, 2.176342781010887, 1.5378195043520626, 0.4712615701388449, -0.5722651641853657, -0.4798444034595461, 0.8348503328367229, 1.8263861159155323, 0.7819766320860989, 0.8700112579856769, 1.3979005718361375, 0.6029583800992737, -1.259369059235938, -0.053788703975259686, -0.10325813801199406, 1.9850218408641702, 0.6999892139248667, 2.1028785477740497, -0.20509130395184477, -2.3749665564323688, -0.0003569484093404992, -1.2847902935459408, 0.5165992383265426, -0.5546003748315372, -0.305662395465857, -0.04435818096506072, -0.7606114879236149, 0.7386513663131591, 0.9131907875380857, -0.30534854670850686, 0.9111664443657836, 1.9526335835091908, -0.9470164634589172, -1.7378934593879634, -0.21143131806595483, -1.0274072441030642, -1.1981201143401494, 0.7105711664620482, -1.1426690250392786, 0.5799982387006437], [0.6732683084794951, -1.2763674391137854, 0.22125292309289046, 0.3603025341309508, -1.1698229491490764, -0.42870125104054935, 0.112464737610044, 2.539411251593879, -1.1315343131851383, 0.9987243071993692, 0.5559764245598168, 0.27389605179998316, -0.11874779155250842, -0.12682731304707712, 0.5491783586039087, -1.3609650235768762, -0.14235622015923333, 1.0932013088926897, -1.6959907752228616, -0.9325438479114416, -0.9881343933167999, 0.8657573182833651, 3.0315529919652406, 0.3860133824509256, -0.09037227678589678, 0.22288733505301192, 0.30440307828859164, -1.1704754980482135, 0.7488821614592552, 0.6752370703656345, 1.3439860744871268, -0.1584233597280362, -0.22404144493235745, -1.2361058581706614, 0.4829004164390772, -1.0447637436932302, 0.013126990620482535, 0.5825889473169115, 0.5892295082253094, 0.08696202665774415, 1.8256665272860946, 1.6256791895421552, -0.33426969405071766, -0.5327839700817909, 0.042951856454053694, 1.50746047520499, -0.3268572996326382, -0.36174551990767895, -2.5336791531671166, 0.9414641794834075, -0.566550276746494, 2.111870342945318, -1.5292954033317798, 0.4979895225192913, 0.08061905283222688, 0.21146752643325215, 1.7343196250397235, 0.756712929015116, -1.0915824723848868, -0.9873877562583764, -0.3012891273905156, 1.1545784015311373, -0.8818292263597062, -1.2034352787202647, 1.877314169370244, 0.08923665556692933, -1.0604623890894167, 1.4643754079153526, -0.8612480452197624, 0.1286564886584652, -1.318501209781129, -0.08730340780517928, 0.38133172280990413, 0.6858833946644036, 0.2301239340387703, 1.0577514275182462, -1.1181669355641317, -1.2094513867762853, 0.6551703147914139, -2.423255651212535, -3.3216531335940553, -0.04978644140632751, -0.5619406406709838, 2.0436043392960954, -0.7646197356925806, -1.0087156105852377, -0.6230154367266126, -0.12929615566977448, -1.4830104923045424, 0.707683214147577, 0.23175751197651967, 1.4913816696744338, 0.022224131039610986, -2.0468108160728495, -0.3766951992860899, -1.9950550995798864, 0.5906197820299548, -1.8504724749644696, -1.4810173455579556, -1.8869244045846125, 0.4565964513664209, 0.21704769958953624, -2.149010431712436, 1.2649483250510747, -0.7910245513978063, -2.098769829446165, -1.533003163404668, -1.3273755326330365, -1.1580817665432284, 1.9353026075946087, -0.6147530104780066, 0.4026896317667894, -0.3296033743687897, 0.8436549750782201, 0.2861098274195962, 0.07493037021510573, 0.9638814716848637, 1.6614841431064395, -0.5009802437735835, 0.3925776300143393, 1.3747145017934261, -1.4962223141226851, -0.6342688165340632, -0.4994762235749303, 0.5266751210870426, 0.2980776108993788, -1.8398403790978806, -1.3748986612483458, -0.9419474788844617, -1.1388755585541324, -1.6186900366929924, -1.8265208295224624, -0.195233276430091, -0.46693791169878734, 1.4716711274433072, -0.32067456724651083, -0.3121533020017822, -0.2506936209424406, -1.274855033239284, -0.03922209730811093, 0.10838108269802563, 0.4203765851930127, -0.026608140849977015, 2.1402271327599065, -0.3937410564340363, -0.45052832244820773, 0.8720732632949377, 1.2998169447552166, 0.8043137529768631, 1.3148395139864475, -0.5266513231568201, 0.2302075191108688, -0.22845813112641497, -1.0940721754035627, -3.895742173867653, -0.8912649475586453, -0.5159372044396862, 0.10029473134864098, 0.05321327153072791, -0.6623969390825936, 0.6447680698660873, 0.8144194584127333, 0.03963875920212755, 1.4764756333143494, -0.23237671920516925, 2.126064983858206, 1.3060165120130012, -0.32239002637138975, -0.5510093120978221, -2.3315231860851666, 1.3914450732191208, 1.2431513697284737, 1.0883151965024422, 1.0094566699080498, -1.2836316609100775, 1.4831062484359339, 1.3639212307048152, -0.9751794039755857, -1.005711795590171, -0.4967561246547493, 1.04509932226221, 0.15254666957635238, 1.99923009940611, 1.5082542241568533, 1.7851099493067284, 0.9206718835755936, -0.2510497439373391, 0.35766241496705464, 0.6121144186022144, -1.2577059037314682, 0.49439367041648163, 1.501897980960949, 0.18221485999134499, 1.505854848333048, -0.652405839104497, -1.2893910704485885, 0.649737095958625, -0.04877232781390929, 0.4923849411145409, -0.20668342028925174, 0.10110246970395294, -0.44094740600148097, 0.1088449649417823, 0.017877841190474832, -0.7153344491290334, -0.6551313654454833, -1.12501685862824, -2.8399669066788342, -0.25705383248715136, 2.612386791044456, 4.4940789742434735, 4.295518703981908, -0.7046479993775465, 1.1881023799047599, 0.39070207844995114, -0.5754800807696764, -2.4749949502664124, -0.6490151295406367, -1.180209654918411, 0.021724329616397822, -0.11437145371815328, 0.8615363821347062, 1.0610508360429318, 0.6213651071120656, 2.4267287876761867, 1.5588491774517281, 2.0501196912784216, -0.09854417120467523, -1.4792771171337533, -1.6080852171830828, -0.6399836932272382, -0.17819095774927976, -1.7196813563609221, -0.52371793579653, -1.221471363219062, -0.5991630316346458, 1.1506622209682305, 0.9758358712417692, -0.5689697974839766, 1.1581006614315414, 1.968153547143823, -3.1353673455331386, -0.08259453535039177, -2.10702584934645, -0.7265596240201253, -2.4490122970846735, -0.8499935837667186, 0.41338841740123466, -1.1318729610553533, 0.7675390339812627, -2.2231058353138744, -0.43968619158135536, -1.3549316134264218, -0.5651862772670028, 0.606950176030815, -1.508561278630203, 0.6093861748708908, -1.4654136938306395, -0.6902191751763735, 0.2554165723140193, 0.2272236171043474, 0.28190382962662525, 0.4462522175263798, 0.7040079459111909, 0.11070525163476289, -1.5134095623050636, -2.6474273901982492, -1.9616433034730392, 0.7734691312968076, 0.5130082606269268, -0.4434215571607504, -1.9083335797000809, 1.1935788756935126, -2.0114135725446003, -1.6434894410124854, -1.4309443907685269, -0.07212152941744754, -0.4820068220098684, 0.4810641682334696, 0.01846150243618873, -0.11598197060455437, 0.6875552227529603, -0.9251080610021765, -0.3868159893356716, 0.8437522430903182, -1.1408546377261124, -0.8045819087963176, -1.343869547737194, -0.1822122428751376, -0.1213094050126059, 1.447720337131092, -1.7128546717715714, -0.07953505428549554, -0.982528835195233, -0.1853960282611337, -1.5702522479496037, -1.8486995508767465, -0.5937433083008112, 0.7584744935088183, 1.4220552770870796, -0.569299675609492, -1.1671585158993325, -1.2129014200004777, -0.3399443948982391, -0.460817137009849, 0.5740571763325212, -1.6669196730369644, 0.0001886130929819793, 0.544010996330518, -0.22717133678501011, 1.2222512432183852, 0.35612116017324713, 0.43040139183001197, 0.22239178387308656, 1.119538656795935, 0.8510888140320024, 1.6406122721836567, 0.819402444537806, 0.16226277532377234, -1.083512088584478, -1.9162210444122147, 3.071269463429742, 2.3783519175369454, 2.459205991710662, -0.6778727908992328, 0.6725711847537486, 2.544361994479389, 0.5504165108718926, 0.6903032874616873, 0.6536731100843152, -0.008053489833373539, -0.3127341493420988, 1.4632716109554205, 0.10728179432508683, 0.44418579893682675, -1.1348731810165869, 1.9158704952592582, 1.1247330319997852, 1.7715871871407864, 0.4818627630511575, -0.8267483933879489, -0.03303422586030104, -0.08877510603632126, 1.330159765053296, -0.28274277660455777, -0.6685278787566663, 0.1656029099749439, -1.3406261263568207, 1.3151482948886941, 2.0931148151444336, 0.9707674677448092, -0.71874977461893, -1.7952274124848022, -0.9523131108637926, 1.5762502363556719, 1.7314848815326878, 1.9889074248372631, -0.5157128761696805, 0.6281689319518172, -0.15070426187521144, 1.6170313830743244, 0.9804358613538788, -1.2380158743261531, -1.0128122910346435, -0.3907253335863158, 0.5350606298405458, 0.9224444431593583, -1.2667592302717894, -0.47615932658717786, 0.5058589297930471, -1.2849250736911308, 0.510054832321828, 0.7140275840891218, 0.6699490178437189, 2.5840009135811206, -0.9611181650339314, 0.6990589234612278, 0.6065250043533095, -1.129196815433388, -1.8091437529639791, -1.8786526182508312, 0.641059380745418, 1.5246646431678217, 0.7715048313492889, -1.2998441556823066, -0.09833989040010765, 1.046833441273605, 0.004939292113769875, -2.138751926172949, 0.5674320206512588, -0.1733662812309381, 1.4001791904624206, -0.09341614089063169, -1.4103813231483238, -1.055083585604821, -1.7689504011050023, -1.2776913296512737, 0.5531859129509947, 0.612192271565224, 1.149356559827877, -0.17529459002072098, 0.1680471364325654, -1.6568591961163481, -2.249007969152855, -2.930190147863102, -2.550402831868034, -3.1262185515148184, -1.7355207347901782, -0.9662813935151325, 1.9351868023301155, 1.2806556746520528, 1.76684689458175, -0.19428210777395458, -0.2856438175786404, -0.6776594646787641, 0.8859028360600238, 1.462473418033832, -0.2646827427100078, 1.3495723894782725, -0.20044590303096096, -0.5144231228560977, 1.15075189398001, -1.3371821854293873, -0.26363977613910516, -0.031592992979482294, -0.9654173059564223, -0.07443843184938492, 0.17834943290213415, -0.2999020682953446, -1.6318823283182635, -1.5106584668456275, 0.4182010972294493, -0.047738752573031666, -1.7650247503317735, -1.2023060961213827, -0.10251837763837668, -1.2925907214831776, -2.215822648170032, -3.6936715980797943, -1.3010491151552521, -2.7000383016817775, -0.12850564372566664, 0.6336463063725374, -0.41650599781899944, 0.3252472675408047, -2.1995615758374267, -0.21924809441746893, 0.7581277051898035, 0.5116776762041089, 0.238644052648355, -0.7115741054754939, 0.34197812080662976, -1.3210974687478565, 0.936019423876909, -0.8968423994468667, 1.4929501531559333, -1.0725763711780654, 0.4014361298989678, 1.3537088510856283, 2.776789288369875, 1.5292534187187656, 1.2965132846867642, -1.9190659603940285, -2.321420660477718, -0.7729013539377749, -1.8402751382385587, -2.4718573208757535, -2.984329108057938, -1.3545273090947711, 0.8508109882509989, -0.5414047278986542, 2.9226021666704134, 0.35502346225112696, -1.4187826375334358, 0.492951887023063, 0.27230569930429, -0.20381706139088948, 0.41889878599676894, 1.193994576537991, 0.4844226035324415, 0.20241856158557053, -0.37822174801271485, -0.3958750636460666, 0.17108683372717323, -0.85744252821212, 0.5489482786023473, 2.255115192199738, 1.057405366911817, 2.355550660055572, 1.3530630963696995, -0.32600929087664543, 0.19203000051093028, -0.3998688193429754, -4.051798746821485, -1.143950748335831, -2.8375365856779493, -3.218713977592817, -1.654705694668933, 0.7200518426866038, 1.8266350167912488, 1.7095894926164488, 1.6991427804199428, 0.2815093012466276, 0.5119427520821908, -1.1192942685858112, -0.016016237954594347, 1.3984192464058676, 0.4388236704910362, -0.28862982283242505, -0.4524994126532712, -0.8421882985154473, 0.10918488890559788, -0.543657485406451, 0.7583994961324472, 0.18387999584354076, 1.5639909732052926, -0.38857168550234733, 0.8526165978211353, -1.665526504630853, -1.451811374933105, 0.8067111616415515, 0.4357381824829305, -1.0513053162943102, -0.2606546023044535, -1.8560158560252182, -2.039889526522174, 0.6923092680102255, 1.3799654488708706, 0.14158275544686402, 0.1916884540396152, 1.4186910040652099, 0.23276811059110922, 0.0013423758463884598, 0.8464305135855951, -0.08759052338756096, 2.112038151605541, -1.4706503563825863, 0.7757417839447809, 0.0016198436533635299, 3.0517905530882143, 0.9331879064330145, 0.7655269152657376, -0.6738320420334648, -0.13161917607624243, -0.29977200682778204, 0.8287420303162625, -0.09199068800316763, -1.8712088679631587, -1.5922146553443068, 0.24604624717190618, -1.3523080423031966, -2.0571198618403805, -0.3903609562246033, -0.4945838573482428, -0.2762398956731321, 1.811495157882573, 0.34202632552894413, 0.04806461071369349, -1.5954396034331606, -1.0410815441530838, -0.2756960321455292, 0.48012305993967547, 0.4230730798836608, -0.18597415498903447, -0.9616902080269537, -3.303009576504931, -0.8418641632147578, -0.1625679885504421, 1.2653071403555722, 1.3149704711054835, 1.3092220077833405, 0.028876713996741087, 0.16226659336557944, -1.1876702850052734, -0.9752290554255589, 0.7857796710804555, -0.8620566831376738, -0.03816158460838817, 0.9855847051893205, 0.23794828721328967, 1.5237174708626477, -0.7323409310481763, 0.9300617617217347, -0.5919920103933751, 0.29704448308789894, 0.22332765703627525, -0.15817961665791183, -2.321325288693657, 0.14948563327550776, -0.3101610291626764, 0.12337103583207167, -0.39054292041340466, -0.5772444824923795, -0.40024741050416895, -1.6935613192449266, -0.4785160676171769, -0.6087805923236868, -3.6508252164659, 0.7809641867499036, 0.011843712735247737, -1.7148570491608126, 0.7921242676269822, -1.738900262136901, -1.7988372601351956, -0.7601129736399389, 0.5054251950335534, -0.5636686799078497, -0.05035444153070613, -0.31065333878014845, -0.7606272839544077, -1.9158852899675065, -0.3693914538423006, -0.32871433814006445, 0.2090817044229261, 2.1878537636595774, -0.1792020615924135, 0.2378228363624958, -0.1708800336727598, -1.0769306131203857, -1.9991792142191358, -1.8271315516939706, -0.5046525100553737, 0.24969445450947067, -0.6240994906066838, -0.8822178610153761, -1.9177271586209184, -0.6090835634678965, -1.8006960782844306, -0.7159128405952204, -2.119901348758077, -2.3133270382145024, -2.123454490330819, 0.9018547031958806, -1.195394068416055, 1.3893014948418558, 0.954273693457547, -0.8413613296319836, -1.024795943490561, 0.9292552691576857, -0.028321087994370962, -1.2766439076583285, 1.3031766080745275, -1.4908097072238848, 0.578710034641281, -0.27339133990663306, -2.151988633359838, 0.22204954330215648, -0.18195090136932662, 0.13725391193867806, -1.442863445383647, -0.4414161688890554, -0.37977019585714444, -0.4886052129215607, -2.2874639082437627, -0.3186018456777312, 0.8294280671255565, -0.9440772116205065, -0.91096928888842, -0.38139501016766797, 0.3807919759565416, -0.6704789576351167, 0.7393855982530338, 1.8119982536679586, 1.849306307047783, -1.5023845027605174, -1.1513459146029954, -0.3700304828038897, -1.1122967101393217, -0.02059112350983971, 1.1725572002413347, -1.5510803741689865, 0.3225835832028647, 0.7260950433206945, -0.8279795729768231, -0.9706054564616221, 0.7763097208738634, 0.17272837542628003, -0.4430602843610569, 0.5784309442894935, -0.4916086679929851, 0.6048381179806551, 0.40558732553273047, -2.1169275206123634, -0.1818083287468807, 0.003396991488970703, 0.8288016807501671, 2.055039611022101, 1.57404077804746, 1.3116195719960433, 0.36346499987684144, 1.287032770998336, 0.13717325914009598, -0.07955626332029751, 0.27675680086319276, 0.054380727824140954, 0.7565056860877307, 1.3632573711206344, 0.057409648915201436, -0.6644121591725367, -0.18267007928470294, -0.4930093730001068, -1.171325595784575, -0.8622797121436485, -1.6025033991464974, 0.4259282988297363, 1.873890346933517, -0.39586523732014256, 0.9767138189922456, 1.4925025392629672, -0.1559073212883081, 1.8316353089997093, 0.7550386814687252, 0.6566451105295747, 1.7278972976047928, 0.6500297585476815, 0.04178896860176839, 1.9127956923215559, 1.5540056771465194, -0.265562317486749, 0.8869183596796536, 0.23111756235636804, -1.5956721684798798, -0.28456803916053236, 0.34510195796511567, -0.7352857513938451, 1.053538042119952, -0.556107984037565, 0.9154055418996595, 0.1440402877130275, -0.5507840749375963, -0.5168191821910813, 1.6076467159585788, 0.12848221607645413, 0.39483875842614735, -0.4242669865524849, 0.5969178220365838, 1.2916197866002688, -0.5821295175220864, 1.236359462351616, 1.3518852355425008, 2.9339706414721296, 1.6137543643483225, 0.7039927108886197, 0.7246016179306637, -1.5547659439278387, 1.0729235700208508, 0.6150118517233728, -0.33628300822226537, 0.7187402964417933, -0.26089156147692766, 0.12440964837028701, -0.7329432060225017, -0.05884009004085009, -0.7772799797222683, -1.3486847439160707, -0.4367876555732301, -0.7365247092195669, 0.8150599115490925, 0.5284116321615258, 0.6064580877026289, 0.08992874483407857, 1.6438172035566987, -0.3055811610101083, -0.07635159023399482, -0.16913323285503604, -0.45824848252176786, -0.41612801449077463, 1.7557848024073128, -0.7782377634203653, 0.32726467754097777, -0.5134658066785147, -0.5973062674047338, -0.1395900668747735, 0.3766716989596866, -1.446969446492005, -1.0074387007126737, -0.48388128252756785, 2.3347830967386027, 2.3539066731804077, 1.1491380356963923, -1.6580432120863715, 0.41191275475704736, 1.2913180836312712, 1.2094999800530974], [-0.06271901610951126, -1.3619232830436665, -1.4495282287741964, 1.5916979187378744, -0.6932109817974963, -2.758390712958769, 0.9606133378708923, 2.700625127055213, -1.1420608419387563, 0.05844690676268531, -0.09343277733343403, 1.0163423485801315, 0.6261618307102809, 0.4001558206217995, 0.008903159117903701, -1.0595041819250384, -1.0649229416583255, -0.5134118756704095, -0.07433189183078098, 1.8859321691044142, -0.9236045427017332, 0.18978480664756564, -0.5694607553018075, -2.3698556739971472, -0.36499830519681836, 0.534215858413628, 0.4352901117202949, -0.34031210313989313, -1.1286252769542011, 0.3600146423610284, -0.7449578046757216, 0.734570438607475, 0.582901491419529, 0.14056258488047907, -1.4206689530756351, 1.4732908178594353, 0.8393609954082636, 0.2903364350704965, -0.26911151786351784, 