{"biases": [[[0.29547193994378684], [0.013310419880911405], [1.3926536527719406], [2.448120929142024], [-0.887164632150548], [-2.5774596157170655], [2.1262026269108305], [-3.3327129922054093], [0.3614475586018874], [-4.136370541677526], [1.7549037319101597], [1.8590292922676488], [-2.1996913206051247], [0.6712000251344408], [0.10429775785886836], [-1.3555824162588805], [1.3309163672776134], [-3.5503963749021814], [1.0148776772685306], [-2.2017635856007356], [-1.7191182673459124], [-1.9609841592265418], [2.6051993036262178], [0.8802964570518063], [-3.5988382134159087], [1.291359930476775], [-0.1134396127998908], [-5.213472638730938], [0.3817893003154084], [-3.2928161758528893], [4.661732522550884], [2.7348855778278716], [0.09980616204482186], [-1.664851974357905], [0.7496636499639922], [0.02911766809316499], [1.1029022160421988], [4.45536606038411], [-2.6037937013246473], [0.3218283852291591]], [[-3.620220373296855], [0.930370016048371], [-0.7038617813990571], [-6.28405877683413], [-5.002826407567638], [-1.4804330691145084], [-3.1613047931393683], [-3.765471122437943], [-5.589334012304177], [-6.299517212404296]]], "weights": [[[-2.6098503943945586, 0.6132263956610777, -0.0893708763890736, 0.43594193960257654, 2.4918966629048898, -0.7646178932423399, 0.15883777330370832, -0.807153944089892, -0.5111245647329168, -0.9842479726181135, 0.0825623005469459, 0.6393134065875732, 0.15814805942862756, -0.29110540565545484, -0.3603255822594123, 0.5948112519795903, -0.35843953462956557, -1.163308202315223, -0.28123484161437584, 1.9792458870878382, 0.16247994628062834, 0.0543865636717047, -0.16842777774464274, 0.004817946726105553, 0.8994492395932893, -0.36456273762068536, -0.35745728781982944, 1.1299352893993295, 0.7485378779253408, 0.27812737887283145, -1.6977370476197404, 1.3275805949255255, -0.20450320374642325, 0.8146350116574953, -0.05882219708386206, -0.91066949046616, 0.5489707660653875, 0.007634163069451312, 1.218526331604919, 2.131195656163959, 1.0664728680837918, -1.161394032103373, 1.08573580855782, 0.6878802122124524, -1.6996460983362778, -0.3242730209433712, 0.22644068690475047, 1.1911680998290768, -0.4649202288960845, 0.6899835695601189, -0.4035956792576104, -1.240840796465654, -0.5001563811324079, -0.8290181367760782, 1.6783253572621681, -0.30103337152850057, -0.693063550502652, -0.042094068027870316, -0.3604624217142065, -1.45901735968299, 0.3187545896429266, 1.9558116901668934, -0.1953631498904365, -0.08039016512594886, -1.2633710381578485, -0.3115201401573725, -0.6952068490166592, -0.6114995718486268, -1.694613312337299, 0.9673275631768876, 0.595545271161001, -2.090509889937706, -1.8394928032152027, 2.4507959291679673, 0.3002755167656591, 1.0024680279195897, 1.4523887706392813, 1.3421474633228108, 0.6284345505447595, -0.022641975890386225, -0.9691354762014256, 0.08129063111087452, 1.7281644783760248, 0.6998911468903023, 0.31176933248032623, -2.810203326946586, 0.09903326062655797, -1.292697533965805, -0.3381833686152257, -1.688333704078717, -1.2608491772030805, 1.449672174161341, 0.8517277785881031, 0.45681420783367854, 0.09357440936385292, -0.909662972756447, -0.7998370943859288, 0.35781991506210775, -2.5153129374089, -1.330028607071429, -1.3703241341735564, 0.16456043101701934, -0.7682425110407725, -0.2653098235323734, 0.2947338638881087, 0.376003718780592, 0.7653024543951521, 0.8465396466979812, -1.1184822592211792, -2.4004852145088518, 1.5603115113454913, 0.3906992541642034, -1.3120453406295465, -0.1135376587878292, 0.8956993716833539, 0.3654254504906273, 0.21858452889576444, -0.4540301885079998, 0.8859521768262146, -1.5166347386752805, 0.9945701485114881, -1.2788195168770582, -2.7029763275509153, 0.10945624396319037, -1.4011483889742866, -0.5726089808721537, -1.432639012576873, -1.8751602084473966, 0.4500722985479983, -1.5920843602225816, 0.4441919403298423, 0.5681116295874261, 1.2163155101932173, 0.8228650740036899, -1.1996896208002563, 1.6236025467303814, -0.6371710034293812, 1.6035472617253348, 0.4573555004271753, -0.2875851290959545, 0.9687330014227432, -0.8904256401634927, 0.3866031028929491, -0.19339663201713797, 0.7381966313823896, 0.5434128276170247, -0.8004291478415216, -0.9957846145981808, -0.4771832105819141, -0.7295608389119076, -0.023652893739424526, -1.4157416133714589, 0.20587212064058644, -1.8538690104054554, -1.4540212428866388, -0.46519325566055814, 1.2031320058725505, -0.4775708353504723, 1.2663083571748917, 1.1436311905728396, -0.462008359763879, 1.512916894781492, 1.069723401853826, 1.069250800705655, 0.6281595638170719, 1.0536526323931055, -0.9169534686090772, 0.13449018091337372, -1.1137623104398688, 1.3458129714975453, -2.239320359462237, 2.243371369844825, -0.5695081397581829, 1.3692821388634464, 0.692430491764224, -1.0012326484175074, -0.9272674001325714, 0.07647203881726147, -1.2351261563676756, -2.5382160192685075, -0.6222728225474373, -1.4466559948763382, -0.32413367159650036, 0.2699190457872977, -2.4293680127767328, -1.5783224010570969, -0.2051950180872589, 0.7797826864145806, 0.7266502422417193, 1.7989398288457752, 1.4402775053670127, 2.3277009618252644, 2.516815090760582, 0.29978053994355275, 1.2919308333538424, 1.363532824895997, 0.7486512432425942, -0.6918306928336426, 0.35412918815881633, -1.3270132873651683, 2.012298762999857, -0.0019438185018814578, -0.5675849278315946, 0.3740795601069373, 0.7223029776090395, 0.8622356724160924, -1.6413676584588581, 1.2303634705126587, 0.054666053771461845, -0.7121065410713963, -0.6422147100136826, -1.2871258704098767, -0.6883702145093237, 0.006195274773201699, -0.4368293630274794, -0.31400423817700107, -2.3982775913720076, 1.442696955632021, 0.8494363945851182, 3.549054372331545, 1.426010500006292, 0.6028711085650466, -0.41578680752582886, -0.5061697327609597, 0.6334545755302171, 0.23660716994435613, 0.5582175715777965, -0.7501844956657187, -0.1335515117127972, 1.4046759751586677, -0.6423933298492116, 1.7671712224985712, 1.045756209288351, -1.612297619039003, -1.7003083600814268, -0.808607677430795, -1.7486164529575672, -1.994714012601334, -0.45439995086849794, -0.9009156836254294, -1.4677359653877773, -0.018061590861793004, -0.20036184203030716, -0.13934800311744583, 1.7291503599104276, 0.6233260446899392, 0.26450436498411467, 1.3831960727986383, 1.8560943854215903, 0.5922260827104492, -0.7643812974674496, 2.071644065326336, -0.7381333306738779, 0.9037822466617828, -0.4992633771072619, -0.1997247024829917, -1.352656674348897, -1.1653569726276152, -0.19622109546416405, 0.5496218593372039, 0.02755919457022084, 0.12344748431192197, -1.1637854841149895, -0.15873557391605211, -0.6864661442417522, -0.3021257036576325, -1.977604526416632, -1.8109173420810436, 0.883854936583688, 0.8174876071840014, -1.0553326258475222, -0.3933961853801234, -0.3246265275787492, 0.3410301104455705, -0.32994180792119315, 0.4514294986072693, -0.553176729971033, -0.12126239301098204, -0.8866954499218065, 0.06701773537471052, -0.14129097908266106, -0.18202354831689868, -0.7326253141529799, 0.5008956215274211, -2.3892750548235124, -1.3728736595523272, 0.26895833202469555, 0.8768985723179812, 0.8686147979099249, 1.6662754361761964, 1.0157473609819352, 0.24808704904881046, -0.3135367234024151, -2.0178526933290244, -1.3156450019217933, -2.3028878118220852, -2.620052201038399, -2.9879976375295114, -0.4066836311598018, 0.5525199879621494, -2.7205165537292566, -2.700428173390487, -3.624797765076753, -1.3104485651350106, 0.6761531999324432, 1.3148645974160287, -0.8237971943122085, -1.000300156000659, -2.0065481813467496, 1.5352144571089394, 0.5223422011575483, -0.7662855239939326, 0.4957432388866037, -0.6798561422526184, -1.9188807549135358, 1.0623735268986363, -0.39795426538961787, 1.6330128668538306, 3.511527830713095, 1.3438264987358535, 1.8750340454865357, -0.2998165626519419, -1.9422899201247634, -1.3908147075381052, -0.11728828970910019, -1.7868830767216575, -2.306422166484703, -3.3034782012224158, -2.600261105678767, -1.2187570816758686, -2.86425121306997, -2.200806980457009, -1.1645057283149347, -1.3397115055983362, 1.1973117994378126, 0.6719278940554595, -1.6346656219195979, -1.2341049474347343, -0.9316768898340184, -0.5831632451292252, -0.9387482174200326, 1.9508714964591873, 0.15105464457078743, -1.7176846867156732, 1.1272881242268042, -1.5095059916969364, 1.2961976781849964, 1.6059116666924758, 3.275813114845609, 0.6419198780129036, -0.5756504128352741, -0.9424962124347216, 2.049257336271295, -2.8333405145328814, -2.0457306211135053, -1.0267262482073156, -3.8736532576132583, -2.142191450067764, -3.2177317468450424, -1.4235745689878767, -3.028313969645725, -2.056958274504387, 0.1905649352615651, 1.348588820151828, 0.531431800484017, 0.3730890389537073, 0.9089388914050704, -1.04951293654812, 0.8343361061502628, 0.15233055786888391, 1.5438317901641556, 0.3542658694235357, 0.9601616962008359, 1.040930102956105, -0.19600169772692372, 1.2319503543778891, 1.6203307123137933, -1.4389297867748274, -0.182346851798245, -0.34204315667407076, -0.3523480326307289, 1.6525517890048937, 1.2208495035929459, 0.15551824448549212, 0.5277436905945077, 0.29397041575454436, -1.023926668732341, -1.4676588527468735, 0.9852077245934581, 0.01880122135110838, -1.8150478622816262, -0.04895807965842161, -0.23572779861402085, 0.07272236983840001, -1.9179619085385833, 0.37585832795893015, 0.3394898366908558, 0.3965758904957706, 0.8216961777628392, 0.0021350698371178888, -0.14033957793722293, -0.2922704378717169, 1.09884279411314, 1.2168592514212124, -0.6746888468081005, -0.3228366273838247, 0.5186622643872125, 0.011651313949417187, -0.7393789824087664, -0.009189063735464617, 1.3426650250180836, 1.5234041896797264, 0.18828424089515816, 2.132059072774207, 0.7319840380523063, 0.49247050756342287, 0.555948646774744, -1.207889555962735, 0.43467839434071454, 1.4416824317279833, 1.0886044156821593, 0.9911257374686936, 0.4175155632069722, 0.09544137624157875, 1.293734503596784, -0.7695846542080307, 1.1637556517525611, 0.37493189119145787, 1.3055576664411985, 0.3741088670514555, 0.4232119534200585, -1.335173679165512, 0.5831332236265793, 1.120059362465514, 0.9861519095938114, -0.06806266281467464, 0.2868603624817153, 0.02380842904932595, -1.424134561647925, 0.5054801589483909, 0.7101762539713758, 1.2166453664322743, 0.31181572584786643, -1.3781221983650334, -1.5344019955687076, 0.32422450487261917, 0.14009800296261551, -0.0662244898912697, 1.0986742249711197, -1.3208299235709229, -0.8235675750346938, -1.3638955919438136, 0.9695370069072188, -0.8303465639518391, 1.0095370348886263, -0.5870805397388723, 0.5236562034995172, -0.3127252909050977, 1.7119857687106048, 0.5064928049013577, -0.15276762396619115, 0.11004710505718875, -0.38233973054514553, 2.2644831113725403, 0.22525552241347255, -0.8913292496919957, -0.5860348676431822, 2.054424400341151, 0.467245051755254, -0.3927567313979278, 0.7076574885246599, 0.10233477955475988, -1.9045856175489557, -0.6131927911278546, 1.4135775454776969, -0.9083935514707053, -0.7724195326997653, 0.08711541515910724, 1.3483632008042303, -1.0931117279663056, -2.5404049145386853, 0.7764121354201349, 0.1532389285532514, 1.0904439712409857, 0.30877106856068737, 1.9649843926292814, -0.12015695280488317, 0.231182977252708, 1.1185283106031456, 0.3899135777252478, 0.9691344588181816, -0.8931819620427096, -1.479053664603974, 1.406215302307716, 1.4566536555087644, 0.6655230402003443, 0.33959939237330294, 1.9470953259333275, -1.068626216521138, 1.9141547385081379, 1.0983180188614217, 0.5048686953407943, 0.9279308468257407, 1.4996271245216883, -2.246047327802798, -0.3008861309706896, -1.632031066695411, 0.060270695736859406, 0.3299984630508844, -0.039205669400192274, -0.8328689231001695, 0.7539269807283537, 0.5112684063673701, 1.1284008751093981, 0.2716929635190891, 0.8930763386122562, -0.4921001598296297, -0.725707362032561, 1.3265292849579227, 0.34494539085972853, 1.8100244734342525, 2.0166429892505437, -1.181447091738263, 0.44853598706915226, -0.8813571527945628, -1.7151503777914634, -1.811065803456924, 1.1495112509629266, -1.7242332256233295, -0.7017518226371714, -1.0220843904311414, 0.3466139408724469, 0.4942636499910547, -0.15373016544234738, 0.15869704817992109, 0.6778243609350276, 1.8991782342015995, -0.019100814823206507, 1.689653602857161, -0.7940016382910317, -0.5775198501099503, -1.8578979143737415, -0.6541032357592803, 0.8956767180873255, 0.933302585305153, -0.2472977328286958, 1.6186280287546373, -0.9106341189066071, 0.26253383003341996, -0.8517078747225434, 1.0057274689763849, -0.7615916055582005, -0.30704376933467553, -0.7132383101051363, 0.7618473617119428, -1.9066533347105095, 0.44121905419221497, 0.5330010178419389, -0.7412115404153838, -0.9696598417882817, 1.225553621804347, -0.470294095982343, -1.5159465092218638, -0.8778852520124483, -0.3191416856996673, -0.5334124797543645, -0.2768033329557345, -0.9702199123449683, -1.2912383292668583, 0.9699654244591879, -2.7666611289347682, 1.1771575145373683, -0.5560284520074178, -1.2012796195906321, 0.8489895085009208, 2.4531880871200027, 1.0736493140275123, 1.5901627839378611, 0.08721603627652395, -0.4313686924418156, -0.13450142782366414, -0.7625459854544638, 1.6928265724577172, 0.15021269995582562, -0.3279376127919849, 0.40722967107559194, 2.7638897971466903, 1.2171089537060686, -0.10861719298316339, 1.0901833092833226, 0.45731456188545333, -0.045003236962446014, -1.3582052932965403, 1.1911866034722187, -1.0573277254010258, -0.8036359596042041, -0.9181193101100775, -1.671282464330996, -1.4245075128106464, 1.5605554468247569, 0.3202738272965295, -0.11123840970812653, 0.1841839695363907, 0.2575406084434033, -0.5418053466520406, 0.8557670559886406, -1.7460618685384701, 0.5852225600626346, -0.8229863765494593, 0.20715883572597077, 0.037095533127498116, -1.0663569640252966, -0.12538593627970712, -0.42985695159073795, -0.1251248707901029, -0.6185113235237247, 0.30391102772726564, 0.6260891960397246, -0.3799355101497105, -0.5814259789127734, 0.7253659864663027, -0.22090918039579227, -0.37909815557285764, 0.4488476614110149, 0.6212898424957067, 0.42493572446840655, -0.8787880794790381, 0.4249858083386901, 0.9175659161816846, -1.167957040228611, 1.3073773239427007, -0.7129716735399337, 0.3696640728617928, 1.6518646884540547, 1.8002057802404066, 0.78929192375654, 0.14427001307574613, 0.6693749585321439, 0.22742478514956666, 1.0460793852790704, -1.1891965740773158, 2.1244327826708482, 0.8602183408030231, 0.8674651506922619, 0.008197344474946274, -1.0326310638807727, 1.0696519944431464, -0.23338143500032246, -1.1193539986112633, -0.46405841977036844, -1.6769165705679552, 1.154116407140583, 0.8462635437657258, -0.9797447760984036, -0.06100990939893202, 0.565030765368797, 0.4414562386228815, 0.15458107642885996, -0.9349463506860995, 0.009182142468020309, 0.699176547138035, -0.7769741256237445, 0.20397875797236148, 0.7188867596014891, 1.7899520546345522, 1.0517896162943594, 0.26139606578946073, -1.165912506664436, -3.1426812852087327, 0.6630595556288831, -0.9894786153242423, -1.4925846538852845, 0.4797164412236825, 0.45804369892256735, 0.4220517116325652, -0.0485733408776864, 0.5208506827778643, 0.1779584949781269, -0.4803861188776473, -0.38789338860231587, 1.361310542186943, 0.06772657294597544, -0.2738607469358929, 0.04770232590066365, 2.3418437411152917, -2.1783589310880442, 0.4788660665519288, -1.3389211229752525, -0.002766720235405955, 0.008329235903590452, 1.319425290135908, 0.6430693002967767, -0.32665128491904216, -0.5586933021342612, -1.9752568355674327, 1.0851343238791678, -0.07123541988708063, 1.5723610792803475, 0.1449256185273064, -0.5186971127769593, 0.10668642334606881, 1.1268777566306794, -1.2388558380300188, -0.523537406895152, -0.2532404262353291, 0.6347133630789916, -1.4253684569522571, -0.6273183528811079, 0.4774231088423511, -1.9438407402400826, -0.9444637210158199, -1.8254625865359448, -1.970025924005368, -1.0631871963837232, -1.6507768731423502, -0.005746706167286121, -2.097651569651252, -0.8702570525261039, -2.8132053152864116, -0.2792604810822804, -0.07104951339169328, 0.7715929241493862, 1.3528049080198563, -1.2497603174598548, -1.9189207792522096, 0.8357560540125045, -2.2633483960233423, -0.3016631012142006, -0.18289517105689368, -1.4702442126015642, -1.3021234417675995, 0.752955274555793, -1.3999456867634021, -0.26944139258862854, -1.6160157938372315, -1.0741387611085411, -0.3681261217035429, -0.5135579447573514, 0.12084481041145619, 0.035822939854438275, -0.7163493508522929, -0.18250625367575724, -0.5448738019131805, -1.1180095242454993, -0.9428108793858296, -1.5429029414686621, -0.9693585407523965, -0.806904035365927, 0.5584456721195311, -1.937187872778506, -0.2799679615776341, 1.8763332085878788, 0.6459626422867628, 0.17148479902500893, -1.2977586470671878, 1.9697098854036887, 1.0233777796881465, 0.09856472013845088, -0.49228279035028816, -0.1541713379211548, 0.5515293087225722, 0.26564644018803063, 0.7543490854009308, 0.7330189304695697, 1.7559260534983472, 0.24052821510327238, -0.7107775899191092, 0.2835307943262335, 0.33687251905732357, -0.6051559698481338, 0.015247859251492867, 0.27992112019093784, -1.1790473307725506, -0.4094211928310502, 1.3587283871111517, 1.2604165133955667, -0.2699557653887071, -1.450666179333767, -0.5562011112630818, 1.7134443224413067, 1.6122527915337692, -3.080018157369509, 0.7948773923404783, 0.12772361095309676], [-0.7048851038117764, 0.7594992056875594, -0.47237617485087596, 0.9807724217934616, 1.0418145711372222, -1.3505512994724767, -0.23221797917980344, 0.6576744988644602, -1.21177663096346, 2.045457544413323, 0.36987110187504185, 0.03979626909106966, -0.7355548471875648, -0.2312884016669153, 0.17241397458852048, -0.105302424508542, -0.3441840978740242, 1.7841684455676012, 0.1302175132943866, -0.873448545450258, -1.264786303201555, -0.13986444695605793, 0.2634318298614035, 0.7270292244481981, 0.555979922683238, 0.4831493609742092, -0.056291786735178206, 0.8534102247439393, 0.32260666155075274, -0.469099367253301, 0.2845637787654716, -1.6100260478730426, 0.45849789201199637, -0.049824472328315265, 0.29053242309687577, 0.8027116408251443, 0.0960019328739184, -1.7759442961798935, -0.6359298573922358, -1.327539888723846, 0.19358091234115246, -0.6771184366984053, -0.6324462007979317, 1.2632195124077352, 0.15405920127061642, 0.2257283081837731, -1.0039009476655865, -1.8397838390056203, 1.4171155955658095, 0.32199943679969006, -1.3112661271639283, 0.22418034132974674, 0.12858059676376593, -2.0364755712942113, -0.4185309463862213, 0.7354691604718282, -0.2700339649645703, -0.9860936111257217, 0.29915651149954225, -0.23459423006724575, 0.13150298324470075, 0.15444836563833253, -0.7404950063769382, -1.428456005272169, -0.31705240070457913, -1.2332259767707534, 0.8231297049806224, 0.7260715175833492, 0.7442132245592183, -1.2931447893802153, 0.4013755368603821, -0.8297826369496266, 0.0663757786541737, -0.43113573331080124, -0.8169106117033811, -0.029674368479488764, 0.05662273987317001, 0.12644961160443505, -1.0820013798246542, 0.7299148909458661, 1.3860583238208175, 0.05740290143275629, 0.4175158349495082, 0.24710008378306036, 0.07708998429176339, 0.23786674710047886, 0.29570308182564664, -0.6317247014852314, 0.08562674631895584, -0.6057097693799685, 0.6097901222151684, -0.6680019694032546, 0.5873011065160555, 0.6475845325991727, -0.9791264815360733, -1.7969236405482454, 0.08192519458025299, -0.9326400659713204, 0.25054014223364485, 0.043549795516185624, -1.0662157165142896, 0.20143763112885565, 0.5910591731556971, -0.6907440885718288, 1.3915506845236247, 1.6963770217531073, 1.4919604460985827, 0.28110369366364224, 1.1160826229741787, -0.3201079191027366, -0.721701989238462, -0.3074981975897643, 0.016815388476348194, 1.5112010770828683, 0.029958609435404595, -0.6296741016029669, -1.538445442703948, 0.5950175254995729, 0.21476174079610102, -1.5693103729961735, -1.169692293797942, -0.4569020404314111, 0.5329291914929606, 1.7245974819377015, 0.7520940865677264, -0.3163593365385845, -0.02620697619002364, 1.491923729778851, 1.5560368969176697, 2.166774950156958, -0.9347246857539516, 0.22604819263813908, 1.2960153253847566, -1.6315556159602855, 1.2905536624155354, -0.04998164678402077, -0.19098044466473132, -0.36630705381854023, 0.3353639768235008, 0.5773164946070619, 0.270884449857105, 0.5218406493672344, -1.8496909934407215, 0.6606053209666382, -1.1797166179315541, -2.66770033460643, -0.9707336610878015, -0.39085765386874716, 0.10330969261658389, -0.5718158272639312, 0.962427163736279, -0.7828596985511981, 0.4856322579484241, -0.13514552491409104, 1.8841382516146736, 0.3520802921218099, -0.8475507226176526, 0.07322876496856373, 0.26637098717992974, 0.5773127575382562, 0.022953768382949435, -1.1924425551917872, 0.8305205824467912, 2.099537449792542, -1.5596146904053256, 1.758487489652707, 0.7768800264251255, 0.40568749297599727, -0.5417784233127647, -2.075816327613264, 0.09845915361690023, 1.0771701328884504, -0.6271832254686194, 0.6171573359078661, -2.0416582272215376, -0.6170754339579673, 0.14927400069796887, 0.3087480909481445, 0.7762584093479595, -1.5585749453550926, 0.0703689143368451, -0.7305971338231535, 0.4226628248249727, -0.7459462927640463, 0.32976001396983795, -2.2343833330253204, 1.4295435065739253, -2.059536292730349, -0.0817087267340773, 0.0461969311897633, -0.9909280744736775, 1.8475365750375594, 0.2016280705344689, -0.3176948664523822, -1.4839486542666083, 0.9261024205028213, -1.533735211776601, 0.7814939661186195, -0.36516690070923125, -1.606625046188473, 0.09445790515426095, 1.6462616800163508, 0.41180266202593413, -0.377054072894371, -0.4896967283851303, -0.5662644797204957, -3.091288302358575, -0.8964924693463412, -1.5764854326895092, -0.8958225529764375, -1.1244690039775336, 0.13706972455382074, -2.209804790822645, -0.9217436479878179, -0.7949243331194703, 0.5662701839680006, -1.388949399094479, 1.5584740879201968, -0.7785743160416262, -1.0986935079792295, -1.0961300264766451, 2.496186368029091, 1.2963522572990371, -0.2805483233664955, 0.9529468591836725, 0.20888953215216668, 0.5594491177762543, 3.0366290463814414, 1.0038002599107954, -0.20493017385312637, 0.236693512314735, -0.045841357928042455, -1.0868660779162072, 0.1550535925922849, -1.1014165229434423, 0.46919212919273245, -0.03341114298829327, -1.4643245490817283, 0.7217456026873055, -1.1229795349424379, 1.0807419893533092, -0.011641579271635278, -1.875747022968966, -0.9713936237169394, -0.6354226482795928, 0.06379539166803379, 0.20297608096587394, 0.03781259905907574, -1.0127599957207944, 0.03626972728744114, 0.3087759993333698, -1.9492251320423941, -0.18462491068031076, 0.8057944936910093, 0.12122292083402103, -0.6048467510120685, 0.9682570310231595, 0.6813461219265409, 1.4646548446456025, 1.4199337220717534, -0.5995140275446118, -0.741976803923511, -0.5630261661541355, 0.4948470381757143, -0.1864183989978192, -0.5687398861260933, 0.8360305815473813, 0.044636428974243726, 1.7014113399233992, -0.33429203235908345, 0.40711179331215236, 0.4659259673383808, 0.4040318216259245, 1.0252293706189737, 0.8386569897642457, 0.45202604288549403, -0.49075552489687296, 0.8072357883045528, -1.1463560259046301, 0.6048574380564522, 1.028372243172738, 0.622685079226834, 1.7224814207110721, 0.4110443437979628, 1.4202029604695485, -0.6084501718060737, 1.0853132523385518, -0.4858293399836221, -0.216061878577151, 1.0728966991470685, -0.31515910940097897, -0.7173587885692166, 1.102046259210095, -0.013119093343564698, 0.06690686702028074, -1.4836672380007525, -0.4974825922210598, 0.5629657128881586, 0.78043231461162, 0.11312016490117814, 0.20855744966689782, 0.01170462568284524, 0.07400811378659071, -1.101964735396946, 0.11915444619789675, -0.3085252951443213, -0.7585200643136284, -0.09719281679372288, 0.6307241510303448, 0.2016875521928177, -0.4705567319644359, -0.14605049065541478, 0.14230642027264906, -0.8020961139338225, 0.37323033733881067, 0.1154479671835838, -0.8566391110768984, 0.1937571829640277, 1.3267885827067922, 1.617678650862879, -0.1576646980884846, 1.1092070097278663, 2.6439576339344053, 0.5239937659533254, 1.0123508865001773, -0.865495052257166, 0.8383436235999147, -0.3021682114178127, 1.0806175726960952, -0.14512693779110647, -2.1282607937006124, 0.7964654790642937, 1.5396008280879336, -0.3226593113785904, 0.3404399615998045, -1.0896623604144664, 0.240428710567307, -0.5460065650442222, -0.3453856444735286, -0.2912405229763453, -1.3686869471134475, 1.1610805491568712, -0.44376348561390266, 0.7128096021524395, -1.4395735232906197, 1.4465090032258359, -0.9257096225385871, 0.8116933246871477, 0.6987829298095943, -0.21390476749420392, 2.6576558024462233, 0.6556716521567402, -1.0376149293150132, -0.8290241787100939, 2.998362653670279, 0.6377468236749267, 1.7478349466306844, -0.7450658447504815, -0.7389698455573102, -1.3248104897288449, -0.766268610724189, 1.9169523382453948, -0.24698552563444268, -0.8388573580978321, 1.025674666644545, -0.3822499898471146, 1.3515172375571896, 0.02241041523188031, -0.2533889889912467, -0.10595616072943083, -1.842031394286297, -0.7902783060105794, -0.4905068968109486, -2.080957411686659, -2.0283056804772635, 0.4166027024859432, 0.46735566944186413, -1.109694694428136, -0.4750875961537359, -1.141780751367365, -0.9168864310357674, -1.9370868019356298, -0.6664897140356494, 0.44053206976615594, -0.9084303523733176, 0.24791446239149054, -0.9101572054562029, -0.10393209992325367, -0.9835150230533024, -0.632028177250287, -0.4519235201592779, -0.1454033772689138, -1.6566174394055475, 1.108259381382812, 0.07779735304424638, -0.05042426588660886, -2.0945743608964205, 0.20948983096883247, 0.6940655224321974, -0.29120213597946076, -1.2455430961026184, -0.23353438932650813, -1.9431468151937292, -2.0440589887712397, -1.4265298229305332, -1.5769928351378948, 0.5327575256305034, -1.1288815231799378, 0.8560425615595286, -0.8735278703056593, -0.09876998755756923, 1.8969330005946772, -0.9147679283575623, 1.8559798458045418, -0.6809362807815075, -0.4530575504012395, -1.3424514275954436, -1.423260806635947, 1.3276266080562253, 0.7306789256904691, -1.4566459232787194, 0.9308992284233051, 1.3176005891379348, 0.8875167929995406, 0.6484451829365032, 0.02888454150999459, -1.1761969168443265, -0.523803693939776, -1.4293474456450335, -0.18231427830788527, -2.8505459898580705, -1.0208524612729297, -3.0705631944196172, -0.8987901864055574, 0.11655581588700692, 1.5527296134740736, -0.7925972332640124, 0.6272459980391403, -0.49078790259064964, -1.9346384542306783, -0.7964124226861152, 0.7225183362516595, -0.6258683739652383, 1.1962481572245134, 0.08786183237724156, -0.565510417377649, -1.1947270926379905, -0.22490501295773788, -0.13501458006797917, -0.7505247514284584, 0.18686038841459163, 1.8259823591688684, -0.4209769381687629, -0.2042868803184063, -0.8159198435758808, -1.0812002938364804, -0.6392029783676696, -0.9160665163044108, -0.52596284589754, -1.4878779554647499, -2.7755587118365854, -0.8516162460451813, -1.6940689081854567, -0.4463246246169959, -0.8160776613957353, 0.772140036809875, 1.6149674738951032, 0.5099727694741403, -0.12499467316403051, -1.4966014757911177, -0.13299671800712196, -0.8248642560547154, 0.039728085516959624, -0.597076963118352, -0.07417601214029072, 0.18820081527417254, -1.6072386885122234, -0.1261836826236044, -0.15214065832426613, -1.8292892949565696, 0.2007661444343935, 0.3923741923626345, 0.020772205931328756, 1.0820648383325526, 1.5901234059963387, -0.618017844121328, 0.5318890690530534, 1.1160583809947722, -0.5782358123941138, -0.3924998424430307, -0.613228586575734, -1.0170236919077387, -1.2303244787850407, -0.3385640594451715, -0.8858999747635395, -0.4849592997516292, 0.8129491749552363, -1.3441003877667737, -2.137591263442256, 1.2224763469901383, 2.046663378411901, -0.5104026979375003, 0.6993859107760779, -0.224628311965413, 0.09433818820699508, -0.6721438624512179, 0.8254345835553003, -0.39924667668809016, -1.373755983792788, 2.655760090358533, 0.36823095720336807, -0.10393702603312871, -1.2131517276055312, 0.9559964259286527, 0.9801098891221008, 2.0064759196436817, -1.0471231736685098, -0.21189713051201778, -1.5137745701148515, -0.8476908328313905, -0.5624871567842609, -0.08840404875017968, -0.5499510538898803, -0.15257081338117412, 1.5104994160810334, -0.8305317460175747, 0.7682317424124503, 0.8487794642243148, 0.01474099649810601, -1.5264138644715286, -0.531352430098054, -1.4570694306978291, -1.203777104869353, 0.17476469638064968, 0.48809227936118804, -0.47858576112464146, -0.44548252136935446, -0.03343932550880099, -0.6820153093909586, -0.05754765947796541, 1.8357024562698017, 0.172561573107232, 1.4611238405615137, 3.3853943222705105, 2.6082309808042723, -0.403539161992045, 0.04004457836049519, -0.29813755386812224, 0.7181291361987573, 2.008975156542872, 0.589201002819422, 0.5981083902064842, 0.6067107451481127, 0.8861190783927709, -2.1267518606419737, 0.4924414916108863, -1.0978736829132918, 1.3341762801720527, 2.571434766044756, -1.3056430638678087, 0.47298232536738055, 1.1973367617470427, -0.7877476048863379, -0.9541029672765776, -1.9851455648980019, -0.3937424935599917, -0.7126062304314844, -1.1432748026690693, 1.231427233653132, 1.850973097652139, 0.18506711653418703, -3.5115538065294865, -0.356971186892195, -0.42201033987568265, -0.025991617655317406, -0.5388119633119266, -0.49086482255789154, -1.2503560821710986, 0.4386272449844897, -1.1261073980511944, -0.4790877485425452, 0.5819594962776534, 0.11931129794158953, 0.7192659499476314, 1.0625539417696015, 2.0525613699145526, -1.22097817180981, -0.5099058985416743, 0.4440947153059923, 0.16664043098809395, -0.7416192874315981, 0.8305413010814527, -0.701150772747574, -2.0963917364240623, -0.04173313743463601, -0.5109990526210765, -0.009428330983178107, 0.9296030237852594, -0.39535904470964606, 1.484203056245152, -0.397509097737924, -0.843486390911713, -0.00827352181890653, -0.8080350451648336, 1.4985001532364723, -0.9358585767291682, 1.7572844450491887, 1.0402993782318488, 0.093646954831397, 0.14555607672101464, -0.07541508936640466, 0.5767273080790257, 0.3843303435538821, 0.6499305996905587, -1.1948767767977742, 0.7933392092449338, -0.13984253163314786, 0.7047755656384375, 0.8062355859046729, -0.279898989215876, -1.1170817860324582, -0.3986764695612468, -0.4435257575821974, 0.21288818092881692, 0.4529558090900147, -0.7514472877559156, -0.09363820126196085, -0.08118913735074194, -0.9822898321060121, -0.6837917215617815, 0.7467896830730564, -0.6363927091198708, -0.13141134190884463, 0.10763558420289265, 0.742585216003122, -0.7569465538078526, -0.42359166768366946, 1.6964887515271514, -0.6582753599585635, -1.0713297369861805, 0.2410989836211644, 1.0760265240043818, 0.5965605418595589, 0.6163978554307085, 1.827459378186266, 0.32603347269356153, -1.203905993869547, -0.35900740300522355, -0.7605252410733622, -0.9979290584873388, 0.6241567565268211, 0.02118057657122627, 0.8923220704032059, -0.652579926284968, -0.8613120397941393, -1.79050998580784, -1.0814935045365877, -0.2558063119201216, -0.2718178249123688, -1.5398341739698114, -0.5146687294350146, 0.5837740986515123, 0.8877565005045446, 1.488129041442407, -0.26504918322221194, 0.5282245323090203, 1.1771248977238686, -0.6136073723314115, -1.1066902610589184, 0.4381759130000523, 1.2642233321215406, -0.14936938472973385, 0.14249514200151972, 0.6756046392975287, 0.9108020781045565, -0.38936698508061235, -0.16187388050740825, 0.1561103958982965, 0.8530406754710527, 0.05208981625286218, 0.4191402152576201, 0.2753483905742903, 1.4160132265947272, -0.38613679894088687, -0.6482702345812468, 1.2225943908175854, -0.7137586059483736, 1.208189333222695, -1.229881764232528, -1.265883287059298, -0.5144683633975995, 1.626961111326736, -0.3198706215726791, -0.5865110790809784, 0.808593119956539, -1.3841336783993365, -0.39025784066198405, 0.5560787718012392, -0.7599689786189331, 1.1907225047179937, 0.536308795205521, -0.3297653624098675, -1.847553286646675, -1.0388753463487328, 0.6270956284987089, 1.0777187435709372, -0.9784249331357536, 0.6414779126085318, 0.7013963250450884, -1.361103846898455, 1.5096242234342052, -0.07028827377393444, 0.606344991871081, -0.038157008386290936, -1.5384863931769879, -0.09091813852691363, -0.41364501219023797, -0.9842182804565219, -0.09532355290856145, 0.07630078222119399, -1.0512119478476782, 0.23404485605520778, -2.0173384814455693, -0.2084144897616966, -1.1769042999002925, -1.2483359333434336, -0.41636986213042876, -0.6438682006353714, 0.2671248570530934, -0.6828448826300563, 0.10009512687581112, -0.8461065771576162, 1.1607259220677884, 0.2223415940449666, 0.5242441022684637, 0.5304983751610289, -1.4965084824664663, 2.3068829934011768, 0.05240413596792005, 0.0030723366178097133, -1.1068536417475374, 1.2116227738767948, -0.3606739973547105, -0.929457302689943, -0.1558780594448978, 0.5375544870782951, 2.153196032806861, -0.4643111550492415, 0.779447067613359, 0.34334378126198206, -0.18238022989749725, 0.8293399835841883, -2.5740359588905104, 0.22491811538745834, -0.4051556172406022, -0.1958596440183956, 0.8346481400634924, 1.1102224655269322, -1.18489555194472, 0.5010556121916631, -0.6170388748449798, 0.4976073571456787, 0.7532397500869199, 2.201321031505074, 0.11152686500633904, 0.12623341258458926, 2.070839917676404, -1.0128710578985671, 0.1443224829917551, 0.0358460655349581, 0.6947792456667239, -0.141811472144181, 2.312159620236947, -0.5460655254679839, -0.7394802624332841, -0.8359058153399711, -0.5597227079019166, -0.911720516018904, 1.419823215872733, 0.9558332134959308, 0.2422993353823546, 1.1454031745361208, -1.7006881660952986, 1.1095062327743412], [0.4487450296231132, 0.2452099814895113, -0.39627686446592775, -1.5463819146102777, 0.5476668691977192, 1.162653502380474, 0.21735866161388814, 0.427298362484101, -0.9412130001277973, -0.9506617346495452, 1.818358937768627, 0.9858049821102358, 1.2763835668599919, -1.3045591134674543, 0.1762377669365625, -1.0610846358350012, 0.4790278428354047, 0.24332428963920938, -0.37427252037916503, 0.9672002443644752, -1.0375862695180076, 0.5736183045333865, 1.4678922337813245, -0.9352303110002382, -0.23851243422387688, 0.554746282532934, 1.8851543878618884, 0.422717720086694, -0.5187858837494633, -0.47768909305798346, -0.417646008129761, 0.917417103681428, -0.5038787323437699, -0.7057353036850228, -0.05395633271695665, -2.3978826849240473, 0.22432105938244545, -0.9326311577701919, -0.04434156033929795, -0.5013418412023288, -1.2972814459801716, 0.07798309069903248, -0.9739609166247535, -1.0498046746347685, 0.7040572668227981, 1.4677824525413123, 1.7068356588314524, 0.7447156043208911, -0.19308382938418833, -1.2495324464011943, -1.060803552025332, -0.014162747061506826, -0.35558774456024056, 1.3697461513880167, 0.6277100536023518, 0.4485911359847782, 1.6841105169801398, -1.5110097001512013, 0.7271518774012258, -1.187103844888004, 0.6539762555674659, 0.025703832923056467, 0.2500359280135827, -1.2650249236563782, 1.1182708797891259, -0.182016119295626, 0.8315053026806255, 0.493835384318833, 0.39202156000192656, 0.5927152294134448, 0.9319953115421048, -0.96627316532017, 0.05633946049064521, -0.647013390211335, -0.5526456779481869, 2.2137144409173306, -1.7610579701338593, -0.6373284403973383, -0.08322094534640191, 0.31363204839540315, 0.030575852725371465, -0.17865269434340456, 0.14077995505368954, -1.446334541510027, -0.8362405559921878, -0.240879014394344, -0.11404352060183329, -0.18683191574548905, 0.6401586055629446, 1.0258432918680656, 0.19026524073550466, -0.5812674392419407, -0.22568423390272352, 0.32543923320176155, 1.0158149722554715, -0.9493152847600487, 0.47447777440640637, 0.7308040397147355, 0.6604711335927751, 0.27601599758080886, 0.2716491144749954, -1.0281215107278916, 1.546142647886822, 1.7652606446538326, -0.9988297535488722, 1.55444434197879, -0.1265277456894389, 0.37721225843551676, -0.7827359512249029, 0.34396765356550135, 0.7715679225311434, -0.2190277854936629, 0.07296716549785569, 0.5066912137310412, -0.47944909958806325, -1.6722897713066367, 1.6294189488474968, -1.0300260498380158, 1.0696683184548816, 0.35132315266950975, 0.027524190948602742, -0.6784264046801972, -0.36090262208275553, 0.4560384862344797, -2.856932943461809, 0.7162732609751846, 0.1320426160985328, -0.037762995546912224, 0.2117877945548321, -0.29148239684752264, 0.42827974128563967, 2.2464868345873295, 0.1255801109994903, 0.03704784909893986, 1.6068568942311587, -0.04975571936400154, -1.4962336662184927, 0.19448385712124497, 1.5586107230899922, -0.6574756082642847, 0.5931277345402444, 1.6735110728136513, 1.003502694768838, -0.1026936910376392, -2.2061644105618496, 1.0504076510314018, 2.2729656421936677, 1.2622763008001747, 0.10280585466832447, 1.3587150296345607, 0.9096727357072769, 0.20857798013208262, -1.9825105405841894, -0.1598237329052145, -1.1396964721489222, -2.1626697095704386, -0.570552559498955, -0.8545335776383209, 0.7505531616088488, -0.8666957670118688, 0.19818827107255027, 1.9950648999781513, 0.43033000774611463, -1.1526614213443949, -0.22286296252679877, -0.058068769706888686, -0.2947298672868061, 0.33072669733628013, -1.063630135984346, 1.866059271884111, -0.5358473321243113, -1.0669524151642362, -0.19452864202113615, 0.1795665649461995, 2.1355223689930463, 0.6462625100250878, -0.7943193430613346, -0.14875976054112178, -0.5907307430956678, 0.7815122044612417, 0.5025911573481818, -0.9988922467895753, 0.6737327099711012, -0.11806294768061686, -0.08301706892193084, 0.07846568455323263, 1.1289668150863532, -0.36081097737878676, 1.2955396972810638, -0.033446472699296535, -0.7961672492421001, 1.1389877775276684, 1.2253057051524596, 0.2360306347555223, 1.4088349175234476, 0.792451315750201, -1.7641513465330085, -0.7232639847903174, 0.9264645851698735, 0.13448706515247327, 0.729588946662447, -2.262762167753755, 1.5141077936773542, 0.25893329705100593, -0.2306847367225201, -0.17073031135694436, 0.24299640992338262, 0.9616365528099632, 1.032334747156589, 0.834008625399838, -0.2570784367825583, 0.4639148267575767, 1.074086238743222, 1.412556055469632, 0.6459292244693441, 1.4216116587157888, 0.7867548971742593, 0.19656582381281335, -0.28038103464860026, -0.508184355677534, 1.7905047481774439, 1.4676875914967553, -0.745161419755462, 0.4819001136453221, 1.0921997844076474, 0.41230716516216476, 1.078145453886082, 0.7949732992757388, 2.147482766991401, -0.1495130834738805, -0.11857047125018527, 0.7637257749328935, -1.0574739552092831, -1.1277173680848367, -1.4852696652758488, -0.016751801928216205, -0.8313279843552153, -0.4126909941812825, -0.3219022762210801, -0.9204539597511497, -2.069774917005935, -0.10840910318290412, -0.027009167952407653, -0.7709192899173142, 0.3130445485290888, 1.4599690616028718, -1.6610275962317538, 0.6194177174457639, -0.6526934083108311, -0.2238114509909619, 1.2333341192867866, -1.363338128797195, -0.4717482388860395, 0.5243522120892663, 0.8471048635200854, 0.2517446448488391, -4.337691959228933, 0.043218671763100576, 0.049287430514186915, 1.6650221249882553, -0.27398294032817916, -0.4364458261087778, 0.4161469041570892, -1.54086653737512, 1.7700050523293502, -0.6458595341625918, 0.7866506729525808, -0.13705070831876942, 0.44577213161581697, 1.2830200021449696, 1.5231816860582512, -0.3962139199197919, 2.0936982878612747, 0.45332281700793803, -0.9527562177100983, -0.6828527900883012, 1.1609061661757907, 0.8133329187948669, 1.6317515780862482, 0.7696425076959119, 0.016311834076633475, 1.6147837334684378, -0.9787706188127656, 1.4051879694816405, -1.993807736742144, 1.3043161074303398, 0.21178542130472733, 0.48762800944883883, -1.0010796549535075, -0.4078210374770993, -0.6875323565588304, -0.6679248701525009, -1.0110293942205235, 0.9167022759762852, -0.23996621309287508, 0.6005563605282785, 0.72681924827753, -1.4691984004849925, -0.8469779940119353, -0.7686292257756969, 0.30560817518401395, -1.2984892387088307, 0.8566301209237163, -0.9485910196659563, 0.8022194289436665, -0.7457540293754784, -0.27941668926540886, 0.8633713342793392, -1.4783643886443465, 1.5967555670474478, -0.008499468136772603, -0.37569719955148817, 0.7093804957379247, 0.966652960884389, 1.8542909939820786, 0.7506160718572704, 1.4305205643682457, -0.7466629325942612, -0.9778285035978974, -0.4805940373779088, 1.7469697073760688, -1.2617025231834378, -0.16664465237488565, 0.3200684411484825, -0.37170954532645456, 0.47152282785439853, -1.2047897717263456, -1.4159393917143004, -1.0530123793966832, -1.3227150894107924, -3.539836827483629, -0.38821691981521284, -0.3866006489388608, -0.1682116901122522, 0.5441872896170059, 0.7858203225773138, -1.3518500978582444, 1.6251081874798483, 0.3356809297852185, 1.5377092895899018, 0.4932026937660833, 0.6147913894207677, 0.7166284985651025, -0.22927230862310974, -0.2311706249816092, 1.1316752789041156, 0.39012761292271037, -0.18891444930587425, 0.05671864904049905, 0.9607400166045577, -0.5009331910564808, 3.7436115242062575, 1.8957149567458387, 1.1772330418563481, -0.36942704153421685, 0.8445395213599767, 0.9431696852608059, -1.3423145008728297, 0.6439839712641743, -1.9644737512239911, -1.63535061863981, -1.6891524139541598, -1.901057762473622, -1.1618643626396288, 1.8075618447375694, -1.2379476381820724, -2.28608261617937, 1.2468840285030336, 0.9417958626458299, -0.40977003478009566, 1.4054512952233063, -1.9681955588856488, 0.4843184021922751, 0.677437393747671, -1.0511876475355622, -0.2979337714580998, -1.226212499911581, -0.2184068665380673, 1.0862642257425847, 0.936492753219755, 1.0955631267581096, 1.1614596993524464, 0.8210873880289846, 0.054655662677422764, -0.39747893766139347, -0.1877683957417787, -0.10761222763948691, -1.2481226544141784, -1.1879803669874507, -0.4005916804704198, -0.3597803491833713, -1.244997713053427, -0.1556129346968253, -1.4800947155385278, -0.4462030288251908, 1.0766670556848938, -0.8144366671618047, -1.0517165025437443, -0.19146818003591204, -0.6798404234076065, -0.7639688555166051, 0.043211006387826045, 0.3344001127459526, -1.8920788814602525, 0.11600435750035996, -1.0716632927666756, 2.0794068338801215, 0.3351930845900323, 1.223213692291578, -1.2630301353868734, 1.7830881054524115, 0.08387354493201288, 0.6102476414811394, 0.4956431079499513, -1.453437249814918, -1.6090667001404073, -0.6648369176596322, 0.652038170810311, -0.6057123810075957, 1.1713901666032764, 0.64743384913491, 0.08678494122935626, 1.172972567465645, 0.9762362381268197, -0.9297353001069499, -1.1772375357344453, 1.4287431634073793, 0.08298094542659198, -1.4308793433586606, -0.33325759398369503, -1.6488362976033255, -0.7418147618549482, -2.0740936958664937, 3.385199508405217, 1.2326455938546792, 2.6579251597707576, -0.23828050458131436, 1.6663347056873767, 1.2926731013072659, 0.7184319666404931, -0.9129629460125902, 0.9287252628334797, -0.8711953615653891, 0.23809716566919256, -0.6353542707264115, -1.5087737209815133, 0.7203281022196896, -2.006028559667565, 0.14787854221003857, -0.31907993299127235, 0.6820287884529436, -0.9327678898536322, 0.3811795866212686, 0.6593587593333269, -0.7551506971021124, -0.07162034443989856, -0.06955718678604254, -1.755389280332388, -1.5503588654665892, -1.893313404890947, -0.9129980818357357, 1.2872770868734704, 1.9700710192309843, 0.3717314221409593, -0.5251795731844052, -1.1283600252028803, -0.7819701644527678, 0.8264740599658015, -1.369525050237299, 0.2135433303578899, 0.31612314415628906, -0.6705285291074465, 0.6588980371069298, 0.10014687067849523, -0.9946298694725091, -0.3764320709001498, -0.7206327454169614, 0.19025289091240882, -1.0947716566947427, 0.07236399616968153, 0.3268606045205168, -1.3146403062415164, 0.47442181923658555, 0.2140909399337006, -0.28684852690571955, -1.4029337160772364, -0.7138630300288598, -1.461232220945309, -1.5410203974518355, 0.8863524277681877, 0.07147545175171453, -1.1372001828983673, 0.8199215807432756, 2.2568609827829116, 0.716423510729722, -0.3106471894646437, -0.05360558725089793, -0.9497053028971096, 0.8864683196942587, -0.7060888108202688, -1.5982235387364456, 0.7551256215868165, -0.4213171148402927, -1.7719058602665687, -1.9250925071733318, 0.6444618451963037, -0.2305599657887434, 1.4324355843496115, 1.0155668591616516, -1.790104989559445, 0.02507953998332992, 1.525521599900096, -0.19377705153985214, 1.369632142636582, 0.4679027923156952, -1.7456540478776241, -0.476372262438269, 0.671803623344526, 1.5441337007950628, 0.001566967858460418, 0.6422206595081809, 0.8083167360024679, 0.1214211514716259, -0.09917617623901114, 0.07791474745574796, 0.4519296185418827, 1.5210456419925724, 0.023880651886825845, -1.417611889295666, -0.5320067490199075, -0.44617008509493417, -0.49458469416212386, -0.8767712785647997, -1.198386272986278, -1.3575660721084932, 3.8921439450145336, -0.14654820003982927, 0.243667523155964, 0.09688887259679889, 0.03116934499378344, -0.5646079322280454, 0.5632229450824241, -1.6791285041300277, -1.121745230936288, 0.9486917244901664, 2.2409417581713065, -0.020012450831984614, -2.399129626549234, 1.6873560590928525, 0.3955611531376609, -0.767946916465292, 0.9607828230806937, 2.6103355603608445, 0.02604562671218926, -0.6078881911690883, -0.7324143699558618, -1.6700295875420308, 1.1675922351968662, -0.39831074663144894, 0.5628568750866282, 0.07732398798197324, 1.0087419295837166, 0.5155511697107222, -0.4332145566552622, -1.094015894043785, 0.5609841965293705, 0.8493631451843581, -1.5597530144647413, -1.9657983955232916, -0.695900507785523, -1.5668355671787995, -2.352886984064999, 0.23225392412951745, 2.1925716818793948, -0.9587770828677641, 0.1259405856006669, 1.9415073145325663, -1.2377641329978228, -0.6873374299611018, -0.9223231934969816, 0.18685658268549363, -1.4779312307490144, -0.6510483763012189, -2.613378702023311, -2.970854819747384, 0.4537801652780163, 0.40285309767344485, 0.8099824505696761, 0.9699234620235225, -0.021018300748107236, -0.4676127686382048, 0.014888711930687415, 0.5168034620742569, -0.2540684235376458, -1.0191361363427338, -0.3425103271706181, 0.6906166699809577, -1.6973792076409027, -4.683413771717262, -1.2097382765318272, 0.5086991734612313, 0.8263343054084425, -0.36372641733666583, -0.06018002523829878, 1.030547816213483, 1.3160615517035916, 0.4655192476002833, 0.017553800968309104, -1.2717153844517701, -1.855748861335064, -1.440020295802572, -1.1320594499123962, 0.1198841213438203, -1.191420591885187, 0.4517949067847868, 0.42612737844246196, 0.2852398713623222, 0.16702443743340364, 0.016288680256422605, -0.04867564332522148, -0.5712094500056377, 1.7567396443367695, -2.845026286506733, -2.189539344537831, -1.2158561033534314, -0.7333995734047166, -0.783071126722515, 0.18291595487774753, 0.46832686767549353, -0.026188850908486747, -0.8940980746937441, 0.3650682530635551, -0.3647181485776307, -0.046423257837432265, 0.34045709334274127, 0.8029056214215545, -0.7485573953875493, -0.5943768085107486, -0.17510991093761544, -2.1306099373686815, 0.20866888532792663, -0.4184308736710907, -0.3909163087622258, -0.3416325151332801, -2.310618246747655, 0.7515794467270791, 0.01918570359890237, 1.956214312328874, -0.6622056722031869, 1.7459081677487456, -0.6657579355984892, -1.1925042715195107, -1.2941464916986871, -1.019336848806684, -2.663092640712283, 0.45434213245807903, -0.01829828462998141, -1.1802425149776938, 2.6458843734773674, -0.372460057757325, 0.7746449453710841, 0.0730788027870099, -0.11081170064024959, 1.7726767544995186, -0.2786596553809797, 1.8165599275628865, -1.4128037734056293, -0.8701580546293407, 0.5749855211079661, -0.1820727775064557, 1.4832487873128972, -0.44930492728309757, -0.6263826239132005, -0.7224582135055235, 1.7715033035379486, 3.179678333904588, 0.24041401113535407, -0.07630959455273657, 1.2411926247399396, 0.6912033148298835, 1.718697085816338, 0.5620775564338303, -1.884816135192343, 0.2838250868716775, 0.1074616739961553, -0.0974302117079421, -0.799294382129255, 1.5069944399005117, 0.09092269036076372, 1.3635053872183014, 1.424272387427177, 1.363010198010675, 1.654738012693592, 2.421065339488049, 1.208983336817459, 0.2630483912307625, 0.06937222115765405, -0.23904477623075376, 0.5697458944987341, -0.0953226841756579, -0.3610030033671226, -0.97827501503431, -1.3545186096121795, 0.8275412766047331, -0.13511527119879146, -0.31364697695668164, -0.283063594855734, 0.4801906915705354, 3.0112689336361633, 2.645558512850096, 1.932394033535209, -0.566174536165979, 1.9911166244292333, 0.8955319134341647, 0.4446922331147823, -0.39776828068029907, 1.268984333501225, 0.10447413107343312, 1.071220070797, 0.8740618300450306, 0.054667155824058476, 1.3164670683720312, 1.0348627027201573, 0.11422384737191751, -0.1814591465944981, 1.1415833298476825, 0.9879471316729325, 0.27541710831728305, -0.32958477351736304, 1.8671661458994333, -0.7339916040804183, 1.8354642534793622, -0.940430775409467, 0.7537439430120959, -1.0120596761128051, 0.23429194866716418, 0.4350472064416242, 1.1622430785641729, 0.2660294242879398, 0.4227258984213803, -1.08177581723724, 0.5478486559230724, -0.5239875632124653, 2.085870725898204, 1.2122195105197442, -0.5860690861608833, -0.5949283164194141, -0.6432563551518382, 1.0144877494094495, -1.187011721399872, 0.8801157489194226, -2.713021762519816, -0.14150130226023114, 0.1590003690854727, 0.3984482476954407, 1.5802470378066482, -0.17684140552542132, -0.9901729071853198, 0.6807185120499275, 0.6600197653076605, -0.7476230521338171, -1.0606037948412792, 1.29411800374359, 0.9310861652352619, 0.5641171815862385, -0.9931808319991529, -0.8188434307589785, -0.8373035934149924, 0.5336487634973329, 0.8050666000930748, 0.9472171150654503, 0.263512424969474, -1.1168147383354456, -0.47212277809851977, -0.5750822646993448, -0.3382375517022071, -2.4918080720780575, 0.12165492528958732, -0.3855063559814131, 0.5760620936664727, 0.987809360414724, 0.07973026465227477, 0.5732214015939248, 0.7216693628798361], [2.3312108419574367, -0.5002626865952248, 0.0012820180579136927, -0.3035550152018255, 0.1479400604082748, -1.0932667741017483, 0.3314635066812752, 1.918058114740702, 0.3303647788853506, -0.6297665257706606, 0.4154167373834392, -0.8816786217698519, -0.02373788008295452, -0.528345656675565, -0.20583360994146843, -0.7022934940471004, 0.428805584064715, -0.013769588864876656, -0.8669844898896759, 0.09436471991037092, -0.5135123411840283, 0.40726128338293904, -0.4378157163800446, -0.03881734443795212, 1.6932852934345883, 0.9187514211242462, 1.473708717336877, 1.8231542287500566, -0.6478260565463736, -0.9604701956702433, -0.9176096129657783, -0.4295943226206483, 0.5543334811325961, -0.9203588627985618, 0.6239418925714033, 0.01674946857531629, -1.0172944330330418, 1.148879555681331, 0.008541759429002864, 0.5029144005040737, 0.4001888666727797, -1.422448321856811, 0.1371469864034798, 1.760064840992459, -0.7571128622690071, 1.8984560267620052, -0.3606268994781326, -0.7406620645125138, -0.35865855796002183, -0.32008673094330764, -0.17851367063553647, 0.6380140642457304, -0.06426012218397101, -0.4224550641696794, 0.9870171863116906, 1.7258176489684212, -0.2009022944679381, -0.000956984220464813, -0.7115191981346639, 1.3993800293985155, 0.5210212274446198, -0.24122051444739764, -1.3466869919928737, -0.44220461734750893, -0.29204471514890246, -1.2917670271870956, 0.05088026133125568, 0.13087972172829737, 0.6662666167061355, -0.4693972946235612, -0.2505890734387531, 0.008795102444924915, -0.5035392683569492, 0.5476153022107116, 0.704282066583232, 0.35156760620120997, 0.3977775214984957, -0.9362387828600053, -0.8613870664044185, -0.5913746603330744, 0.09480721339165091, -0.8597796768819014, 1.1500703370648566, 0.8357136190540093, -1.774867547233049, -1.571349037785689, 1.277247164032816, -0.4329831291776428, -1.2399622799019676, -0.06169326352666743, -1.017134960472566, -1.3859763664963842, 1.0232930327253231, -0.535222898989644, 1.262968218605283, 0.3987761951594642, -1.01060113206447, 0.10535124257877024, 0.29225451056791885, -0.9026561639388162, -0.8989456362969307, -2.234170604883538, -0.6099506559745992, -0.922902878292395, 1.813218917782487, 0.8375513102167085, -2.3962390674771004, 0.3605342797612333, 1.6637361533266855, 2.3086208844069342, -0.8046764157453108, 0.3115852376527634, -1.4716530915292654, 1.3259839640682094, -0.6230301652608651, -0.06913357308711611, -0.6647594878154958, -0.39439317826363085, -1.4226320805173995, -0.7960589332521832, 1.793809918939207, 0.7424959186564105, 0.7885645494916594, 0.4204599608661813, 0.6952477813019188, -0.4987299249695467, -1.1783642265665475, 0.8706126938182346, 0.2713728740526791, -0.24157330648231926, 0.44012126873523133, 0.9909070777901949, 0.9700392947206796, 0.6003781804633811, -0.8892951971383172, 0.6377898198737804, 0.9271481517440705, -2.346413324584396, 0.3462020260960824, -0.8124548539397947, 0.22477467270426246, 1.0854626930279196, 0.7509140873707769, -1.020917096210847, 0.39981725779965294, 0.04128095367381225, -0.5602331579101026, -0.09221914787475151, 0.9580381526914157, -1.3531968692119787, 1.5943208012666081, 0.872138790386367, -0.6852431945194604, -1.9215884309873392, 1.0869367390642657, -0.4552509182042187, -0.49915322451294514, -0.49579190199141393, 1.9954374578300669, 1.8163298535309784, 0.8001095291579707, -0.31718517229751103, 1.04567866649291, -1.127641683782711, -1.1796320096757036, -1.4461513010700553, 0.3861804430145916, 0.3945729762011438, 2.1993354880690714, 0.886004889288709, 0.051773953298039035, 0.23709953237821274, -0.6688743787644716, -1.7794848480407013, -0.23690858082791316, -0.6806687649630687, 2.081082780054307, 0.8357716901753255, 2.4489781851300667, -0.7951581380154682, 1.2030989585148968, 1.0453879124288707, 0.8404091133503885, -2.250228563939941, 1.5236446694020984, -1.0148474791692623, 2.5243212106009247, 1.83751849055061, 0.578640061640412, 0.822121627521832, 0.9348962006938492, 0.13139805845057925, 0.014544725160869897, -0.6799114280256056, -1.3568230408355664, 2.273802827535159, -0.9523125372499979, -0.16814145054511453, 0.4925949299276076, -0.8899186936197976, 1.089737302874587, -0.010413097267448006, 1.1951989270109644, 1.2111076953312954, 1.0945241405361998, 0.25255369377453846, 0.4572662435129276, 1.87093848741887, 0.784072543557074, 1.3693728571099248, -1.7583345769961507, -1.2334279689768404, -0.560546327652659, 0.8942874245968461, 2.23214617731227, 1.6859651875436774, 1.6291890307372259, -0.49380374296885876, -0.8944292475740092, -0.1637589289314121, -0.22846199123802494, 1.2402432329279967, -0.0565116990266424, 0.7879292704308045, 0.5313446127941983, -0.7475138386699879, 0.19703431450001926, -0.0492816642721182, -0.526649558349827, -0.4350563320966659, -0.6282626887826416, 1.178397224288694, -0.19949919725909926, -0.434082801933889, -0.45478603423112407, 0.9174923100692982, -0.7584762050659549, 1.1066742188344343, -2.6353113292716888, 1.0217739721593337, 0.9013259975575328, 1.456754123668723, 0.40055463942431246, 2.1865737358657245, 1.2381524934797985, 1.574247836892184, 0.20266678610694294, -1.246281564783621, 0.5137516919098032, 1.161805827937, 0.05533694401356744, -0.16584730515457163, -0.7172995267338452, -1.3765991517613472, 0.891993095716851, 1.5162989081733598, 0.21338600689160134, -0.8202818007790933, 0.5165097637824594, 0.8839398437512995, 0.9236382958466135, 2.732405145970814, -0.8762067208514484, -1.3732146581377, -2.0299712462733415, 0.3771123997231044, -1.6201215286578041, 1.2000584770529625, 0.9726148162034643, 1.4529907707129743, -0.0862156060276518, 0.38312758460587015, 1.0224728798075517, 0.8944481094412678, 1.04171786435642, -0.7923663760540838, 1.7052087078741598, -0.24572194997370617, 0.4625157385750709, 0.5232631317017638, 1.0325684535948263, -0.46315287777508285, -0.5623871391610047, -1.1137625822760164, -1.0825305534065748, -0.8955073440706196, 0.6836055182728663, 1.0331384128865537, 1.1746244962945322, 0.9518160101788862, 0.2628052576558095, -2.019421458936002, 0.06245307026162587, -0.6462860129185938, -0.1994965821268642, 0.34613726547214035, 0.39569335833641095, 0.16341809360631956, 0.04787715765509344, 0.6325162275884989, 1.9331434638153546, 0.911568657467405, 0.678300253241127, 0.027602802266441614, 2.9379437810656595, -0.934815516615672, 0.7246309563535782, 1.1206153949889697, 1.351741457200247, -0.4624075467850558, -0.683988267877541, 0.9912562084199407, -0.06416603490259865, -0.36328259184967676, -0.4714291775198772, 0.5798297808728735, 0.1822893463234866, -1.3320833760351778, 0.46981060861958446, 0.6636966469157977, -1.1243260048642758, 1.8452485976002364, -0.3565021455207781, -0.13978990440779201, 1.533664247144838, -0.10935518072472009, -0.13688933185704694, 0.6065725094898758, -0.24662505619439068, 0.02530693339441497, 1.1586645367705746, 0.44208873839798263, 2.450645409554964, 0.6810197566217675, 0.10732193671025479, -0.293706512757027, -1.3445028754030408, -2.11701521979334, -1.1214997102634467, 0.4785009406275875, 0.33523158289385196, -0.0812139008631566, 0.6483315839386188, 1.6004742406209214, -1.7985231329134752, 0.47718611071716355, -0.7626841374065769, -0.5291242663265606, 0.5308310388680908, 0.4385027619780243, 0.6038032819943656, -0.9616868667273065, -0.2645202847718333, -0.7173554863525713, -2.217864511818838, -0.047329060264706686, 0.23688870601349143, -0.6082046811583173, 0.24768574971507523, 0.14765174689641586, 0.5941894463636591, 1.160587200959002, 0.599627108235714, 0.731583616396824, 1.9475376790979713, -0.5601338310302455, 0.15040153862079306, 1.029101387069573, -0.08268508734935921, -0.34036004724891494, -0.7595771081022684, 1.441859868317276, 1.1748542982551393, -2.3018424814511076, 0.685253635974384, 0.9616672763562553, -0.35773278913811224, -0.46589808475859895, -1.0427524331121887, -1.4203477307308452, 0.6784072473717521, 1.038148624533144, -1.4944725638133376, -0.2537572921180064, -0.5446940173061054, -2.984634608550098, 1.2607778609161455, 1.1469627332594885, -0.6330606391227382, -0.2631896482842665, -0.6328720827839422, 0.09192735819318416, -1.0197815362030591, -0.7969493666037339, 1.9624351787025878, -0.8179532753013281, 0.5360554281892689, -0.6097512627623642, 0.84844118870295, -0.41140926558908786, 0.6169112581119793, 0.6066398654932701, -0.49276386894091057, -0.6836889856140576, 1.7137129427823803, 1.5737030698263756, 0.28160115137668856, 0.8303554338764964, -1.7978963469399047, 0.6304006131651109, 0.35660685861557784, -1.1643456873030018, -0.6550349205171478, 0.016058491333207824, 0.6441756618293358, 1.0938740348545042, -0.24320556301348553, -0.3957201450191936, 2.0596188765482784, -0.3915274515296802, -0.9112258016805665, -0.88401370276562, -0.30142016408669203, -2.267509256526292, -0.22959810198619424, -1.5001282303727401, 0.7058119500071818, 1.4100544437286566, 1.9428639393655605, -0.686947133988447, -0.17132080479718165, -0.5534728297661646, 1.101139090105535, 1.5194389866830944, -0.758887650149935, -0.9206886834257871, 0.26679135754568734, 0.8487828072003635, -1.8241525495053674, -0.860572779886359, 1.707792485803096, -0.6863930606643026, 1.3484359560941312, -1.418879359086432, -0.04790535001251673, -0.9891261678248112, -0.9701810840718675, 0.6917426593231114, -0.574707885805777, 1.540879932303378, 0.09104217438368149, 0.9464782798522108, -0.11983893023163641, -0.0003724584048644513, -0.85070326997846, 1.7329192811289593, 2.064631395414974, 0.12582799152944127, -1.1363878335376407, -1.1182641468256296, 2.2778564341203205, 2.3175740425488396, -2.121617928610424, -0.027264124039531577, -0.17448596856493348, 0.9018512531866795, 1.1137524842472737, 1.039249103906436, 0.5154549723201913, 1.0879565376871634, -2.491890312390341, 0.23572424145313464, 1.4953897520147938, 2.339142637642394, -1.4395336584059935, -1.1632031096029045, -0.025204068162906625, 1.5532103701273958, -0.8642256275050483, 2.219011515403925, 0.28199221350825515, 1.002074302844085, -0.8353519509934861, 1.2219526604015836, 0.7222644606023941, 0.04612665938550032, -1.2035793455281194, -1.7497084047045472, -0.7013399294221382, 0.3198663848180964, -1.0908206434120322, -0.013729201452115404, 0.02732755092927636, 0.03763168739209377, 0.2169482368062223, -0.8094956472792506, 0.4725138476062533, -0.05083980783538229, -0.3066876656022346, 1.1333607791566302, -0.9667791376901151, -0.03965480902986913, 0.7391084786608233, -0.8529772505010877, -0.5645470509545386, 0.37915021463329096, 2.005242306856926, -0.043628982041740115, -0.9154177018712893, 1.8069907730578196, 0.3736202704520457, -0.197112812348579, -0.1538634626959588, -0.20884895922025784, -0.8781596533947904, -1.2967868036383718, 2.5859531271048803, -0.7320569995252434, 0.28374861896881076, -0.45933415735168515, -0.9402775437433826, 0.2587632366353675, -0.05943969461457752, 0.5333826526810906, -0.2440495363129512, 0.995493763548703, 1.2439846047034013, 0.1395548342189846, 0.4067395005836148, 0.9355944858976674, 0.48157818569113636, -1.3306212538933293, 0.6719237338844484, 0.4304904734069364, 1.55213546520715, 0.3412668763814239, 0.2223241190737455, 0.09971967288696074, 0.7751018971235468, -0.7999186364521215, 3.6847568075480805, 1.0438494535838074, 0.3860714855726345, 0.09619164512742559, -0.15763670147852446, 0.09470952704048705, -1.7700285487175051, -1.0826424025815797, 0.3329052003572964, 0.28519699610003035, -0.9896315390350894, 0.4136810975829587, -0.8503576682205297, 0.2866622392616007, 0.9233667587907505, -0.14830986456273726, 0.6580984593428117, 0.8801031334796592, -0.016577729590850836, 0.1344114842917666, 1.432091972353256, -0.1588921622398394, 0.6042268131733234, 1.0880097354698537, -0.8886337077801443, 1.2549486412958692, 1.6524003146266586, -0.7471314455400064, 0.0780114989565663, 0.12233469639678887, 1.9604310351287322, 1.5074153419533072, -0.5193893943409839, -0.12917598321934654, -1.4913262838985482, -2.0921345017491064, -1.6845692735245876, -0.9362749042713675, -1.218842129446357, -1.4094296702919757, 1.008081225492472, 1.2425052310876001, 1.0485835595732027, 1.1300103310022906, 1.071082204448601, 1.058877621983086, 0.10154396565130902, -0.6376874193306936, 0.5886639119869287, 0.6629566417026908, -0.2670053212884577, -0.07902972685813249, -0.6982550150969804, -0.406004174946368, -1.0900423273285962, 0.3918223451119989, 2.410143663487378, -0.09231527151274768, 1.615824733367021, 0.40135175385903227, 2.4955873571358467, 0.6211363128680284, 0.30656549728033555, 0.4855910288722682, -0.3784151119325451, -0.8175427968420127, -0.6737835130243677, 1.1719185794002778, -0.7124105918927822, 0.9191478652801655, 1.43675097337737, 0.1854932954211975, -0.033910580510401495, 0.861630115907424, 1.1354303653667894, -1.6884848460758588, 0.45931656335142, -0.04318805814637049, 0.7263391244275453, 2.2985463685736423, 0.24158179068001667, 1.3362418479844345, -0.9478440041352545, 2.5340088141611465, -0.20758620636563918, 0.3363491461998484, 0.13655805174535357, 2.3817493142182853, 0.4124395820581739, 1.054948720140411, -1.493215582135681, -0.8054740306382204, -0.8798384829342769, 0.3056845165076279, -3.21079825062748, 0.4795914358424845, -0.15480868482180998, -0.0384946579347559, 0.6368153506813157, 0.7340944993055963, -0.24417751143878397, 0.690462373340269, 2.987627853811758, 0.8752111131271872, 1.1077540600018978, -0.6103957122402939, 0.2776454046080062, -1.7412465193496953, 0.767703476071226, -1.6252145037125458, -1.689204025362649, 0.758788417998314, 0.48690757873961443, -0.520447106055514, 0.5304493938298107, 1.9163884360744503, 0.6727561952282339, 2.0219607584846293, 2.172687026318066, -3.1697069198639953, 0.7255270552371419, 0.04227559052228977, 0.31381967344427214, -0.6187129205442091, 0.6461578020753365, 1.3675029257270082, 0.9924901758031897, 1.479145506475946, 0.5888080944771259, -2.8528342363103154, -0.27151378400758713, 0.45416602312978, -0.17015706987726792, -0.6814536326320829, -0.07810034033398588, -0.09301802060008128, -0.2536262799174844, 1.6114494855818349, -0.2568629255801337, 0.10658896397865798, 0.31988510313545643, 0.8745325327124938, 2.3065356084603343, 1.295793047813898, 0.9356841554474989, 0.6743458490475914, 1.3179048511131015, -0.240636869990275, -0.5600208331791766, -0.11293585838295281, -1.255095682451826, 2.6196772139625977, 1.8126305887167498, -1.3816490647311686, 0.3692396643288455, -0.7211604071980446, -0.5807249239754163, 1.2550230835537255, 2.14258651314861, -0.24605909714794794, 1.2376314141814155, 1.1952943278533186, 1.275133944486904, 0.32260593667240084, -0.5906896656258016, -0.6952346573798305, 0.7612881519522555, -0.110733096559284, -1.525348813610177, 1.0363192606579312, 0.9792890949749165, 1.8732760512789843, 0.028434101406558825, -0.5388012932090412, 1.3623471496455366, 0.5736870861777396, -0.13734606518160103, -2.4928062954060652, -1.4417888018516458, -1.6638039265675475, -0.6275800629125811, 0.8417110903156027, 0.68550052985516, -0.8425312237893143, -1.0796254687078517, -0.040174687320969044, -2.588368660269526, 0.17195281260676495, -1.565852331385463, -0.3464090045657541, 0.050675266535731824, -0.4810874419871323, -0.17197104451447623, -0.5443516300030828, -0.8975588726490396, 0.07889395870962754, 0.6270024839085749, -1.1592107496553654, -0.691498387187118, 0.5721404641696672, -0.13660104932631154, 0.41916060219843426, 1.418463740928831, -0.2167232936270353, -2.3279150741817087, -1.801370435861763, 1.4331480522980382, -0.3496004459101808, 0.195367660889876, 0.24635445544926715, 0.7182115303599387, -0.5803348775868512, -0.9703688253741138, 1.2758763277491614, 0.2526365774679535, 0.7161627077829433, 0.4090768965040906, 0.013351473565682616, 0.31418737603164304, 0.7476509265991553, 1.026111680168291, 0.29394787030384084, 0.016600094983156802, 1.4265057125117035, -1.0811248974363759, -0.30311273186010695, -0.8726743989304194, -0.4684664688833382, 0.4496405583623231, -0.14887744840591552, 0.34580712818906906, 2.583855773855817, -0.35061124036169855, 0.29211184008376945, 0.5274176742839362, -0.12038290486984818, 0.35448744584670194, -1.5576393357702474, -1.4290203766557092, 1.241917281944277, 0.3272619176302131, -0.7255045101509245, -1.5546178668746367, -1.5604834867460793], [-0.24404088704933719, -0.30559671779376685, 0.32140463615778636, -0.3020950769267981, 1.8162522253709357, 0.11326221236793672, 1.3266804964821153, -0.99158045420049, -1.5033793227372116, 0.978222672717413, -0.6327620106418171, -0.4721176628659477, -1.3390032098838043, 0.3789420972042313, 0.6652450479397437, 0.30748441952366173, 0.5780828725126613, 0.3774404719947373, 0.1189157246625292, -0.03681694002187446, 1.8533813839625168, -0.7140078777078954, -1.6238570685816647, 0.8891787671897906, -0.3169519118276, -0.8403894685184596, -0.8651106702002351, -0.5971080949473861, 1.3369225432843261, 1.5088189254186144, 3.019026130452958, 1.2670367320903977, 0.2035458110863934, -2.404486998172646, -0.1619712124513314, -2.7781775857317332, 0.2742798898342169, -0.6301463167681832, 1.070747134215106, -1.6217103183051527, 0.31412186413144705, 0.6492296765267451, -1.8691541655019828, 0.8242002453131402, 1.3910161379317214, -0.5903626773999234, 0.6779566408262563, -6.169231199133242e-05, -0.6856749371951663, 0.9988858968329464, -0.2996433249277523, 0.9275964767463267, -0.8601990466548564, -1.4273231039038463, -0.28204562228544044, 1.1650350095245698, 0.14067525884383106, 0.36621391602787146, -1.8810874473476338, 0.1799262885848427, -0.7725878967560824, -1.0088100009810217, 0.28150269633055297, 1.301614216832931, 0.3720895902600653, -0.011197249377041573, -0.21339488860454436, 0.1289282619107629, 0.249321756355371, -0.3453742866558897, -0.647263126141297, -0.0361574976059147, -0.5526286321326556, 3.0955390007225634, -2.5711919588365193, 0.9534258247338921, 1.3343639072732876, -0.3272282644269052, 1.1864739592546707, -2.0329117236988687, -0.6947141384032395, -0.33973264323807884, -1.5696578956622858, -0.0007375470629942254, 0.7794104910999742, -1.2608073071855075, -0.5471885661334991, 0.44504670127160356, 0.07333576605250085, 0.20084995629652874, -0.24264977739140922, 0.385844926094288, 0.5937942654802421, 0.9696184281219238, 2.416263314409778, 1.3199447163232523, 0.21197324770758974, 0.3878008200197037, 0.13265950054252076, 0.003941670112093213, 0.6061690701329139, 0.1541390937829948, 0.6410923958178405, -0.5613860490328192, 1.6134199943126273, 0.7177343142745122, 0.3590153547673163, -0.21061856997920572, -1.2597163057479026, 0.5344756736405925, 0.25289634715555115, 0.473123880735335, 2.021804286844003, 0.8901184811323639, 0.5570791318595046, -1.0315733931157938, 0.07377438848918785, -1.678281763505404, 1.400157501184729, 0.8835441069583657, -0.6493032403543025, 1.388741836280441, 1.3636969199683886, 0.9633442445513003, -0.8085643476622443, -0.03338041425834493, -0.040929820727963286, 0.9732872343539979, -1.118199769828643, 0.39368387805673855, -1.2968161359332822, -0.5116715750241451, -0.6210851329315211, 0.761509862275903, -0.4844010529448023, -0.11294793040562057, -1.0527690503959863, 1.0072229758832019, 1.0333475775353662, -0.12414493651919606, 1.3123009650022672, 0.22321729406422006, 0.2620842617311257, 1.7624708817709274, 0.9811208997237401, 2.310917803233598, -0.0914760313185384, 0.023253271448854668, -1.4445476606194048, 3.2938779393353226, 1.8189070519529411, 1.9362362472437058, -0.5062784843038737, 0.04501048971889664, -0.9956969778762993, -0.07517015139006908, 0.9612279929114369, -0.822732433166535, 0.3938932750689998, -0.637533294506179, 0.6091370932662522, 1.4304996456032257, -0.1458898761085065, 0.8302093838116743, -0.12621592735226408, 0.5145539757896035, 0.6439132734297573, -0.0165927402141752, -0.3210271045747535, -0.24516187582811086, 0.1681907441502198, -1.333396442608231, 0.10296625784933783, 0.37056733120261115, 0.5234824150693828, 0.40705439880896516, -0.8235905989118129, 1.916466665725719, -0.3810882251796334, -0.1751624770757439, -1.1539978107262254, -1.0407515835953818, -1.8959412637350044, -1.9997920783416554, 0.6776212158954936, -2.357945419601272, -0.20513374204629442, -0.7466585890649194, -0.15383666883853253, 0.46913471831075976, 0.039231510071992645, -0.4517615226469118, 1.0864506234745652, -1.9306964123332007, -0.9830660815425174, -0.41722470608966605, -0.7811964479468056, 0.21426747041765468, 0.010334224324590658, 0.6478272856710027, -1.2767065944349485, 0.25108923912983344, 0.8672801745024574, 3.971514296600511, 1.5936474443679844, 0.34797255745808264, 0.718570628667128, 0.0036129897717102036, -1.127138826412554, 0.00013710460109513594, -1.022455627362779, -2.670758023676359, -0.5735102458436657, 0.8615660546699457, -0.6722648444879831, -0.4664397647123554, 1.2967594411547556, -1.5220536688899116, -0.3253128641839563, -1.3434549685168335, -1.20251732866966, -1.361961342358835, -0.29129059720205347, 1.9096219906419247, -0.33810324787535123, -0.4485044220271309, 1.082731392560966, -0.5141667260577988, 1.2999484535306018, -0.2719585705405648, 0.22018041411611303, -0.6343428666023174, 0.28246039394866196, 0.48037185078538197, 0.49621687808401627, 1.01228345097667, 0.9283812570627391, -1.2579300677378393, 0.0461015841246162, -0.026834248520244686, -0.8217203264059355, -1.7622513234345825, 0.911948908360562, -1.0103064007282436, -0.15225661150697564, -0.651742223238002, -0.5531898556098284, 0.3308078201170473, -0.6549869866936042, 0.5916890560140088, 0.16015189467035565, 0.19095916742171498, -0.5129893832917656, 0.3778284767680446, 0.43311618114323014, -2.9658439992005308, -2.221114662367317, -1.0093542141770295, 0.12238819604249374, -1.0934612989102235, -1.0547984239664523, 1.835949281727842, 0.14084545686682995, 0.9575142413168082, 1.3039074658877012, -0.7104566013332582, -1.0868769232942117, -0.4147346029929841, -0.1276876262685161, 1.247213011482367, -1.5420202799102782, -0.2242891750088715, -0.18698567692273294, -1.1813386174799052, -1.5997537998245743, 0.12456415344575905, -1.5953417190186434, -1.190192329162145, 2.034225405275006, -0.4898153472100472, -0.8504170329335307, 1.0765989312328432, 0.46132181835906466, -2.4220315867562037, -0.41655149665770175, 0.4402874468238496, 0.5048818377275813, -0.4242272387074457, -1.026825176321741, 0.9210579591726868, -0.05366014884005806, -1.281677173681963, -0.7462156303131917, -0.7002163801812054, -3.2936494818246294, -0.25213876931719376, 0.06506212649598012, 0.7274955465983968, 1.733765076472534, 0.6850029907752418, -1.1858025580355431, -0.6494832813456964, -0.4149149409313771, -1.2346048389145483, -1.7907652573445156, 0.07546673572961604, -1.2203631692609171, 0.6834107700201681, -0.9399887261030695, -1.4633386573309146, 0.44215677657721564, 1.089962718508142, 1.5730576785848716, 0.26637775904768196, 0.23491432208071922, -0.39281646873826287, -0.03565119348264304, -0.025816645912042704, 0.3151877678510399, 0.3062113618025125, -0.9254264810021017, -0.7180421496482934, -2.1379776711957543, -0.9857751567410146, 0.3274538061924399, -0.10825828522413995, -0.6410678737389441, 0.15323970486111857, 0.3399241335105522, 0.9217054009148271, -0.23998063874859737, 0.23623152290951654, -0.03822935838638281, -1.5656152291470236, 0.5340595342365965, 0.5242736645366598, -0.6722521348725536, -0.2999112284117704, -1.0861231516156185, 0.8540402854409666, 0.22823436196297933, -0.535670338641623, -0.6477138488224595, -0.0722747379905374, 0.3433352726186713, -1.3567683591461537, -1.0542141562974272, -2.5268997099280206, -0.8430466722949985, -2.2105334627989848, -2.2668815927571737, -0.027655564954963217, -0.2286761301262218, 0.6188233747072409, 0.5396451792595595, 0.6431435196091424, 0.07803166731767609, 0.1478212374378736, -0.7887206545226836, 0.06111498789440002, -0.9434446681571873, 0.4311112735321444, -0.33629011582785645, -0.760685129441089, -0.5884980389124107, -0.657600286249558, 1.8105799738426722, 0.9161005993146831, 1.2413834505977428, 0.5850262533339796, -1.524849619053281, -0.07697725849957221, 0.8958177439025046, -0.06755238681968576, -0.8730214572061622, -0.9276730274810673, -0.8615825470204885, -1.8389097289992882, -1.5543990404288182, -2.5046654718052945, 0.6150700387938074, 0.4963867531638237, 0.3659940884417383, 0.45823026251836074, 0.5293847923911487, 0.9628538064474538, 1.0292500114652072, 0.3217482577363983, -0.07582494425353097, -0.05837079847942053, 1.4601528006545297, -1.2241094418744372, -0.5415798734195859, -0.8270663506844818, 1.000684439862922, -0.34716593813145524, -0.8168146327498075, 2.1795286220399412, 0.957426855911716, 0.7676659276158851, 1.653638910632926, -0.18371568955967044, -0.7758804430896962, -0.613043143154019, -2.9118127308280575, -1.3851621594970234, -0.7835271154256813, 0.1449829058038746, 0.9787151307405025, 2.2984341187776125, 2.29142895377604, 0.6189638456233836, 1.4708892904486408, -0.8356427846063714, 1.525157008754945, 0.631334991530962, 1.5459660671368656, -0.1541405147496776, -1.7769143988720244, -1.005417716254462, 1.0977773818083056, -1.6468618644316513, -0.4533035313018523, 0.6144580036668106, -0.14089348134819918, 0.37027014450841794, 0.9845438014057787, 3.6336279279036225, 1.7066741686018567, 0.3600456493324354, 0.5207506733383882, 0.05039239045823178, -2.684510470717524, -0.1937116405831426, -1.48234941069959, 2.1304085511596225, 2.2559067991052064, 1.0430789909167701, -1.062671630695767, 0.7479706945096799, 1.3409929982129267, -0.8149600854080902, 0.6129599398229475, -1.2354724275161857, -0.0398861439898297, 0.9175534144819312, 1.2965110649089135, 0.7318357382487556, -0.8086812041982082, -1.2792903414922863, 0.5042699487010763, -0.2312529412059678, -1.4986769310253414, -1.2476570883951286, 1.5652963846660297, 1.6638909619057118, 1.8899648780146068, 1.5335419420349963, 0.7588281283677523, -1.7658751072024492, -2.196459031953764, 0.695523157227405, 0.3211857354253816, 1.715144029830675, 0.8251888442086464, 1.383851212864796, 0.8049616160702101, 1.497998913962319, -0.07020214520340744, 0.83431691334916, 1.6759768359972156, 0.47258204200540493, 2.0351791809237665, -0.3722033097617414, 0.19930775243021223, 0.5679780960099107, -0.2582639807699705, -0.251274383769127, 0.3633362038503445, -0.6044274072442883, -1.0466556060363899, -0.024677443082920855, -0.34509328085900026, 2.1559136480760515, 1.8030864939228988, -1.436263049869781, 1.5114404783681896, 1.0986889119076648, 0.18560053580043173, 1.3823713352388665, 2.6839580902528097, 2.7021475004159208, 2.0266965902855505, 0.40964080753394205, 1.4073850719920498, 0.3506595724987244, 0.3630639548380745, -0.6930371101487554, -0.002705613159083956, -0.704604278455398, 0.2496303663584823, 0.6334968678815549, -0.22640744168898108, -0.004349116252135455, 0.3332829750012788, -0.8586035357810431, 0.8613274842063604, 0.9398311559421101, 0.31846263901647287, 0.7141879067090743, -1.4605244335638683, 0.4881631061768226, 0.19686423307015755, -0.45727431203895413, 0.1941880771994762, 0.7890184557726314, 1.3062281789896253, 2.164169347187925, 0.709440248504481, 0.2572693952443295, 1.1375759082773342, 0.7630782180597643, 1.335642672439078, 1.8377068265518237, 0.8413904361360732, 2.3750565568667628, 2.483550503007483, 1.1050413574132232, -0.8596625236270047, 0.2870056170058792, 0.7846237535154826, -0.7316803832676333, 0.56235651291728, -0.8275597421003589, 0.09083463030809187, -1.7819058730435138, 0.2009699786749174, 0.27668275634191236, -0.2015374552456349, 0.027089376002214033, -2.0351428258795647, -2.630945830176068, -0.6494262930722274, 0.11003460459057159, -0.5851919353141929, -1.1298196084897387, 1.6844634176934603, -0.6317780201812443, 0.5167720376892759, 0.4044876585337315, 0.9606315555993081, 0.7409051073556546, 0.06241121770286711, -0.3195844539981004, -0.06313639515567811, 1.582081316795127, 1.1607499606039373, 0.6626893256408992, -0.06809363450064708, -0.7402763625636931, -0.2756198999706371, 0.12439718792988645, -0.13138611079042173, 0.5443680712304654, 0.5389645882556593, -0.8327318521545868, -0.8140909165688005, -0.13606727689979722, -0.945071024141239, -2.1814330624512586, -0.7956076918166921, -0.059590120111220966, -0.15111626742708356, 0.21010222418794386, 1.0929909822050574, -0.21135539565067923, 0.15986551275154862, -1.0003781339387285, -0.7445356067078855, 0.2938972441405382, 1.379808282968449, -0.535311773753586, 1.2851958329377668, -0.40797733893890986, -1.052033882332469, -1.0237178257345718, -0.20603378350708637, -1.3833898332983245, -0.06132806338619834, -0.6456483096704239, -0.3278726386148395, -0.3221956345083307, 0.43475669316766324, 1.3480898239695853, -1.9209598237769092, 0.0860864100585298, -0.24744993700113393, 0.011213699221860718, -0.7167021547084522, -1.0701536892825645, 0.9904637683897696, -0.573792555965429, 0.18376030873120414, -1.9632686882200836, 0.2979885189093452, -1.1175572837339367, -1.8513614724243468, -2.322358222744689, -1.7276244632722701, -0.8191807809730337, -1.1574097949633944, 0.08741479318931922, 0.27470072699726616, -0.5327443368729804, 1.3927926715391075, -0.1911022005098983, -0.9992442179810533, -0.11264262130907628, 0.3332118385494953, 0.09784590210917171, 0.07933436821108203, -0.21607065152009555, -0.523064023877458, -0.04699400670643532, -0.9809056228685137, -1.1769600722946554, 0.8658060202834437, -1.5455920126850582, -0.5095658994212984, -2.1911377501604203, -0.39601401498822175, -1.2812695992385181, -0.7549546842427083, -2.853056111611704, -0.8454551236648491, -2.0148693288185724, 0.21534347077384441, 2.797154664463716, 1.1549239474403685, 0.8389164754938342, -0.9669614904574528, 1.1236367003962742, -0.7169452996542784, 2.5952324236525137, -0.7298068224619503, 1.745801932647249, 0.41694073977833035, -0.9468618121083248, -0.7601722200400051, -0.0693147947514496, -1.0933243788976377, 0.3309313557482681, 0.7560482861623099, -0.7156515529500252, -0.7196587922029294, -0.3493574510070238, -0.32211526193778234, 0.3044834081630381, -0.8706623925616073, -1.3381476638554577, -0.009212436304565762, -3.2170549959095767, -2.1484374078834194, -2.1695346383417977, -0.9926404859276071, 1.3200166051388795, 0.036052809358312184, -0.22613407180105363, 0.041586844190358366, -0.8839101710795948, 0.4041834000135496, -1.262089648169484, 0.9712279986645697, 0.5578482785937862, -0.8173269013333672, -1.056773081994473, 1.7468900893699442, -0.040562531615238526, 1.598569976810913, -0.9535173842774891, -0.4104360993914466, -0.3847356085145664, -1.8623721897464642, -0.9854385323167618, -0.5289119925856585, -1.4057626237008147, -0.1900856271070575, -1.147031340875206, -1.4229607148071577, -0.2030307570456034, -2.3825472912266155, -0.6901005714638201, -0.012985821632044517, 0.6031082712985785, 0.7402862038787013, 1.2040293637160904, -0.052951295020645925, -1.1081330614299867, -1.81781095899196, -0.2188550611655642, 0.65835481431698, -0.6744728914852635, 0.7791616532621578, -1.9602799496838992, 1.732297518139548, -0.36950422133735084, -0.03756947133315855, 2.4616795569898904, 1.1003265329341192, 0.6049538319903247, 1.011246126864189, -1.11691120787102, 1.9551008078247225, 0.34993826727931876, -0.17396835678871772, 0.021475771794499245, 0.9643287151747676, 1.1708423565109838, 0.4566099883339269, 1.0269765422926944, -0.7063065124214766, -0.985450369167791, 1.248935600974261, -0.3110402762992322, 0.8190397611229155, 1.2063300645281514, -1.9707661450485296, -0.41834017767909915, -1.7180842825936113, -0.4124059347272918, -1.3188455064088895, 0.570766895463622, -0.24538592228665737, -0.35243701572350805, 0.12833974426025324, -0.644115439979584, 1.427484600399995, 1.4857332487917596, 1.3763051760304743, -0.5285814890641173, 1.521313415613473, 1.2272039697146364, -0.8524639955553199, 2.1132213142113048, -0.21080226203915023, -0.20377987841550552, -0.14584462578042906, -0.8351403860140845, -2.465883366319332, -2.674451214605405, -1.0636211085656115, -0.3595687390960059, -0.24243154919249693, 0.275498486648387, 1.269688947638178, -0.6604748758023156, -0.36154521529776995, -1.103843187510086, -1.6317336153154722, 0.23496475519835486, 0.19259850363075862, -0.9423299776936888, 0.11839935231157339, -0.03550153696149966, 0.28527120708392734, 0.08458881712773993, -1.5014759844134837, -0.766947578418752, 0.45053971662576275, 1.3840750543558922, 1.0436254771900053, 0.06234278331093737, -1.202340927479041, -1.651507206720681, -0.4553178548044874, 0.3658812204666354, -0.03381766851270307, 0.36154179679716586, -0.49723806285092775, 1.508866443680252, -0.8502040420545575, 0.35789466511615053, 0.8319710368008005, 1.8648725166784383], [-1.6080870287948625, -0.9113759151125757, 0.27870649194167857, -0.35116483886166067, 1.0140907769498344, 0.3955491876886281, -0.6600843835186813, -0.5653079726053578, -0.3469191948960649, 0.42096716547719126, 1.6505865995624873, -1.3469544427957392, 1.174852863705143, 0.08613235908901107, -0.2045777989452873, 1.2106938485893999, -0.832994108893026, 0.2741489999869372, -1.2700342704832759, -0.6136091056326932, 0.9071081248219436, -1.1339147044578497, -0.6628096169785653, 0.9529304355204934, -0.4327933699505242, -0.5090924632034791, 0.3287193112096812, -0.4143346071628956, 0.7298384065345963, 0.19773421022600438, 0.3497918976982, -0.7847996653008884, 0.2680694176289471, 0.07401118205840104, -0.7089031399520849, -0.5020627476659815, 2.056180903772569, -1.4175400348685747, 1.4559905109319375, -1.6958299532972374, -1.704583609604938, 0.33590397310618036, -0.7748540377386619, 0.1316884508996284, 0.336934027458124, 1.1159531591373248, 0.4934520573975188, 0.9253209279218623, 1.7178897037116223, -1.2693584049569981, -1.270793658331847, 0.5316155198840855, -0.7674831189729109, -0.035629157878039545, -0.6072215412139543, -0.19723059999624987, 0.5391644006304204, -0.6585119190206836, -0.30171055837239885, -0.5444572439129999, 1.1185875525440578, 0.2597651922167691, 1.5803040549319194, 1.619807024264886, 1.1882614614189395, 1.412195392311559, 0.5791334479056498, -0.2066013619881272, 1.1251397983960976, 0.73323660573859, 1.0703844400484466, -1.7548166457211651, -0.9367870601822184, 1.341280222415615, -1.322379181279149, 0.3753022144058915, 1.2477961173873546, -1.4293043788368642, -0.4215398553624622, 1.4369212451228919, 1.7146383548235957, 0.5701154718351302, -0.5660110043941936, 1.2930936873962702, -1.5228617815616696, -0.6131547026523302, -0.8465092998961216, 0.8134421458134369, -0.19949213373861038, 1.5955905737032992, -1.709893704279158, 1.9762413390855604, -1.2391904572527068, -0.9342590651700063, -0.09105080320281855, -0.5492439771293925, 0.3394336864960419, 0.42026214204940043, -1.6919812250795738, 1.10551943724196, -0.4003926195779587, -0.8484135245752736, -0.7736809646694314, -1.5693184353140086, 0.4691571220364674, -0.22496208794676723, 1.0106478366978964, 1.483912389326521, 0.636074154511402, -0.6929680722822293, -1.8397351164542495, 0.3061359250583077, -0.7595842474404086, 2.4194976109777535, -0.4229143171273106, 0.6533130600263036, 0.3350956427273621, 1.301313092243357, -0.28626871118355424, 0.9813650660143456, -1.683273839319858, -0.2797320417360373, 1.177494160785467, 1.6178301245638413, -0.1682266493114779, -0.6104949212083132, -1.6507819198407194, 0.018355179233252108, -0.6500285994083197, 0.5596810005110502, 1.358610383630162, -1.2988340880540594, -0.34135775489577863, -1.6071270285180217, -0.08795330945429887, 1.3094474755520922, 0.8790488080711097, -0.8765211466504956, -1.2522487308211185, -0.9017978480169796, 0.24587588514530812, 1.4177932443160564, 1.418887897494018, -0.022800743238018527, -0.7058813048235163, 0.0551398730218185, -2.1891133482051943, -0.5351457485928587, -0.07979202342193334, -1.2603533640039908, -0.03553527970281998, 0.8121791247267666, -1.2913879593860687, 0.4701376740772063, -1.1504105833821163, 0.8546961385103403, -0.5725110213951262, 0.36220117419863784, -0.20847215738983024, 0.5084049389916625, -0.7514289206120521, 1.490419673355394, -0.2596891179397409, -0.14262547958632296, -0.243065280684088, -1.5314013211545188, -0.43713337788615564, 0.11624405972283995, -0.680859259353956, -0.5633095233253527, 0.9156091134974271, -0.20579485460423683, -0.4213564758478157, -0.7663005572239991, -1.5790217081595468, 0.146842993348953, -0.5021888658806931, -0.40691637868297315, -1.949869086550098, -0.6544859450849292, -1.4589405988775244, -0.17433511805758098, 0.40299029351619214, -0.6898004035221665, 1.0385929717279043, 1.322310391602903, -0.22073701460137396, 1.4020010796507443, 0.6418534873708015, -0.17406630291938546, -1.2102054854566542, -0.2917759047218257, -0.948354379678164, 1.192627433037571, -0.5959447215872506, -1.14759274253308, -0.018213030645113225, -0.1395699207668704, -1.3108376580208096, 1.8307218698607148, -0.6653797016969778, -0.6139016155774829, 0.8102734437565468, -0.3302440180691005, -1.1425993721974332, -3.25306708408253, -0.6702373263296585, -0.39889398497168277, -2.4066970479825236, 0.7714554678266432, 0.3857036806719381, 0.9473951044558035, 0.994683707476003, 2.6472328369591467, 1.936015848452631, 0.030307200654686284, 1.5983438684258187, 2.009576947996886, 1.2434062836428532, -0.6081466875821693, 0.14442505503339922, 0.605211082556609, -0.37777078400027914, 0.6436001942706526, -0.28843541328705896, 1.0279924302384913, -0.19670729061983025, 1.072546770610697, 0.8835795206772881, -0.8574893917202489, -0.8655525405047265, -0.27961436062696093, -1.6077600490542965, -0.773186156820353, -1.2386054383469745, 0.4070951861658077, 1.8031901264698529, 0.5922685754675459, 0.16365431275514142, 1.407639717238527, 1.1939255336064067, 1.0246042520397871, 0.3447796570208449, 0.33875442613268697, -0.31152244008957247, -0.5933082865231796, -0.0032033786944220175, 0.6216861144227565, -0.17535264990835825, -0.932478739945459, 2.0597220898273503, -2.5618933661280354, -0.6063983656640858, 0.21270541396735881, 1.6277950966017098, -0.008200079745677541, 0.6866932065966272, 0.21277820636149636, 0.24991156054405983, -2.290340464045191, -1.7597923023282382, -0.11438559917608378, 1.393324500465803, 0.3937729299189624, 1.6576126219474467, -0.043408748903163485, 0.8502097083097501, 0.8474314698938303, -0.019800164785389228, 0.08730570727991023, 0.9975219945043349, 0.7149156984264642, -0.4733096623380375, -0.148049297390529, -0.09439544680480488, -0.9847167043444499, -1.8326526633298148, 0.570267678203555, -0.910105545964234, -0.648303011528586, -1.5951071640003383, 1.482107669054533, -0.1418356776223386, -0.33596756775728376, -0.6921083254516632, -1.170872398074911, -0.08294543757868708, -3.1723366947234455, 2.6390426865011163, 2.4384905324172124, 1.938157893689368, -0.9210091758852398, 0.04816446390595992, -0.7756900395104231, 0.6466156789919539, 1.219867018961805, 0.32134252314909284, -1.970010122236577, -0.07128264635646582, 0.1286452838129029, -1.9570514137863981, -0.5220202744883089, -0.29166537920681945, 0.9461083342484945, 0.3012784687769437, -2.0243893627063554, -1.339655538052521, -0.8013234215208319, -0.11216730125490754, -0.4965323402404514, -0.421100638742317, -0.3741535048443169, -0.9347649296117763, -0.020055777400948677, -0.06073096689787359, 1.8071512522714612, 0.026451154989147827, 1.3105642055338027, 0.8460694579894503, -0.5890732899346303, -0.46682798918286217, 0.28316608279094285, 0.07237792368778635, -1.6643208816808215, -0.8173865935874168, -2.2481793928421614, -1.0489263828095188, -0.18586007057298562, -0.9925350683853386, -1.596964971785734, 0.1975082409774738, 0.6348722468639622, 1.889825463341334, -1.3706698266459967, -1.8985888684088297, -1.281181676944839, 1.1255096948079617, -0.5039544415183832, 0.9597152332929975, 2.6921650843975375, 1.0760710915076719, 0.11095710470499519, 1.079851754120533, -0.001005410533881149, 1.1041015065240296, -0.444080696571775, 0.14276191407781846, 1.004519226430419, -0.2542514774193343, -2.517789644922636, 0.549446359678254, 0.050462635426447654, -0.34443378953243226, -2.0528522617471463, -1.0286437693674146, 2.898271685362549, 0.17776086020541498, 1.7612783112415706, -0.09480913300252428, 1.5466462815755884, -1.0389469873081438, 0.4979972728031744, 1.3002754061729929, -0.2938130377246878, 1.626776020115894, -0.03003584495757594, 0.6747708477347433, 2.0424290391771964, 0.7625667802666617, -0.5042343299553405, 0.1399502810787796, -0.945543997074989, -0.8774154393337004, -0.6660882775549445, -0.6571344803400321, -0.03424301807498573, 0.20609337310539108, 0.5558926594491685, 1.0452305251021672, 0.3588447843345175, 0.2028641724229797, 1.0522023896428527, -0.7672954430319476, -0.2864097841397368, -0.5667619844654384, -1.0981023736431634, 0.13490158382279355, -0.8160020130171665, -0.8002771420155761, 2.3667675572924654, 2.145720281879337, 0.6463746002966736, -0.23428195881261812, 0.9875474584334779, 0.7747142303766095, -2.0561738808412677, 0.39615787310667033, -1.0741595504429013, -2.412393694426339, -0.43927407675728647, -1.3021549109431938, -0.7762195397258748, -2.6820101588281724, 0.7900949438971974, -0.28279328174147234, 1.3681330833889866, -0.17614144143544708, 0.9598464348249266, -0.08387243770009113, -0.496405580691341, -1.7006395293217624, 0.8348803728858168, -1.0514259346829236, -1.5840461760777849, 0.23852275942057152, 0.2675948007320996, -0.7210000686895763, 0.7618620781281887, 0.6372193672126831, -1.2013117821246493, -0.4448143832499013, 0.1356430842326984, -0.973721684186264, -0.35006988838428804, 1.1526914825377537, -1.2650462213286733, -0.05126860700168546, -0.3887711792965285, -0.9053236434727011, -0.1897101437342432, -0.1178157266820214, 0.8177408304930177, -0.5775030404365512, 2.3932283687103117, 0.7458047276296336, -0.9411172804434047, -0.782747435865875, 0.1249913754186558, -0.5456330927577748, -0.9655890652620116, -1.3156587504638315, -0.45110525632419257, -0.48997836578411336, -0.5848193395754905, -0.9475493123750965, -0.6813021640562568, -0.7268259555699552, 1.2968666022842885, -1.0281301519157542, 0.7454901459923565, -0.7784311311473879, 1.4720988676800293, 2.4665681256382466, -1.2697711234587665, 1.3965879606557987, 1.0872888883322958, -1.4583993278007676, 0.041909416776098406, 0.48808818465548187, 0.7431827749588449, 2.1445280326341813, 0.2772968845948778, 0.11035759846070059, -0.9131545024485171, 0.6747734638903492, 1.0117370599269555, -1.8284141488051573, -3.806877739592184, -1.5881738821196398, -3.3791158531859806, -0.9169946826389039, -0.4748975474672874, -0.05063582075757367, -0.26318394309125653, 0.10177341223198569, -0.2875299902015657, -1.2165262397143546, -1.697321793935352, 0.2630889151745255, -0.49962445842591446, 0.2305846916008471, 0.3228595595144141, 1.7650701855595974, 0.009826702928332329, -0.6265380224495911, 0.03120668953539313, 3.338444487202532, 1.3082335742122544, 0.8173099630396766, -0.8354818347544887, -1.2994161693613386, -0.6470718311396394, -1.1620348462884207, 0.4189328297963589, -1.5597466143103873, -1.8162580802157908, 0.4852563635360302, -0.026440274221858653, 1.8422919205891006, -0.4055891502299995, 0.9492349260257633, -0.25095315202111584, 1.2841149732349495, 0.7656729771408204, -0.7606324775596138, -0.8689483246359728, 1.0814340213856803, -0.445940339547056, -0.5875712639903288, -0.5100434682089852, -0.9102094461218454, -1.6710616750185185, 0.1164768731063183, 0.7965077651890783, 4.074279495374195, 2.1768098752737632, -0.1728067868460899, -0.2228427820278597, -0.13654486243517389, 0.47831714981492013, 0.8209253203971179, -0.21656366147695905, -2.492897734484733, -1.9234871860119371, -1.5033451086188825, -0.10953862625325511, 1.8581636629555423, 1.9392586748059752, -0.21217668280280808, 0.9473396551635784, 0.11241160641191177, 2.4227664529707194, 0.96191145403557, -1.3881038758122244, 1.0441149848255475, 1.127073043039244, 0.5322024682992609, -2.453122898151217, -1.1542124148648312, 0.7611140219933056, 1.8837887639409572, -0.15865641161348923, 0.09247862013917169, 2.2184811623512113, 3.60015072276501, -0.4698649105115968, -0.8673167544903292, -2.3922683659678947, -2.1622057775222876, 0.3001668046853686, -2.1861987563492433, 0.24375369808464672, 0.6159980334304851, 0.21983474039592524, 0.3074912652446785, 0.6218691989762808, 0.23482125540258078, 2.211128929962422, -1.2401119657862845, -0.2773037995957148, 0.027145000476420572, -0.4092792989883738, 0.8289672977802737, 0.31248389389006886, -0.18997143252246898, -0.32247227281538937, -0.0769824572817403, 0.7815089918566824, 2.084865202486127, -2.8729498068869783, 0.05027045356211543, -1.3530010850401242, 0.6152949819042799, -0.9815048970818264, -1.8355926633727635, -0.9608363163450685, -0.7977548375255825, -0.7638658340832176, -0.6491581667178913, -0.47129617049590117, -0.1319168290752076, 0.4185227507350227, -0.3729120653461542, -0.9162195646054598, -0.5500529358877407, 1.1921870466741764, 0.9265017605810372, -0.3973906380791604, -0.014814817258657038, 0.8156768470205084, -0.23470904147031663, -0.4592231730985431, 0.6535490790685565, 2.7066960068801085, 0.009683069163251002, -1.0701655219906143, -0.7023045632463104, -0.016420538697865927, 0.41528594037596256, 0.031298900020838155, -1.1446328447072378, 1.2738742574972213, 0.7950834596189803, 0.5201816811286336, 0.5843354252026413, -1.1649060778646023, 2.4288662875325278, -0.3750183752695125, 0.8336267214142972, -1.3094530416340997, -0.5913389137078173, 0.7822091725080377, 1.1896843099023005, 0.49438197743027223, -0.1268411916442801, -1.7916843171887085, -0.8155125794063135, 0.21156569965363245, -0.6947271141009458, -0.7823710649213957, 0.21884762193462226, -1.942660001594844, -0.4507616432100714, -0.6632938671803458, -1.2120114938325361, -0.7808484145677397, -1.1848180998554203, 0.6444464913604743, 0.15336773369677598, 0.4473731304591614, 0.41227387794622483, -0.5755367773146687, -0.17598094296680733, 0.3105902591263757, 0.5404821880883742, 0.9829227302953114, 1.7948279905980944, 1.8208230801633531, -0.16485543154778964, -1.0091999636481805, 1.583143227067357, 0.04772042259805586, -0.16615445034012571, -0.08093497667100856, 0.39982058079462846, 0.8347097883912551, 1.20369097256258, 0.7758191066514275, 1.6571042405892333, 0.5642101115593536, -0.9637005541080756, -0.09397484318959959, -0.6833648723760261, -2.4799614186778456, 0.2390961569204147, 0.18187605415838845, 1.3320425889586383, 1.2186311096721698, -0.033066688745104475, -0.34175312845666606, 0.6423759236315231, -0.16869902936101097, -0.04835722301877979, 0.30454932490430847, -1.1841577041862381, 0.2952415336778611, 1.0971346788963392, 2.992905887347862, -0.9471472049335707, -1.2929701367064754, 0.6413933416844475, -0.07742840625165219, -1.6414419960419429, 0.7169034592287096, 0.6509056847016818, 1.7807269648088777, -1.1292832073225143, -1.450612621454501, -1.9153088908904452, -1.5922372694346778, -0.5875813002996805, -3.921589315972759, -0.44107740590372846, -1.055285150695178, -0.6789681524527496, -0.71946630930666, 1.1159956863222593, -0.6062010061113469, -0.16956139085166233, -0.008709330864911179, 0.920141817696409, -1.142350256754099, -1.0422341941240956, 0.8116450310736771, -1.1084689266068606, 1.396788768503598, -0.45809183593783015, 0.7349954240553215, 0.7643846082051637, 0.08576180731028926, -0.9610499876493179, 0.09651121630179203, -2.469789379187356, -1.2698592722319897, -0.4648416579467538, -0.6598225319133687, -0.4543775726446891, -1.2590610038878454, -0.05757480938810786, 0.09102546005181739, -0.14631580873735017, -0.6656359337582377, 0.4102582338078033, -0.5193639485474943, -0.24174296066834458, 0.013530637770400549, 0.9882037356609547, -0.19298592743465787, -1.6190706938653552, 1.826580894256705, 0.4425542642587597, 0.8157448617462345, 1.292561313466863, -0.3891013249760136, 2.2246633770091027, -0.43343824582219587, -1.0983324960865086, -0.1744452919944796, -0.035456145981023236, 0.2847578683428428, -1.5180517391653816, 1.9724644004660878, -1.0274858104584543, 0.31185544013918687, 0.5561934068609137, -1.3895935750508424, 1.8138822602137878, -0.12878561125575075, 2.2571331593741033, 0.34594073629180366, -0.25679844918939776, 0.43339162016856436, 0.14984277032609017, 0.43634517118956595, -0.06869078175631581, 0.3698969595166157, 1.1022253453646051, 0.7586373576398701, -0.7426525240047755, 1.2520348107055657, -0.6691451576539361, 0.7874822571931265, 2.0468501667839263, 0.25153058243250354, -0.03293151899768252, -0.11694076916339947, 0.12997822943599432, -0.24288814018735042, -1.5349959008584402, 0.5604256249613468, 0.2994559822845885, -0.8034545235130924, 1.3776954706692561, 0.18177873587757842, 1.8639267903939591, -0.5813646922303246, 1.868332970302768, 0.11659270158560442, 0.8156641376972668, 0.6937621430901941, -1.2134021028179522, 1.3966645486890503, 0.500268985066658, -0.9134485098431621, -1.7006023398853312, -0.06648785555161779, -0.3311884934169286, -0.5613044599811402, 0.20728501122614956, -0.783793195816185, 0.7325044357835265, 0.9144267668815346, -1.3990103996684384, -1.6437313502675508], [1.4232244474400784, 0.48216595810016677, 1.1068526999057995, 1.4294403478043838, -1.183196559993434, 1.4882209435774434, 0.09793459435100307, -0.8458083457265743, 0.31212493878287645, 0.26119013867357155, 0.7246564980903749, 0.11670444489126484, 1.067014144211796, 0.19062256739266104, -2.0308426301608957, -1.3877835448554423, 0.5620165861868867, 1.1686465529412615, 0.28593252820121084, 0.35414360662809874, -0.9957474137714464, -0.8653262058698856, -0.40488070508478907, 0.402412883536856, -0.3374680446263676, -1.3143977277304209, -0.2333233413012087, 0.7907923904299331, -0.19844897003021592, -1.0400726900168, -0.31475798704232044, 0.916405430070307, -1.8731866558138164, -0.7120556205484359, -0.8853225529107688, 1.322164886913286, 0.5002154283995865, -0.35021029401463866, 0.9956312532902897, 1.0946744282712269, -0.33111606110920605, 1.590695620155363, -0.7065436045460494, 0.1629146937661831, 1.0061724550069602, -0.4068512440454914, -1.4126622527485024, 0.6499624533236494, 0.5461872522904225, -0.8852342695350339, 0.5922206463928604, -0.27754345776076983, 0.5132832506344432, -0.8009161576792898, 0.669849189293195, -0.045341053766664335, 0.12196050111892995, -0.634455214699836, -0.07683745298562479, 0.2945122614854145, -0.1267997891219138, -0.24958928146250292, -0.3082158557201686, -1.686195143756697, -0.06386706769554636, -1.4431635962437557, -1.9269419689352656, 0.2853928021999865, -1.636421173261597, -0.6719762546613756, -0.2118680778276516, -1.3613979244548324, -0.7737711939055103, 1.4965775972889432, 0.09287556016960581, -0.41613197719113426, -0.21558314554073088, -0.7327827595501827, -1.2900900054041433, -1.5258854867448584, -0.6041825842773747, 1.5685433131955329, 0.18573319624550888, -0.7146198903251162, -0.836693068631254, -0.02830378242720807, -1.705636519680569, 2.675275314510116, 0.81270728478031, -2.110603630336897, -0.6948716721446275, 0.28234769548168637, -1.6231628881351026, -1.9965964806613916, 