{"biases": [[[-1.2431047425782167], [-0.39662760114358425], [3.0011170469210344], [-3.2222143220758928], [-1.2029417516479226], [3.4949346542899122], [2.797486556499329], [-1.971513619808655], [-1.2618172835129042], [-6.032370832951747], [0.8257478897864775], [-1.0929888173688234], [-1.0287829607815604], [4.885713585341636], [2.5740599779417703], [-3.6423688613610485], [0.3271737163531033], [1.410947941923772], [-1.0138632040211468], [-1.175828059824632], [2.5646720592771186], [-1.8398619320835226], [-5.06697177040238], [-2.1273617610844235], [-6.128479900423591], [-0.24069286982197563], [-1.059306171863468], [-0.6666011432233335], [1.8088455695495602], [1.6439852526598073], [-0.4170435624078974], [1.7685516940073176], [-1.3015234874619874], [-3.949838856335396], [-3.3325026177972226], [-3.738641962164764], [-4.272646075205388], [2.2608108557244244], [-1.068120821590606], [-2.690345069705642], [1.2714586625248154], [0.0032510426815810407], [-3.5087917891929687], [-1.6250358897596084], [-4.314041183140789], [-3.1339423031456803], [-0.6535275266319235], [-3.323697999715588], [-1.9819537860512193], [-0.5060874963308197], [4.076402457524739], [-1.6891477248894058], [4.656943277042459], [1.3392504909695995], [-1.8680714172183792], [3.3675128578679763], [-1.127239882571022], [-0.10551415981421235], [-1.6690078627308982], [-5.149481414839104]], [[-6.474947674874767], [-3.6498843493318693], [-2.4670969236462925], [-4.211386920347848], [-4.345632335697244], [-6.59273012907071], [-9.147443740275918], [-2.496753014072558], [-5.436048412977318], [-7.2097914652118815]]], "weights": [[[-1.1594473493873845, -0.5166917476886963, -0.8248601580611565, 1.7107430087060767, 0.303900998855086, -0.8242571603881119, 0.5880258027352672, -0.6697350189815935, -1.1188770917151318, 0.44057072638517886, -0.9899984367197862, 1.2256209837941097, -0.378963872894644, -0.7860538926216986, 0.08240139964241847, -0.8234424010605166, 0.5274387388088113, 0.7081332027853282, 0.6970824864521377, -0.0792733333356337, -0.4397721583103635, 1.124441597825031, 0.6216494584395248, -0.6801104718637808, 0.5647209258068328, -0.6391564513530298, -0.642095254360101, -1.628435458174041, -2.125220185926078, 0.29105835416422043, 1.0363956390457745, -1.5281721685475145, -0.19233096977206718, -0.42271797386355797, -0.7409571822770504, -0.4753165815687269, 0.37423879556315354, 1.1404090709489876, -1.5047338650393935, -0.08255005015677865, 0.6344396422053401, 0.32940167905248785, -0.06665076365450374, -0.8881023304684018, 0.9543558496159655, -0.17181522198382995, 1.3798146360155714, 0.48137292998770853, 0.1937935301285569, -1.440249963925011, 0.32228715922272333, 0.30828020703962017, -0.1363045824338507, -0.03842704423924266, -1.2841199993146313, 1.4848314577292805, 0.8128217946947812, 0.7052277763099711, 2.1819551884899657, -1.6940894698931759, 0.6729981091820425, 0.043454558341833864, 0.46318449340275525, 0.07395853396036983, 0.09781538110852246, -2.247843093850965, -0.4396458450016529, -0.44490299348455514, 1.5863415712686209, -0.08922823774184442, -0.7444037473345037, -1.5392840747121501, -1.4933435507975623, -1.4041755441821608, 0.8667371410459772, -0.3480222651126282, -1.1919512259611424, -0.21196516805954496, 0.15124707065026213, 0.28797609562616505, -0.36724777848835927, 1.6069153910522274, -1.2710487972567321, 0.2114542360285639, -0.35104972186050104, -0.17234099725706062, -0.1881115199356261, -1.5961667920553912, -0.27722044176826405, 0.4301334800804448, 0.42283870275442437, -1.2425451735274644, -0.9172446627104133, 0.005016179702067098, 1.375931249267387, 2.0698605467941933, 2.818159208259284, 1.8806513042432582, 1.2067535723630867, 1.7768834621129834, 0.7584961687697817, 0.22637578120531418, 0.6423735182180124, -0.06636192276058328, -1.1568554716363793, 0.2926569210706081, 2.060727190422394, 1.2196248459202266, 0.43604670840438847, -0.7261063656979098, 0.9326091086929276, 0.8528000895522005, 1.041819887804761, 0.8480428524355773, 0.23042394501635885, 0.026403321045907067, -0.5619464994540642, -0.45626277875135696, -0.1303584209884153, 0.0931509365585508, 0.14310491773216874, 0.5630741336750207, -1.1769758588838681, 0.1523152191713534, 2.088901790407667, 1.4872825798297933, 2.897280744715605, 3.685394128561515, 0.6753436234246486, -0.34600071532858284, -1.631075728724278, -0.5474620509405411, 0.15748756439024514, -0.10603692673755935, -0.966059107343356, -1.4527337177667292, -0.7699041627167765, 0.4830845276505653, 0.434969581647605, 0.13673337007107905, 0.12280615387476204, 1.0337276031506484, 0.03630216490159175, 0.8793770629856449, 0.2330293721792811, -0.3277282088476768, 1.1126598097147584, -0.7750116545821499, 0.4242044868613797, 0.7648335369029308, 1.2282480746822908, 4.127896346629871, 2.743072672437947, 3.1562621434546654, 4.740988967236224, 2.7330718789444086, 1.1834413173019012, 3.508510697681867, 3.2112545893693327, 1.649764114582212, 1.5555934999584518, 1.7594904838674326, 1.3930932801569005, -0.7548563181128723, 0.914704089924429, 0.4183768731319893, 0.7831596098574101, 0.8321234480719194, 0.44397625071806746, -0.5265261797294959, 0.037412786526788575, -2.008940849434781, 0.2579477827228497, -0.1559757748463915, 0.9958437399121232, 0.6532403971485232, -0.0039714165554748495, -1.4970687272652217, 0.20321149403971683, 1.8160841587525554, 0.5599246676118266, 0.2792232272559982, 0.060453035430956634, 0.9749241486844982, 0.8715747827387011, 0.9802843924752742, 1.133117806453219, 1.1414949845101519, 0.5988524007618149, -1.7335704571707427, 0.5536833835980641, -1.1309231098341066, 0.13865367019854066, 0.22145977884941911, -0.07435577941216126, 0.6550972178544346, -1.299856872497583, -0.7201485613846617, -0.46439848185597465, 0.8882760997540752, 0.2241168762874563, 0.9882969393149346, 0.141416395197026, 0.3552125816803242, 1.0560841584619076, 0.30644850166231696, -2.057050035529416, -1.2937903541583857, -2.991036262382591, -1.9007798514809227, -1.1870756845415704, -0.5075413783680666, -1.9416423530066398, -0.193160529197197, 0.624161447144549, 0.7296994763525481, -1.3284944943293804, 1.5589986551316077, -1.4593709781771587, -1.1023107699430315, -0.8353488414802364, -0.7050501416395624, -0.14751969862250217, -1.2164927488474357, 0.3856883767369571, 0.7515678916860148, 0.3798057226776259, 0.6996520933797933, -1.470503287706654, 0.3851858987429986, 0.9339094608184101, 1.5897356359929264, 0.6131935524063751, -1.5373928393902059, -0.6936588911816983, -1.3631098260781735, -2.8431483500511088, -0.9039700949409964, -1.567488733968263, 0.2757669106779365, 0.0827996015017075, -2.0167122882121555, -0.660987050442953, -1.143864483465198, 1.2103435161163978, -0.7503508333079341, -1.1738962008681757, 2.5065070252704773, -1.19492924233369, -0.9638299696205656, 0.8593672885677022, -0.9919534331451658, 1.4091635497878876, 1.451817884985514, 1.6007211531677072, 0.7393937912358868, -1.8316542251101031, 0.9584650415266099, -0.614049011694568, 0.4042430789109106, 0.6773865778039867, -1.7769015657734764, -0.9634603313017978, 0.155434577648408, -0.19229298074327084, -2.36146186455586, 0.08110219504075943, -0.29796502313977025, 0.13908407696141162, -0.9821453389307457, -0.6945280392424427, -0.6089673431446863, -1.360799634481264, -0.674655899662109, 1.0649930721173733, -0.911602818731133, 0.8126230424327779, -1.9377621871251476, -0.4529566018371946, -0.7657859167247489, 0.2229179821468679, 0.005424281175772359, 2.090923587782104, -2.009038084038864, -0.6098584374124767, -0.3330724900099604, -0.11086412844353986, 0.19778686506666734, -0.820329158322099, -0.8744201414064692, 0.05885724596901655, -1.1213668393798673, 0.4651030294695805, 0.20062144888883832, 1.1536909598887102, 2.0684840647120395, -0.3548210690138852, -1.83340021735116, -1.4177331014616703, -1.7117954494181455, 0.2119416125004665, -1.3107672663647763, 0.052601865635547994, 2.656492359711509, 0.9801756362873287, 0.5666616414258734, -0.8395330490562122, 0.6596816119962591, 1.164636208481042, 0.8219774837380859, 0.6861888740713825, -0.5300485173375861, -1.9937384131372389, 0.48154012655057365, -1.407220582699535, -1.7972712597495304, -2.5047756210006655, -0.6085413158100101, -0.6294124989552051, -2.3782673143436677, -0.9739024355819053, 2.542343818305443, 1.8553624040725472, -0.4451285240786424, 0.7966667657460021, -1.6434155977299612, 0.7537539363889612, -0.03396239470257354, 1.310561699983107, 0.6701462036501141, -0.5376021982737355, 0.8478116154800321, 2.323268896222082, -1.554740271203749, -0.12679333947061558, 1.8172583807211478, 0.7687123100189063, 0.5510713241765895, 0.8436066583860908, 0.5412425424714895, -0.26969094387124826, -0.6820753723433458, -1.76859599395443, -1.3156469577534133, -2.0725678469474422, 0.13500781997199468, 0.8598003363257031, -1.4002540153425609, 1.0952073093705716, 1.1389835045636114, 1.8061268584265244, -0.6931958729416909, -1.7157985906564945, -0.5893136072605064, -0.7485434068432568, -0.8560361918993161, 0.45521787311221684, -0.12916825046391617, 1.8218203735636203, 1.7836909228001465, 2.210676926061861, 0.049981805412397086, -0.5652799426160376, -0.31559589256999204, 0.8327601049657127, -0.7052146806958177, -0.6230392782423665, 0.8240854019579762, -0.6389274226447279, -0.9842826912721914, -0.33211631886473286, -0.7414832156331485, -1.062953723246469, -0.9394713414755412, -0.8686942032073973, 0.6058816257820387, -1.1017499659728418, 0.7446452379067008, 0.4925345547491183, -0.926974232566451, -0.8264400900132552, -1.8735928658594925, -1.343383255367466, -1.7353896958647186, 1.1346587469410165, 2.028551177445842, 1.2305097089217518, -0.24435912236693977, -0.33762468231907605, 1.3334525640624415, -1.6573652998993236, -0.5928691827011072, -0.5247318534633262, -0.33004130135730747, 1.6643193204741284, 0.15420942182187494, -1.2692420266442896, -0.7849479253464603, -1.2155172454773293, -0.2523463172859682, -2.087776366161047, -0.4704151664778575, -1.4080389951450292, -0.5447086955279401, 0.4482201460271186, 0.21264404446739968, 0.1987387297765862, -0.9237978616113337, -0.6652657989645752, -2.0424436508997657, -1.1377497401427012, 0.20572953107481595, -2.477213423331841, 0.037780813630597154, -1.024311575204973, -0.20114825645553414, 0.16866824441057857, -0.9788373426593028, -0.7173988298633738, 1.4726020947137524, -0.623505951309049, 0.17869296462581005, -0.3159267954544693, -0.5812352280358861, -1.2107046737277867, -0.5379878266068863, -1.6997260922490083, -0.460179320233685, -2.7620406318388557, -2.021924453178488, 0.7064122254631451, 0.2093477373163666, 0.06468775139943576, 1.297079312892761, 2.415527420363833, -1.8901555566015955, -0.7683471674850553, -2.9222764417293687, -0.34797202890915824, -0.6807980928006879, 0.5616727048563321, -1.1075718277665767, -1.2299894241404286, 1.2368283846588752, 2.207684868512389, -1.7252582410175026, 0.7968929462349432, -0.273588277939204, -1.2564063891285049, -1.3809034212517872, -0.5116952415277501, -1.9377350773917317, -0.030389296718710906, 2.1026094242139624, -0.24179212728307486, 0.9237008541102472, -1.372002357258229, -2.445959963448767, -0.8294196130712729, 1.5977440406250303, -3.089289691132276, 0.18385102411394114, 0.5033481905088152, -1.0802583336694245, -0.8452313735457051, -2.0930134154825573, -2.7683626478718946, -0.24717608608643055, -2.055514609178255, -1.3416469294501003, 0.8056914543931549, 0.5463057785121033, -0.22765248358857737, -1.8256309452855906, -0.622526088502829, -0.4151269923867321, 0.15353864174377752, 1.0298659829546706, 1.2216340890036617, -2.290388794348213, -0.8151843255767874, 1.5491864973448142, -1.9513313557481982, 0.22540527036537394, -0.6874197490759666, -2.1717527837876855, 0.5760026098265927, -0.28198118558579777, -1.190933915979198, -3.6640511435932925, 0.07344709476868642, 0.9044012650013983, -0.6857424582722222, 0.9291196501792955, -0.7010486949201106, -1.7188733785251733, 0.7066198663213552, 1.9563443054823328, 0.7547401800091547, 0.4811292106310741, 1.2608845408280125, 0.4077466908230536, 0.002809871027983287, 1.7517128231155445, 0.9519062102558588, -0.7957232415965538, 0.7117552071009763, 1.7761906454790888, 0.8904624210345452, 0.8933350084688976, 0.04354625564448085, 1.638813238055978, -0.5003566728303449, 1.3963328686714658, 2.133862994893974, -0.9191554975322044, -0.7880785831708405, -1.06705768096457, -0.8334264060064347, -0.45804425249967684, 2.420322277362185, 0.3694225557037769, -0.5328975431452178, -0.9129999875934612, -0.6911479214437719, 0.9696382347706397, 0.7586573251723175, 3.2311279630155885, 0.7708987755020749, 0.05148561216930335, -1.751282543095419, 0.7138881508502782, 0.4288687969144308, 0.0493577371827039, -0.0970066800660048, 2.7947637151215807, -0.4317159129939712, 4.165459234255734, 1.5099370769516753, 2.7710331668048416, 3.1009077096709445, 3.2887233959477036, 4.136663616337706, 2.3665990373177053, 2.5028382377178255, 1.6004237336650458, 1.1125258303302041, 0.8576743710500708, 2.2825530933629365, 1.7033734751399103, 1.3641710950391375, 0.744064111847831, 1.2909508583961697, 2.1911030521140886, 1.3580964981846109, 0.43173648172595297, 1.8754212304984499, 1.1304022441778192, -0.056448892962576915, 1.07371506531024, 0.3826509511515122, 0.3722927012933839, 1.2912677562145916, 0.9891673052199565, -0.07029746756638532, 2.730918875916845, 3.440230597953976, 4.119213507116567, 4.688435366478387, 1.7653571639972285, 4.6736596309211995, 3.6638404752982328, 4.447623363247942, 2.2207643525760776, 1.7518664660717698, 3.6939415181405755, 0.4149104154656546, 1.4668002833408724, -0.9053259854859793, 0.9296953336253181, 2.4998640774971665, 0.7051366091074707, 2.513766916682037, 1.3173308193457907, 0.03944431268700826, -1.397912577618794, -0.44046414429724756, 0.3027258311615216, -0.8869332632929391, -0.9986447962401676, -0.3278160724296222, 1.1256203455823601, 1.2990927657490703, 3.766073218702191, 1.2745504901158295, -0.6923964467586095, 1.790789567506858, 1.3039961485381495, 4.685189847474864, 2.4129053409484227, 0.7194051912488938, 3.3875569554313025, 2.281644178137174, 1.4245638892744985, 0.03291261607383777, 2.333541190284047, -0.8256800262401409, -0.6753719185338688, -0.15444694209998594, -0.20094586569477796, 1.1734334921094125, 0.1786608172776284, 1.5445626863302642, -0.9325098197080233, -0.18511355245682987, -0.334318931007526, 0.45740113595542, -0.15800247160643066, 1.9407125503574547, 0.5412911396280878, 1.3838006928230429, 0.5849946079425663, 1.609830707873824, 0.5426175073737333, 0.4737183148057885, -0.6075152718861685, -0.04907243214137845, -0.6175842485202323, 0.06994385797430312, 3.201185227903511, -0.1762363711491208, -0.543918519674394, 0.5602602522116614, 1.839635705688796, 1.1601107185511363, 2.5787898588589995, 0.9563107129953192, 0.9385643801631833, -0.4590896241529039, -0.1273037267357792, -1.1133168768859543, -1.4360798810248667, -1.6615764735038336, 1.8647518893021777, 1.7570236185487098, -0.7028610104778698, 1.3155408321901791, 1.474921842392789, -0.9998858664284526, -1.0166727362513326, 1.6779034586785444, -1.029140142092881, 0.41160268881735246, -0.49293112021577123, 1.769182520707508, 0.07958034717252015, 2.6733548236458278, -0.6184617291753898, 0.5235851998103159, 1.340698068221463, 2.336506318859408, 0.5411967496863552, 0.6652698066019879, 0.6185589013130289, 0.6253100038951807, 1.8396648297580043, 0.07923795840699062, 1.0783326326332066, 0.06131500290509307, -0.5024976067843983, -0.7540533423787299, -1.1923041566461263, -1.8862415471840828, -1.2627192980270197, -0.5811450781917757, 1.1154651214032274, -1.912884094135705, -0.45725524063273304, -3.333636228498095, -2.3048277145889715, -1.7657157305020885, 0.5563181088551657, -1.179898108214075, -0.03732877523862451, 1.8642569894631542, 0.33999345649363133, -0.31360747658433696, -0.6239021645046887, -1.4692785559353763, -1.6941039572838184, -0.1090087420947735, 0.23425345326771915, 0.9257852463876726, -2.0249144243885384, 0.8793701739487019, 0.29482941841053073, 1.8392441762029677, -0.4980982866470811, -0.4358977987382098, 1.1245428932345767, -0.512500922889942, 0.6075709360162739, -0.3579330587925634, 1.4263014832028924, -1.232593796588456, -0.8668077958322274, -0.8164860584010643, 0.0837673285759463, -1.1240137538781787, 0.2301800297591358, -0.8440503482893046, -2.505984677788662, -3.046711388311825, -2.156921676719577, -2.0836778642247182, -1.89865427904071, -3.7347013189003437, -0.572309463822273, 0.17795944691648374, -0.8297552346458794, -1.3515510376078326, -1.3636591865232701, -0.06970990937619453, 0.23156109062392116, -0.000623302208346114, -0.5315825295817842, 1.7322517168245246, 0.025679752355059104, 0.8830111416422609, -1.187445689545248, 1.013391153335482, 1.030718402880139, 0.4365092213012635, -0.5104257865620023, 0.33033935695695216, -0.13038880132428368, -0.5281731865561691, -0.6107786252326303, -0.9151431518871245, 1.2455338441576846, -0.6358167517725848, -0.3834046476120769, -1.1993219805112798, -0.2386586129425415, 1.1674992839151181, -0.27562700370627624, -0.7139795865992399, -0.7670127265015824, 0.5570326039846017, 0.1804377529910087, -0.9501729522151376, 1.3862014576970396, 0.036964993304724525, -0.3361318807578873, 0.42228642516343273, -0.2864058158027265, 0.03020910986139744, -0.8996222052281991, 0.23701367988460673, 2.0627496589500316, 1.140379602798042, -1.1743171048116112, 0.8970677157417293, 0.1017862223769128, -0.4457018999102325, -0.14388873446054737, -0.40489629056300513, -1.9345127096804806, -0.32748107475057536, 0.08718687961336244, -1.0388190786855156, 0.031051987802282126, 1.3669531219961057, -0.28972619666479416, -1.2895093894968852, 1.1955979213199588, 0.2660177147825367, -0.27502733052026646, -0.4401082923778754, -0.9151967767711514, -0.19126341767285018, 0.022741622832069756, 0.3429939404717588, 0.12570196792443894], [0.9997788224308343, -0.024453800785448482, -0.003922750331010882, 0.07856365608693497, 0.19863577352415338, -0.743547747603221, -1.7731664182759137, -0.9013831630265173, 0.13265275519069605, 2.4888618997219685, -1.3239366750107688, 0.45668701450473514, 1.0566198696698805, 0.7254525885775251, -0.13893099068682188, 0.6310155075570077, 0.6943172110983168, -1.1220981388507216, -0.5356814844674019, -0.26628865548850367, 0.678173060003099, 0.6038676621353481, 0.5763125883221252, 0.754375759776219, 0.36030878348076656, -0.641843953949941, -0.07944646641679941, -0.2814933616774051, -0.28277259246404646, 0.5923149898000593, -0.31644983517217434, 1.2674281736163284, -0.41313010033983133, 1.524568458190185, -0.4339200767209645, 1.5250176740042867, -0.9945854805512412, 0.035116856410323825, 0.2916847955981849, 0.5219050458921991, 1.1906603285669923, 0.04767872211254226, -0.2917081760136583, -0.5484223618861578, 0.924816244584739, 1.0887202829681228, 1.4798332220782218, -0.1878013618533055, -1.2470580770103001, 0.6578315381783543, 0.5729271983656735, -0.2622807284549441, 0.004763877348712106, -0.2368219935108612, 0.02707751688509911, -0.03595403902180152, 0.22785149469020954, -0.9216858201922412, -0.4215197319309683, -0.054143526610785385, -2.404799197508677, 0.1662060121505643, 0.7622839028276328, -0.12294278635649783, -0.2997211520555099, -0.992044571123784, -0.2581348553322107, -2.011919972944103, -0.14600468727403226, -1.395055638277421, -1.348878470884447, -0.4043422570915149, -0.18212710821325478, 0.22579206783661715, 0.3584417761520725, -0.2725736304747645, -1.0800907185443647, 0.9767081852756839, 0.27663026596271195, -0.5347554664766277, 0.43986830629913765, -1.508227450840965, 2.3909109391896526, -0.8608195585670946, -0.4119751724386147, -1.8340695916497263, -1.3101998397077836, 0.16246742345178694, 0.9017260779024379, 0.7047738196440761, -0.20491642401255428, 1.0747290672502727, -1.1064740005921143, -1.2133053217227494, -1.4782274609305739, -2.324376437021286, -1.1896951760576988, -1.7254432737432308, 0.21745503971669497, -0.8726680479331661, 0.7860218519034122, -0.728385548004527, -0.5773634423142725, -0.5296528067454489, 0.9956028840297411, -0.506928127940037, 0.3952850713850047, 0.9878988303298538, 1.2241630719927363, -3.4062948773779493, 0.16008044073482894, 1.3612125164992293, 0.1453305924371785, -0.8374221805261186, 0.15410320507132222, -0.022730478631239046, -1.070130066725992, 1.5764901363699122, -0.7082154523096361, 0.7522078997068247, 1.1537856683074377, -1.1224486231730737, -0.3013062553442667, -0.2909919160535799, -0.11183696499707318, -1.3332055081766219, -1.7437293611084654, 0.0787851859694054, -0.4715851999462726, -0.6017049253380915, 0.9174570874034038, -0.6191373425171218, 0.5709004825608317, -1.008918445138327, -2.2103052230715847, -0.24283159565155268, -0.88701723754617, 2.6205151009076277, -0.8028283814113422, 0.480232163935025, -0.6678702541533142, 0.47144484113449064, -1.3575545242271316, -0.9727187843756331, -1.0376181887895444, 0.2292047039653254, 0.024259010829393385, 1.8098761195163102, -0.14659894156465658, -0.6643269980986494, 0.0118762834937447, 0.38593914250323313, -0.09094230928478361, 0.4784769815793992, 0.3777298417480838, 0.061173564569071935, 0.12437380951414972, 0.25567074715189964, 0.501595599877924, -1.0778188443633414, -1.8974837762319645, -0.744613859745874, 0.26083720005918304, 2.9481389267806772, -0.4003603385993454, 1.382490480337316, -0.07912213082219353, 1.929428097882068, 0.0127764034471916, 0.17338338812330553, 0.14228079943484906, 1.1571045919183685, 1.0329358249427008, -0.2469514201857512, 0.965372609995103, 1.0841260144761173, 0.34858203492341805, 3.008897851041664, -1.0334682105099517, -0.3974835977855556, 0.5045124174583941, -1.106779364170445, -0.7851087218240111, 2.3111655496922396, 0.5547692209935435, 1.9488164426271943, -1.240436019681283, 0.4248950306476551, 1.0456797975716998, -1.6126896819601355, 0.40082773802154736, 0.8302143754587139, 1.2941652322859352, -0.2553858875865622, -2.5103080143831025, 0.014351950335104413, 1.078893744899693, -1.1016896136990217, 1.4591185030932599, -0.08810126149869597, 0.547463900237995, -0.6434479240569476, 0.3183174300222241, -0.8781977362971125, 2.028938215839674, 0.5419505281176294, 1.5191100104797504, -0.5603992132820144, 1.4569464162571863, -0.7001111700918453, -1.8757810379253574, -1.9477246661345258, 1.684719484600896, 0.7601506703718157, -1.4315073941257355, -1.3263029889320617, -0.1390941104272934, -1.0489018130469152, -0.011344957871713215, 0.051946000800558015, 0.37208950616623004, -0.1302044692963718, 1.352681622035369, 0.06138991949402428, 1.2756273864597942, 0.9840621993806196, -0.8450053446861543, -0.10521348853740663, 0.3098986823849163, -0.027615286335606875, 0.30567679588531865, 2.448272349569899, -0.2058410920842646, 0.9979441364992607, -1.2247417586950875, 1.3566453963880383, -0.28779082730288846, -1.221358209020274, -1.0349449044273196, 0.5143715728023134, -1.003324342185961, 0.09484884160784592, 0.9796130524750004, 0.024183226677106182, 0.3385249023163203, 1.0894773744619224, 0.6704533196800648, 3.976916744799543, 1.5800650654113588, 2.836327003440132, 0.9716445926421721, 1.09383282019692, -0.08088591638530614, 0.8780134176387117, -0.0019050206623370438, 1.3125151013024714, 0.8915779204232015, -0.14196958834629564, 1.3384231936623259, 1.0994325506271487, 0.27083760537301016, 1.734225919247043, 1.5549891095187, 1.055071576870663, 0.3066111933965617, -0.7294134342200771, -1.4105134253437046, -1.9912428707444434, 0.6225393074928709, 1.7415044710679821, -0.9132057267422978, -0.4464020941680162, 0.2191897156282712, 2.0293515107843763, -0.05940231632893657, 0.45168815910724064, 1.812338267437516, -0.3259017545831402, 0.011692777978837313, -0.3516769800643832, -0.21198832481861743, -0.6092928104286558, 0.07226894346601921, -0.1991492204804883, 1.533994342253018, -0.47239814428034044, 0.2933415739296341, 1.2658281433612435, 2.502149425938093, 0.36214655249060446, 1.4029165532518997, 0.1187054463960045, 1.0774976992841412, -0.506085327617458, -0.5004825443787355, 0.2135320592841043, 0.1951986198702488, -0.7564637074811523, 0.487419506138238, 0.8530749719713141, 2.6590026463608667, 1.0986680349429496, 1.9209306224439955, 0.7901657714715498, 2.437009602082044, -1.1064167457114518, -1.7388757060389024, -1.7233116073190715, 0.010921899994277983, -0.3047247153263515, 0.5576908825548024, 0.8013388185699767, 2.051735263189596, 2.020570091969175, 1.917223804343014, 1.7693754870854692, 2.238085491047841, 0.10470879092252158, 1.786147362832975, 1.421715159755037, 2.773696601943028, 2.004464037841293, 2.5253438454966144, 0.791440462482524, -0.4123062703490458, 0.12038106204239274, 1.576550731159673, 0.008209650987099379, -0.41205016929773974, 0.35709563904834857, 0.6155138929299654, 2.5723479017223148, 1.7192449668686456, 0.23602439757803986, -0.5899810839382775, 0.48801642126130795, 0.27220381854776815, -0.10471617928108794, 0.4130878108380222, -0.11799076001804792, 1.5603770843464244, 0.7032012156605383, 0.9703186559901111, 3.027184975524682, -0.36667883253142014, 1.3378494376671775, 1.3207529121879404, 0.30458967493704137, 1.7219625800116891, -0.2663274941229548, 3.0818472013358806, -1.0554045785733968, -0.8895215023877149, -0.3242627902766773, -0.05537037679198598, 0.8699073881876371, 0.6433159397753001, 0.4759501428412986, 1.0459129208358913, -1.9736162834847237, -2.074092648972628, 0.43940265532424505, -0.5492047995127789, 1.2318734528561313, -0.3723183092987023, 0.588651418933936, 0.3772971193707095, 1.3161514916014796, 0.8037899816714746, -0.15063194724366244, 0.40421692552006633, 0.2972876430490739, 0.11473888872275123, 2.105546024238314, -0.5974688499882461, 0.7767387374424637, 2.49043925175793, 0.7758102652819678, 2.4234790709388943, 0.18798332687929464, 1.310552834821177, -0.19816282568304672, 1.1744208489241295, 0.45630326825118717, 0.48016810184888487, -0.6974539609720802, 1.3800115180060144, -0.07952678482506509, -1.023867498585495, -1.237176703991195, 0.46453718090758556, -2.078398895637367, -0.5470183606165862, 1.385202030858463, -1.485953422255489, 0.9665502033091021, -0.05300028752145792, -0.1477236508160662, -2.0594865996464384, 1.7041814478366422, 0.6665929672813055, -0.6312936506848146, 0.041518135283821055, 0.7925877142189759, -0.2214136756733638, 1.3411181212752625, 0.8862286763230295, 0.19338558952658436, -0.43614690626774016, 0.5680347818003253, 0.5287407551958632, 1.0753211048485432, 0.6994394975017002, -1.0576082898163401, -0.26632219284090913, -0.8200933481660253, -1.0614021434973029, 0.798887843890889, 0.7715351310558121, 0.03743009679450193, 0.8594595648584274, 0.37215949313693625, 0.5222836026053271, 1.512104127416594, 0.6505480817049228, 0.3247304363187484, 0.5531108655524036, -1.3638985672038655, -0.41020097615622886, -0.7491708875763661, 0.7536863002391354, -0.17104250043970154, 2.1540493231085382, 3.2398667923835274, 1.7214015316615339, 2.7756100021394734, 1.891236198929447, 0.4258055929825921, -0.3805877918607897, -0.8573500170910865, -0.7138476553733035, -1.1233960353353556, 0.030536580765567676, -0.8129506278329107, -0.009808315162869721, -0.9240594764985542, 0.19448149468428116, -1.5516812982527017, 0.22446622563188076, 0.44307732422155827, -0.5369270733804126, 1.317826042733567, -0.32493476129776483, -1.761698411036898, -0.5537590612229774, -3.9957921689979243, 2.6108561446413936, -0.08542283355892072, 0.884325929868462, -0.41200052452632213, 1.666213452113503, 1.5782719972246226, 1.0645466713849077, 3.1379154776730034, 0.7560379839801166, 2.6985639606538414, -1.9116908167395652, -2.889927354842642, -0.551543324668375, -0.9250815516445525, -0.6424055331832436, -2.5839495977603666, -0.34025204098202216, -0.5160986730283522, -1.078997488958755, -0.8927582479050067, 0.4477558497020593, 0.6583034656296274, 0.34392790704374077, 0.019373889172323643, -0.862932711198159, -1.728124475516515, -3.224661727160655, -3.9242290883646684, -0.4162269326665489, -1.0872634908067194, -2.6835089848196523, -0.9660714856223225, 0.48549468922010275, 0.7573979831212876, 2.420497055214446, 1.626352252860516, 1.6851065999125387, -1.3154649114145973, -2.009877423975374, -2.8689756272590077, 0.43712489544825944, -1.1416506997552847, 0.9515833768722302, -0.7517411031216458, 0.7204443926024348, -2.088810538007347, -1.4235305986729707, -0.8617315881517021, 0.4267895522711122, -0.05088125497906946, -0.38495144822077754, -0.7579830695714431, -2.1658356328697197, -0.7024455638407768, -0.6032355662981289, -3.06575988682613, -2.7582429315988612, -1.9557824451875163, -4.44456092434394, -1.9525011725542532, -3.028631061991057, -1.5607256600220698, 0.24319929742004892, -1.1766904602193027, -1.5274512722521674, -2.25784225303035, -0.07390807847966523, -0.9698722568650138, -0.26112536641349543, -0.20731492656590078, -0.8157517735187594, -0.7014933443258817, -0.5970668570883937, 1.3697865395120976, 0.8816152350826285, 0.027700590280026954, 0.6636094227995096, 0.5366335803691047, 0.8337866131384386, -0.14197154264748357, -0.8402523632354457, 0.5780582978628873, -2.6145240384424966, -1.1801522511269262, -1.6982362054300542, -2.3006946220411355, -1.6449290558458962, -2.4624387803868237, -5.0082911865167326, -2.085210075038544, -2.761833249952495, -0.46996982238664015, -0.5353040808563337, -0.2864954395826029, -1.51646038642144, 0.3440721050851514, -1.1477609350480005, -1.2604503603934145, 0.33758842059100413, -0.9129365776682686, 0.5488215998285317, 0.45520550607695254, 1.8823756253946757, 0.313663344136885, -0.017336214390671893, -0.4983520566162295, -0.5642294123433649, -1.1286672640534179, 0.11612631709144057, 0.5643686300831449, -0.4652338079191615, 1.6603026932873026, 1.272239928074105, -0.8980496078392719, 0.02263910816879546, -2.216063880466941, -3.4128928631372157, -0.9779995313017514, -2.3233900349852354, 0.1386158851989153, -2.3033077837819054, 0.2709475816362697, -0.1417535196022802, 0.5366462442236994, -1.0090583063850742, 0.20697466170975445, -0.3962347694669169, -0.4871576936675923, -1.8094691203910587, -0.33612153626993163, -1.2929876137454699, 0.26253614415762944, -0.501693914705302, 1.3475725538876127, -0.4230376745931932, 1.58478979472961, 0.2826393531748023, -0.8024991933759632, 1.0806386560109384, 1.1492587940531422, 1.4232555541089955, -0.6586668181690715, -0.924839887960939, -0.5023272898994071, -2.4513405085689364, -0.6173227751124866, -0.08804531927307759, -1.5935113329918666, -1.5979605767492984, -1.3356297329986355, -0.3220989732331679, -1.6551055082351231, -1.0469881125738933, 0.41139865509461654, -1.3012908030144628, -0.9771025980226392, -1.0255976223961147, -1.0876905155649015, 0.6093582962973446, -0.3186139371178579, -1.5943924297969125, -0.6956081996755733, -0.7027411219806129, 0.1162862125790121, -1.2700391179757708, 0.1038758361410388, 1.0444793335110687, 0.4613681040838734, 2.399288924163423, -1.2614396980393068, -0.35224034803975685, -2.526513384661532, 0.5312051507746882, -0.08087566965335753, 0.8323882780189138, 0.3317284891452681, -0.04814113203491627, -0.461876974386245, 0.7871028208698728, -1.6947348242532752, 1.5217491873798343, -1.5918938494204578, -0.2605982080880209, -0.5680057275294057, -0.39021284207036516, -0.8379833665283858, -2.6651841727910695, -1.2147667105321858, -1.1453008757265106, 0.017959778890948918, 0.0809363927226577, -0.6902326657274294, 1.1986510560762786, 0.3033162500859658, 0.8580031255828952, 1.013563343591579, -0.9490638829809525, 1.8788716661611904, 1.5637967868706972, 1.9396918547198754, -0.44409705550068884, -0.8101385197939678, 1.2980250786918257, 0.4482353521931966, 1.4625018111116643, 0.7621856559776033, 1.1448601873377064, 0.2655239705105833, 0.7486241561226495, 0.35699962578123784, -1.1994152319387146, -1.3262463738365646, -0.8714648300186684, -0.49506242800699174, 0.24756195467659917, -1.7078041017908554, 0.9312485749734619, -0.43552086751738056, 1.0428901334841945, -1.3961312736944635, -1.4270514523358298, 0.47162234434496053, 1.8142547348414568, 1.6189279428838188, 0.9699207920058657, -1.8182475521630383, 2.8077898064951365, -0.11066394644627718, 1.1044855859393417, 0.6019065747720168, 0.598143606096723, -0.36975647524839195, 0.4865153139796285, 0.016862495160619034, -0.5822524644433409, 0.22255885883166418, 0.3003282915190333, -1.0849723539272718, -1.8031710037344502, -2.175453351527318, 1.0627405652250914, -0.5191282468458754, -3.279740635701772, -0.31008239670259624, -1.5906983453990868, 2.2970143135661445, -1.5971162010997522, -0.9993988641436187, 0.8198240490153678, -0.047879380682251546, -0.15404372808779654, -0.0890978227627791, -1.1521484239731703, 2.1711919693987904, 0.5581248574216998, -0.17357416977918083, 0.9777892359237077, -0.00471303587954505, 0.4079589531119742, -0.0499369417033577, 0.05094100400891185, -0.5875280950858246, -1.7952053872320461, 0.2106025535769899, 0.8576836738870831, 0.1022246029516135, 0.8772350433773433, 2.201483572350806, 1.078818062198539, 0.27536686310625547, -2.3068986497000865, 0.40787179857546124, 1.2776362690901812, 0.4085036921413262, 0.7634741196556695, -0.0010648038357701246, 0.8566555200179867, 0.8683799329870626, -1.0760874497145534, -0.8598570005992072, 0.7098431051564724, 1.3367759458953241, 1.1852783633757527, -0.9398897472637624, 0.565686845327105, -0.4387696170225534, 0.2119286835431724, 1.0823533351153214, -0.426605172953121, 0.6467522077749849, 0.755533238074967, -0.2808021467250618, 0.29005008868120064, -0.8528964538340151, -0.3681968223205287, 0.1239738248775538, -0.2790818095229189, -1.2848752969977248, -2.1056573125061417, 0.43383582310221785, -0.8834109832837644, 0.08037433377757598, -0.7063923878353618, 0.6314524448716454, -0.032926710003517067, 0.1928180011903618, -1.0518494696475509, -1.4545317920440708, 0.20148821395232433, 0.2734602502244388, 0.3289907913412363, -0.22761445795858554, -0.4199601581630912, 1.29188587567333, 1.270904823026146, 1.8515993328664022, 0.6021681705363899, 1.8697241047239543, 0.09477276150144233, -1.751975728257457, -0.4566465451745523, 0.1693523186382688, 0.5473406486526904, 0.658269094887682, 0.9189905171329684, 1.2213449964650755, 0.42274277213070555, 0.8090644294036482], [-2.1438801223595503, 0.6875639223914716, 0.9971324428264496, 0.4160982254538129, -0.30330252397867724, 2.8693860678642418, -1.0267278041816943, 1.8013994234106026, 0.5101553346570349, -0.16313162938002151, -0.43567735571649907, -1.222627312855089, 0.1320041429733624, 0.6043200127042981, -0.9443598043325615, 0.09966181587968682, 0.9144137843674698, -1.7247323716931513, -0.6914676985505833, -1.3418125858317225, 1.6999130249603709, 0.4606198521584822, -0.38570809947582074, -0.3881783283437924, -0.4635956756630721, 0.9890233732486599, -0.2621057103333177, 0.10485756502381034, -0.3726852318191706, -0.06898425106787202, -0.29560473823869565, 0.14296035412915586, 0.5127549466719188, 2.0660204322466478, -0.678073705484331, 0.9243796153660419, 0.43449924295239856, -0.4624554379888628, -0.8613440912217473, -2.5653141989131933, -1.3638849305472593, -0.4905860913705498, 0.22224614217005131, 0.48601782731561727, -0.3505970518244155, 1.2765769771758477, -0.28442989463812574, -0.2610242770504137, -1.3212668760879496, -1.165502795321593, -0.4683115263078209, 2.3542245808410676, -1.5111009938070423, -0.13869634238559586, 0.5650324065155616, -0.5145173775017825, -0.9655485533486255, -2.0088089879991577, -0.027162394991348093, -1.407577843130079, -1.6386456282294026, -1.9224988674218986, 0.4412604245837991, -0.5259851118205419, 1.3099562645654566, 1.1413502183561477, 0.3480043167424304, -1.3529150001599988, 0.23369590811238983, 1.5649736028469523, -0.994042308464168, 2.806037158707919, 0.3453579604291488, -1.135474441732474, -2.1383808033144303, -1.825505644088888, 0.2741416347299138, -0.7908914170830031, 1.1209874402472242, 0.1606457874014074, 0.4093189107412077, 0.17218554902706334, 0.7098901546144067, 0.13013716633928063, 0.46197954550871334, 0.17017947099446087, 1.977925092303268, 0.48789156032157016, -0.7896838309537784, -0.23982357267356366, 1.0308145315351256, -0.5522921494356395, 1.4394540502290292, 0.6823252924815673, -0.7226875756916328, -0.2340137630417174, 1.5133352772264803, 1.0164737890821949, -0.34300001478451936, 1.5184355141051549, -0.5672602790315558, 0.5661912114241465, 0.022927816731360393, 1.3753649843826088, 0.30056922759548366, -1.6414475679708251, 0.06708940437921773, -0.2504357385132781, 0.41249681761261076, 0.7805617935238292, 0.18902523840333924, 0.03392360118535245, 0.8004521040375493, 0.12938362915382495, 0.23449667165242036, -2.4589718056806618, 0.27911950924925266, -0.11987887593570934, 0.18819880912357975, -0.4043586345183645, 1.4906586143832692, 0.7043755704098584, -0.20926629329126636, 0.3011521716032526, -1.1508946996695335, -0.34479204018592413, 0.1659655903575819, 0.9637050704517016, 0.2548884977239103, 1.5708301151810935, 1.5315389565603243, 0.5640003921196796, 3.249671021041888, 0.5066180989457933, -0.2952108589750235, 3.4425664067569985, -0.23984525382306127, 0.8563165873336547, 0.5783108258153049, -1.15576684565637, 0.9664591486400889, -0.521887533242522, -0.3395472764276923, -0.5881246968619113, 0.6289249396875038, 0.8566312184730516, 1.4879518140246761, -0.8800844638542125, 1.005741672855217, 2.0414924875435534, 0.3741962099033634, -0.030475216951635794, -0.015542610647850121, 0.39340916249135377, 0.34343580782894784, -1.5267364406548782, -0.0831852440827783, 0.10543907057722353, -0.347817903891841, -0.07823401264474623, 2.534831360896787, -1.602813101228304, 1.3884683818150947, -0.5049027737213835, -1.358372030548163, 0.7947699631624497, -0.6422659577535748, 1.6949906683817557, 0.316687784221086, -1.2624292065305565, 0.3961684307738931, 0.3945682393877647, -0.7033533566001426, -0.22322307789099677, -0.008361276530296304, 1.0069722484259422, -1.994721414806523, -0.25796063903607414, 0.2579913657663795, -1.4933939406251602, -2.2698665484691603, 0.5612018665813775, -0.04740832505498079, 0.39537772392866327, 0.6527346361157503, 0.3020216997780988, -0.6276058383323179, -1.3480278817293274, 0.18067829377489375, 1.4695167963536675, -1.3618270445270984, -1.456774797008567, -0.34138893019711675, -0.36722704294604136, 0.818945001234771, -1.4739530542550923, -1.1255200560675784, 1.1555151631849463, -0.5022829649617372, 0.8351976814202006, 1.6747529941425947, 1.6543162353772065, -0.4304118530227657, 0.735290783716185, 0.23110534434257887, -0.6460301247488778, 0.9604419435180076, 1.3984200723283426, -1.3555204127346012, -1.1406721487309088, -1.6123782141551153, 0.1347191180444049, 0.2719577215278569, -0.4260170388414186, -0.529660034096026, -0.7598974165892922, 0.35780769539841767, 1.3022001205260862, -1.1275926571119135, -1.5000375119335492, 0.32859449007261216, 0.3807788828027425, 0.557225220736202, 0.4423491868589182, 0.37579070341799886, 1.261645532852427, -0.3998531713821285, -0.6320427346701297, -0.3861509326987536, 1.451294530148586, -0.6502723788799833, 0.40581843008002627, -0.41520721874099953, -0.8924959350187633, -1.649525292306442, 0.9980113165945831, 0.8802895250827035, -0.22877834444347395, 0.03807486074692762, -0.286177678943455, 0.010182305293379624, 0.14876608535844524, -1.8121581933761062, -0.7323918334351864, 1.4007346853569633, 0.14145102486457203, 0.03929727210567269, 0.7972807179648501, 0.8310535690688362, -0.24886449557943538, 0.36957827300795265, -0.8684444836839256, -0.7536351673100148, 1.60945602096313, 1.570485512808013, 0.49788381175700686, -0.21369343464372992, -0.0497192359290959, 0.8807877873271238, 0.3217773411560117, -0.8013516453854539, -0.06945042158005978, -0.24052651033642322, -0.5062749760599625, 0.5335936346759615, -0.19458443830784133, -1.3747398391027719, 0.41200942648936, -2.01742446463543, 1.0573286948400797, -3.342914700267818, -0.7623914681132724, -0.11493576389422555, 0.2496163905967094, -0.8603084465022651, -0.27395953060496525, 0.9395989378913371, 1.1823058734383423, 0.8532036546814201, -0.02660157337318782, 1.0905112013127078, -0.4168425163694103, 1.910799719747818, 1.3739882453399512, -0.683845998723101, -2.500203480691521, -2.4203241750868463, -0.077918639707848, -1.6007397974778668, -0.1261276747347297, 1.041571107033859, -1.1599729350902976, -1.687494177215251, 0.6659091780751093, 0.07058674407376518, 0.5499948854491934, -0.06352928924700404, -1.2241067862559811, -2.65667400463074, -2.3654302667108507, -1.4085002791861938, -1.5979467526978044, 0.14119868086133425, -1.4438536610774766, 1.9993275550002036, 0.15930621210699725, 1.4746340449572226, 0.538027427473965, 0.6040687224606288, -0.8251887700306338, -0.14501816782868626, -0.5341753327314497, -0.8856523992303198, 0.9195859349843906, -2.1826954332461814, -1.768682709844358, 2.9202584333205617, -1.363924127396877, -2.035278747493725, -0.24141810992323318, 1.5756413405561973, 1.9834573956981987, 0.015285020811400967, 0.5979272997043774, 0.89742275145073, 1.4194732039090572, -1.0222563938110047, -0.709018121818463, -0.5336084731790135, -0.6155790311440948, -0.9782933425219235, -0.15955022951397888, 0.6639098051552949, -0.6386183477472116, 0.9835080345052408, 0.003534327558978882, 0.4258160337571085, 0.19127488170637338, 1.9514521932940998, -0.33473602539494957, 0.48158262824669235, -0.28122992276410813, 0.22425362410845595, 1.051184674615275, 0.9146401576090902, 0.7199385562037935, 0.9606711453867397, -0.49419083550073617, 2.6705754668896935, 0.6980977761157658, 1.7220204623045696, 2.490859284525587, 1.9421288239189187, -1.4987982191321074, -0.5911373592163752, -1.7369220793742663, -0.043717052133700036, 1.3643921628458942, 0.3009820182087744, 1.887599640254907, 0.7550663848529163, -1.048046241769481, 0.4605464935769468, -0.4042749871819161, -0.40401952598529717, -0.1293608665174444, -1.3251701367849285, 0.38979132143571227, 0.059042759901260566, -1.8371493564694399, -0.6284997749464498, 0.26909950419470047, -0.07794953312604581, 0.2480942770807974, -0.1391321063485047, 1.2859381469319193, 0.39649120970449087, 1.5648059762705993, 0.6834940568211468, 1.5426018165268012, -0.7292358428570164, 1.9551638018457316, -1.111891371783575, 1.9083428239230915, 0.6843745568320728, -1.0688320189415208, 0.5516908058140667, 0.33448804120690523, 0.17521490983750232, 0.6164408500204656, 0.4625394909935926, 0.11599800478126064, 0.33389912416433404, 2.6225092015815767, -0.25724841571942475, 0.0095474254103815, -1.1224851086663283, -1.1690318229324583, 0.6549853344282851, 0.02799239004700242, 0.3192714886606487, 0.6488214073973225, 0.7884308340781099, 0.07453931754472704, 2.195278888700009, 1.5619449000075243, 1.9119243799608143, 3.162752200477224, 0.9834968281181927, -0.9616938086318182, 0.14059941922378338, -0.7396196630704751, -0.16535119842187385, 0.40296106903575407, -1.3221199964166188, 0.6327421740097207, -1.198514819023326, -0.6249503104948686, 2.1700926320139575, 0.5453354599037985, -0.6099374099070155, 0.7485186623121514, 1.0584628650455694, -0.7279529410263902, -0.5872754513842957, 0.37418006827504674, 0.548309691103285, -0.38738189607100104, 0.8488375387395326, -0.22535920312769683, 2.421542459378017, 1.5392232324853905, 1.7914799897651614, 2.4265649996741763, 1.6526127140919775, 2.5864165773393046, 0.38658317135840325, 2.1228249843203373, 1.1599539115285442, -0.7949327383162169, -2.697255259253816, 0.012279641452565304, -0.5686757949467696, 0.7838787195435934, 1.902289718654253, 3.0920827121185126, 0.6092923394597486, 0.2545141238776229, 0.18036403928041012, -0.6469747598066032, -2.0470143160705487, -1.372612110383147, 0.9632914945177231, -1.1990069584801897, -0.7101643040659786, -0.5363558227219384, -0.32537858583896234, 0.4749050221164648, 0.8328918464610862, 1.0234681234154552, 1.1761346997714799, 1.5338069642524292, 3.274353233787438, 3.0848361220929386, 1.4285178237488632, 1.4738308292596896, 0.6981047499876508, -0.8776018358293112, 0.2948449406846502, -0.7990522997374115, -0.959799381475094, 1.891612105715124, 0.9199230884469157, 1.377201639091213, -1.090282651317531, -0.32873967887222116, -0.016126139910544, -0.3602121025557988, -0.2693510768264553, 1.123619403229669, -1.1166232759422763, 1.6485291904034105, -1.5141415078947376, -2.906587424495931, -0.7679460692158204, -2.1569027716629363, -1.4283828435834376, -1.0445732198645974, -0.4982514197059773, 2.2585363498393525, 0.0045471539959015235, 2.3202175405075507, 3.1600096816580296, 0.34375747216163044, 0.18717297067439584, -0.8707382566302955, -1.438823726113669, -0.43030607367463575, -0.1594686963353445, -1.2479650874203363, -0.4431993703055473, -1.1123448520997312, -0.19334888050599472, 1.527199512876835, -1.5328171063308336, -1.4745306624478949, 1.096841095004108, 0.17629492284005052, 0.9137419273811378, -0.9729957302737463, -0.16840757060057684, -2.0492331528110124, -1.8196019495915354, -1.5853586192705498, -3.73732206520419, -1.5267703146195926, 0.16637540750547825, 0.09971114856306526, 1.5182031889675418, 0.6313678454770085, 2.238350384647428, -1.4121385775373814, -1.49643574539445, -0.9795093791738432, -1.329089086735584, 1.0149510596187967, 1.1380319589168852, 0.5156517497781614, 0.26949705463300966, 1.9380815835768617, 0.37793968013959994, 0.1872491837456333, -0.5201851759869068, 0.4592111242378059, -0.26378591842824467, 0.0830782940606366, -0.4565852877458569, 0.10835438681258318, -1.0813060636865954, -0.6335808901053616, -0.5816554746284149, 0.20618081528544907, -0.4783237951498561, 0.36920956370312624, -1.6344528266831715, -0.5658984780050889, -0.5297107764279801, 0.5967855814795174, -0.06207991700444996, 1.265277233801566, 0.836476483883375, -0.9174997462461932, -2.218410856983507, 0.051674451659747205, -1.0044123923786201, -0.8882583502404084, -0.9873211743063987, -0.0892531423311048, -0.30875797707587366, -0.2608957481852595, -0.5469679501624986, 0.42595524604341245, -0.7900810624653661, -0.3555152450934659, -0.039282731545372054, 0.35281679566628815, 0.16829238400311267, 2.157268110215384, -0.8750049359161161, 2.1750293891178574, 0.18721915137651912, 1.9375893396475177, 1.08923065512016, 2.1423410252272554, 1.3439383538973386, -1.6051000550969312, 3.0548856766568466, -0.9665406148643026, -0.5485077884056742, 1.2694512741871629, 0.018865104318946734, -1.3793180105311944, -0.03591489284783042, 1.6789847693503919, 0.5275924411064135, -0.7617369980406996, -0.06826942188811498, -0.21512416262900397, 1.0452898584731587, -0.9417241391751134, 1.0582178707535512, 0.8310783613383643, 0.9249026624282263, 2.18325488543719, 0.22194973065406265, 0.7238525054244005, 1.0883193013260881, 1.9719541728231185, 1.2769707480339076, -0.015166426198298433, 1.1267189221186844, 1.0619717075817487, 0.9583522636199597, 0.25457005518129294, -0.9134230276068155, -0.7700150726436324, -0.5368191143336224, 0.24086404591450297, 0.8643472647285089, -1.9287538185374495, -1.6065373464854673, -0.17674037257829386, 1.4254407084423484, 0.9997626667917914, -0.26104491579143485, 0.22255901904117248, 0.8316947101538442, 0.8579042310485665, 1.2557728141936606, 0.5746623914710793, -0.36442911472486694, 0.8953952367412104, 0.41136907515616494, 0.6234627985187704, 2.3713046526245734, 2.4442590027065663, 0.19928594953215367, 0.6797400411414022, 0.5845316309689912, 1.4233250693448214, 0.9741645278238691, -0.6918159580214464, -1.5192551164860644, -0.843559021869583, -1.943841621814768, 0.014457805534155875, 2.189833519055028, -0.15905099812820359, -0.9327689187101421, 0.34041469805746044, 0.2065709734984521, -0.09768624862740646, -0.5918818349648345, -0.45657325822440264, 0.8532916289052253, 1.138974523765573, -0.30203310809042605, 0.9474168555672966, 2.1282998174750625, -0.370606568288506, 0.2057630143067845, 0.857744659471738, 0.8851390703995086, -0.8233616681941104, 0.3579814428707113, -0.8654738100907612, 0.16020670095101416, 0.5258638522469574, -0.22365010623661236, -2.7439544678818453, -1.7915596210425606, 0.12675974178172894, 1.023832316739221, 0.5352150520992653, 1.9562123590636293, -2.162568516568597, -1.1056181159145075, 0.927950287671045, 1.6338054096155272, -0.2908562089219489, 1.0900333203638513, -0.768127088717632, -0.648243194586505, -0.7526821108428677, 0.4643886214690679, -0.8389101739186382, -0.44540718122446804, 1.8281965849378927, 0.02307547891987759, -0.9906991263789153, -0.8250849099976806, -0.1934325561591106, -0.9962161299048239, 0.6240284514113791, 0.617291562217524, 1.5619378210177401, -0.31160456776535184, -0.3300174653051207, -0.18490893077617085, -0.21537758480430005, 0.12276783712760418, 0.7439085173522374, 0.5533358664973421, 0.8640089336338809, -0.5705027066457422, 0.017668628867449524, -1.2592669047562899, -0.7754226461334544, 0.2592555236153627, 0.6839295655652206, 0.8317643459553726, 2.1035348895049766, -1.1978328402808014, -0.6938336011008934, -2.1792759488991775, -0.6971597222525956, 0.9742279334004085, -0.8543100017099513, -1.0710390308031283, 1.1903173600059775, -0.0018246097624582027, -0.4909645329987384, 0.2459132069341574, 1.3832499613790437, 1.3335850315983169, 0.28101790950230016, 0.5541952694765911, 2.3699714603632205, 2.1172500653804773, 0.9373658075955372, -1.3840479381469624, -0.8830631461584545, 0.5011183680698763, -1.0695628676063123, 1.2955122318697099, -0.35958133370732914, 1.7845263611599191, 0.9227780442561491, 1.1426612454467255, -0.2062583666850119, -0.01655036818285822, -1.0930610673310484, -0.08587489800077973, -2.142822550052451, -1.470200918275913, -1.439552087739142, -0.7358042263190394, -0.12736985126749353, 0.16944868843467387, -1.3571786820619463, 0.1359368542355849, 0.37106646084184, 0.8118224299534195, -1.3767709618664425, 1.3002979892757933, -0.6760230892523552, -0.005366474691393588, 0.6870588613533909, -1.420788497979355, -1.2387737457362928, 1.5595466180836421, -0.3991638672079514, 0.5589428194553718, -0.5189543087969627, -1.6456611339876872, 1.068807382619167, -1.170163695353563, -2.335280706036699, -0.7251733939476903, -1.3042376675740297, 0.3582118128228947, -2.0906409556024292, -0.02642605182295135, -1.043503921755231, -0.844163296587046, 0.0026276295952281604, -1.6543896921771328, -0.791784619683794, -0.8939131016875485, 0.29751118608892724, -1.1026647591385808, 1.4287171324541654, -0.052339483530740936, 0.8498766244346004, -0.9377237093046168, -0.6692074465033477, 0.36262448445560325, 0.761506843588085, -0.03764423526296144, 0.08562393375466053, -0.12828854442692333, -1.7925637274171882, -3.406696025381807, -0.7400695315531927], [-1.7166708423701609, -1.5888411039806827, 1.4331639582775948, -1.7357132926249534, 0.01213523311211049, 0.17907636658782575, -0.002281563730150825, 0.5657175306067445, -0.8145321724361942, -0.7849752011394904, 0.4093017706917812, 1.961773707443643, 0.5386638154591934, -0.18754564559419445, 1.5247582756211147, -2.009259544226151, 0.307221241005544, -0.8336315202683668, 0.7266813514991965, 0.1538012871793285, 0.15175658071179918, 0.279397094697674, -0.4725864674449162, 0.7870418411939851, -0.7005701377094736, -0.771654085012211, 1.3870273962121062, 0.3132198827319969, 1.4615089706936246, -1.5821612326733867, 0.7954822130142727, 0.5812316395622806, 0.4626834380923499, 1.9394100538541557, 0.5555166271530835, 0.39500269961148476, -0.9684076217181078, -0.7511695796802914, -0.5281792772295691, 1.0687873199238729, 0.6585361660484266, 0.6771206371396267, 0.9899504090827724, -1.5933446823627393, 0.5304149948924395, 0.16231187512001602, 1.0684679098269545, 1.7975010834367664, 1.1182156232594245, 0.8015718471654174, 0.8577195755282152, -2.51807733003122, 0.15640879499541083, -0.835688624308785, 0.3268569547809257, -0.2226996501500217, 0.9016646093796005, -0.5419124869122875, 0.16593589718122612, 0.787720348299636, 0.7976694260520827, -2.0141998668219196, 2.519885368106381, 0.36527817826272024, 0.14479508647812905, 0.07236025611449802, -0.288152629726276, 0.12057038563942, -0.9032702555863356, -0.5191744109764963, 0.16284258018740352, -1.2820570335233674, 0.9239419812639851, -0.10781076348226801, -1.5569084286218706, 0.22522815736888463, 1.1242423167098825, -1.255194784418519, -0.5206721212884676, 1.0678561976171321, 1.3762505688002953, -0.39986752647642027, -1.4617891660074807, -0.6280702104528383, -0.5372589919257966, 0.1450229204171553, -0.131500282054488, 0.843110862943606, 0.7940023435757031, 0.8725589464263757, 1.7962965832604572, -0.4851107455907925, 0.8780314369115285, -0.4479470953635218, 0.5879754456400247, 0.02009341928861322, 1.365392823055536, 4.1903450373030475, 1.2235465916428976, 1.8033591375949618, 0.6408419163575372, -2.002020458995808, 2.0428882666712322, -1.2225330120234623, -1.9131293538758287, -1.2016445320485474, 0.4998537456879403, -1.4232735685957232, -2.2432594218775797, 0.26772062996833784, 0.17793633966435457, -0.08254291284111127, -1.5247142264030966, -0.9113722114647838, -1.223884446712373, -1.1665079043046411, -0.011693570147109214, 2.943045612009899, -0.8152982757301074, 0.21401785189719655, 1.681843538684247, 1.1694353313362178, 1.3370365889850433, 1.4770819245218607, 0.9209674886366112, 1.207422728390316, 0.3891424341560036, 1.9982513547049385, 1.531523157809219, 2.1774478709186074, 1.437230676260151, -1.7367739957901196, 1.061455112548243, 0.8111763214076729, -3.092803743403206, -1.3553219021671241, 0.6487820074056148, -0.0973059211702235, 1.138248896801107, 1.0929836324093087, -1.1877917444659916, -1.170747865204443, -0.38966886583359456, -0.7209793229527658, -0.5616956059069088, 1.26976179094343, -0.43497350891043174, 2.307381560040102, 0.7843533132330652, 2.5514937197055185, 0.9489810646790303, 1.801801718411775, 1.558913622211383, -0.4656877900370609, 1.2456459781855154, -0.4036210436455659, -0.01646045833907772, -0.2689491992029488, 0.6110199271232712, 1.6056882775644203, -1.0614234217028558, -0.6139142555803436, 0.32602229229853835, -2.048814228624184, -1.5360505073779158, -0.5205448858012798, -0.03513504387419474, -0.005804294642702655, 1.4003562966267484, -0.8221996906307859, -0.8510118711742487, 0.7666625030596501, 1.3297707267798369, 0.798394581533929, 0.1809685563660487, 2.424810794890486, 1.2682695504606596, 2.2190588256132027, 1.7188981281384046, 0.5810675385708336, 0.40047910548458604, 1.732073683928248, 0.8638038429620494, 1.851974254864759, 2.0466549269824674, 0.08609081745688887, 0.5739004784444249, 0.13653089909952298, 1.3270475371927668, 1.3220069747343777, 0.7818292458281785, 0.12271260264034045, -1.7407636676991463, 0.3207241095685867, 0.6660352807515161, -0.07911126354005396, 2.8088663583917155, 0.5745940220399237, 0.5399292620643389, 1.5700034600131683, 0.909110925409048, 1.9410976711567773, 1.0165834217290424, 0.15664338878476147, -1.4738259749694962, 0.1504451258877176, 1.9788204217266274, 1.0790479018217176, 2.578571730428606, 1.450116733648485, 1.7559285458291762, 0.8839404117110892, 0.5569002641280127, 0.8648123257243527, -0.16823280147501724, 0.5822377386225104, 1.9370074069475711, 0.5867508439759712, 0.9508416666973812, -1.9343921120301608, -1.3149680298280895, -0.3968660318805437, -1.961946134933606, -0.0715631779268685, 1.808245219622898, -0.052684999485940257, -0.4840150429762031, 0.19737717505253813, 0.7006569910494008, 2.247791645127531, 1.0821098486992948, -0.5707510133511277, -0.033477612543870494, -0.24551355022209814, 1.2847588062767252, 1.4226790559161622, 0.23690564781443801, -1.101678048870722, 1.4475502924245987, 1.9921205759322758, 0.026742791326307636, 0.6034096502210676, 1.6164661602144395, 2.959798024653953, -0.7807517977285919, 0.4599104552897674, 0.4826286760103321, -0.6692307302762137, -2.521644038809988, -0.23318218162790477, 2.779058787344244, 0.8217050651440175, -0.32492689740095587, 0.6837920680420877, 0.9253500451671478, 1.1600468599716536, 0.24056372584280392, 0.634181185584738, -0.09342471208218589, -0.4537997679079709, 1.1438149118196868, -0.15854190389925873, -2.9477495361495585, -2.6818713522355435, -3.168353927968222, -4.833253591532151, -2.3112682838740874, 1.7190341260987358, 2.8127535898229215, 1.7389960005868377, 0.15963815738342738, -0.7380870259599857, 0.17216720743328184, 1.9418400438220076, -1.6880165018823037, -1.261678587962776, -0.9538750704471047, -0.5944852893727297, -0.6232138681007353, 0.8015970925381646, 0.8076336719916418, -1.9675265925573249, 2.065836491253303, 1.9895750585584768, 0.5128264346049348, -0.32947073088787693, -1.1593672767908283, -2.428599163746371, -3.1714956556678198, -4.537320913282862, -3.268117331014925, -7.051724776813907, -7.808443544948571, -8.718365498898631, -3.511339865552385, 1.4241042894893423, 2.470476112599755, 2.580381683804175, 0.13457869116608165, -1.1131135890525254, -0.6261076442646183, 0.678010699562714, -1.9008040374323742, -1.1118794993180026, 1.5225723842809165, 0.93262933637165, -0.6409491965888144, -0.44810263678437384, -0.5627196242129744, -1.4896608704028138, -0.5871394908549755, 0.2998934983430324, -2.4631146730313915, -3.19496698470592, -2.8919151315836493, -4.437753767318287, -6.34188033830579, -6.938467821469945, -6.159190356302011, -5.65561590630604, -3.111485181157171, -2.873342110785851, -1.7411126381585516, -0.37339126827018126, 1.1311342884096163, 1.2490519247544825, 0.8643017613961932, 0.15770015349296967, 0.8274843662078211, 0.24507870329753892, -1.3683376670447063, -1.6739494219441675, -0.8108373270747368, -0.7343135923385888, 0.33496610963696016, 1.171370750285188, -0.6221269115471506, 0.6182529354028192, -0.6816240504030547, -0.016061648158270613, -2.233963783235379, -4.138548088012684, -3.9307243085517576, -5.290018966042842, -6.193473543201572, -6.32301807968011, -3.172989648002954, -0.3038583271274485, -0.8890562565697282, -1.8970636869476556, -0.14646145273058928, -0.1856074225821881, 0.6217132371881257, 0.4692331044666728, 2.093980242244677, -0.734157955996845, -0.7140785736867542, -1.4079179592924727, -2.071907864344449, -2.213634777592685, -0.5264598128735868, -0.8803825962923476, 2.0594597270948802, 0.851199921512824, -1.1236333961130944, -1.3771132058850875, 0.7232720281684258, 1.12648750021399, 0.2348516345454964, -3.8356923182598237, -4.4491281706631085, -3.4653227971975396, -0.6697584567575284, -0.04255787242626024, -1.8191619250554931, 1.3069592068181357, 0.8137224348674699, 0.5589340960236118, 0.06712443319176883, -1.3682457621940414, -1.261878513687763, -0.38675353077743385, 0.06547865233541736, -0.17576917606064765, 0.6859964449551071, 0.018734285254303755, -0.3277735365170215, -1.3361200674321982, -1.2640228567016139, -0.1272397027153866, 0.5685931659193624, 0.293002117729249, 0.00902691954933309, 0.5353583411817253, 0.21939793209586197, 0.049036085059836795, -0.5941977736150621, -3.495825063779142, -2.2221563565801525, -0.7235706860636444, 1.029055638153779, 1.4802295981031568, -0.22551532366715263, -0.28940963349724047, -1.3360085247096831, -0.16458877376674272, 0.622944671288626, 1.2038307496477294, 0.8081004046170349, -0.6015032320661406, 0.5752654424906909, 1.6041897568902341, -0.8379658284098057, 0.20706367490458621, -0.016182998443896042, -0.07100706840142866, -0.4843552326019846, 0.8926744800525185, 0.9296509713219321, 2.154512759372903, -0.48324025599857945, 0.8765103137876125, -0.2811974481480805, 0.295874025940907, 0.19590596977473299, 0.8818150303280222, 1.2108159233005562, -0.10714141420371412, 0.020338360436040512, -0.316111856708628, 0.7335432573186298, 0.7331636409378841, 0.3403738883338146, -0.08840496881345611, 0.3042389216209919, 0.9332642232713959, -0.45829893945226224, 0.5763904051558054, -0.5869238194789893, -0.5174918509263573, -0.7228679283643336, 0.1705416909223005, -0.971626491567538, -1.4546071556468767, 0.43527194220291077, 0.7266963334430465, 1.3969635038684938, -0.6533331958619593, -0.35838902670421924, 0.25836915387811366, -0.12187907727736515, 2.6479991648169294, 0.1950118499991706, 0.9433094580852923, 0.25496921881311635, 0.3830915414630149, -2.126322874625158, 0.04691152775557808, -0.749768395316092, -1.1562538992121512, 0.2016293258514479, 0.9497578796959087, 0.5154350021670587, 0.011359171609162725, -1.1373535623556505, 0.5573933964435095, 1.4077354151651689, 0.8562381454659397, 0.17445445734705872, -0.43668655645588594, 1.1052592126626006, 0.3981185800634652, -0.127610373040664, -0.2898222243736508, 0.3788349793265536, 0.5686888504683932, -0.8280251917742002, 0.28086527876284023, -1.4593791037151018, -1.9546245371947173, 2.724310097720184, -0.3132996080353355, 1.049265544486313, -1.7048641197919159, -0.6200543538966274, -0.9221158525976314, -1.0334375194747658, -0.0636001507168516, -1.3735587622655072, -0.3549616271152878, 2.0331570968478667, 0.9226516103117927, -0.17235542651311778, 0.016275233224289958, 1.0742926999277917, -0.129591013742324, -1.9523497621627959, -0.5666673797299414, -1.89576260681344, -0.07493800048387005, 2.7265109234881946, -0.01847193790461134, 1.5331575633065448, 0.7137758454627672, -0.2891482568550004, -0.9910865952222886, 0.8952639947875232, 1.2241553482452276, 3.725660617409613, 1.10004686813477, -0.14209619983547825, 1.734706035948873, 0.9625288324202195, 0.6765618123478695, -0.7905123734771466, -2.822187989259874, -1.0966291089672702, 1.076702580614718, -0.07261861316163579, 0.04768731305442422, -1.2546539431125066, 0.5041437849213677, 0.07779542688388276, 1.153552990677889, 0.2749206885250459, 2.262761010039157, -0.18398830656244958, 0.8259301609403, 1.0290339707372755, 1.4933978005707413, -0.26133268945343985, -0.26159447274712533, -0.7696841798676145, 0.42769400060849744, 0.4000685546962222, 1.8869495361730013, 0.9262873175326857, 0.5933090849068339, 1.9050801396463806, -0.674330350520974, 0.30682665909858364, -1.013151954291875, -1.4964440708242945, -0.15451106996349956, 0.8079881183988591, -0.15199249901068088, 0.27670956197866836, 1.1698238967587318, -0.12415867794581041, 1.9360732571824628, 1.8863879106165176, 0.21358100351501608, 2.0149187405210953, 2.3721640809733895, 1.4477684798842563, 0.8161098588439155, 1.3655276835942407, 0.5042780679183183, 0.972455876535568, 1.271527852330453, -3.236121985983728, 0.14405624540949605, -1.3528653369990085, 2.7987750009628884, 1.939315541448727, 0.7943873767847545, 0.4830083325352332, 0.363794851076275, -0.9806908762655108, 2.3753219546248863, 0.032071028071529596, 1.1610653851694475, -0.07750244791363545, 0.31668731385060056, 0.29173928426934365, -0.6278173448143324, 2.305208735321984, 1.324965948437149, 0.31785184036928554, 2.032365370698957, 0.32063822898456645, 0.05318021732669673, 0.5655725472775047, 0.11928641417699086, 0.3329028400068528, 0.0031100321857800576, -0.6039522933971099, -1.206180130144804, -1.542153161589467, -1.1589956296338626, 0.596787828862959, 0.2313158049441922, 3.8113388684161196, 1.6811395113194687, -1.6641771634887719, 0.025474511328928022, 0.990516378571423, -2.3064302251489237, 0.6206944790855402, -1.822713307555334, 1.388084562549662, 0.5176531232159942, -0.46828827088872044, -1.8826474866530745, -0.7792720474084677, -0.898691549991032, 1.6318347162083928, 1.6385413003105362, 0.6304014381786527, 0.944679672318281, 0.3306263198041738, 0.3413138546189557, -0.9254437946858828, -0.873310362312186, -1.0024490433340962, -0.39652359763348555, -0.3920185245974517, -1.000888661783204, 1.582234472413596, 1.135976742260328, 2.278363515759706, 1.9502821474757646, 1.043369147530543, 2.3669956957760365, 2.3284934682846496, 2.1544334599714183, -0.07559355269602254, 1.2828205287042156, -2.2397812784959457, -1.1372777705618267, -0.2041790842695542, -0.990481223919487, -0.2804268417322206, -0.18248211564475192, -1.0371883502229013, 0.7356935199135602, -1.2648437194189106, 0.08712197081530516, -0.25437562642370165, 1.861870665706777, 2.0480079330367853, 0.8543052097299234, -1.4698770020685306, -1.5329149571254765, 0.5841071036925889, -0.7482527649572035, 0.6097447183958853, 0.24955015741509062, 0.1433669628836798, 0.5679915170751364, 2.8894600217611344, 1.0283308464322647, 0.6752830220853572, 0.8458499785138271, -0.1698821179673211, 0.4309296562241104, -1.002466992839261, -0.6746799153619872, -0.11885263650376084, -0.8622309052044628, -1.6962793863515784, -0.21616666767724538, -0.4167317562968401, -1.0140229775045453, -1.024285336548806, -0.10837462692397218, 0.9279909971231759, -0.43215830217276274, 0.15476119994087392, -0.4058118604604148, 0.5415554911922623, -0.28308787739922603, -0.2871962622805587, 1.7510892117279901, -0.6127500171952641, 1.1245238327561047, 0.7789995427321775, 1.4630454307239793, 1.0637459282032746, 2.9792725916146487, -0.02738717058560706, 0.08274234031495899, -0.41105403241997907, 1.0116715686229503, -0.39769565989692285, 0.14380852661675558, -0.20651534789904585, 0.7971874677213878, -1.0409006217952805, -1.2035797912503554, -2.698698129419656, -2.021989037566454, -0.860013927423147, 0.824181249708391, -2.225958417646618, 0.7616243139022558, 0.31567704161368826, -0.40532129755924867, -0.9672460934584505, 0.546862322165801, 1.6969313851093373, -0.5742371369097922, 0.6361199782706178, 0.6348402681099177, 1.2551328853200174, 0.143021818698126, -0.6105293598523344, 1.5210788777492004, 0.9597013840153291, 1.5535221259663459, 1.197961241360176, 0.1502532765723321, 1.6467311446334285, 0.5328082460585809, -0.4056735326675363, -1.4247279909222446, -0.1227029704184841, 0.7621581389780595, -0.17592561275156313, -1.5702936951432522, -1.1507851398180382, 0.9090369391764261, -0.25987644513198577, -0.8249013836668915, -1.5000751013752578, -0.7988796080372471, 1.0033129726862307, -0.33563191786125895, -0.17281711176411307, -0.6586243658825155, 1.203169041476491, -1.20084933335343, -0.9696903897207932, -0.37941248850361886, -0.6468711121712137, -2.08996500051605, -0.6037578945135084, -0.9550641358174726, 0.9401694754871708, -0.02477075209175598, -1.5753806709474965, -2.0597519477653514, -0.3776462162727478, 0.24692020901993023, -0.36440055911635155, -0.931944362934826, 1.148740445375169, 1.0441149025931642, 1.158210662742553, -2.0251596628774875, 0.1658248448254155, -0.768453082628193, -0.47657181329708886, 0.7206854864907027, -0.4693412385436805, 0.9358861872907063, -0.2781665728105045, 2.4775647568321117, -1.9881191734583576, -1.105742742306351, -0.15834565521615945, 0.6334416305582536, -0.6405534192529766, -0.21700256260222842, 0.13204395215308676, 1.337432089431676, -1.3575497047498153, 0.39605750381468374, -0.08476913094641142, 2.7477799769972995, -0.7787009353325476, -1.3187322183945756, 0.807915727282083, 0.10499007215778253, -0.3202394915905087, 2.201941118099703, -0.8427562246963959, 1.3679479314038918, -0.9045507810861505, -0.9633390548489114, -1.65394090559394, -0.41076195813447713, -0.7844177846860279, 0.22801588416338955], [0.3606329715916691, 0.26756653747653264, -0.8236828965393498, -1.494700044198327, -0.8823704891470141, 0.19370909171809023, 0.7305357139996378, 1.4277355608789006, -0.5019952317980366, -0.09879110062185102, 1.1566923121178252, 0.05104645645399831, -0.45306641770345163, -0.3437796659040447, -0.8546753734459457, 0.09225886816701692, 1.202813741244007, -1.7657030958117663, 0.9074934218464863, -1.5402373002596166, 1.8508587747062415, -0.2514368419667725, 0.21564375731462068, 0.7975504016642051, 0.0692438946914616, 0.3266557793433588, 0.6769820575135687, 0.5070233509740554, 0.5340671629835871, -1.0531086597300752, 0.418180859963246, -1.4750480608786771, -0.7473833621980706, -0.11813568679401926, 0.1275727317203022, 0.058334414966736935, -0.08736157622546532, 1.6563350781611272, 0.9419728992091477, 1.5165576749674508, 1.522539350951724, 0.6466565933013884, 0.648218958312764, 0.5613008599573472, -0.6915287748475519, -0.11584204959705524, -1.076690792639491, -0.017902784757796417, 1.1357155023084984, -0.3683639698691639, 0.3183033318662865, 0.42925985646966713, -0.9128942154559592, -1.0174549738196195, -0.600148918946809, -0.43646958485796794, 0.7799459953770417, -0.06413468302383381, 0.432411157346173, -0.0018201357835909867, 0.9535208888383401, -0.0389884493314734, 1.1786572679634726, -0.12502960610729252, 1.2370723423603707, -2.559103414241185, 0.8201256668006325, 0.27968897490865235, -1.0965953293402952, 0.20742681529793616, 0.1250488631171004, -0.4212002939093688, -0.47139792466638347, 0.25484757644666867, 0.5999903848601762, 0.4444824717263697, -0.06167841681598502, -0.24765760866264752, 0.4260139780193824, 0.5897827416911928, -0.7956544738928201, -1.4494784265515528, -1.3413587862991032, -0.9199004828092832, -0.5190214785960479, -3.1741225974656335, -0.5368204281863131, 1.1964211351739125, 0.025025406324021456, 0.15262207941728242, -0.7311300454114156, -1.573775129847785, -1.0000861721945373, -0.4305283357437513, -1.0380526874221554, 0.8898974837921619, -0.19909867962035574, 1.7537857816710842, -0.06778342450692791, -0.02821544236316769, 0.8945977784788012, 0.4036066872883902, 1.6965462111839789, -1.0920492418993974, -0.27214154640477606, 1.5549303134775074, 1.91992996855203, 1.8381175992590217, -0.38113802749449877, -1.0077633349137998, -0.9548069499521418, 0.14846425624962273, -1.642001917907616, -0.5177781913081639, -1.1777121868710927, -1.498461005693485, 2.0517776973630313, 1.7690484094273304, 0.9004379237310638, -0.7010480583774693, 0.12113105308898756, 0.40900131613912666, -2.3833573492552023, -1.3246094899538277, 1.2974374789073952, 0.16658905064375829, -0.7590334579536513, 1.0553808052501747, -0.34239446573420024, -0.8188980428288932, 0.405078144735443, -0.3805828168712592, -0.6601607148590722, -0.05476647488626989, -1.6031996473033865, -0.6073711193079648, 2.35362340292098, 0.3493283038931378, 0.059457954076355166, 0.5355435100159377, -0.009717835307207243, 1.2713238511259706, -0.32333534683173026, 0.6171861624552851, 1.8476785389254107, -0.6329549697151879, 0.35346570363684476, 1.5362269456622168, -1.4023395364296547, 1.9515736883777652, 0.97374578308074, -0.017541727965616136, -0.9792045441166697, 0.7081348008619419, 0.3077196859329379, 0.8085936057193076, -0.09844449128995182, -0.9317628907753166, -0.5578569790400998, 0.3012548351341207, 0.8065094819494609, -1.7040830560234672, 0.6669860122149267, 1.1034014828906449, 0.5853354947342433, -1.8775056252190814, 1.1734244684904098, 0.2795408512539436, 0.17768908145808515, -1.4980778186735026, 0.7620462949198761, 1.2124460139290545, -2.107654431803732, 1.2847060724246508, 0.7057263150558185, 2.143056728805293, 2.075140109204276, 1.2108590093075613, 1.4246578103821832, 1.1796438956065025, 0.8122855236499988, 1.5003616021708035, -1.3020271778695365, 0.2738662475781379, 0.23519917088643785, 0.6245459322019441, 0.628131638960387, -0.06506554462155874, 0.0003653357491452759, -1.7666451391020748, 0.4196543516804823, 0.6246637226617896, 1.53273067792609, 0.8960911012174415, -0.4138356928178284, 1.2455889941778056, 0.9157654551108353, 2.1976761561346088, -0.22166673587933675, -0.8975474966360601, 1.5069414233691518, 2.7027094776049894, 0.7846365995819716, 1.5915066265075917, 1.0406643870688197, -0.39533123992973757, 1.6499304847874194, 1.390069326664187, -0.3429457814525336, 0.4042045863974046, 2.799984613323659, 0.7306733017953421, -0.8723096272190184, -0.5464309007546031, -0.2200209527990384, 1.965838888509444, 1.6783134194465894, 1.1256801241340362, 2.0023622257018294, 2.610660717374283, 2.387193594051127, 1.9329777137836677, 1.7296702087406477, -0.7190497095343129, -0.02991820850363136, -0.05463206732657902, -1.1955937671607526, 0.6545301577773152, 0.6133063106405044, -0.24120379531558578, 1.349848618141559, -1.068556881418491, 0.4504922624846295, 1.593526937425133, 0.2899645706389116, 0.12080760665862383, 0.6700538118782258, 1.5352430294315547, 2.237473560934477, 0.23408028557012786, 1.7627955403230846, -0.7377364059125898, 0.5363272238455977, 0.039940972987390064, -0.1973235619674986, 1.540123116050969, 1.0639398360457353, 0.2597473961688553, 2.538340372465547, 1.760753657102713, -0.18161181661206574, 0.3958305805814735, 0.9773601338434637, 0.3298677246045061, -0.2027066441476612, 1.7530675355534762, 1.0005397301153167, -0.2776914329849961, 0.4999661604470409, -0.7416454202304561, -1.835264084647807, -0.01046402756413896, 1.3135848642987957, -0.11171687040974386, 0.3001177247524999, 1.4808959723365998, 1.6273571628172288, -1.363384433076335, -0.7512643367090641, -2.4142733046871894, -2.4797199219486203, -1.0692606832619975, -1.8227798604311705, -1.438097486736298, -0.8714714910549031, -2.0281775862256937, 0.21835231451854234, -0.19008069916112613, 0.16229998790121433, 0.4433501155665484, -0.23173266407616383, 0.3434634684296435, -0.6508553280162773, -0.8395809381146507, -0.2549862584685341, -1.3289998855756973, -2.4979408333612803, 0.04810311054165688, 0.5666429563607145, 0.07604959086185992, -0.24162694870602835, -2.2196224652501653, -0.43175324605251125, 2.808370641194616, -0.6934229422006344, -1.3349665789547243, -3.9880597950104053, -3.948173083831434, -2.2980179120486053, -5.189055366950347, -4.143334889220677, -1.8762581088542727, -1.990957320303235, -1.4239504338641453, -0.4271018894652507, 1.0330275128570319, 0.6907612351763094, 0.27279385219519836, 0.7416160833214289, 0.894717710342663, -0.373946448802599, -0.9263905404074879, -1.4794618499745131, -2.902660265388404, -0.9697035560074821, -1.2117110429210889, -0.31230641747750976, -2.1068436913767825, -0.46980438148460596, -0.7523280079507898, -0.832514675646564, -0.06139052044877339, -0.7442156189892467, -2.150488312377191, 0.15376212170371922, -1.2591305746393626, -2.28839818970102, -1.1279336099306663, -1.8894185239894612, -3.1950690813435547, -1.408157130560283, -1.5978616863830577, -0.7812632182391948, 0.7682326841313435, 0.34107947962939245, 1.0509171580020062, 1.3931065653272217, 0.6705094866047582, -0.06315237439506918, 0.5704060815942901, 2.1691495227310047, 0.32675325821802675, -1.4470780679041335, 0.10349214732425631, 0.1376242979043399, -1.5368109907575986, 0.0988811423283953, -0.15173206355515104, 0.414769501731923, -0.5368346598769389, -1.007954502398486, -0.882959352838149, 1.0146837059999219, -1.8996279053639502, -1.2049037948372434, -3.246395521379635, -0.2853145736886096, -0.8438073458390445, -2.306156611587173, -0.6892917108089853, 0.2245297399222025, -0.2996488229753585, -0.45024735422338225, 1.3696793198659278, -0.9580004931379639, -1.578286140779469, -0.3643247550652037, -0.32761851542560505, -2.1654917900566466, -0.4980613738820285, 0.8840883527424714, 0.4708769154667695, -0.6367465270871351, 0.9140073238061686, 0.8360234506520478, 0.5827863624331199, -0.6028940680005132, -1.211915028762584, -0.05430598604287948, -0.8597650655508039, -2.029576044466301, -1.6498859416269966, -0.9746867507718874, 0.38282607798109103, -0.7712046343360872, -0.0429232377717112, -1.1266919464061433, 0.38037447445892225, 0.23492214647419288, 0.6760660373038225, -0.3086501061156907, -0.0013041991503823665, -0.6966460248634004, -0.1279378693917378, -1.3743603132517122, 2.421143347298543, -1.8933956143522073, 0.32275104806476984, 0.22755281744067568, -0.7718446604211915, -0.2615277531680071, -0.3693470996648852, -0.6978262710655683, -1.9414928414883192, -2.251270741991946, -0.5974034506792198, 1.0891254539668171, -0.015307573623564578, -1.2534039620800543, -2.7619083290572886, -1.4578690725725194, -1.135931354879431, -0.8762104917102189, -0.29535836591917264, 1.312067629545712, 2.133288849460543, -1.5294409013338077, -1.9143006345469473, 1.454121833688281, -0.386230983720962, -1.4232069897295558, 1.8792152303335556, 2.3840510411334805, 0.458718404909832, 0.38285440453832753, 0.35559768424539645, 0.6965667860645338, -1.7459435357453623, -1.430409634155957, -0.2952692680999041, -0.1586105287510115, -2.3342820163379057, -0.05129719327556173, -2.126075933288786, 1.3450937196619, 0.7793603908330049, -1.9433459632154535, -3.6317137117203013, -2.3219283435324107, -0.44498449139314494, 1.7357262319670974, -0.5227463052615017, 0.8050129939235557, 0.6379535168356207, -0.537100344805815, -1.7401793622159514, 0.05204093037562512, -1.5972869541135775, 0.89292648952361, 1.3081040481578083, 0.13721287970797444, -1.4805354491962597, -1.0615399095768392, 0.5941927995444961, -0.9341614171833036, -2.8702564945575895, -3.328341404444108, -1.2387733519068234, -1.9471389720219192, -1.7530657244473955, 0.27219905937856886, 1.4820012121787913, 0.6488446163612775, -1.1475360546899769, -2.4512122306928235, -0.4098332343055787, -0.6795776109842852, -0.7972860720416606, 0.6045886061066821, 0.7890431133556632, 0.6937669699100928, -0.3468187251916362, -0.5230752490649175, -0.11231585155703828, -0.8750430097501416, 1.414119856226418, -0.2785572949837134, 1.9203465774546218, -0.75888655044223, 1.484704254152313, 1.1914408229430142, -0.6233829815311153, -2.0992913151703547, -2.508011774121886, -1.7895110084813763, -4.354714738783676, -4.055263619015227, -3.241664362142104, -3.252885311699582, -0.8376280464472919, -0.2937856053293323, -3.260453808701262, -1.7116870353078055, 0.2552399888959876, 0.7111557961624315, -0.8699636545632697, 1.2037347971476682, 0.8526428634706298, 1.4308171009087813, -1.1812756026057838, 1.2128168751963053, 0.08577566926309992, 0.26351623000260976, -2.065111236826671, -0.49855453814562734, -0.8794137518443549, 0.9100149105255533, 0.26798783617350347, -0.5302920535177111, -0.7941849063932753, -0.1010587848115714, -1.9284657957792801, -1.7635313532564545, -4.088500611687449, -3.7939420567058004, -5.722174010255212, -3.700745175707776, -4.405117514759349, -4.092646693586334, -1.3640451968158422, 0.3891158865225145, -0.6736727138987231, 0.11122510486183483, 1.4841800604970976, 0.4480033757734619, 2.370842559625416, 0.530051415982701, -0.2377859067674499, 1.3221972510011557, 1.1271719009030894, 0.7269396020540161, -0.3904906331664775, -0.8601350018110088, 0.11834337599978216, 1.4659964948518684, 0.4199368407807615, -0.6411031052443882, 0.81430091236312, 2.0710550109925894, -0.896490669527707, -0.018152851499950336, -1.029059931017037, -2.325687913162966, -1.0835128216896763, -2.983064546292244, -3.299018897421855, 0.14514784863280214, 1.7169136726703178, 0.5450050427832832, -0.7109036849116593, -0.30918698165136704, 0.6175525279586601, 1.2947831801272853, 0.6807438295583866, 2.3435671315226165, 1.5869611720781112, 0.8004608297872193, 0.4118748212789759, 0.2188652258981017, 0.8923849695234496, 0.599839916190464, 0.8058037511583872, -0.8173244047888333, 1.503868233218824, -1.073536626508224, -0.5424020728142974, 0.46261509429753234, 1.085738817700716, 1.70893001351827, -1.1441877500598092, -2.0051038013766997, 0.3016982856200402, 0.39963184437122534, 1.1665349314488556, 2.7099463689724606, 1.8705503553585194, 1.2811114801333197, 1.7911788731309155, 0.37909708703634776, -0.3175460279168789, 0.6711169317250595, 1.5182628132699703, 4.104510656864082, 2.5702036708861113, 0.5864832381721397, -1.998650309709019, 1.1479516090749187, -0.25519334314108577, 0.5985125934272274, 1.090666376498667, 1.0252488266687543, -0.27242179625099244, 0.13050981899236005, -0.994808035109974, -0.6322256679798884, 0.7251039239866776, 0.4805068955640237, 1.5333773933520585, 0.4443174094847605, 1.8027227674055566, 2.3124283750628845, 0.2674656878305713, 2.352810592954298, 3.661867142424367, 1.5553945437027923, 0.009151159657613936, 0.6835085976406162, 2.1144900628127874, -0.05413429951814404, 2.104332790882381, -0.7659648308131872, 0.4673168478394848, -0.455046657451637, 1.5422643506134983, 0.2546360465700073, -1.6455920634961174, 0.03451041800903547, -1.3534502799705221, 1.5626535849879473, -1.6830629071834762, -0.45231383491895016, -0.5418955951824975, 0.08392943498173246, 0.7345317622706731, 0.10632704612746399, 0.239511415369832, 0.33673762211766994, 1.5644159429342395, 1.5339796597250224, 1.5567591773375475, 1.0383912696538784, -0.829065676924798, 1.7495520463831413, -0.26774702681278456, 1.4085669398777327, 0.6747509391552827, 1.5607529776741944, 0.6685288496818651, 0.5104565542781686, 0.559181147284962, 0.7814832997176804, 0.282007785271053, -0.7568440406048095, -1.3727760558306925, 0.6327714471604564, 0.4767646513438529, 0.7733656645274652, 0.8069543224554218, 0.27439527285422166, 0.9441932612476838, -0.11297829472239257, -0.4640721383115239, 0.5530443892917025, 1.2496277188383504, -0.27933141569700703, 1.304776125713886, 1.3503506983270706, -1.3077053126342442, -0.32660126052430705, 1.2448475405188513, -0.20561554481411462, 2.082139033009305, 0.042892237538896205, -0.43327452096327973, -0.6766364494293573, 0.658108204913145, 1.290308703321016, 0.45305659348466787, -1.3904877450152489, -0.10627005605288695, -0.22842645309842277, -0.13444402811794487, -1.1345993412619209, 0.23704992699583918, -0.8379483388499933, -0.1132578791106984, 1.472800978807323, 1.8756227485409551, 1.635439907425672, 2.083016621476058, 1.6215226431938887, 1.435586868223848, 1.864336370197503, 0.7491774904338799, 1.4662240118043313, -0.43236022813555264, 2.7342147481987675, -0.8972444558907297, 0.08931152565695519, 2.061317133406993, -1.3999242675916912, -1.6027725576359613, 0.12985291866010257, 1.2495313810035606, 0.9896691386424916, 0.24504054008006496, -0.24333144214418737, -0.2655304398635908, 1.6101804765985464, 0.013596657807743244, 0.8839494800780257, -1.3762883378645034, 0.03372036224339591, 1.2662832862614488, 0.2613553757965827, 0.23130711877403773, -0.08688224996509342, 1.58767072210679, 0.5111468890995213, 1.13719898727472, 0.8738402569076472, 1.2834311597834773, 0.3186009067000308, 3.635124050043447, -0.15677927102035918, 1.387221202794855, -0.8554573327063325, -0.6905117738691585, -2.251558101796692, 1.3934311966196393, 2.1706768483707197, 0.3114726350604076, 1.3640435655406822, -1.5579997290404553, 0.6593480499162496, 0.857905415509787, 0.8826191441672495, 0.4465180523173046, -0.459973057974355, -0.10422518249626893, 0.17016100038908966, 2.38852244200958, 0.7049768311333546, -0.4580416759024845, 0.956728262343444, 0.010463034402431494, -1.839041373858467, -0.31268642537146285, -0.33416783819168716, -0.13085452269590733, -0.8898472607056603, -0.23638899727979296, 0.0915048222727677, -1.3879846569665895, -0.17626430006990887, 0.9042224254734742, 0.5927871015727317, 0.5344174392786125, 0.4603980549019862, 0.021734234463341995, -1.444402412562607, 0.2213487668963486, -1.0171998074250945, -0.1563740393186579, 0.5587969333957116, 1.4625539766834268, -0.6686271580489458, 0.14034076691652922, -0.2441033002305533, -0.6152960288925783, 0.8263166148453436, -0.3755072304132316, -0.5772496374466836, 0.7224887757250283, -1.7731980372111882, -1.163079517755935, -2.0703659246865604, -0.3844163099350308, 1.542735575146199, -0.5742574194093899, 0.4589036741317573, 0.3275893789494533, -0.034156758269961826, 0.15768236544511127, -0.9530147734347002, -0.5641572723206919, -0.3363155128296859, -0.3281318079219055, 0.09056255811890486, -1.8624529668958727, 0.85846217556262, -1.787921886599586, 0.7984711218777109, -1.9552192779534465], [-0.1739680560582987, -0.6289411028899816, -0.09447993251615393, -0.29258137860943134, 0.19005650812879823, 0.26446859943359113, -1.3545898323271093, 0.8539280886721883, -0.7335411837064159, 1.7599678944308097, -0.9208371641793734, -0.1675242347351216, 0.6016220825138759, -0.08314477145088749, -0.7379846651815026, 0.7672723769268537, -0.8281625917868588, -1.014833275441212, 0.4142296155969922, -1.2063078324543195, -1.7880118754874128, -0.12335135112147334, 0.0633070688771552, -0.39165658222454625, -0.5870039518335745, 1.6302087276456012, 1.4079695394420617, -0.8468556348666378, -0.40363170518598274, -1.124334568307999, 0.8390378257511538, 1.5642565838853004, 2.0285223649445525, -1.4625754983848154, 0.32985759885917815, -1.4494993100020785, -0.6842486822866926, -0.9366175787122737, 0.34655682002810495, 0.5853876958118831, 1.4171384114669663, 0.06849632178531788, -0.4198933918530229, 0.5085285119722929, 2.115420459866173, 0.9752528396151674, 0.8190227560374719, -0.5424753587810802, 0.48891780741221413, -0.6340087039884847, -0.3458462291137319, 1.3270810916124944, -0.7583906349853105, -0.5615408875080435, -0.4070847364422461, -0.8497347149521729, 0.016342209902056808, -1.819618062789635, 0.24432300643128668, 0.8331872690203374, 0.6434269993545307, 0.255494422333951, -0.10366504567015107, 0.8215544251971146, -1.2727783588461439, 0.9097710059948271, 0.9698772330459848, 0.506758241542987, 0.6427602275502389, 0.957463557414282, 1.2325502312778402, 1.4218193637811745, -1.4895845340290959, -0.4244227685874564, -0.405059063690579, 0.1566617410437991, 0.12233886754895114, -0.026570541168996042, -0.4713714141053513, 0.5984959936747979, -0.22341280550742437, 1.424723410841185, 0.7860125843038737, -1.374736662633243, -1.2288721268042266, -0.6828017545625785, -0.2968675598621313, 0.37413851536338655, -2.3295968760875927, -2.7797119697041714, -0.47506697083640753, 0.7367946002087233, -2.3810509470993004, -0.1166509245201404, 0.05553772290787842, -0.7431017311243096, 1.332833520314978, 0.4765667186287028, -1.2150371337424974, 0.08600071533158732, -0.8786295334734606, -0.33312267688737757, 0.7087908010258157, 2.310741058091459, 0.8849780894219255, 1.8130515128840312, 1.7796274520276998, -0.17872966347376196, -3.3179216286488105, -0.5942336034194907, 0.5847509226009016, -0.530123165209169, -0.8345148899279212, -0.49861598676089003, 1.3389395835330773, -0.978996734898375, -0.2210648797182686, 0.06501700583962926, -1.0542579288813452, 0.5179467182483977, 0.22416503221209846, -1.296170380778262, 1.0568233153174111, -1.8573451540433021, -0.3958655540563816, 0.3674683989215155, -0.7575578580605281, -0.5473073064380899, 0.1968454633593443, -1.4982169455841794, -2.283604186088525, 1.5697004898658606, -0.5004719352515834, 1.9310861801485553, 0.4500436940438123, -0.11805883467508733, 0.419010399338296, -1.1740631082804518, -0.21556016676564896, -0.30162775641882444, 0.09682013220479498, -1.2022842270763232, 0.47461231785783947, -0.32540706272010866, 2.51373298024393, -0.9653401904225728, 1.1557806519451876, 0.592778955477505, 1.0849363560325436, 0.057351359153435685, 0.8855929189745987, 0.558774534261379, 0.08761042365507127, -0.4637698199245957, -1.1230055399344585, 0.8536182148871666, 0.13240166110022172, -0.6213887174964654, 0.813851680458521, -1.3496134725738247, 0.1648226411527038, 0.4641125498979652, 2.4566396274916853, 2.8922339892159865, -0.4156892827358847, -0.14709534360373575, -0.21850341054810574, -1.054392287852202, 0.04112336809932848, 0.9505507984503271, -0.15703162467841478, -1.089135649728766, -0.14325744136486257, -1.2144950794121079, 1.5414426064213127, 1.0410875980728302, 0.4956529657878972, -0.17000448285861372, 1.1877298394590576, 0.12079993834386167, 1.9955845336373719, -0.8719022471807597, 0.6852294196166906, -0.86350887535718, -2.8198871824193534, -2.252749374531081, -5.253189212007594, -0.5465633537869611, -1.648197627892558, 1.8152572366672157, 1.3282998796961742, 2.822883747093984, -0.8873003032972469, -1.450054483886865, -0.4125872039068391, 0.7795359554846316, -0.3198727753683848, -1.3659273389940148, 0.017856283983507523, -0.50768643308946, 1.0327245865890948, -3.2322167289569994, 1.1849738956855849, 1.1031352700724462, -0.8849264777515248, 2.870631883393341, 1.0887549092861297, 0.21274712075894725, 1.0774686106883056, 1.216015146577408, 0.7431611792014587, 0.0582539112074772, -1.7028756196862505, -3.8708603075267782, -3.181036622812825, -2.2826449548624277, -0.8436886824247326, 0.5166825695170694, 1.7789524581673148, -0.7106891485067763, 1.6876392352814953, 0.15171836043689535, 0.3679133876284343, -0.3333693141416012, 1.3077307103087457, -0.9960782649893306, 0.35714485673426954, -0.037934674895003864, -1.1804486093478006, -0.61840408802536, -1.2566712014036812, 0.25073684357112075, -1.3776835312169857, -1.2063198811950362, 0.4229526769667493, 0.3421234839099745, 1.0345911435122344, 2.6587265176764663, 2.6864500866009524, 0.796663133500507, -1.633613606833054, -5.241840903687633, -4.487888619954834, -1.0258113137579237, -0.8216021132791742, 0.1677307572152449, 0.4864226854343019, 2.234309898682715, 2.151942896517578, 1.5994021136634597, 0.3850755892570848, 0.3489800941528679, 0.4397038588598357, 0.21983990850546548, -0.43625111429721347, -0.6851753632470907, -0.6531090146428324, 0.31036392209008207, -0.7150251021711955, 0.15981674040455093, 0.8205351447717163, -0.21384509851132988, 0.7346170103355203, 2.4527594160366886, 2.0776779719470198, 2.8366133417337904, 3.2990300047223085, 1.0842293740072717, -1.4332098527809078, -5.4810553032012175, -6.135303152781862, -2.045117208298417, -2.4549319643988374, 1.8775163172163023, 2.1918428973796145, 1.1485894246835389, 2.910929885263596, 0.92983452027674, 0.9366735772397108, 0.7571832282114397, 0.30759566201414534, 2.092962193792126, 0.43744394574333767, -0.792047954329743, -0.7101605073513462, 1.2657181809632747, -0.12729894404790995, -0.5315743406981885, -0.4707391741120818, 1.675363760489026, 1.5453963243350042, 3.6851846172762692, 0.7276551778062877, 2.7494379594652107, 4.21742149411636, 0.4718096103184926, -2.3373322777693244, -4.292596395708764, -4.751219034502411, -3.9757057176561132, -2.3379991868932466, -1.6237737592644204, 1.7320152864599945, 2.1342718819364728, 2.2996100387431033, 0.8690026877706702, 1.857252911222395, -0.41530362019935024, -0.3033550697371372, 0.20078522345768995, 1.7217791957326836, 1.4640673468915988, -0.42085135690144654, 0.33381805237239215, -0.2047176478155362, -0.9540605435838857, 1.6635024283246624, 0.8385038198080581, 1.7629928969297886, 1.4060335807066877, 3.5857352080091007, 1.7378181508879247, 0.56223056493981, 1.2635951052552272, -0.45020760955063593, -2.353117758413998, -4.033044296551061, -2.0388644846860045, -3.1569081011804587, -2.3984658226318407, 0.42147704409581843, 2.250639717633897, 1.9553912478959061, 0.28848642891396803, 1.4570526866708582, 1.0873490345576624, -0.1927612654725709, -0.29054809830500183, 0.7842560635182945, -1.8010661160756902, -0.352924637780942, 1.1881168736443144, -1.2841659320185614, 0.6775362443514273, 0.9509923719640078, -0.5985961023485721, -0.4234414250153742, 1.579376910419184, 0.1872501197243077, 2.9085319571495596, 0.7321288608194586, 1.8411883220050445, 2.027042933476943, -1.6923880973724232, -3.5956342762709954, -2.0504355953064426, -2.678553145103863, -1.359190949380274, 0.00015366230104646417, 1.4248628656148474, 1.6227472842669415, 0.49536637584870946, 0.5469326654500244, 0.05978697905665866, 0.4974144767002764, 0.385169486648017, -0.1267563740587208, 0.03814558883386326, -2.311575430032127, 0.37145642814578, -0.023030991690670067, -2.101231048284246, -0.9633459233126405, -1.1628138871428055, -0.607179135261065, 1.514318669764716, 0.752813747402765, 2.5092431083567543, 0.9816827874737062, 1.7761140654235206, 0.536459397471999, -1.3818942906579565, -1.9448922238530295, -2.1279745866798234, -3.013621040271458, 0.26681912665523366, 1.6212966705229057, 1.6895614642460828, 0.6504374925816233, 0.5564058561751103, 2.825030214368199, -0.008184264328345783, 1.0721175027912522, 0.5203392758983983, -0.291217625255385, 0.14564598007484053, -2.9522217827108803, -0.3383482955842577, 0.6982838932688018, 0.6313984167757584, -0.11325802556945984, -0.9081882531788644, 1.8912011771483823, 0.7408376524513293, 0.27588069916502833, 0.6861889823010927, 0.9872510394648717, -0.43559081163035634, 1.5815250192801558, -0.5473003771040302, -2.5019807528320652, -2.4806625736891323, 0.11685937634167284, -0.05633260061588397, 1.0709457872475654, 1.4934085575721374, 0.5311063896016339, 0.15591093556081786, -0.9431808668071942, 0.8910171456873851, 0.4429694871480882, -1.108755761711461, 1.3647171796424575, -0.03495062686345654, -1.4046217372162852, -0.495021315016942, 0.3997580100993488, 0.17581808180971129, 0.49286256393002204, 1.8530594501365691, -0.3108233342485997, 0.5232340238605208, 0.9718708365340251, 0.34867736468330557, 3.1259109144457837, 1.7964096070395494, 0.4094101315186743, 0.3726233867031764, -2.2290891549226535, -1.8923097169658254, -1.3110287097976132, 0.815002134244117, 0.11162680105437216, 0.41260112441352603, 1.275832594324445, 0.6684018981472718, -0.9101833761856697, -0.572188514269864, -0.7437815526421676, -2.4231319873191053, 0.3198927767946251, -1.1025316552786029, -0.16832554382117662, 1.2241170443219007, 0.7085832882683217, -0.05243839415690805, -0.16563192300669033, 1.1226472313319484, -0.7479841686704995, 0.5583073777664709, 1.3800841286210073, 2.6580168479097677, 2.1917193309871066, -1.069775450537834, -1.9755035276918258, -1.6687669080207275, -1.1133133631834524, 1.8148413969186963, 0.9398476657813509, 0.1171131329784354, 1.1252175478480866, -0.1490142308606327, 1.9171362746270584, 0.5485353427174836, 1.2432537286303116, 2.065792736808235, 0.20204325073914806, 0.9819347072664643, 0.5474782817587239, -1.5751802434018503, -1.548796272199222, -1.0461876456044543, 1.2613259109106556, 1.1027904641901274, -0.6202936818853639, 1.5104828290052776, 1.6752189335037224, 1.150247358094504, -0.697292446455969, 0.5331757971007193, 0.32066890428595607, -0.5947920355473163, 1.3628716402648775, -0.42647500536664873, 0.03467690734721737, -0.6341504649974745, 0.8373362786812915, 1.2064835575407857, 0.2433586015698591, 0.20477444853416107, 2.047765862554779, 2.0083155453792294, -1.0235482254840236, -1.1690184777647437, 0.007126377491202814, 0.8370476373882273, -0.1544909390536604, 0.15417455899981325, -0.5773845314949779, 0.07972236693124167, 0.712238871351296, 1.834590160300749, 0.884211330590408, 0.40408871107096117, 0.12324233606553209, 0.0743244308975084, 2.1123582709612747, 1.2462372879972246, 1.0163264868564164, -0.11271969831040592, -1.419146334983426, -0.687115472014251, -0.9383239466100547, 1.0885012283629887, -0.12190390573715894, 1.3885244258682612, 2.663325906246229, 2.3366842455777173, 0.8081877621803744, -1.284269266485981, 0.25163672032223866, 0.6566288838689381, 0.3372135946123883, 0.6007098372251808, -0.09254829447524641, -0.5084897354193718, 1.1834285365248072, 0.5062560954073606, 0.33170960697575846, 1.2062962508511534, -1.1561731823408088, 1.153283239731861, 1.7317774200170206, 1.6030391708623521, -0.6169758843216182, 0.4368796984918763, 0.8946928014635166, 2.247711100612378, 2.5543518797145257, -0.9891802579222858, -0.1870554215827536, -0.08131183931518625, -0.8220365499983817, -0.5885511001146468, 1.9808281232718066, 1.787095482193557, 0.9553830482515174, 0.012341937856495141, -0.6319157195736589, 0.7685635923558787, -0.8112759595119572, 1.6204409688880235, -1.3684732823070982, 0.7390320656981908, 0.10240660040906069, 0.8339373915875492, 0.664638780938095, -0.03431033501338162, -0.5246108181612654, 1.6356848059073161, -0.26235792667990837, 1.570775557567631, -0.813256749973905, 0.6799653320297175, 0.125517179906081, 1.6602932447822243, -0.892498722284565, 1.395715745971921, 0.9129917903950409, 0.3618525576147794, 1.3146311847734022, 1.5509424314999427, 1.9077614727478875, 0.9909955872003557, 0.4846350383944894, 2.1606498540725325, 1.1889628770258163, -1.1478837793662817, -0.3576294138406429, -1.3089148627744411, 0.9198013981296006, 0.2768545655683558, 0.3789778511131316, -0.11137221298172205, -0.6200335220344626, 0.8188983549329, 1.1535103727737712, -0.018964722335229098, -0.18303047052565571, -0.8769463653036533, -1.0186360399412087, 1.7435481892778264, 2.4344443464005083, 0.00017633814643593844, 0.7748137766457666, 1.15812675783781, 1.9122745935991659, -0.4957191512168386, 0.661184957307961, 3.1450652133271086, -0.15959009079662861, 0.7893096704713578, -0.034028983559903636, 0.49815518183904145, 1.1763927944934451, 0.5551717368647068, -0.8819173530721387, -0.08540858904179699, -1.3129994760186825, -0.6966096160811739, -0.12627809681740892, -0.3146092943116276, -1.75813624270418, 0.7569415067283395, 0.6439271276050272, -1.869577366999944, 1.0820640594572566, -0.5980183059029588, 0.21699434965033823, -0.32057906509008605, -0.459742869349027, 1.175917809136564, -1.172898760776487, 0.15513996967047347, -0.03993275028590152, -1.7862022993631903, 0.15295171529665375, 1.4130647164306867, 1.0035323294695973, -0.7358914550162825, 0.010986188804571414, 1.732725334761614, 1.0038948114965174, -0.386020783732891, 0.4306697138903761, -0.2856152916689629, -2.466792232901415, -0.32862306848518724, 0.3675869520729212, -0.8818837177502186, -1.7197672158572432, 0.3996184014500857, 0.07523495992303683, 0.6359033021558826, 0.3967598358804238, 1.195224061106239, 0.8940885305401082, 0.8055087015196186, 3.151322365276655, 0.4211373180632331, 1.0664737732582619, 0.47376383892917645, 1.9750095085581922, 0.6123206690374233, 1.259523286411382, 1.4804449636636643, -0.31368747177380363, -0.8470066114794277, -2.103076825248146, 0.03203121637741687, -1.317930229071989, -1.2988314103906635, -2.6101705981603778, 1.9318145152748147, -0.48170612310779, -0.27846054078438937, -0.2026481432183535, -0.6437443069375693, 0.5545269643025127, -0.828376330101693, -1.83889116270174, 0.25057803524655725, -1.165739896648053, 0.8990832077434583, 0.8130806002805047, -0.5729250245904545, 2.205691555638127, 2.4383999456149437, 3.0748672711124962, -1.3225159010993228, 1.5744051392222518, 2.0310374783636957, -0.2639476286728657, -1.5936784401694821, 0.021703931026880275, 1.4754060513420413, 1.8040182690757074, 0.3510766847224837, -1.1389210772200238, -0.5751473309719093, 1.0170085236321798, -1.259604416856244, 0.26318899685539376, 1.1368076579641682, 0.48017454601235265, -1.157347768264622, -2.0042721429110113, -1.2663740626726703, -2.21074402304029, -0.5960248298466362, -1.077758830676702, -0.05035995976515118, 0.0037477099148640063, 0.0944222186311819, -1.0930579335945099, 1.6153767143878655, 0.6784286202742449, -1.0816990192339913, -0.42359206896713225, -0.5906029849762815, -1.4524656462712524, -0.12758869312802562, -0.548844720233122, 0.3987042445219218, 0.10732864924716416, -1.3270167416567797, -0.12530206072425498, 0.44936974418897624, 0.08070292857846917, -1.745892981260166, -0.943523939694999, -0.11136599416729442, -0.38744408667606023, -2.2413618982558625, -0.39836582874257076, -1.5348029616766248, -1.6239132661435949, -0.4722709132856201, -2.024362397655152, -0.11088884239372514, -0.0823616986154201, 0.6178948770747844, -0.291630597289875, -0.12344742685131159, 0.04080291228062859, -0.18347757532982534, -1.7790498726641313, -0.974398077701936, 0.8809468007993004, 0.9413162692883562, 1.631327715929171, -0.20501626368286252, -0.5069053374104484, 1.241665421800176, -0.9592279003572893, -1.1635505377899198, -0.3991882557101742, 0.6746611291738381, 1.3452845070066692, 0.17234494324063612, -0.10177971852621713, -1.168625900353236, -0.3118059417784052, -0.15119533748076347, 0.4779803137462802, 0.07600023217276686, 0.07498244679469337, -1.7508674058986549, 0.4760730996835548, 1.5280423764111475, 0.5347666375576831, -0.10356980244088843, 0.994686029009885, -0.20753897341447455, 0.01597557116161902, -0.40623622300400614, 0.44027855995378334, 0.35900638552333036, -0.21628840600032914, -0.7087502168725349, -1.163538607771724, -0.2488637321294391, 0.4110497607700419, -1.4393980030815465], [0.668002645055582, -1.0146831883611185, -2.0900218483773547, -0.05241264394349391, 1.0111922261993707, -0.10363491556506815, 0.06975565381578165, 0.9160977867155399, -1.1383397112355522, -1.211490383422233, -1.5843670091027053, -0.7955975857047213, 0.8636390015876042, 0.047043449470493874, 1.0417018181998134, 1.240177625980382, -0.4577732624834637, 1.5047074434163459, 0.28832658818646595, 1.0360787910817975, -1.7195527305429483, -0.17217157279772172, -1.2757191290219934, -1.3665350516021182, -0.234710393382944, 0.697043137168932, 2.023689960060641, -1.5201551961825932, -0.4090102387220047, 1.2996437095853381, 0.6581253533321377, -1.6973079861066707, 0.3226182431156261, 0.479683685437091, 0.5027686450430009, -0.11374730039180175, 2.251220725188059, 0.8087099929316609, 0.320625836736567, 0.12217130216064981, 0.8879769656753173, -0.9112936461267177, -0.3340560071947593, -0.7052610832245224, 1.2224192335318151, -0.5934747626546556, -0.7230879584714155, -0.07055522824770027, 0.23310840692962181, 1.177723060001553, -1.1966017428047762, -0.632630018369179, 0.04510324222392559, -1.164913773509019, 0.6534457275227611, 0.18025884673848908, 1.7893304340329417, -0.9455820227109674, -0.41985710285075256, -1.005014223376013, -0.4207955051577471, -0.05824197247667784, -0.1101757217714449, -0.5449314500323412, 0.4641583492672213, 0.5103167380431693, -0.6931615623436963, 0.47173210156627743, 0.5275997528545184, -0.0904410050666561, -0.9366268943855522, -0.3253579227511118, 0.16442555561295194, -1.9059396297992428, 0.5584385050027684, -0.6798586273072216, 1.1585534376184887, 3.051948805496133, -0.16964983715504045, -0.20738601573007334, -0.34127282286816274, -0.9246647604840308, 1.3529691984957366, -0.9784032469822866, -0.5289609878529694, 1.0688566707253173, 0.2615215886272323, -2.307415796274118, -0.3899992919155493, 