{"biases": [[[-2.047544957247095], [2.87805553977353], [5.330755401711516], [-4.65289687331987], [-5.116775560252809], [-4.57158743589305], [0.8919574858663817], [-1.2098434353931804], [-3.948244736132944], [-8.91187195228438], [-5.469911485520967], [0.5151209290739216], [-2.6172128517942155], [1.1003099334885373], [1.5991901997359195], [-3.4504477532904234], [-7.0901625084409945], [0.3426753187897087], [-2.5005221125072463], [-2.9538960025814602], [-4.469418175987901], [0.1833082650339717], [-5.390595625728792], [-3.9937224707235672], [-2.3073461334473087], [-3.7321861634708258], [-9.843793718264845], [-5.598145410623119], [0.5919505710357629], [1.7819659193648183], [5.7508461694328235], [-0.30006194524380997], [-2.6903507248228866], [0.4193641351591743], [6.139134782625128], [-7.9772393000919655], [4.196392246691218], [-8.438224432467521], [0.8521160133850202], [-2.848924932660626], [-10.820273910176866], [-2.1731169215956374], [-0.6371852778103356], [2.0271169900729396], [-1.2175615044272268], [-1.3422627590424294], [0.4780719478414313], [0.6489841995244363], [2.6477281052731474], [-2.339510814155104]], [[-10.122049080434305], [-4.159885194680957], [-6.000070935664477], [-6.347256003341509], [-8.345564492384094], [-1.308704880874809], [-3.189058112552083], [-2.198919784211562], [-3.670723207489174], [-7.84773903709842]]], "weights": [[[0.2205939809571261, 1.2550824448236975, 0.7688463928389965, -1.3829816513074027, 0.34472301439600905, -0.8588657914953826, 0.11032839969644884, -0.06233567482505065, -0.9393401151972682, -0.15133727069582162, -2.0959755389150887, -0.01362807807929115, -1.9305181767499413, -0.08445637568219873, 0.34665047317869235, -0.20868474300213138, -0.8213964543353699, 0.1721532266497646, 0.2286809424178797, 0.19521042116209128, 0.39559269798163926, -0.40471897185384714, 0.387353272497584, 0.13680239921603882, 0.9068931064291222, 0.6476740021509384, 0.3855980172164699, -1.3221749815939805, -0.0696156836781811, -0.3078225577175644, -1.4574930929369276, 0.4268527520475886, 0.5925841361666235, -0.11563584744576995, 1.1898462029093841, 0.7923419270081296, -1.8637649837506687, 1.1786949076615059, -0.17746215727071243, 1.298282572634926, 1.6095881986689118, -0.1843974428012048, -0.6334787930010667, -0.7244197028019181, 0.708745173714615, -0.21873695296863893, -0.3868518244040639, -0.0935406240601349, -1.1175219862881247, -0.3421498190021157, -0.4278443372037108, -0.6127126189708693, 0.2449732621449108, -1.0270568188629017, -1.372214749516985, -2.421373614225273, 0.9995816311326713, 0.5389199574461815, -0.10895865142144517, -0.9475095125845835, -0.6200597827493823, 0.05165901985347322, -0.36920326231943407, -1.2201123144989718, 0.5807708919360655, 1.4910268866781409, 0.08942985110606609, 0.7223995854249708, 0.4014848495033747, 0.0909703881262605, 1.2415430922592212, 1.2557848252822774, 0.26934699120987476, 1.3390998709551334, -0.0626118008932914, 2.0936287559490365, 0.6960496194199447, 0.16298539010707422, -0.5575129055476968, -0.3321995808097772, -2.698893609815777, -1.0191255879902885, 0.31761645509675457, -0.7083039399705031, -1.131132797636297, -1.6783560708208487, -0.8547926759192856, -0.22297033989338091, 1.0591938617278291, -0.5400949368892474, 0.8907012471435528, -0.9669944051810848, -1.2719324679685802, -0.13664671019055294, -0.5071606909313345, -0.3542291788006317, 0.5559057491213029, 1.5964673369236337, -0.7333142450348661, 0.8420153065665132, 0.7316599729234271, 1.7288429285397497, 0.08561651955139833, 0.4285069456576183, -0.5304822185879311, -1.2744367419426639, -0.994598924208561, 1.4124452804450889, 0.09034397273305819, -0.33700756807831167, 0.5659469946667718, -0.2081374556816615, -0.7033226282314939, 0.04657232210170581, -0.09281161803574843, 0.791574319292288, -0.13557765488882886, -1.2759025106105217, 0.21086829010610236, 0.14764197950909116, -1.8709200446077048, 1.6380304700996386, 0.75327944952396, 0.15226015229104128, 2.125935303148467, 2.9607097907001383, -0.2924900084855537, -0.29027311827332863, -1.1970710397119289, 0.5164440202758203, -0.4644736398941088, 0.4417188559541932, 1.3673545608288122, 1.7068564123966274, 2.7890417030238015, 0.28945735381258386, -0.16304787209912727, 0.5186873353052026, -0.9159436957199546, 1.7508698853127498, 0.38121247564089283, -0.13990014123872355, 0.30742678669371315, -0.7634776109828332, 0.8286708670947006, 1.7425671786686536, 0.31217670978647444, 0.38515334659943556, 2.5813519438913577, 0.7854859892280294, 0.1363669826738621, 4.925687520281285, 2.3906111869622886, 0.20781929349526018, 0.09874034132536187, -0.9174514112847577, 3.128102302204723, 2.039691812313055, 3.63850172221772, 3.1459971833836486, 2.577218272242899, 0.40978227854189714, 0.7340329583958339, 0.24032143256371682, -2.207386619854145, -0.06133602184400468, 0.9735052902657673, -0.3833204327930716, 1.2861891964017869, 0.7558250075206936, -0.697030563285828, -0.7409599865938968, -1.9704392409984142, -0.8710133931579992, 0.9764443550758026, 1.61769023190635, 1.308510178435917, 1.914251279107581, 1.10854547384147, -0.10039518794506774, 0.4729321491737338, 0.3059787364734916, -0.031219636975341067, 3.3882333014518538, 3.785374886007632, -0.04790084919885623, 2.3130194684632968, 0.7480060436292434, 2.4528136704996326, 0.14650517836381316, -3.6872969245243428, 0.19434795553583764, -3.0806796876583453, -2.020775235090355, -1.253788107737282, -0.10887759490069909, 0.4581882347399728, -0.0011294059789001749, 1.2480696309480037, 0.5063835392951146, -1.8491894814297314, 0.06586943224738644, 1.4594519875356853, -0.059190576878572175, 0.888886605481506, 2.413900705433647, -0.16206909326776645, -0.9684904529373656, -0.16611843469247878, -0.64150502191564, -0.9140625953684036, 0.9823288264176204, 3.4352459157190514, -0.8475379657157299, 0.09911549928472924, -0.037876530681088975, -1.7781737240020348, -1.8093314736053212, -1.9811029063979495, -2.354734934963633, -4.563122049338597, -0.4290844619797142, -1.513414217002003, 0.05578721847973476, -0.13166950342496334, 1.0848428331770497, -0.1205816878713065, -0.3840222146319862, 0.2734709303774873, -1.216748147916799, -0.9111678483192549, 0.08456516977877826, -0.32948905433963815, -1.9689493587078342, 0.7737257346267093, -0.12887415710400155, -1.3936746008840797, -1.1441400534385007, -2.9162658227583953, -2.902330787853201, -2.3786471559071383, -3.175508626644684, -3.5845270013580115, -2.9671568228790046, -4.764194529319047, -2.6857859867069904, -2.0515059366678954, -5.033551881642122, -6.245754533543767, -2.754316153791766, -0.19313141534687062, 0.7572239707203763, 0.20200883785325596, -0.7909515049615775, -0.12917313851963846, -1.0572367229826887, -1.2514493664155633, -0.08335498655349077, -1.838482791893414, 0.4637806293360013, 1.555592853339951, -0.4276497972748921, -0.7790093423168606, -0.519647336128063, -1.2010873225174845, -2.612907690619606, -3.9826924247994127, -2.4187395203379283, -3.3480922176319536, -6.45044508037657, -4.617071865154706, -5.633462922456671, -3.917369450974143, -3.416070838412958, -2.0162710831322954, -1.0108439358449741, -3.7871268110716727, -0.7119841940373212, 0.9880431702956349, 1.8581619501337066, -0.8176692620137725, 0.9457529150475434, 1.0731542810076689, 0.09447324166448651, 0.4154661916521958, -0.3297661662626705, 0.2911206339548358, -0.6479394937801733, 1.8753483895864727, -0.5349258157242213, -1.3952075473986072, 1.741759210066185, 1.4487782230524031, -1.5563890506485896, -1.2055294948602968, 0.3488705539416676, -3.117484267076107, -2.827904329890567, -1.9355136633631265, -2.895310950199719, -2.5782689091869457, -0.179389229425154, 1.0330864610505028, 0.03649544526868217, -1.2067667342621908, -3.5909603400925247, -0.5713186050708957, -0.14635178457548603, -0.13887105334553768, -0.9134623338685774, 0.8728316700693077, 0.18547943549418844, 1.3106101951805893, 1.409694032230499, -0.9238051191951544, 1.2685779599117881, 2.793724438957686, 1.552737162296219, -1.2462365561130502, 0.9200973040856395, 2.821199814500474, 1.6584645265459934, 2.4121130958032064, 3.8777370832394222, 3.6526714629568557, 2.6004144774448577, 4.081690663331607, 5.096066599633121, 3.9301608214861012, 4.291079189970188, 4.9320949541649926, 0.24967513686958068, 1.4131565000627835, 0.3288583617421036, -0.5947786566912088, 0.41038182818029256, 0.7670889901146187, -0.13641968639256322, -0.608359070245017, 1.1280780809424553, 0.8738665351304699, 0.3445618451730641, -0.09477689469074771, 0.6169173969435608, 0.7079701369336932, -1.4476193888648747, 1.9739112319741974, 2.541750645153431, 1.3806977799426607, -0.271130756733182, 3.179883022138366, 5.284316994532914, 6.839691008754374, 6.479682030503465, 9.136820578355124, 8.466832752663878, 5.9162461389950325, 5.22536368209352, 4.289852008527368, 5.265644513449881, 2.4156865858909016, -0.2413014138169858, -0.5381580841219767, -0.731183619406735, 1.9419383072072636, -1.3813900810086837, -0.5722119748484263, -1.2697932758868817, 0.43560446854183715, 0.3009167927634135, 1.7839335172856379, 1.030242041017009, 0.8610036801169039, -0.6054937871489533, 1.546940179578329, 0.7103756172728568, -0.06309914376477423, 0.9266537735552581, 1.7081568048812885, 3.1872978122895748, -0.47118641352057916, 1.3940480788383889, 3.9191935155981903, 6.096703893889999, 4.895489154442827, 5.923090462411581, 4.054836965145991, 4.909112944915684, 0.581779093844026, -0.44593186174233207, -0.571645651573145, 0.9622211986011827, -0.009142332138024477, 0.32197429201558586, 0.6151583023361215, -0.28386958508289606, 0.25783161005560795, -2.82152277300184, 0.6760459822906445, -2.361608478273088, 1.7286751356987575, -0.7500389383925526, 0.7817713315521276, 1.2437232210969003, 1.6049032123031963, 2.0073950273861527, 2.1526603234909634, 2.8118283800156596, -1.4599328357123087, -0.5196996779935057, 1.0757390935544415, 0.9923848382195443, 3.0747439719589, 4.072333142037067, 2.7391332684648972, 2.196491149085115, 0.5703987619710443, 1.8060563534141119, 0.3884090538343997, 0.6997757398845275, 1.1459974656288683, -0.5503632456811316, -0.6864103808223677, 0.42425899955977664, -1.0288821167360513, -1.6558086086676929, -2.472520876059192, 0.22320810414424977, -0.5752612908537844, -0.8854940499405449, 3.283973993224058, 4.383853752424595, 2.0978345196932797, 4.629090525431911, 1.6089680014542482, 0.4987003363591212, 1.125347674776377, 0.12651428823224858, 1.494087088523254, 0.3285939391211459, 3.8143729085222486, 3.3783843144011136, 3.285676716888646, 1.5691619530913963, 1.6603354806856094, 1.672317543502325, -0.7333517810150845, 1.1370871989835798, 1.3052219623590724, 0.10401493737526611, -1.7420693596394836, 1.7830120545025396, -0.9372070526209669, -0.14639671866674228, -1.3455856330226754, -1.221452394369729, 3.3849066751493724, 1.380160802249973, 5.078143457381016, 1.3982704218488349, 3.0661574650076813, 4.2851883384224285, 3.8636826980975436, 0.20922329905889947, 0.05431078747701965, 1.251484221353551, -0.872450545086831, -0.01737650352736293, 1.799194810442154, 5.869484950731827, 2.4961564527310043, 3.2314416690010366, 0.2393288028561608, 2.2588976584437246, -0.9176945324306385, 0.8197680581689536, 1.7610166513100518, -0.08846001713759252, -0.2717595018338351, 0.1306871440208152, 1.2055913063254644, -2.1268277660196087, -1.0810516226583171, -2.418970063581475, 1.2526371060785706, 0.8518661980889473, 1.5665079586998727, 2.351470439158662, 2.1256331274148423, 0.9038202604170057, 0.30054263489349936, -2.8377135091445687, -0.8361991284450124, -0.7188269762789662, -1.602103657951772, -2.3397881245800742, 3.2635503963701695, 0.6893872773858902, 1.5327219275098523, 1.6771421733861327, -0.10920975026202921, -0.6433260219315514, 1.4025953766403625, -1.1784836356902186, -0.2639490748576215, 0.24756941376189026, 0.16773062333357355, 0.8021168524634307, 1.2290057679807693, 2.7300221322874214, -0.4629359074649886, -1.1633015795269537, -2.8854841644998883, -0.9095983588519068, 0.7840608973330337, 1.6706881707549015, -0.664402027787658, -0.5785453135351226, -0.10379090727374005, -2.92294775647478, 2.476554846057968, 0.3403272401528272, -1.5149816161223983, -1.7026687598359063, 0.8262100778392396, 1.3433295024935217, 2.511908154600495, 0.4341465847818219, 0.5350512160323572, 0.2583350494468987, 0.16827033782317155, -1.0870479164312372, -1.504485650659126, -0.25645586825779987, -1.3935904753493022, 0.07391121776789944, 0.6341070875951624, 3.1985982700801445, -1.4280598452008135, -1.3212033597472275, 0.08306928108008191, -0.9560664234706788, 0.8951769191065466, 2.810665595779874, -1.0369773249403884, -2.2684373109972116, 1.1287855876910176, -0.8483499448961951, -0.17832430722144746, -0.6317735988939989, -0.4091550005869366, -0.6974871220383049, -0.020102006454993153, 1.3510410231815713, 1.7346607324198777, 1.4163685705363718, 0.33868283172842645, -0.47996078983864643, 0.43519159843247734, 0.24695624231212732, 0.39403424592111613, -0.8229489700897891, 0.6346355989281574, -1.336632350333496, 2.6750147422702795, -0.2953580116764215, 2.3387518252273156, -2.0157897328559216, -0.7613126168830323, -0.004366483504219601, 0.6619223690575309, -1.2225954200856863, -0.13659546069642117, -0.9426984709602693, 0.261222704675471, -0.7585576075555849, -0.8882764876437289, 0.9075464156845378, 1.877057074638293, 0.458001974938889, 3.0251783604675144, -0.25892889886779796, 0.8973763570036756, 0.9684025714322955, 0.6256494885401874, 1.1871949897845513, 1.846753128368842, -0.9086047196543735, 0.2786446011210353, 0.014408886729112433, 0.9605394252040765, 0.3019676070243219, 2.519878852811036, 2.03976389856991, 2.3336851305473187, 1.2367465289652582, 1.4647663739539716, 1.5052482884804248, 1.449616263477446, 1.1137606805477758, 1.4031614474617917, -2.3118442111872612, -0.4429730938234187, 2.2271704126505285, -0.35289880372705973, 2.008180839625155, 1.2549748039973774, 1.5834089542615382, 1.3269585485197206, 1.3128886670806583, 0.20927543033767043, -1.768059720356573, -0.28968664351249984, 0.6751310246607862, -2.0187551752322292, -1.2206026567286166, -0.5967724397377473, -1.4913338585140368, 1.879305322221363, -0.9729400992232481, 1.6730560761871522, 1.1888339770732905, 1.3855974623584566, 2.5153688561799656, -0.594393585626747, -1.0302855683835144, 1.464441687473905, 0.18081029758945674, -1.8535659266342341, -0.7366477253490172, 1.6412380421418176, 0.6144916831386865, -0.1482818016752504, 0.9563084222174871, 2.462801255883814, 1.9111711935451616, 1.1610146537924337, -0.9286857143776257, 0.1546652637881997, -0.2375475210788088, -0.9009112193933704, -0.4852186168640182, 0.7353705347453863, 0.4472798239036212, -0.888729697384614, 0.08403630647156031, 1.3019183200094222, -1.0144763141745146, 0.32240996640082337, 1.3232703839104443, 2.7023112091227004, 0.48123942307667994, -1.623476436985387, 1.6304361918842456, 0.08930944636164687, -0.23149892168353736, 0.9179085690089657, 2.2749303768471347, -0.43615582182742185, 0.9180995676224203, 0.3836735643248874, 1.0383734945726346, 0.5157153430316931, -0.25204783869764835, -1.398067489467948, 0.07645192893186566, -0.5506347557907197, 1.3864946797170186, -0.7408064005527293, -1.470837252978464, 0.146833007359328, -1.979463511341064, -0.7380187269586428, 0.5094025348943366, -0.444876815946178, 2.317418797625307, 0.740483474270786, -1.0490715662828805, 1.489078230714096, -0.007259209891042489, -0.5166986936866083, -1.1807215923945231, -2.361164995806007, 0.21701181920621448, -1.8226855126431858, -2.58421674978977, -0.5370688095968483, 0.685114332210679, -0.7533049229517395, -1.1811909791097444, -2.176187301617469, -3.5421494547196355, -0.36731536942346554, -1.3384545447002059, -0.5351885617006259, 0.6501553732348401, -3.0463966467271275, 1.4735985141150205, -0.29503522994784676, 0.5650899383870607, -0.04351125994090715, 0.21186495164802685, -0.7639731384504362, -0.1685046991659828, 1.2087742297006323, 0.5645378750065334, -0.12832470192144685, 0.39218511002299267, 1.4472456487023413, -0.242048189149421, 0.7899247394059775, -1.6811493432210354, -0.8210581566120323, -1.6894184507903167, -0.597359958468687, -0.40498126283797053, -0.0069519938460651225, -1.1861762656823474, -1.563323536989804, -1.6999232771425121, -1.5077604783316119, 0.19987989663167796, 0.6699003350171215, 0.9805318055199341, -0.6397429785218018, 0.23479094403053516, -0.7700666096415523, 0.2365284232712094, -0.6275484450885238, -0.8836839936107995, 1.3888614906941286, -1.8840026454685779, 0.11279138065041758, -0.12545900634417387, 0.3926818959000695, 0.2138005602319277, -0.11712996856073406, 1.4305238945885859, 0.6943617060783248, -0.48042060109727, -0.35246113143791624, 1.2590603963685885, -0.6256092650593031, 0.9288863935881378, -1.1357115115952918, 1.7775920130685432, 0.20674642639662616, -0.9979423648465653, 0.8514293632805993, -0.41406851630188146, -0.47401289441349204, -0.5001599546703952, 0.4789356132762091, -1.2497590089636814, 0.401225299567196, -0.7994611024116847, 0.8577109253940488, -0.781647609222845, 0.5833522112882754, -0.2908078223476158, -0.2171597966715485, -0.4528637675965261, -1.896317928647364, -0.3512164427146575, -0.4269948794584435, 0.0200490763569103, 0.6556785935879055, -0.3901125103930448, -0.3159145327109019, -0.32476804394288994, -2.409280325315244, 1.2329358727763553, -0.146960200849706, 1.1133854803719594, 0.7940910507937582, -0.4684677736567571, 0.14477956057462585, -1.4439526102905063, 0.6208565962504887, 1.0418835502368224, 1.5967210548413242, 0.7232629127898054, -0.10175138544091178, -0.2517900908853858], [-0.476359994206466, -0.8006527323610579, 0.4499137136921385, 0.29923763442152856, 1.0660284824111628, 0.802568320318718, -0.10826155890240514, 1.3522513725936933, -0.5992886254830471, -0.30178106784817255, 0.6658763096600591, -0.07554503761076319, 0.24433493245444615, 0.2920478209691464, 0.34589141746283425, 1.297335543045831, 0.45292681204192764, 1.8195203384010228, 0.06839807052054712, -0.09221434583703714, -0.5323937121296193, -1.0012144950379183, -0.1221291741060277, -0.0970492278523237, -0.9729511111286259, -0.06332160822121942, -0.6122759740246315, 0.9479237545272154, 0.7851176842377202, 0.04886630307748698, 0.30606545496868565, 1.6227233970107393, 1.356919923799843, -0.11925910546860388, 0.11064488116164957, 1.2101869888182857, 0.22772568377015517, -0.6205430949155402, 0.014400746462748302, -0.24501384581975277, -1.1638597676970128, -0.43876150290052246, -0.5765607549873155, 0.38140763602526967, 0.9191855381126584, -1.6498692880056913, 0.35971789736366244, -1.137395708944679, -0.02079689533381441, 1.1316327512727469, 1.2424691288772276, -1.1394454010967523, -0.5264850639982716, -0.13531169388146536, 1.3618340037022083, 0.546857103436647, -0.7572642500340934, -0.4911112428080498, -1.4960671580056495, -1.6956919114524558, 1.2729502952885732, 1.1188317539337274, -2.262184478385459, -0.11062620925925168, -0.909739245440207, 0.5542453323082833, 1.0822688672888563, -0.27662427034602977, -2.8870987786659263, 1.1020040875347064, 0.9075389569555975, 0.26732076068943905, 0.9849831352567514, 0.04341107006470191, 1.2838171698584708, -1.672912003046512, 0.3368397148612989, 1.0321367772787697, 0.8823001756228976, 0.7736426970470419, 0.10007865075118637, -1.466990060624885, -1.3505116658530292, -1.127864220887316, 0.9567663345882683, 0.6716308271595286, 0.5204576802671433, 0.4543284344783157, 1.9496770178661822, 0.03903231025941235, -0.5758679277605122, 0.5579231385464809, -1.0381051872552036, -1.4252969235681439, -2.008058185923417, 1.0123438451703886, 0.9227846376262954, 0.5519853365897979, -0.6092854340561937, -1.0189768032387312, 1.329665619255233, 2.927162024257295, 1.449436374019026, -0.07037786529887224, -0.6370338656517921, 0.061026614780783264, -0.4893907356077688, -0.8576111548572555, -0.8341538934958277, -0.35729310384818536, -1.1628815442216418, -0.07607383060452613, 0.6278045971324889, -1.3343258980492343, -0.860688717961029, -0.67706396872398, 0.8168281880283971, 1.1845129460258557, -1.0341761275043226, -0.11953540369471508, -0.006180820282318913, -1.3707594090525304, 0.0863571534693061, 0.49383861871017104, 0.7901919571652715, 0.01724922693878301, 1.4128412137450115, -0.1440909941825914, 1.629146487652595, 1.1636068812089306, 0.7296739322379394, 2.3837713108174974, -0.26141168635277384, 0.41900732262304746, 0.6928601092381295, -0.07629741884797427, 2.036790342640503, 1.012396151265974, -0.5626703279143653, -0.9443001045136522, 0.2702739316046609, 0.4585225045107154, 0.05889958276873572, 0.28944432459713204, -0.7485474569864916, 1.0656442307567586, 0.1764506300179536, 0.6378991405926097, -0.9430439076132018, -1.3742739879965957, -2.599024502808057, -1.0783608773741873, 0.6558970564039442, 0.8448070717108448, 0.725563110461128, 2.06299328354532, -0.23894823643204882, 1.2127073826267851, 0.5448507171680074, 2.7174489194272353, 0.06515022414513612, 0.1666202141013875, -1.1382288850519109, 0.34335121067340735, 0.5244959549477607, -0.36662573031746937, 0.6175367524756601, -1.2563365730468898, -0.6653000880949511, 1.4719304118016483, 0.3235900677113676, -0.015157011476270401, 0.3360699415641029, 0.411017993904395, -1.1164838524790137, -1.7204461637301314, -2.6252837907805926, -2.2118837949277927, 1.2043205295620527, 0.585203910337416, -0.05833808224274193, 1.682510908853233, 3.102898764150197, 1.3545249573441118, 1.1940690190347634, -1.8773126137241378, 1.207839559265652, 2.0116514790967224, 0.5417692947573531, -0.27059053980325987, -0.44964531686978276, -1.4143895216846751, -1.08757435529083, 0.48460269816334894, 0.8275037358113617, -0.1678168540026642, -0.2615311420698236, 0.7133905737827898, -0.1268659530364463, -0.05542843790286241, -0.22984172982190856, -0.5019003375796829, -0.6287529484479535, -2.7769676616891696, -2.0364158772962955, -0.7956749593755355, 0.9538311253052425, -0.42716125478397793, -0.73920123107773, 2.0934883032835856, 1.5132921752842632, 3.014001242769487, 0.8245945229233235, -0.8531256731149057, -2.134777577537428, -2.740995623121624, -1.5437077646866424, -0.6757341259773443, -3.1036555831823955, -2.5264904998527995, -0.7146886035291132, 0.9293402464665524, -0.7211610681225625, 0.17661255255485925, 0.2427608686780179, -1.2700799519037058, -0.43155132122190987, 1.1311081513278718, -2.9483770431774636, -2.3523654503708533, -3.22773762354008, -2.1755686222673325, -3.2004977466886224, -1.2529432019068427, -0.9922651802258157, 1.7117822662486921, -2.0064384175679564, 1.3276958310910945, 1.7282168739916135, 1.740620010586451, 0.963155576805354, -1.0249499939853841, -0.29522446810448005, -0.7875457794136055, -0.9296280762511038, -1.8926471346927027, -2.1397470574935133, -2.1707427932058523, -2.146065070506901, 0.405778935437327, 0.6637466528217931, -1.4301298149685788, 0.1712622890009464, -0.8701649062279355, -0.6531155250824418, -1.2914244061858458, -1.7947574825155557, -2.6989378794264933, -3.2924551744189983, -2.2664531090636943, -1.6061325006305138, -3.2051138726383215, 0.626169363651796, -1.647743988878662, -0.4526235707339913, -0.27004166532821255, -2.5361306623649584, -0.7402223856843447, 0.7656033739155409, -1.2580067191296516, -1.5791880482362608, -0.6212981913000792, -2.275643162845115, -0.9249958342373026, -1.6301655167879199, 0.4626406530995825, -0.6000411650350791, -0.707288860898669, -0.5871028425102034, -1.0781482336258819, -0.9790341634568336, -0.8537491301220002, -0.09207881138693291, -2.598147921683115, -1.0937965246091237, -1.2108172943977449, -2.1048832518578022, -2.6874153998741503, -1.7395698648135978, -3.5204057125758217, -5.238965796158943, -3.5104321408351047, -3.3534678352558145, -7.833348888881123, -4.356222985625994, -2.360485623922015, -2.694816814057733, -1.5896318952022483, -0.7420389559814846, -1.9907546557079028, -1.8003864983437041, 0.5170665332044614, -0.004293797232118578, -0.23892719628829112, -0.8192969592211697, -0.726235879751502, 0.6741559969174311, 2.0355831996318776, -1.578602376362957, 0.6483769567925319, 0.9377944115270563, 0.09102816831494819, 1.0035656618732236, 0.4848179336455931, -1.5035169672442368, -1.783496551156621, 1.496446354266232, -2.8379448458674825, -4.58437884177304, -2.5474038230743368, -0.9805459429780168, 1.786498715605211, 2.4036847491464077, 1.462224849039407, -0.24808265712576089, 0.4403542869325643, -0.4770990984554382, 0.7653752793372579, -1.0831652592492638, -0.10305490796535409, 1.672916812028731, 1.1832364293724302, 1.151435423279116, 0.29812109227774664, 0.9470681312405006, 0.6073134849930629, -0.342938161771287, -0.6769425507878136, -0.010477912974187622, -0.5831305679929216, -1.056833683327622, 2.6422178158364584, 0.21642314383364167, 0.009128002246530202, -1.1490016322704515, 0.41985913518733864, 0.13927095804335565, 2.048537909314439, 2.929490882871398, 8.489917068520306, 6.6381632543345495, 5.48100802499014, 1.9024783437633566, -1.1735656545615611, -0.950760247337054, 2.3726467250825074, 4.564071305182209, 4.0064601386030025, 4.033356188558872, 1.8738697426670186, 2.0965713200569738, 2.5136737093089416, 1.853012522896899, 1.2689211166939465, 1.5377854304168852, -3.237510379621051, -0.02723220733283589, 2.556008187226174, 2.3146091964288527, 0.8569626759464571, 2.347578263187936, 3.0632656267968654, 1.2399477234511154, -0.3397963568628076, 2.5074256811618287, 1.8950254669783044, 6.49784914274116, 9.358358787791396, 5.786610929262665, 3.8993609946963095, 3.6584648149251775, 2.4021083351956856, 1.5994631713832481, 4.044364172510002, 3.512058999403636, 3.864897251995044, 0.7158622097655639, 0.11361841783333998, -0.43938323533721907, 0.5827779413564727, -0.22527366359220885, 0.06790231667240883, 0.16375837256646122, -0.30886494467472103, 0.28802377913314986, -0.9272563819756822, -0.7076987018728885, 1.6960546090627326, 3.4404499661676917, 1.6003179184620397, 2.4063126843430327, 2.7461935729387963, 0.7727936007548591, 5.2569534001536224, 6.406176142473509, 4.603430246743911, 2.0376865544245657, 1.1837802941404063, 3.607792401972421, 4.005554240787873, 3.0040070828303245, 0.9307923336221512, 1.1552244573181243, 1.2503011592318665, 0.8650757157868004, 2.7072753605155278, -0.42164240346166426, 0.6281981668402171, 0.9865510961966113, 0.9642115339745281, -0.8382976718956684, 0.8148459135478043, -0.10355384843739193, 1.804505039608941, 1.844212532677671, 2.5774536386274387, 1.9038982785263852, 3.441939202154232, 3.5881241446986714, 4.423097097619427, 4.528989071619941, 5.201616460258754, 4.939076622489844, -0.6886515562916415, 0.9528392534351197, 2.290321277016003, 2.747539696458142, 0.9325075020945615, -1.0523521033375138, 1.896929472291205, -1.0904610292957468, -1.566905228237753, -0.23758614991650742, 1.1445528407196606, 0.501216625884499, 0.5592272364468222, 2.0278729656461283, 1.0276886839731614, -0.3948837953959843, -0.1821377171582594, 0.3538135450918469, -0.1782548986457722, 2.465405033971102, 4.4310726358913755, 1.9391509029627219, 3.033093230708077, 2.265221746838652, 4.199472592628951, 4.015169991014001, 6.402912234668692, 0.5703755020203595, -2.4202143132214133, 2.036712417711673, -1.6908772134903756, 1.7982576116159468, 0.0043632750569347015, -1.639510840409382, -1.4343141468474276, -0.16846351793758785, -0.7862558789808548, 2.1662564137151645, 0.09364730645792894, 0.7719595177406128, 2.0271453552299405, -0.14206157233920177, 0.6759960231281925, -0.7160422551358331, -1.8701892432528862, -0.3320927530872302, 0.8677477771938383, 1.3011953699227319, 3.8642859112545906, 2.626168917754374, 2.874267191997672, 3.2338171598389867, 3.439518137545844, 4.646763709354037, -0.33539549551506814, -2.646033942631648, -2.972528536817293, -0.46457515000039057, -1.619313166592847, -0.20036396017030558, -1.5955592655150863, -1.8260718652237697, 1.1552156136582503, -0.0890684984937666, 1.0094324470414047, 0.2297194429303592, 0.39625808646331684, 0.9868079314821404, 1.6826535705026244, -0.13178163208393115, 1.0007613240114503, 0.5769264019909502, 1.0428496278999668, -0.8252305576997512, -0.7453805315604617, 2.6449186049671316, 3.825580113032883, 3.221959097942542, 1.1745426599182, 2.711347456397448, 0.8380822885688828, 3.5869591593205454, 1.1820406760506434, -4.0273360535660805, -3.543350219393705, -3.3558732384571885, -1.2063008347206399, -0.321005941628528, -0.2381450549181482, -0.8044764346808496, -0.10603498556195809, 1.4710639544515645, 0.17151484206383238, -0.039142146491777836, 0.0010440493583625272, 1.213596793971159, 0.21204319567005409, -1.0215322754224243, 0.03134008034694788, -0.4234664642160878, -0.7116259836951078, 0.06626062260228062, 0.3655627854252163, 1.3336940317041008, 3.703455486684073, 1.6121594847371779, 1.1832919815135696, 1.7159873537304284, 0.28698296711152516, 1.4549476594088322, -1.5256535426283226, -4.3726353211299225, -4.20699357788398, -2.0628627960671992, -3.5414750184730743, -0.06686140109697765, 0.5022029143007581, 1.6848191087286257, -0.40900232377975343, 0.23336389375714836, 2.382697432074214, 3.172339717059825, 1.6460077895546519, -2.3762618017894845, -0.523577557001265, -1.2370815926457868, 0.9714009083481836, -0.39167802933916035, 0.5452218162616493, 0.660532023440003, -1.0502903402078259, 0.762506649482083, 0.7178596973558482, 1.7732159161102192, 1.112865966302426, -0.20929762061651072, -0.4335228630573514, 1.2830631552780543, -2.0738326062524486, -4.2285851474168865, -1.4871712518862115, -1.189636754534708, -1.6519674380272515, 0.4074497973178293, -0.09296781465562295, 1.631785186609707, 3.5000760886806055, 1.9206584609306911, 1.5651976351629977, 1.2995511246613733, 0.05875725173678601, -2.769491476679891, -0.4344199230887965, 0.9401540166358431, -0.0003583768911080471, 0.7117539511434872, -0.2162356853784507, 0.2451794923328105, 0.848920737112869, -1.4289252631215434, 1.3411257882037444, 2.6615160087254477, 1.084512547911096, -0.5983807488627629, -1.433082481968543, -1.1505494430265173, 0.41990981708375075, -0.7004855248560445, -1.8682541631148597, 0.6315334780582507, -0.738983077512501, -2.1282183151434966, -2.0128190596649955, -0.17916059746096338, -0.7022768835848445, 2.2408356524981556, 1.114879841384982, 0.8914494004403443, -0.7164085231309754, -1.6810998075250672, 0.21603743755552807, -0.3065804187277123, 0.5591838288504292, 0.6167419892528841, -1.4333072776782234, 1.1739167841740732, -1.1729044401783375, 1.792739133089821, -1.3853447651310213, 0.721255373433897, -2.7076833833784124, -1.1835168538903285, -2.478913696472968, -1.975333755436892, -2.838250598610135, -0.6477376972932359, -1.3670630727354647, -1.823043994385385, -3.4187030570505397, -1.5955235498750788, 0.06381870830485087, -1.9767362058606683, -0.7794923667718019, -0.7772601370657987, -0.5939153488171941, -1.5184071488391957, -0.3699959340016608, -0.5752358516474493, -0.10570266388174053, -1.9588443277492715, 0.8109164653495797, -0.08649086021695031, 0.13236344389912577, -0.4524046006094076, 0.19615713203277907, -0.9436263438120314, -0.5068975452975858, -1.5920542117550212, -1.7859844236956872, -0.9146219286328917, -2.306441487842106, 0.1293275390215091, 0.8185740785588034, 1.600759531637673, 0.8632721319062329, -1.0142927557618076, -2.2960138033132655, 1.0671995532871912, -0.4296415193937346, -1.1982457264461441, 0.4712787778715462, 0.0016544522814149127, 1.05663879456737, 0.6085620511486758, 0.08766364567050638, -0.24315649180975557, 0.9698385062142907, -1.0195329198583507, 2.0743511247419573, -0.39844840684855437, -0.5083234406832933, 0.39425809016678737, -1.5411615663195555, 0.13070888198085295, -1.5353137283743454, 0.5745292860215427, -0.06611346702264582, 0.5699076083713397, 2.7730095595604154, 1.597774039890169, 0.8621729871849841, 2.103749825173176, -0.9668654587566698, -1.1322255018987726, -0.387976472209986, -0.45423502636032914, -0.6836911213944992, -2.9282132419300755, 1.105130714506896, -0.7569027605958761, 1.6104116446492007, -0.012928797956801656, 0.772877846874496, -0.0890900337124077, -1.4084091694762055, 0.5547272672331964, -0.4026710916750456, -0.2557594985233053, 0.3304737347276522, 0.27359744461966573, 0.17799396874589574, -1.3807262560063214, 0.43751850445348195, -0.6290312492903544, 0.19238981219200818, -1.252308063697177, -2.352841167963213, 1.6675273997857003, 0.6156579351770024, -0.7507826557354884, -0.07431778973820323, -1.1483623029897418, -0.14908006916820682, 0.38879436911666887, -0.23611100338643815, -1.1255184710435302, 0.30777848450488926, 0.06015969506232624, -1.342449127914019, -0.7083976518284626, -1.0233834650137628, 0.14871381492981423, 1.8811678601707147, -1.6629058828441805, 1.3263200942890285, 0.18467656776313782, -0.8720173691194214, -0.6856203059931544, -1.1262482665782791, -0.8549625910309069, 0.49633389624701435, -0.41645283967142765, 0.6003072579648754, -0.13156721918317288, 0.15555482961531117, 1.3007822640577364, 0.9637963761027561, -0.4847021622428486, 0.9838457442000685, 0.8504351630542113, 1.820621897392589, -0.35324778436551246, -0.9645564593959346, -0.046439589215245325, -0.8121644089295653, -0.5537747159346382, 1.0112791612193914, 0.6140949696908656, 0.9187647528720464, -0.44083378239707227, 1.566613450589827, 1.0963374496108997, 0.2164313839308891, -0.3941431448531481, -0.5906442702168155, 1.1118872224186807, -1.2240322515890842, 0.23353346888552268, -0.2418183702009229, 0.34459804738810973, 1.0218892051612136, -0.4925834498835617, 0.7971317932902744, -1.6719242617394714, -2.194325970011496, -0.8652728280741313, -0.05407121070608767, 0.8365613373579003, -0.025770172186512452, -0.038262664923226906, -1.108988935448696, 0.41141357520517213, 1.9237963456847877, -1.0643455930931038, 0.8635571079931882, -1.9582642107852328, -1.1602684261995682, 1.9562705999074954, -1.0442523245465385, -0.22903927376502, 0.8502691555576505], [0.3483575199407945, 1.0847167028619533, -0.3016128237832663, -0.6821191530600463, -0.46373492775221076, -0.5717547315783893, -0.971023126555583, -3.241334382681559, 1.3726391468074932, 0.3219827233653556, 0.9922358698590243, 0.4966832203664713, 1.2902571943785095, 0.7381441643910334, -1.1629319556486586, -0.09424767213659538, 0.9233235443220906, 0.19893332814317696, 0.9347610379745274, -1.147128846071273, 1.3572723757196121, 0.640774085668892, 1.3196411026650754, 1.1788615897694976, -0.3503524449064516, 0.6787101429544207, -0.7656684717656767, -0.02487284397975218, -1.834379858083102, -0.157822884414317, -0.2795536950389487, 1.1073850460576145, 0.6602112067939024, -0.07822468803075444, -1.3526345455305366, 1.5335611379679779, 0.3749101000594127, 0.7673311438568352, -0.970192098315224, -0.18577185208018954, -0.7094036111200002, 0.6314128667259304, 1.358116773953959, -0.9412637073157665, 0.4446229721673732, 0.5772151526839748, -0.6683647698946267, 0.4768488496800416, 0.8080173243761862, 1.1913823832431047, 0.28610373664066097, -0.6217448630375554, 1.5675542449461939, -0.12608282067017343, -0.35093460416376604, -1.6793914938152688, 0.6854353739951201, -0.2554021214812415, 0.38052155277941874, 0.42165021051326124, 0.06246625373870452, 0.6863666710196511, -0.935856380307109, 0.15605247835765476, 0.11016553745759239, 0.6523824748867475, -2.229273883431043, -0.30085695096837856, 1.4262349553166813, 2.4197574897826937, 1.0643982306127724, -1.5507198182873034, -1.105379489961172, -0.27085319783649137, -2.4728286454779465, -0.07422375711093458, -1.5557874722034457, -2.27805830684873, -1.7635216343593385, -0.395352054478247, -0.11126438968618121, 2.0975696458279716, 1.1762710176666702, -0.19564312272918682, -1.3995462850739893, 0.6390691542192766, -0.17594881104102839, 0.8143906171958342, -0.03845847646063455, 2.2401166034321416, 0.7702151465309072, 2.3409700418421853, 0.7134999870925598, 2.186632973993372, 3.462552189609643, 2.7111269673793235, 5.172906221079832, 2.2917953168269527, 3.0313611619796643, 0.5221068919703145, 0.4096441015789219, -0.8032911687900435, -1.2652957156958926, -1.246553316353399, 0.42973359050624815, -1.0548994743848965, -1.0262299306860607, -0.6514818535021342, -2.9568365556205864, 0.09130789336446586, -0.22263500972578215, 1.345616133503756, 0.07433405411115018, 0.7164689424557733, -0.011023540765028221, 1.8054748437204278, 0.22463696453988613, -0.7974039274583684, -0.016046617084835138, 1.694823256425306, 2.0265797255879576, 4.4188716594083415, 6.00931773387658, 6.637269113497114, 4.952227008943403, 3.055257462656728, 2.40621941246377, 3.299965583262666, 0.8973593387418154, -0.5981780203737682, 0.812287636898715, -0.593335670466467, 0.013658043539039055, -0.7616779730195113, -2.1863601796717345, -2.16155840869198, -0.3665426600065077, -1.1218306437181087, -1.7683311673388042, -0.0324583966368295, 0.4494139512586963, 0.8833527813764561, -0.21873017877730594, -0.9800365194670105, -1.0045410402758723, 0.7446855335899695, 0.11873310434664998, 1.3975343995685918, 1.8743908143915269, 4.538848335634205, 6.426921245542761, 4.222293235585481, 1.7844280850780794, 2.135798638175445, 1.417506166052513, 0.2391204490149933, 0.34747348137986955, -0.2591870903112698, -1.6502655833195836, -0.7684956309388099, -1.1665148753451393, 0.1017777819260896, -1.6319286444286523, -1.573610365690635, -1.3163857361474345, 1.421935143906855, 0.40609373357195, 2.0993536254127028, -0.9532095290523144, 0.08084054575103411, 2.2035634353377476, 0.7578723516347416, 0.48040924512172134, 0.9147859594511426, 0.8350907712071143, 3.036548981076553, 1.4204650994549795, 4.680454674647112, 6.46445273923376, 5.693414021279001, 4.318747080938182, 2.1109258030004647, 0.4682234201191886, 0.26335638637793285, -0.6302263234200071, 0.35969864193089424, 0.12085453233925343, 0.806984116570662, -0.5915274105861993, 0.46907206527942746, 0.5958164741528141, -0.7799110129035187, -0.8917023511663816, -2.179381913357476, -0.8627230611153573, 1.4337464816308338, 0.2332072733055403, -0.5838920136059408, 2.2325075485705415, -0.953556525085952, -0.692128647112272, -0.9082407894001321, 2.3868355894416498, 3.692743601312978, 3.7353943265151064, 5.771544851320933, 4.646878567443497, 2.892754027381395, 0.9275026656814125, 0.7965420177028586, -2.685812841411865, -0.2850288026563406, 0.8853361768900492, 0.31164660563852775, -1.610969649254632, 0.0070227503177998085, -0.7372523988736898, 1.3559190917943942, -1.4154436497180387, -1.1303076644988657, -2.1140966472173357, -1.2138252972706436, -0.0614855806117584, -0.20434786545487638, -0.019853820392155268, -0.1421512101575397, 2.446272932849873, -0.29736270024204065, 0.8815752081720526, 1.2025290794272223, 1.7361568424758949, 3.6028250723468753, 4.677613149882702, 6.041123543832064, 4.685441240204148, 0.8383467820498879, -1.593967313910063, -2.6621239851888325, -2.0055581998434038, -1.140513549714455, 2.071080490556508, 1.4300399711499567, 1.6620280900689333, 1.0829660797802567, 1.1621633424798001, -0.05308864244979816, 0.2797198717479984, -1.716147075400992, -3.459586062086001, -1.881008737947652, -0.49573445687102513, 1.2228510193726567, -1.3617799505926034, -0.47662734924811606, 1.2075784655101556, 0.06004107744212893, 0.75379006866815, 0.82158303628887, -0.43518319489208446, 4.29340992179092, 5.427047946487428, 4.387000529543475, 0.23870966268142993, 1.0753956504310334, -0.8958260401800757, -3.158188893416849, -1.2393117978489354, -1.4244971060676817, 0.5264289739491635, 5.325728948260441, 6.1617074844499236, 2.13841184040154, 2.5654190740766873, 1.7214834302847126, -1.577128926557611, -2.3223455943913187, -3.4795736083560582, -3.735893409499085, -0.06501682277324447, 1.7684129633528918, 0.16853881990923444, -0.21050009607213938, -0.3353525718343622, 1.1597776675163545, 1.9989038643555563, 0.9125447810630247, 3.25543904633938, 2.753216930886051, 4.8680303168824, 5.538926160740499, 1.0592950604817337, -2.3225288137605467, -0.40296972362085315, 0.1741845556168495, -3.7399792684431565, -4.826921875662976, 0.7843146640379958, 3.4252003540781395, 4.434893987459905, 4.554091945626805, 4.112029774143358, 1.1026777550803497, 1.421590440541866, -0.13943013590577558, -1.1313621101754523, 0.10821918654554379, -1.707746671362904, 1.0861313141612279, -2.08964481799491, -0.16389355577523082, -0.8881330108347126, 1.4089438515264148, -0.7640296674845776, 2.947024762186116, 1.1527241329491036, 2.449453560846511, 3.6073989897123115, 2.336278081080147, -0.6947999383099194, -2.1383781072851424, 1.5484025459303736, -2.1040006278194516, -3.2063553978089585, -4.076596677506012, -0.8739553307340889, 3.319708927145096, 4.447640534776987, 4.445524789079453, 6.070575356066069, 4.674846901334488, 4.939676460082769, 2.3695778244014187, 3.1102844388541384, 0.4377454278273605, 2.2004824101092617, -1.8278882784180237, 0.2830524484532835, -0.7034825786456852, 1.242156906980417, -0.7191908562651793, 2.700688978197061, 0.8503429628915788, 3.0040858148368836, 3.1140424237037494, 2.1090349205206684, 3.2955915231481674, -2.851303116489171, -4.737417660873327, 1.0453513261269631, -1.1694974643922358, -2.799802941015033, -1.112109094770094, 1.9383747071240405, 1.4199152203635128, 3.929559176892473, 7.335896505306827, 3.4856257369732706, 3.6486489780590863, 3.5334745379892505, 5.800633869856857, 3.2909830532396116, 0.48693229738009475, 0.678567455724153, 0.15317210084242253, -0.602629190132894, 1.902877390624792, 0.07061995854829214, -0.402663699604443, 0.49879588897457644, 2.5634624533456694, 2.4037667483041516, 1.371614549005215, 1.698984079587876, 1.970476136493642, -2.91291448307142, -0.5818174359612722, 0.15052805457441182, -0.5680416278865595, 0.16867807477949825, 0.5391742435278446, 0.9230241548941188, 0.10011244387688342, 3.1009320572812316, -0.3432480582739942, 2.7155059298915303, 5.533210300484736, 2.7431402703623804, 1.3538001692271047, 2.320079115896252, 0.8801892330477221, -1.4242916009828277, 1.0796903141543712, 0.19131489669012816, 0.09955279731539109, 0.7469264777738505, 2.089906744659633, 1.8444429912484723, 1.8863107965676138, 1.201927964652374, 1.1202714746873004, 3.0145496896242525, 0.7534738731814211, -4.659980186205806, -1.1376767803580028, 2.170761960931334, -1.9533960290743548, 1.0470332465860763, 0.9190959693303039, 0.261709955838859, 1.211226331220928, -1.1107595436853064, 0.048389480042676514, -1.6672793956865968, 1.4972108554269046, 2.7004264518847934, 2.1946184655978715, 0.7787812076305414, 1.7945634393552552, -0.26530448623896946, 0.6388715041433808, 0.2223399399492403, 1.3183779088898366, 1.9945171406368152, 0.4858604824697358, 0.28796648535295505, -0.06538273313062978, 2.638993738466185, 5.2796605883622005, 3.1323931268426546, 0.3248202369820618, -2.8323079772939064, -0.12715873699556043, -1.6261968475395288, -1.2004994929720387, 0.6264044798880657, -0.07888572717722553, -3.36431990141598, -0.17410482790072404, -0.1014715439543705, 0.5043157451034764, -2.3272875571266605, -0.15137005406033224, 3.4500787455191007, 2.9509024053963673, 1.245929085808988, 1.578628474649264, -1.6497636970276788, -0.27530870983606204, 0.13952169169122888, -1.1743454935896989, 1.139831244980704, 2.487621946574835, -1.2576609858758088, -1.1840798997605395, 1.6972330872597396, 2.6262006586141835, 0.9441451965184597, 1.0710967876761974, 0.44525922490351594, -0.9458825103973606, -0.7290337534800462, -0.5414773089146753, -1.8886029721026993, 0.7222161900452018, -2.0682133357515324, -0.42332662864247006, -0.9235109540248906, -1.103387541882764, -0.1626669135430602, 1.964672389823423, 2.7287891420299912, 2.30329274754448, 2.9735660391191914, -1.2805008494848975, 2.209358543741018, -0.02888432401668726, 0.13992487699077635, -0.1546745218775979, 1.365736779881025, -1.0905771624112355, -0.001594828258517292, -3.006869044600175, -2.785875191804983, 2.4366034011102293, 2.665946117343803, 1.6501716662422565, -1.150465032968334, 2.476626818164504, 0.6598135772416114, -0.29825316881072367, -0.2225280809526823, -1.6233711205553414, 1.4341243344406256, 1.0826297418518083, 0.6971002314177865, -1.1108633295737527, 1.7694494358340582, 2.4753699456002742, 4.116734043386934, 0.6491253538816794, 0.5604001858799453, 0.3074915953375702, 2.64626322997292, -0.1679919414335443, 2.756889731175055, 0.12363147148924446, 0.1363107462133401, 0.7503928171263794, 0.5627418708679129, -1.2630684825559955, -1.2776792769664669, 0.14922697661656903, 0.9934688567757223, 0.7707841301269258, 1.1996094018951455, 2.456417648068207, 1.4940663084089159, -0.6345247025163551, -0.8507206906676414, -1.2129901199618922, 0.657193553493398, -1.0160252707299802, -1.6017794238927796, -0.9773234408701561, 2.0323952592087515, 0.3616760060287506, 2.7457570493868353, 1.838452556413803, 1.7724884589285903, 1.2583119392517526, -1.7017087606987065, 1.00118413859868, 0.14499407773218728, -0.08341321503434777, -0.18700152432707512, -0.5161697657221946, 0.5126465890073667, -0.2755584730008682, 1.3013278901326142, -1.6577250631217886, -1.8103372396215436, -0.9363133534101007, 2.5964185414706744, -1.2168342246767616, -1.4767759893023455, -4.59872739046807, -1.1825151634177147, 0.06038619858759472, -1.8801628881902255, 1.8425330843025896, 0.7837063435945509, -2.232260714450305, -1.5862391584270785, 1.9712270075488, 1.8194082794508626, 1.0640685624699, -1.100000115595341, 1.0732658386878566, -0.5030006104189374, -0.09747629638781805, -1.460728115096896, -2.0477887063637628, 0.7471126170618828, 1.7463074207473388, 0.4664086774857102, -0.4923458307838136, 0.8554154172707994, 2.5322166338531615, 1.5541749909051978, 0.37947952853461825, 2.0478625131696466, -0.5661646934333765, -0.2252118962090246, -0.8300978354228701, -1.2890878968800688, 1.6109873272714437, 0.17928542545638257, -0.6448449492558547, 0.0878652390844309, -1.6250765945852177, 1.341358451047278, 1.885857088276246, 3.5038511823646448, 2.5423172905310762, 0.3943697167004476, -0.9084294370933754, -0.8268729531078768, -0.46021314745277925, -0.23668084296033934, 0.23340361001577553, 0.22218952437520773, 1.50877117895898, 0.564812862884615, 1.4994353635047881, 2.0051412926475902, 0.45534860208222006, -1.4924098798782224, 1.3421068257963993, 0.05064977781333166, -1.3973570008207634, -1.9884782992325492, -1.5531863352753035, -0.28005898113043515, 2.5300303943724036, 0.7192415670155828, -0.8021541529528449, -1.1816998805805854, 0.0020539682939968, 0.3289377083628604, 2.261654968268272, 1.5531887593470157, 1.207316964853537, 0.06326099897424028, 1.6499117422726943, 0.0381597848568036, 0.32141127290700267, 0.9181334034613075, 0.4513313112371573, 0.7618559236142821, 1.293665213191119, 1.363391538303454, -1.0069458514836223, 1.8324025303522704, 3.06346144053026, 0.389594924994587, -0.09683013939138069, 1.7395628615628929, 2.2123021599466033, -1.5444944442371469, 1.7426043548539067, 1.0860874620836043, 0.0070548231777133, -0.8317477145130565, -2.769832402457304, -1.2677446563796035, 0.45556061078415533, 1.0723287495564133, -0.802310130927593, 0.43024176699981587, -1.2594890039303328, -0.6141947165309384, 1.5677780167231885, 0.5122107815950719, 0.15929583003264922, 0.8857695227384536, -0.2610881205536495, -1.4082167242210997, -0.6840435514882848, 0.3122981436896519, -0.030325315051158406, 1.7695899776613564, 1.7111875618681962, 2.320570225911462, 2.6208894411997345, 2.2187448629466133, -0.22141648066387845, 0.17864064353998046, -0.5608594234151668, 2.7523435466056365, 2.668332219639873, -1.4909724389956576, -0.6140158536642623, -0.035973691293777796, 1.3767538344912467, -0.6059476910226842, 1.100932044716628, -0.5201601516492002, 1.7276339647970886, 0.3576092602401464, 1.6681353281759073, 2.5440597818307427, -0.585200471989482, 0.7568820637765165, -0.5806973960215459, -1.7303791299456301, -0.41194624448033057, 1.3272287506348903, 1.153892416743107, -0.914886568464083, 0.37791364041983994, 0.6954313720889687, 0.1936683552789914, 0.4215847551327674, 0.8541388914469972, 0.022990390320137843, 3.812404018220447, 4.227368942647337, 3.1218598643277833, -0.5957339036624492, -1.2182980378370412, 0.2579608318513707, 2.3551306917268, -0.06644140091030433, -0.023834829573176817, 1.1395291298907517, 0.6781904179920845, -1.1493224207936552, 1.2601459980956609, -1.2154687744840047, 0.4525684043307996, 0.45162290559419155, 0.23969597051692218, 0.48077178641342627, -0.5971170807486633, -1.6704256848984045, -1.3334498251724733, -0.671124564388688, -1.9272472303530042, -1.1890638145411658, -1.7330492589532955, 1.4879166630167862, 1.83608745118986, 3.031092881400378, 0.6128448065207329, 4.19821881287766, 1.5560640748309513, -0.11797746437027265, 0.49815114871482175, 0.8273057314668171, 1.5017156255895077, 0.26313859356209346, -1.4493361631898913, 1.0522738249813384, 1.7100142742388613, -0.5728775847541265, 0.49774905683800025, 1.1923999637626197, 0.03882639778434533, 0.823488521212957, 0.4298663083712525, 1.1531151196441638, 1.5596623296203604, 0.8022495955697614, 0.4472316721379253, -1.3316217080070507, -0.9747471611628953, -0.67453627662601, 0.18189950463199392, -0.8076685963814693, 0.15738036611017894, 0.023283721180997103, 0.044038320095664336, -1.1240199386778744, -1.5223670089913843, -0.5104197065806466, 0.4940398951225998, 1.5971479702227278, -1.1981608184200756, -0.2581281317555073, -1.3150201665493146, 0.9632615141479236, 0.48322105723970454, 1.4225190671646886, -0.47506484299176055, 0.2839794615948409, 2.3038272393599435, -0.4117643012233408, -0.8622420256338934, -1.1666748266558367, -1.124698819949582, -1.0112931965684595, -1.9092687165508186, -0.8335527848021891, 0.07806464391399032, -0.44465351291172733, -0.6025741337605628, -1.5272574082966623, 0.6536629142554508, -0.37098317472014697, 0.9995113487099123, -0.9981547554176519, 0.5462815683605836, -2.1784909943373476, 0.6288270082558376, -0.8551052196457973, -0.32510536815357943, -1.206265115964987, 0.9888754889418006, -0.7645871220887049, -0.3842128903283528, -0.6226042865884196, 0.5375851755993315, -0.34869955746501796, 0.5314063557908029], [0.27674148963624223, 1.7177063379695274, -0.8950575365267033, -0.5937683985035518, 1.2284898324136528, -0.5666479723515092, 1.3229434148883066, 0.6317905395944367, -1.17518649170811, -1.1152830437769208, -1.8199006627525074, 0.4924494461253311, -2.6900605684710426, 0.4303822516173261, -0.2426229057956242, 0.1525006736396212, -0.1692860969101748, -2.23327414807119, -0.527117801482473, 1.4041277860655037, -1.3826777104679402, -0.7322790805591727, -1.636799416800392, -0.9289500003016176, -0.4990194014517889, -1.404630369295725, -0.28024717315109593, -0.36709803839607325, 1.1110933244251704, -1.2812178341797718, -2.5408504119671242, 0.0014694358213740966, -0.46900482309273833, -0.9840527898565948, 0.07728927037434057, -0.34558821394808553, -1.8624318758780722, -0.36169460393109365, 0.31080768905509365, -0.3503501711888809, 0.4042893546282592, -0.3946911439274451, -2.464776848527987, -0.7156828076712033, 1.139977966102146, 0.7341029311480202, -0.0005033894889578626, 0.1633148156582023, -1.4362724026271563, -1.6314033423211733, -0.868596370947033, -0.2603112488096326, 0.2903488905262597, 1.7174456843860946, 1.4528547433785928, -0.9122810826110983, 0.9253814258385328, -0.3826648007993335, 0.8511476261217453, 2.248882611677757, 0.7971024298820093, 1.0823709376374946, -0.426705865248673, 0.9893464683103146, -0.5003199555701451, 0.9221871986917212, 1.1981850409273411, -0.5875205801714287, 0.10945882497265542, -1.6098835538598102, -1.26509827846269, 0.6460797210003885, -0.6523402164101859, -0.1111837707686663, 1.1524848349461807, 1.7770151883258647, 0.657268052901812, 1.6904201195067836, 1.1600241826600204, 0.5651490565415882, -0.9255740838654735, 2.064638847465234, -1.1424087638978189, 0.18629916025234686, -0.4596811656528082, 1.2964740868600488, -0.12686285004324138, 0.9295213241703432, 1.2969943003796407, -0.736625880979991, 0.5468809185352748, -0.6474576115860455, 0.9470661507368819, -0.5292483793986349, -0.1984834050012806, -1.0226640583321502, -1.8952283910066572, -1.046150604012582, -1.05573017755819, -1.7612113403415324, -2.435465963301887, -1.0510759866542707, -1.2637429908306579, -0.7381079118684389, -1.8588715627519863, -0.9527797485646646, -0.611294074318089, -0.6081687110513457, 0.12674617794965456, -1.0857976324399354, 1.874029062385879, -0.39830636994906354, 0.5257675069608715, -0.8784605848133306, -0.09289108984647948, -1.1156565753093726, 0.2218764292830243, 1.585397380906426, -0.20051412416392245, 0.5992352126463042, -1.9910889295766, -1.5624313999879422, -1.1417155033850606, -3.1929384011221935, -3.5291683343711973, -2.7277985941694496, -2.5968967055679215, -0.9588395317002464, -0.02912855226009876, 0.6132000137134025, 0.12646716376876624, -0.5376336578679403, 0.534403495606425, -1.502179870097676, 0.4627216126296255, -0.355552171291791, 0.5936936176021146, -1.206203209285671, -0.04856600978416775, -0.10730324287258365, 0.6340341223770725, 0.8479606940443284, -0.49587674308146246, 0.7142251581605431, 0.8298144966498711, 0.8773211377720036, -0.11583499479230223, 0.0445159696417783, -0.16633401817953444, 0.45350699197951383, -1.4195783674200366, -2.5348600312529004, -1.4501912112017783, -3.6677322212266947, -1.6164287890564402, -2.518188795080386, -1.7992926616945089, -0.8852123391921636, -1.4451164463131565, -3.936310961508328, -3.271207115507162, -0.4442653224742588, 0.2392506709618493, 0.10424678102473844, 0.27935338706281054, -0.7515200414545452, 0.24289200883070064, -0.02899988045796431, 0.7650151974512654, 1.183445299458597, 0.22382648453669227, 0.6649994836108767, -0.8975022187360484, 0.3782389716812772, 1.1050939219951217, -3.0939839180169364, -0.6837366237893006, 0.9040635406718984, -2.197560931027807, 0.7093151344728119, -2.1034850701414736, -3.799310454863937, -1.748951587851761, -2.2749163399035512, -0.3559966366161511, -1.5940015518115145, -0.10593315102059356, -1.7188263803284605, -1.198482269748173, -1.653783666325248, 0.5771947003785053, -0.44967472198595376, -2.9230949446871133, -0.21081428318605422, -1.1531092189117784, -1.6456911266089673, 1.2416572160466648, -0.5917819830498472, -0.5556203848178911, -0.4785019170129603, 1.5116741709558508, -0.33833688060994754, -1.6999549334436108, -1.4504108798120707, -0.06654106989350583, 0.6511478765254234, 1.5991827821227018, 1.2884723261326152, -0.8845819986244245, -0.6943935360500335, 0.39095173594829696, -0.7924951951175677, 0.58531813475531, 1.675887037748056, -1.6941045319537582, 0.9384813989261276, -1.439925993989013, 1.7915397079561453, 0.9287069112169497, -0.6814923090434234, -0.008191408837408778, -2.791980264221539, -1.038571251365412, -1.2386017276169035, -1.1552241515407693, 0.43553889446268457, 0.013096965063663974, 0.2284187682210688, -0.49423240093639326, -1.3166526436207813, -0.3005161177309135, -1.321278479149155, -1.054339572104383, -2.2392441035399235, 0.5752999114514097, 0.3816679389733416, -1.9538526742860176, -1.7124867191313942, 0.09207704129438234, 1.998759281317623, -0.4557765463369931, 1.8829963297073062, 1.3117349886573246, -0.8802113843726437, 2.9177602966435696, -0.5660473789540554, 1.4962120117331168, -0.3533747203253597, -0.7686450845974189, -0.3512457190048458, -1.2447734475122854, 0.07441122251702388, -0.5295908834705212, 0.06127156172353019, -0.07700218964981587, -0.4691497494633533, -1.2912299366598894, -2.4861432435959694, 0.3600108728284424, -1.1490874107615066, -2.777753283847645, -2.9187423007707918, 0.2764306710713898, -0.8447572721232595, -1.6938996953312238, -3.052015913267325, 1.7882910228260012, -0.4174775747766362, 3.1248695941213005, 2.884201820299593, 2.2472647229313343, 1.680360514796573, 0.13815866955643263, 0.42811217592188494, -2.0603637169522333, -0.8108563982227807, -0.7229701985484758, -2.0853453249528138, -0.42499989827065043, 0.3677784759954202, -1.3897444087615691, -1.5584695956698746, -0.22769165990240203, 0.5289607676321493, -0.1808084611921493, -1.7781568939351413, 0.8419822783088358, -1.4187461160819839, 0.2716305576591109, -1.02623779373731, -0.5723070524401618, -2.6940004190458953, -3.2920256945668407, 0.0029923355392330897, -1.2484547450548855, 3.533678528990878, 3.426233808269714, 2.700972027882134, 1.4738862736854215, 0.21247235470952658, 0.3611464736399897, 0.46877559401789654, 0.004565125380745657, -1.0101727624721255, 0.16347262355564288, -0.8890166291158702, -0.07317064141405089, 0.45297688496459315, -0.3845676045001506, -1.0943257017145722, -0.08628702911761409, 0.08336922112458059, 0.8463234562552846, -1.0534526728187523, -3.1177772900781258, -2.6489260189796333, -0.23177856047911477, -0.8845016895015618, 0.4951431336697285, -2.749971801770497, -2.598959269329695, -1.2502569421214933, 1.7464868961887263, 4.489043793950991, 3.207005819989673, 0.6939265479790193, 3.358632980653986, 1.3869765354934367, 2.1713525320212117, 2.2327670440601946, 0.19481662855173645, -1.3008376830143564, 1.5171811848345937, 1.241513824688114, -0.05330954417156461, 0.4180580554399761, -0.11729096050990034, 0.1057259981172395, -0.5457101968337625, -1.1996369639923845, 1.9900715662412234, -0.3529368521614809, 0.7214990913409711, -0.8190826943352254, 0.6426856539666942, -0.2797005122165409, -0.44098682231502545, -2.8942152524003846, -0.5583833352657479, 3.607467837633502, 1.6708477672257793, 1.228747593607548, -1.5550152059864861, -0.33846509110712913, -0.9623641393114406, -1.4275727330030945, 0.6934408586336478, 0.7510221824474571, 0.940605112755927, -0.7513888082483717, 0.8595304978767988, -0.03250735385691903, 1.110148777831848, 0.2980716406090275, -1.6884606409096738, 0.13213411167873176, -0.08589207543351965, -1.815979061766193, 0.5566373136604711, -0.20412312299692317, -0.5442209139740839, 2.0128713218025793, -0.9602890792934956, -0.8796979233121908, -0.3345493218269501, 0.25014597305693886, 1.4618586966022533, 2.8432281875995886, 1.6081978018413827, -1.2374952367001, -0.9862553122371301, 2.2170958972794095, -1.3131144341463918, -1.2599299903715986, -1.6454325393854141, -1.7021172971769982, -1.0934186421280097, -1.6913512414922147, -1.3738811448958808, -0.7564964359210116, -0.36380661749613197, 2.764688898428705, -0.6922966281528546, -0.7336891254473167, 2.40042562428036, -0.8980412029996984, -1.3516910549438577, -1.0308624862780564, 0.5571245776179816, -0.137697984813484, -1.288148842844879, -0.07705857864255047, -0.8673974499608283, -0.31643451079072055, 1.2726806605395709, -0.5742680311650347, -1.0065530152591673, -1.503955960159285, 0.9075594077704086, 2.0229760423773446, -1.1537301215444766, 0.9591514056266535, -0.10603350463036808, -1.9700060218422262, -0.7305089138305287, 0.2681397986723095, 0.997456582333929, -2.31598260493684, 0.02500781545166736, -0.3027354909407392, -1.0663865254502245, 0.47126403363713004, -0.9857361849731324, -1.4974391132238742, -0.3594124457550702, 0.0033525731529046566, -0.28475671564804816, -1.6745152226211744, 0.3798250056696343, 0.6117455359842215, 0.5223686238880966, 1.1361565793472406, -2.6577919394177774, -1.2410825735307658, 0.32142242179239516, -1.0385654271983253, 2.27442306278847, 1.1053935377406605, -0.8622752666295632, -1.0060265006218054, -1.4907153181015413, -0.2537511012878821, -1.2431011459894534, -0.4026071287023497, -1.516396298744395, -1.1178041093375581, 0.21839423337541905, 1.1050549161508703, 0.5220095026918394, 2.071197428864578, -0.15326816872974383, -3.1308858522387912, 1.2534113098373634, 1.3981458179491701, -0.9958687632151405, -2.3715985586843793, -1.3195194725050747, 0.11870589093204197, -1.1743722923537505, 0.6360517691486696, -2.6145956382461915, 2.135825135402787, -0.893145898611981, 0.8337904073008238, -0.4051606715064294, -1.4349323059340326, -1.7271090272975937, -2.277761944664843, -2.4586686562350875, -3.0798771830267158, -3.4474471335597694, 0.5416532220591547, -0.7080020527246217, -2.4537621555512117, 0.5954186487915111, 1.8079787590036656, 1.1322353610541382, -1.3658616984894076, -2.0504982416099935, -0.5047046604610688, 0.5606280280627908, -1.1036602741002777, -1.399828989976424, -3.3368801839567785, -3.3579978378199486, -2.3892730927476595, -0.27873934989416244, -2.2698042143798145, 1.7976098527624393, 2.074985528213915, -1.2049168999441557, 0.497032002812307, -0.12469121656235488, -4.272251520604753, -0.05571966732988012, -2.2846500361563367, -1.5976927153672755, 0.3725455355859814, -0.3800235398206864, 1.6942501041078846, -0.9544765127978547, 0.041181667241076456, -0.1427428283886388, 0.8611871943546746, -0.6663664130872109, -0.18493348647904517, -1.3161173627754021, 0.5873616956679153, 0.5077099437698389, -1.0451616140145827, -1.5420995213078776, -1.6648534398825674, -2.997041679828053, -2.6376673082880573, -0.5691718189273781, 1.770117234538645, 4.560820819802535, 1.137409618083752, -1.707396704574077, -4.148164492393627, -4.003575854635372, -2.835962281357601, -3.3298776440657787, -0.5497408124346334, -1.643589151500395, -1.671916248240809, -0.6431174319960625, -0.12313964030556278, 0.24975537716046192, -1.4535288552129755, -0.04849206729585087, -3.432549213597759, -1.024172737103655, 1.2754102565207537, 0.4091869426123039, 0.09710273790040139, -0.6320286208125097, -0.7576442438958821, -0.32875187644864745, -0.9990327728089231, -4.020493117456946, 0.8830147128545337, -0.8455861749325823, 3.113093258098978, 4.412129551971955, 0.2458331456815018, -3.7916882755957766, -3.5699253051784092, -3.061198108953266, -2.8032804725993317, -2.133753218169844, -1.9239239290658419, -1.5964761418084863, 1.316199873251518, -0.6363756005860536, -0.34289435528666856, -1.8989569373811734, -1.027713605670022, -0.21269954247951686, -1.6452572392154534, 0.19922475460907518, 1.3371528530261017, -1.659872404399439, -0.26304858686309956, -1.5301346552280408, -3.6707175812700457, -3.063917701902734, -3.666038400262373, -1.8158315583408866, -0.9407664270452264, 0.33186252348974576, 2.659390743250098, 2.180353525699082, -1.7361877945148927, -5.103939032081305, -4.361167023162068, -3.626239617493609, -1.7335666936050578, -3.73381114495411, -0.36640363576109614, -1.3080986842997815, -2.3432151268460424, 0.6919668190171856, -2.3693084054858744, 0.33271157004572727, -1.4457414658113046, 0.9847438568052437, 1.1335952902187363, 0.5992710975245027, -0.9814258013387349, -1.7103702459130636, -1.3433728462745123, -1.3017951243444201, -0.2903898952984783, -1.561430314316038, -2.0370263339474937, 0.23214062225693813, 0.07191923054042956, 1.1288326249939096, -1.3797807432960179, 0.41606663758788437, -2.3305499432801304, -3.5500973718237576, -3.187412974232394, -3.1683993416936036, -0.9635566675836994, -2.7830241123405783, -1.2742614798214968, 0.44313796764080254, -0.4737413686132643, 0.5942745232823784, -0.3584801139333318, -0.8823508263221174, 0.3490064376200737, 1.3273520823074771, 0.05360511926503594, 0.37439832781109106, -0.5665444254686882, 0.9411934317266911, 1.835402304679189, -1.0945978887548833, 1.8646631153843236, 0.11574272455629132, -1.115044266645223, 2.181049038694873, -2.3989857286290177, 1.0091393733520262, -3.4966756898036446, -3.223473163273581, -1.9811680506330924, -0.867950762025944, -3.832198168167294, -4.09310833234841, -2.3669724998621064, -4.310856419664856, -0.1997771975877786, -1.315236988966577, 0.046809473383387826, 0.17308889353869245, -0.6664321639549592, 2.776052255518836, 0.6317690619789488, -0.6921308107295174, 0.807512257157504, -1.4850046456907429, 0.4452507122525431, 0.5109738453393556, -0.21826073877738347, -0.8232430739873444, 1.3538468775484693, 3.246956510062533, 0.49134086924029696, -0.26352277852097056, -0.890357935683815, 1.050499903824944, 0.35817883322793054, 0.21888868468296094, 1.0380036831177863, -2.2891590584069927, -2.0768156647997014, -5.890173019232483, -2.226176531681764, -2.1667118687311087, -3.353317773284168, 1.0067311796621672, 2.2077598174895807, -0.33118275423950183, 0.26306201960565756, -0.32664089216097364, -0.06854361992964204, -0.7859401207673808, 0.26930331226102816, 0.42924317355033714, -0.30946086532381867, 0.057777049601173636, 0.7526682867466068, 0.060003721315906734, 3.127362045829872, 1.9904842771318785, 3.6795485667797436, -0.07190909664270176, -0.8223243187456072, -0.5660342508156995, -1.0447149603010297, 0.5890241383097364, -3.040814401137945, -2.0667594479710254, -3.4847675695561713, -2.9965130378596196, -4.319443789371526, -2.2095711598710017, 0.3187459710179422, -1.1426164935573313, 2.3733599937411447, 1.718182538915991, 1.423739685532388, 1.0442215720379298, -0.6294620699352335, -0.646680423055275, 0.6522460678237538, 1.2354927798795028, 1.6645412816392704, -0.7864090544009015, -1.2837050663723566, 1.349225365839592, 0.6550715513242057, 1.9852703196018922, 1.1609629322033328, 2.7080233144259935, 1.78753157048063, -0.8153223811641468, 1.297738109633249, 0.6708538110451158, 0.19519362123602818, -1.1233812921759367, -3.525076052632991, -1.4704460812071685, -0.6503622980519616, -0.12513376245361435, -0.8025067294865168, -0.5803905048320253, 0.040659323097215636, -0.23518207823559156, -1.0250973076763055, 0.09705649183694062, 0.5485285297714538, -0.27257400749429805, -0.13968157832793482, -0.2788893945380939, 0.0008447940847098649, -0.505132314232414, -0.3167483041750834, 1.5296105742491146, 0.027269439433112858, -0.6545371537220968, 1.5420729642956192, -0.6371011165236635, -0.5781921363032975, -1.8847895329655058, 1.787054614019874, -0.5438843446242205, -0.3803070639344001, 0.5156170051002986, 0.034529485967880094, -0.48144014478347524, -0.12754850399613865, 0.724514832695284, -1.4385566165063006, -0.9181246129294498, -1.1832222617111965, 2.0686440803714734, -1.1421224357158244, 1.967216277824944, 1.949253841984559, -0.14519334262917405, -1.073559900179323, 0.19114494275561214, -0.02920137880147759, -0.13835804274831162, -0.013520896755513776, 1.3571653664890264, 0.6212253932926107, 1.2167216822634928, -0.4515519225073007, -1.1384169225272334, 0.1868402663589383, 0.8346545852067714, -0.8235734704222694, 1.4697633546363023, -0.009313227160379415, -0.5506403733853478, -1.295022346160936, -0.8084588066466275, 1.4860872443915027, 0.4003688358904826, -1.0336280588195026, 0.4978112249668203, 0.7027374180731187, -2.465890685582094, -0.966685909760555, -0.21014690056070504, -0.4579037470781878, 0.8442841461581383, -0.5385319829354974], [-1.4195672725964021, -0.38992974704154504, -0.24890769735305027, -0.09669477730504569, 0.3539644722049073, 1.2539277605696173, 1.5118075206523256, 0.8824995388664162, -1.5801874891845553, 0.09893632913988283, -0.1502864034467588, -0.61347614683781, 0.9643866284254632, -0.33202014069688607, -0.7817172344061083, 0.41058231054612154, 0.8636098617602807, 0.705677859582386, 0.987063226012819, -1.1640880433592384, 0.10579725056567336, -1.4111570618972762, -1.034158688731854, -1.144172430213059, -1.5655207525831834, 0.3700092626841829, 0.34135476566934153, 0.7695215122315071, -0.2749803839980649, 0.18436285165327418, -0.4946209731317457, -0.7127064746781707, -0.2072735361459069, -1.4267723085497594, -0.35121954451165777, -1.6824087694233762, -0.008147444069585593, -0.5113832074221815, 1.0801482335160077, 0.8061391138964987, -0.680970573085086, 1.5801188975325675, -0.011934418375241233, -1.8022380969624965, 1.1560091917547328, -0.6812246754644103, 2.34307416590752, 1.0930905393193728, -0.750138531549895, 0.026475781045076353, 0.3225107448330007, 1.4041165522905001, 0.508961019687133, 0.8582110732500994, 1.545156181186667, 0.8844580857983182, 0.3857105537893667, -1.9841459625298106, 2.4400464872416934, 1.6620931591579313, -0.02221168121876732, -1.0486591173948154, 0.3719497747124467, -1.8962567602048142, -0.8784552014165795, 0.6349786279038595, 0.5298731699940118, -0.8987559854251038, 0.014049107351100673, -0.13851650313006386, -0.944210335762991, 1.5500236850346631, -0.09360806745693508, 0.12271763744736869, 1.4654999853215223, -1.400328519063142, -1.6359595141957772, 0.6134723904174421, -1.1949431892040663, -0.35314493068045183, -0.9473550913344174, 1.3278452523244009, -1.0712553480899198, 0.037292783399838283, 1.5308164088006129, -0.7624027242346254, 1.34727677601878, 0.5860500017601767, -1.0771773023769668, 1.221515618250635, 0.1413680327626943, 0.28143712171357926, -1.3897887487126108, 1.5391493437950552, -2.2365450499864017, -0.3876931148757559, -0.8927163755236169, -1.4430864118796494, 1.1758045905924204, -0.3955348948244372, -0.5220795010620456, -0.7935918082851973, -0.7202359302922486, 0.09479184593239982, 1.9951808348519895, -0.35935101624257476, -1.0227981287476928, -1.3608611231180565, 1.04943338303031, 0.4006106114795997, 0.7582321513251847, -0.30242826936429434, 1.131832995947844, -0.3274628249104721, -2.1328845394970144, 0.8533410269397051, 0.44513099852859817, -0.250113299552476, 0.7565147037765279, 0.8789727078236345, 0.2476485692125522, 0.675247839716411, 1.7508347570094653, -0.005620756780960126, -2.676781348029933, -0.5312964878232064, -0.31291222420531456, -0.5344143663299307, -1.3694333719672127, -1.3893028987394294, -0.6482319233037666, -2.1394828641344956, -0.259377038700519, -1.2412298441891039, 1.4546528124652707, 0.2678150120542865, 0.7829449057330807, 0.6747669826375956, 1.8313803185103246, -0.2188526898313606, -0.6175309047660202, 0.6899843175038235, 1.1363105702983847, 0.7148520505547995, 1.110137785968169, -0.32851055470330714, 0.27232009621874026, 0.22622226615710087, 2.95923275134128, -0.7622913834111894, 2.0603454385205646, 1.3184568036021682, -2.0676028308215577, -1.0566330607581238, -0.9932271665730907, -3.9655818662900146, -2.96118869458637, -1.285834646273364, -2.8166315716728354, -2.5425190166475615, -1.3550517494514742, -2.774386689254854, -1.7654228175444613, -0.3050281272561689, 0.1392787842680861, -0.05390175156542951, 0.48229052107645426, 0.6021366371699496, 0.7661635052248296, -0.2379252641805687, -0.9525602841666374, -0.8228628980161624, 0.02090591281624898, -1.5314590110632522, 0.6592675730375, 3.4037560627366314, 1.7905538492638995, 4.678703021864502, 4.63908975491226, 2.452075475987837, 0.13470938031010338, 0.0830858317447912, -0.10185862689083215, 0.5078131267015457, 0.8350728552446125, -1.4760386070646572, -2.529529070567905, -0.20084931413068244, -1.5388587471257802, 0.2034029827413412, 0.2654254371560192, -2.2650591392163664, -0.15844712681446918, -0.03620150097226505, -0.4044534273040034, 2.33449719941436, -0.4800232340358488, 0.0346471818116155, 0.7337060600092113, -0.5323105121691297, -1.1826572925929326, 1.1147917604414088, 1.8825188252817122, 3.09723992963593, 2.468954800966838, 2.6011691633692715, 4.469076641004067, 0.45308582852598817, 1.7187190512009465, 1.995388238119447, 1.045952904635019, -1.2808421020432694, 1.5389427342281015, 2.1700477914026286, 1.0983905110792396, 1.12753055079204, 2.1481004831868535, -0.20020715006862852, 0.521386997767906, 0.770812441363343, -0.5744044513966311, 0.18831234283618797, -1.0799494389706328, 1.5353798107432013, 0.85086477971148, 1.7918766855427304, -2.0595325610541524, 1.3453071973382962, 1.0389201666688428, 1.8593999604222426, 2.4709391598992565, 3.6742188797368063, 5.002715149857487, 1.432551710348124, 1.9921892999874418, 1.3568515431979062, 4.216124699026579, 2.4257163251333775, 2.264236411986175, 0.42493368972046347, -1.1996427126105351, -0.8230566239450834, 0.5846596597518366, 0.5829888882986191, -0.6440707979110719, 0.2851926342183103, 1.5312979685437942, 0.8542707329824228, -2.4622283108600294, -1.3690560858179932, 0.5109385867901741, 1.4434697170689912, 0.16270115739763508, 0.5908705154438775, -0.6583086653127603, -1.0050905519963451, -0.7234544829026989, 0.6009889270028933, -2.490829442213948, 1.4221784494947234, 2.5393252230246617, 1.6118314172126997, 0.4255589023826957, -0.06830521290872658, 1.2446412628174257, 2.5294844273074144, 0.9335783989486527, 2.220125978176612, -0.49594403263887543, 2.852565170344072, -0.6282911172179053, 0.3903694690101765, -1.8455944079271027, 0.6319452277047335, -0.2959714707014502, -0.02880777820088621, -1.0445003339779848, 0.6124133774519275, -1.0675457274580165, -0.3809983413468067, -0.6837310325239908, -0.9718193964694608, -2.0193259246797415, -1.0871576812807593, -1.7000182631832161, -0.7699439593506249, -0.6667091470637727, -1.1797591960105787, -0.8620773525943566, 0.4361981196611664, -0.8616089918697037, -1.49047543025252, -1.5363683601730127, -0.187726079885037, 0.2472911475920374, 0.7232124828433831, 0.3100478091767832, 0.05315775559410357, 0.05279696421400309, -0.45606877242939825, 0.2735453628607898, -1.806596283315694, -0.7661802921103839, -0.9595663584329411, -1.096724808176887, -0.989141391862664, 0.534056081374035, -0.5703783842541332, -0.053836270238499837, -0.37162867853762804, -0.34724331819861354, -1.1345217215043064, -2.0332263837762907, -1.7360183797185313, -0.5172081361451417, -1.8059066962570913, -1.5001151387348768, -3.791435486905224, -1.2936811434521327, -3.271231682868273, -3.6312614737111883, -0.8904131939439263, -3.3451600374949484, -0.8991026550940904, 1.2120125682650487, -0.5914978291838897, -1.5743788280209663, -3.9035821700642575, -1.6803783346776748, -1.8407686230862297, -2.317440179287952, -0.5646259323181753, -2.015838575775991, -0.20915701195651792, -0.28416795118019966, -0.7428686859794418, 0.8328215040522889, 0.113848333118728, 0.09774969765595368, 1.525604189628799, -0.09213920244186818, -2.425664576340838, -1.845879304311383, -4.41670049643866, -3.3975446410512466, -5.192818735755912, -5.783028680596884, -4.353600561061173, -3.2522895230553863, -4.342663188693896, -2.693511669363502, -1.965977283462929, 0.2250347579715964, -2.6169971774811605, -2.063228807666969, -3.891005656371438, -1.1636380337877412, -1.2967151112034623, -1.8103405523752152, -1.8865635667577572, -1.1747046528049003, -2.097929418610899, -1.0999641007136987, 1.0160025668492376, -0.46776242652570044, 1.1665769770977894, 1.2141630351783974, -0.07288907932696898, -1.082212049037447, -1.3414024549279722, -2.2002838320306757, -4.413423561605855, -3.782945570942553, -4.94318498097999, -3.014903399530143, -1.6331104859263428, -1.4545368726921142, -1.2232910170797389, -2.3413459734674786, -0.3048547670990577, -0.16569792417768692, 0.8127059881885474, 0.7468691937627797, -1.069296753110352, 0.6979713920280249, -1.212856264315643, 0.5379407486772702, 1.1137233453504392, -2.080318701855358, -0.4289249483110499, 1.3322878733589882, 0.3530308960732315, 1.1245592923780063, -0.7283943837467125, -1.9955816861128022, -2.0562858033485107, 0.07089689210195647, -3.2045889514948, -3.0397880274817393, -1.5620012895188622, -3.4626536978532485, -3.519218885003418, -1.390694288105526, 0.6624036944369442, 2.0641487560758947, -1.1952170564711806, 0.1802803596076039, 0.11780099264770902, 0.9185056528646589, 3.895244142974589, 2.8576277110382917, 0.4083072767865028, 0.6449615676130392, 1.2909143175250388, 1.7613470124501935, -0.9645598616870605, 0.6908209948017303, -0.7112798958688303, 0.08697780386560185, -0.42193765988050885, 0.7351974873429634, -0.7410936776525253, 0.36316516854306263, 0.6864317094747234, 0.6252540944509952, -1.6287932437837698, -2.4223223213700087, 0.1312638467722213, -0.6436358236029496, 1.4527225532852313, 1.3281358217704924, -0.922356343175418, 0.9030382648773768, -1.648766159786423, -1.5058234475366745, 0.4079384377280378, 0.09859755128448087, 1.0854677020100716, -0.2957868145929515, 0.8472916782572385, 1.8680209126597813, 1.7614083867095776, 1.9054624490837189, 2.247451986519668, 2.8964068248539316, 2.4204301413888567, -0.6267772257121392, 0.4807461051807814, 1.6946207808947085, 0.6394534795635278, -1.5693887271413494, 0.4731011381347684, 1.3548115978750508, -0.9110219143577286, 0.7282908350039037, 1.1090401190842785, 1.272051855888714, 0.1909090088839479, 1.6255933899525923, -1.4717826625634944, 0.21757659734253362, 0.04921191713103183, 1.337772090757838, 1.8122480684545816, -0.24531892994270216, 0.48074271061748675, 0.08032259345162565, 1.919906130162821, 4.281673396830334, 0.6315011770416122, 1.0231447087784689, 0.973678314483048, 3.0801153070576355, 0.31667007928045476, 1.220578286921711, -0.10377931824470461, -0.43857417284069217, 0.8877276020913254, -1.2161941305410031, 0.11418432278349766, -1.3943233734261569, 0.021401439631877812, -0.7111219160277538, 0.11786154952052155, -1.506471130682947, 1.1786158073086634, -1.6343887044723437, 2.6794579146371977, -0.5982866546388584, -0.8048601814267691, -1.9313912481984965, -0.9058248520934642, -0.3615920219438645, -0.9212498692103547, 0.5427969209963663, 0.28031503510554634, 1.997919028292545, 1.2884127072265092, 2.5879768389428763, 1.9401751778972025, -0.041091635030998164, -1.905658349522768, 0.25562145587353025, 0.3971653021113174, -1.6828763008961527, -0.015337598377444013, -0.39050894201614783, -0.02662813712428418, -3.4826624397883363, 2.3669951765615935, -1.37310577644155, 1.041238189550732, -0.8165158187943926, -1.5334223749057587, 0.11466853102216468, 0.974084898085295, 3.369558187488042, 0.9694100616558922, -0.7953208575571696, -2.4881284959387595, -1.3586737670149127, 0.9977081887776276, 0.46773706689910916, 0.5421346531214833, -1.2612450708707248, 0.8917673792362435, 0.457200935984377, 0.2800066171170669, -0.9842363718735126, -2.081385981265524, -1.3875595219887582, 0.6709629867900172, -0.9754526866724469, 0.49456022936488286, 0.6961469939110198, 1.0643472381605001, 0.1872189422666492, -2.4476215610571277, -0.30773170159722946, -0.49966420072207285, -0.7502307155506343, 3.354610243273325, 1.5341353216964697, 1.7256058967696937, 2.331156731114042, -2.765336813063321, -0.8244782523834525, -0.16937637326719057, -2.106457454604354, -2.2583362424914175, -3.107572374227923, -4.950826289102337, -3.0057943458717378, -1.5514509409067563, 0.4931410039012376, -0.14064065060660091, -1.4951491750484565, -0.5649166391272954, 0.3856259213238356, 1.239710451858718, -1.7015035022837905, 1.2201702617961627, 1.2798211312316559, -0.4452534323542549, 1.0070303107963305, -1.543933069228538, -0.24584557750215608, 0.5623657286988238, -0.25432006925279094, 1.2221164826989226, 0.3125666309889225, -0.5528880584316281, 1.9655725529577663, 2.136119146068822, 0.9079684570416268, -1.0432572923322343, -2.6524010389726134, -2.5408958445456675, -5.2698440762597425, -4.253755910753957, -2.396639533493429, -2.331080280196227, -2.147039131164965, -0.3916670290809821, 0.0020165318765493967, 0.14356328196056406, -1.6795082990154455, -0.2627958966953559, -0.45083664331601514, -0.42732292301688507, -0.20271496558327304, -1.3301198769579101, -0.503443584821802, -0.6029688206879611, -0.2163360303026728, -1.8263303888662028, 0.414676675733029, 0.20647484045164977, -0.5761666828312455, -0.1835362230858327, 0.23979004022143927, 0.14917521305003867, 0.5418586934741159, -2.260316967855978, -2.9963220739178764, -1.9522726219835824, -5.086504411520908, -3.6812606442797295, -2.820893843072537, -1.829393746056024, -1.4673985636968048, -1.2741056157012185, 0.5634902292278454, 0.7882766048412885, 0.44436292779350306, 2.265402343349845, -0.5077444811233996, -0.8189425871001484, -1.724764818356216, -0.7642606387661064, 1.506131967337399, -0.6106013552181994, 0.570132196719988, 1.3212612471738199, 0.5782876677479448, -2.0873628742906813, -1.621448585133725, -0.4652926528439699, 0.5708144041265626, -1.6718216195470266, 0.29361442418487654, 0.8858563900061736, -3.107613843677012, -4.805527440761632, -4.704602861392065, -1.9820943773468371, -2.9698019199891688, -2.293204264515529, -1.1951601144441377, 0.641315976618268, -1.3252151071763658, 1.1014764045156664, 0.37776125128828597, -1.3553719776487716, -1.6030981355038691, 1.225390223955011, 2.22902779890864, -1.8921020830598025, 0.048656371320347336, 0.7264986407530616, 1.5723239142014307, -0.9427646643700289, -1.054610929698767, 1.5434513792738171, -0.49140371966037877, 0.10253998933813235, -2.32415522418722, -1.261843804148999, -1.6567880276109568, 0.23310412369754335, -2.099879833940669, -2.2564619600747333, -4.454181110067176, -3.6091860016920485, -1.2580842692534464, -0.7164183744723076, -0.8822348162796393, 0.8934968250520762, -1.3949913779638863, 0.9271386990101654, 2.38561678603055, 1.238873992118723, 0.1071533771215468, -1.6504617932299415, 0.1977760670178223, -1.041898068454366, 1.4989958659336486, -0.32158661582206516, 1.5872358595014622, -0.22316761265326718, 0.5063504889765124, 0.11697853359405894, 0.24631517496414845, 0.5953714819118207, -1.2674352812467102, 0.023182674544465022, 0.25885180095963545, 0.21905482822838998, -0.18350200487429055, -0.7026523950765373, -3.2211923719537277, -0.8984541674209882, -0.9068799872922224, -1.519428502565681, -1.3363082416227785, 1.7126752675125139, 0.9153643196901834, 0.40187423391138005, 1.263536399409014, -0.3874501684564167, -0.6214992218953084, -0.15201745725909172, 0.6832976615292454, 0.9961600579363089, 1.1345913962053837, -0.6095617657104153, 1.6141267633997025, 0.4155039847579868, -0.27566866862826267, 0.4204559829245398, -1.210450527646599, -0.3743219672189784, -1.9583879967644797, -1.4727493158756824, 2.7452676281461614, 2.721360029333748, 3.0011718076122715, -0.6035684364676059, -2.387371123017472, -2.3271013895465744, -1.518728747807782, -0.25685557836466355, -1.4065106897371427, -0.41051806289201126, 0.36445674880230294, 0.29790228531579754, 2.011818253323358, -0.46762976230466397, -1.533544705653848, -0.22826461448425084, 0.2361628916503907, -1.5430200257117246, -0.7365453765019856, -0.2761731669847875, -0.037057929972457514, -0.3432739380036354, 0.9647772271188804, -2.5207683535222416, 0.565214985951041, -0.4644680712253669, 0.8154849155198173, 0.13872830583048107, 0.49903100245782683, 0.002133351528572747, 0.7544282998758688, 0.025250946259758093, -0.9890100937509474, -0.399526678591055, -1.473763805717655, 0.38901676789470246, -0.13477000379361953, 0.18160536095266344, -0.7495672680284478, 1.9116293227541135, 0.6470915980733294, -0.45850583109665033, 0.35856260778517574, -0.623608722842494, 0.2398183772019094, -0.4546195018032279, -0.2027712867434366, -0.009838485386074897, -1.4532319389382322, -1.4793648079020671, -0.08013904376106029, -1.0271938522841957, 1.3603349283794113, 0.7437135589608529, 0.8631667031676123, 0.34472770144923665, -1.4753952351281232, 1.4707316301837625, 0.3393354930404387, -0.4677257751397324, -1.1729910519411535, 0.6387504830343802, -1.873057471733924, -0.0643875876077026, 0.37118463574885635, 1.3802033369331401, -1.41471435849754, -0.5431808054240648, -0.2654385286168811, 0.5103068452984034], [-0.9211009167502864, -1.75206148209318, 0.7122156634269957, 0.5415475639864609, -0.19028833816826812, -0.19882007610452282, 0.09923713349836823, -1.313282123605263, -0.12417637658467809, -2.0157472776728853, 1.059835957719139, -1.8068016814022165, 0.5601085753693854, 1.653570818003301, -0.6253050705921236, -0.32552857273377683, 0.7918157442108401, 1.0071066382539415, 0.31724779354025273, 0.12297574886794232, -1.2841477911329269, 0.9083908372827633, -1.3264259752774077, 1.2974225009890243, 0.1816184711687787, -0.2062301283094758, 1.1796620686054473, -0.18837107862803942, 0.2427002023236251, 0.11594675112070589, -0.7218711738081349, 0.8855275984015764, 0.5129329806722066, 2.273407014598226, -0.1550888919198684, -2.2808966930998964, -0.09433736008129194, 2.1093690677968207, -0.4435485240640563, -0.27145451766073786, -1.084888515290085, 0.8054475464247739, 1.1266533441374282, 1.1996583636092821, 1.068746909858708, 1.191945738102549, -0.7119821197360898, -1.5642138149351255, -0.468471416334246, -1.4745400668772821, 1.226495739719974, -1.0075036811995977, 0.5978460248937412, -0.22534897016463948, -0.17742798877655305, 2.1701126575189984, 1.3037850385152725, -1.4921049190580296, 0.8957006640897277, -1.0414022531836702, 0.47263937335347006, 0.1807122202915847, 0.7349864367031269, -2.3284404568546067, 0.19900884634020422, -0.3218675530595679, -0.22147473743844395, 0.1988765420114632, -0.8768998853577721, -0.7554751289725429, -0.5577449473901233, 0.8312572342874576, 2.2374635629061927, -0.9392442038031842, -1.8690367801638823, -0.6647850731149969, 0.5154350092790647, -1.8581539831372569, 0.704455432265994, -0.9600021737215253, -0.37761767731918133, -1.405939481445269, 1.2640900556698096, -0.6530277833434593, -0.111225777142235, 0.7487749757530408, 0.5528761005776556, 1.3576221765939156, 0.29208888341011147, -0.3592967403492305, -0.7899716834121293, 0.6607470791280667, -0.44953718461232034, -0.16573063625255616, -0.5961190126858417, -1.276814385701633, 2.3753448364542624, 1.4011785559418024, -0.6473808894234873, 1.597208166473889, 0.9056711024857239, -2.261597081685764, -1.649865199419981, -1.540592366247385, -0.6549040464392387, -1.0817482985400269, 0.9983457387264507, -0.5697032243740783, 0.3726727319123524, 0.19556763070889352, 2.391325502372238, -0.016604507383789657, -0.16942172364458927, 1.0042802393335912, 1.9276533835137282, -1.0069271629029841, 0.09796043703607772, 0.5637624215184099, -1.0053232389580036, -1.2463300564550082, -1.0466877466318347, 0.14311454451362057, 1.7935957903206758, -0.9763276317695008, -0.39528662411778726, 0.7802225635181071, 0.6358634499247267, 3.3736136950018802, 0.860533987152744, -1.6135245661224473, -1.6691475803554687, -3.0043454294600838, -3.2321086382544393, -0.5846593430792092, -0.49881653409619137, -0.6751886114564197, 0.40299549381887845, -0.057576508132355736, -0.26077984278910943, -1.7456061384522197, -0.24528253812943246, -1.3284846388453955, -1.0188604833466302, 1.1479122225418243, 1.3007804156741178, -1.2495111659438076, 0.04864484220764682, 0.325653072281718, 0.7515138068493503, 0.8628461220736044, -0.005631753524447187, -2.553012509268476, -3.4382019856094628, -2.484738197495217, 0.4609988266356673, 1.127843293234501, 2.339714214689165, -2.2488971142135, -4.347607182995979, -4.122425358948296, -4.664390544276721, -0.4093641494651589, -0.9459214468476731, -0.27141879809930136, 0.09418896481999978, -0.604199424141043, 1.0992607012468447, -0.20159503021070724, -0.35760303294284607, 1.938673939288288, -1.1088957580214676, -1.1525438801605896, -0.255303766156345, -0.14688249953229007, -1.04633149116688, -3.7191752819164643, -1.685086470508141, -0.24095356171833637, 1.6287396912030452, -0.4192766314329178, -0.8802756731759288, -0.1403051791344828, 0.15729106169624935, -2.5750869192825494, -0.7559520355752402, -1.9520433899166691, -5.0078423286821625, -3.681810530954466, -3.463656484186829, -1.9497866796779477, -1.3715142868054278, -0.8146700609691961, -0.39727097893920743, 0.4982166014182624, -1.624144677424571, 0.18833507926768808, 0.39508507939061344, -0.5405606864421554, 0.9484024284272041, -0.6631873454004987, -1.2699115931662437, -1.8248117174952985, -3.005143013857348, -0.9773250418713244, -0.9290948373051696, -1.3397716617219895, -0.9889002759890925, 1.5516175707808744, -1.8581761351050163, -3.0353504965026565, 1.1073250476807257, -1.7429852127515633, -1.0954376386995017, -1.573875306208181, -3.554476645918741, -2.556184656666052, -1.0586064958475498, -2.6249107547007204, -1.3809119820594626, -1.4420141691992794, -0.8231613702874373, -0.47028763359701875, -0.015417239699406105, 0.14793094393663933, -1.7265885731691868, 0.7873521491573997, 0.8191903620566354, -1.0264258079955813, -1.72113404709099, 0.3328764586034893, -2.429196272198169, -1.5337701902226981, -1.5240496833549617, -0.05989932416220762, 0.7712266163396526, 0.43428539715218567, -0.5869069237982937, 0.5227142295395643, 3.6635886046012804, 2.2767104921984984, -3.429665385003166, -2.7961924178659716, -3.298578480749877, -2.4458452608560237, -3.8060617017984297, -2.365428209666944, 0.91935575407991, -1.6104149969535848, -2.3013845264486705, -2.31733231722773, -0.7630807694652765, 1.3031082812143164, -1.7531375105045268, 0.515142245869176, 0.6219024369820925, 0.5694251484891645, 0.6118348230751123, -1.082476961841602, -0.669437775459061, 0.8236568884694433, -0.9879873317908703, -1.0508701024646623, 0.06511368205997377, 1.5872284487927495, 0.6655440182092096, 3.8102488592616757, 3.7567877502991722, 2.87588222169966, 0.13309007037873938, -2.1956003112359586, -5.0385610434547266, -2.102837039823047, -3.674749289772269, -2.020638968743274, -1.869099130920542, -0.1793981770858062, -0.8091741382518706, -0.2488898949894193, 1.0422367425603023, 0.014641848410624917, -0.7541202124301404, 1.3439513437012787, -0.2848030230732205, -1.2653207601437284, -0.9398752300581231, -2.0921342852475693, -2.601321804338273, -2.6688530098735077, -0.7009074623487799, -1.5112309531813959, -1.3278660190645166, -0.9470442725446758, 0.9575998993562811, 4.294303472834926, 6.68160629941427, 4.743236649285671, -0.6169816463552911, -3.2914301434352273, -4.929790077633586, -4.657561565703208, -1.882960288019413, -2.0299230359134013, -1.4549928207600988, 0.2935299008310401, -0.33176643894466756, 0.7415097249371209, -1.2697124504494428, -0.40853360927907073, 0.9572358175880431, -0.3944555325702046, 0.6568276098854354, 1.2751112850145716, 0.39219240951254203, -0.2185751994396041, -0.2012031439255951, 0.3226354067939398, -0.10727277966210419, -0.5650892205650221, -2.7867899056278995, -1.0346008446120543, 2.2872937380558325, 3.84838166380143, 5.967424866362456, 5.235551412439489, 2.8833849835089844, -4.403773597011652, -4.811413972787425, -2.45864082387666, 0.35554546821201216, -1.95639163841414, -0.8395490002587169, -1.1648631680436614, -0.8758640825522928, -0.8080283785434395, 0.3934730694584574, -1.9080042223097533, -0.896898459795168, -0.04090085645279275, -0.6314475137574965, -0.3760764756218783, -0.6028310963898128, 0.7715500152927794, -2.4225891686458203, 0.6549015626542803, -0.4416643656146327, -2.9717044160429267, -2.0299594872574627, -1.8552203606823245, 0.6066897124237954, 0.12059157302440036, 1.9731502756329145, 2.0696279862123865, 2.039875484478482, -4.902148959449229, -6.5187138422032165, 0.43634112062632224, 3.214728313029263, -0.08234121933862103, -0.3785396656406591, -1.3166754282399245, 0.04355921245351484, -0.9837635486269866, -1.9751212326007481, -0.5155054434676144, -0.41434145523259397, 0.11369619129646157, -0.18808728849195025, -0.0313279574969945, 0.8639244892227408, 1.7508832801325847, 1.589520707865924, 0.4797894866031526, 0.876280387715547, 1.0672898490013372, -0.2440739676389294, -2.7093220859377736, 2.8536939465624367, -0.4260163042185109, 2.054484176513125, 2.7179062430624192, 2.7351312864111548, -1.752854104683462, -2.2710486006410435, -1.4985130577216346, -1.1191146054265149, 0.046694841342629155, 0.9100507240721195, 2.57504170881669, 0.7771394499204, 1.4620949735020041, -0.7896573003683566, 1.1753027336745252, -0.017714730314203946, -0.5338676528176822, 0.2363979552621108, -0.5113090774550524, 2.437649288281021, 1.3112336596554004, 1.5623919560780097, -0.1594151995286158, 0.6868499366429729, -1.3146748911223827, 0.5856266977151908, -1.8471553635976645, -1.9877545498437152, 0.8967959810534957, 1.7391649853156792, 2.857940000597307, 2.240365902326283, -2.1712737959621564, -1.6198701217298388, -0.39296267746491925, 0.10211611396595639, 1.32148528086239, 2.1026587525321645, 2.1402063321307088, 1.060566235796578, 0.40861923237154724, 0.2628608137939255, -0.46134686960981136, 0.8704163094481042, 2.1728990969708115, 0.9547167475309091, -0.6246818580540996, -2.163640981843861, 1.2983246777840192, 1.0924617837424009, -1.1543820122303186, -0.49384172712431795, -1.2197090590747617, -1.3678767925945663, 2.222756870195286, -0.6911832395807701, -1.6103841756861705, -1.7337075650317915, -0.16190974648522058, 3.5668048922362585, -2.722445252820683, -3.5618156208929865, -1.646298512802442, -0.8376301779993236, 0.5260178061181771, 2.5555556186426007, 2.279354327487021, 2.8361964122495213, 2.0622996200291315, 0.31566587076027375, 0.7022372313729485, -1.8672434411793593, -0.010353284402890626, -0.6266910666362588, -1.3834507054940346, -0.8442722724771259, 0.1438416653479139, -1.2662386455989736, -1.499083971427983, 0.548743877060132, 0.7414107286413479, -0.885288896786167, 2.539954645668556, 2.093595395457092, 1.4761048698640498, 2.4387509884999052, 0.49982496200751647, 2.292543084960414, -3.0743950191020413, -3.629501391924563, -0.6510369598269793, -0.33983051574381967, 0.3705096851114118, 0.20377616027467246, 1.7585884325233467, 0.494513070405834, -0.06883960476294664, -0.20977747406455943, 0.1261141076454244, -0.4428467685424859, 1.5683934751481756, -0.5275494885706261, -1.5465734920526608, -0.4915140402881578, -0.44720172808340924, -0.4802836128725993, 0.4459342417320083, 1.9671913552473907, -1.4386227118181847, -1.8482697107502437, -1.518727034787898, 1.0576725773874487, 1.2555289528280011, 3.717149091380958, -0.8299852718923011, -1.640434452343283, -3.320748046318267, -0.18610625056100974, -2.210349215437473, 0.7785502008349026, -0.6806843895379682, 0.36078771820773403, -0.9758206403025456, 0.342814259903104, 1.4410204263304607, 0.2583156644318535, -0.14787586709213965, 0.5272914214305451, 1.347829532423153, -2.0821492635651477, -0.2202468312018021, 0.13977936697576618, 0.18439144916230732, -2.6215710481568215, -0.485960200713455, -0.5411486913407597, -0.5700433964830004, -2.5612176435180363, -2.1106367006340436, -1.451862655522023, 0.6371664774304938, 5.140586001798673, 3.085886145746668, -3.0907418864465033, -2.9083604606153193, -0.5017135179661366, -1.1799144793778367, -1.9580415217880747, -0.11918181107711756, -3.0380882174513446, -0.3390193891042102, -1.9013663070376534, 1.2945862113963285, 0.016359663643515075, 0.4150012416288003, 0.3183571585917272, -1.9814707882404488, 0.6217840473865262, 1.4422757682585954, -1.3291402773569476, 0.7484575145658752, -0.9814014831757402, -0.2800879564088576, -1.109658877350465, -0.7837012619923036, -3.881231151275399, -1.087461636995579, -2.236988805697858, 0.8703222027146055, 2.0442261453954345, 1.542319132488632, -1.6326693509266939, -2.455769317025462, -2.0193288918659813, -1.2754868920486138, -3.292125246648751, -2.939879752383524, -0.10507960519833703, -2.0177981872948476, 0.5840466525161252, -1.2885552285471844, -0.3522779998686043, 2.1644598906968437, -1.421898468882117, -0.39421696551718377, -0.10437930386631165, 0.9197624815569458, 0.06480583260141426, -2.0435066500352637, -0.37983253201673417, -1.9737580154392134, -1.5120645312868843, -4.076922046394633, -2.651227347489782, -0.45441534949656087, 2.3583551472002853, 1.0674038072684742, 2.0007812727168885, -1.06732259006392, 0.33242974087318905, 1.8489713843389235, 1.8521480886199007, -0.8193901213580816, -1.7995903615645572, -1.3804809769481288, -0.6423153326605042, 1.1237567469585834, 0.6741804432824176, -0.8998501896232539, -0.07927164789561096, -0.12642862812888367, 1.1590573413558272, 0.9961090132134274, 0.7213560886263091, -1.1217890580358416, 1.1513998283339544, -0.19994290299295267, -2.4258729908777457, -2.089381392169408, -4.017901551497512, -4.6719021132100425, 0.34457066743106657, 0.393711502065859, -0.5654389824293076, -0.37819737560077654, 1.6892279955392024, -1.0831551588443522, -1.6947990577261152, 0.08380893959815287, -0.25131639553012175, -0.4656222193063807, -2.8509088375136535, -1.1518806516292277, -1.3514076998126925, 0.006885326724545311, -1.3101926260579186, -0.18275216685109932, -0.41794070140147316, -0.6318368425561779, 2.4066259449347096, 0.6518764824156366, -0.4263691552872328, -0.29800041995814547, 0.2853034197290135, 0.09721072680256473, -1.1160565658815946, -2.6425393198969713, -2.396594384864484, -2.7957088731161774, 1.541784082350881, -3.0199940942029433, -2.7744092206678728, -1.4839692028347287, -0.11789286463612253, -4.147618750798131, -1.7816898652129733, 1.509317935290488, -0.9153149863712995, 0.9545987211896274, -1.4549337135626679, -1.724700553671027, 0.9546940646576646, -0.11986645807221433, 0.4881112628912984, -0.819022129247049, 0.10260742482989833, 0.9062525565799594, -0.024535613478165384, 0.5271807334064302, 0.42528985734851765, -0.1117088457646639, -1.5347647026006646, -0.08167643915388675, -1.6062007288627393, -0.42871026870842865, -0.10056347407235317, -3.7038900446222236, -1.4731392949492774, -1.68188266921615, 1.1335599203318274, -1.1945529189941728, -1.032253687277492, -2.348195162364412, -4.115772136287738, -0.8895517872179864, -0.14498356957368644, -0.8757793220239609, -0.13341349194805047, -0.8604847005623903, -0.9689208730273208, 0.09468132582828512, -1.1139698675362812, -2.018128487675458, 1.3409561801507948, -1.459824256679824, -1.2394995274083025, -0.12244883036767676, 0.8009923668244363, 0.49738543316007355, 0.5686743853058893, -0.49152891229588086, 2.403252386146377, 1.3718710801662177, 0.3592820312036503, -1.7731754154873185, -1.9413994078401828, -2.884156827210586, -2.2083240430183437, -0.7747866592170957, -1.4080936151665124, -0.9222712560917883, -3.5193141904966008, -0.05284710479485473, -1.3449158655023994, -1.5344645354580444, -0.5164989774372354, 0.4574153749772874, -0.980506675382087, 1.852425484532356, -0.9766866642199497, -0.6624402871053294, 0.9344706962346002, -0.606024983343769, 1.133171566584425, -1.2819112154193046, -0.5597582228842182, -1.6084930372675885, -0.8425238198696435, 1.0340105136088913, 1.6679884547564434, -1.1817458255324043, -1.6198478770548328, -1.6118097958186368, -2.8113152600078295, -1.5803518609053764, -0.8683085003056593, -1.2557261122900802, -1.038142870241791, 0.7687747077450736, 0.46746422168747964, 0.5690512369356405, -1.8921138555158148, -0.22861779556111483, 0.07633140950149414, -1.1290639618582143, -0.8749002393091329, 1.1235181069449034, 1.472395439207145, -0.2822124094382133, -0.09636934995635862, -0.6331176649911346, 0.58435015542184, -0.5857941299503115, -0.12406555669564431, 0.21619907230253868, 0.5304263536315672, 0.006129896173066721, -0.5768693519772277, -0.2377310773085593, -0.3471244363045834, -0.7934631064300527, 0.5063796400401314, 0.4479583891755548, -0.4476563698596493, -0.38218573150085045, 0.6396766331779392, 1.7796855636916311, 0.5310287412337431, 0.44719242488952454, 1.4677391365645778, 1.3817505830124004, 0.8956068503416388, 0.12405614191734013, -0.005460912947228678, -0.06675746738412545, -0.09196440962259891, 0.6646082593858006, 2.536423139080209, 1.8373179973134828, 0.17535982301698053, 1.218472828792491, 0.3351808944732967, -0.5748023249044475, 0.01342870952731843, 0.19379286769151918, 1.7226975112095648, -0.5537108019573134, 0.3814842397073045, -0.04352990335845253, 1.3392179557940287, -0.27074536764644874, -0.35142223105926224, -0.2311253344741565, 0.41174054139590943, -0.8663389625705304, 1.005446393272842, 1.5600902085376214, 0.43837275070723547, -0.029919096744369583, -0.08918063431136872, 2.1235768568950144, -1.563984514365282, 0.2755760251578274, 0.19793947855379265, -1.4646639640553696, 0.09806665379721688, 0.6052803512876735], [2.2969682510474376, -0.7468043217498525, -0.15711889859134806, -1.6638047326739582, 0.18677148873545898, -0.933366392868085, -1.2273264668329038, -0.5134079891070374, 0.3879098434397664, 0.577625609346245, 0.7060694602600655, 1.5618849157342376, 0.4865683033751964, 0.3522480182818303, -0.35166425202749707, 1.167062088159293, 0.44100624622685686, 0.9439309492141614, 1.6055195813308658, 0.3186733029426497, -0.31614463108905133, -0.7644706819921256, 0.20168172598081818, 1.8989774688947523, 0.6382402849702304, -0.14310556382502565, -2.821135823475819, 0.19548439139715526, 0.8245044994599833, 1.2252801978033903, -1.0455316766252296, 1.0857028795603316, -0.592849834411751, 0.971489041867069, -0.5639601986287336, -1.0615521275765725, -0.2464294079859176, -1.1587063765474885, 0.18576532670626678, -1.206535563473672, -2.3161518851940825, -0.37128477264362225, -0.5257236231077829, 0.4661630796243987, 1.1254531727543502, 0.2043090652929218, -0.9220726346686229, 0.6284041878580591, -0.4052828425146657, 1.3204512784534876, -0.07574041776599406, 0.8902495162098235, -0.9832891006226733, -0.49251133083916415, -0.33634629216352263, -1.4380263027401934, 1.2240998956229905, 1.8873435053052794, 1.8860616595937307, -1.1683850287629898, -0.19643483571102138, 0.988063084105065, -1.241546352659889, -1.181055124281003, -1.5135838834455362, -1.0078575888729742, -1.0657887888846882, -2.6359077274667637, -1.8311365661142922, -1.0466279955603845, -2.722596480915275, 1.1213141236039434, 1.2317567704992443, 2.3317011670929952, 0.10138179061342711, -0.7898828361491317, 0.09745675737105323, -0.6376815000261984, 1.208527079023678, 0.21094878631326128, -0.3633814159768698, -0.2379653830571272, -0.7826723946992507, 0.8001333058725186, -0.5881993082101654, -1.944589533937086, -1.1339653197782906, 0.31561174945542314, 0.2396667035125587, 1.5422645058786275, 0.41074130963747224, -1.6594153121865378, -1.8030189102107288, -2.913216642256454, -2.1070081424479827, -2.8144016239306167, -0.7481668110111025, -1.359833768218457, 0.320812025921941, -1.1799395573939213, 0.4287780161176211, -0.5028124083392443, 1.8064932106265805, 0.3877662581215721, 2.265073944508434, 2.1640170187975865, -0.17137586773940358, 