{"biases": [[[-0.5270224591696275], [2.0647770005352326], [-0.34528248461276745], [-6.312700133285959], [3.960080574170078], [-4.27828982582088], [0.6607057264574072], [-5.305171839860613], [3.7525530736366237], [-0.9593680241458868], [-0.7625877187328622], [2.1929772195854045], [-4.564445460388624], [-0.3897603210127614], [1.811963234552085], [1.975299021132449], [4.176878574227555], [-0.9184781415096359], [0.7518097843686888], [-3.3058609357434245], [2.1155558775593954], [-5.430795145850807], [-3.150048035025349], [-3.605610194605495], [-3.336717040031856], [-4.956356206773305], [-0.0014997522921727398], [-7.961972489992233], [-1.2291512647524083], [0.5806803808495821]], [[-3.6064976370030966], [-4.301238867816801], [-6.464943195944933], [0.016199354211300164], [-9.260289553064467], [-4.919800190685391], [-2.832749060459313], [-11.816515111443438], [-1.9995194421646056], [-4.470581960829522]]], "weights": [[[0.9923712831803067, -1.3344831261419312, 0.2344989477974631, -0.06457293341912039, -0.7112716306278895, -0.8111004293644131, -0.3578525341044328, -1.1302826710734184, 0.279378954898523, 0.8120688594346939, 1.502938593806354, 0.5276889094292991, -1.494518761947718, -0.8613061543703617, 0.6284745853061144, 0.5622307465726176, -0.566241015883483, 2.1984427235368553, -2.046237167126715, -0.9481268360594551, 0.2993397349442206, 1.3552409529893683, 0.006950078918139876, -1.5072398611773374, 0.037863230279478376, 0.08259325849924003, 0.9619216797037824, 1.7032126914973194, -1.4713165544346576, 1.5476867516355803, 0.770933983806554, 0.5397535966119312, -0.5289385098073186, 0.14276142917719936, -0.009876692114744774, 1.1828746221672202, -0.18000771343353672, -0.06517293137820022, -0.0037936477592065217, -0.31063262734380864, -0.2207682154826119, -0.3728698520751174, 0.8233227901928639, -0.9004808494368076, -2.081897167987106, 2.7437993135054533, -0.07637052508435095, 0.2688544654589888, -2.0020603788521933, -0.2566978327777358, -0.31324247474673755, 2.6322068738984408, -0.6365664951910086, 1.423899703387116, 0.26788354663612407, 0.23762328033632354, -1.7881838780526624, 0.743643191344886, -0.7026075302900979, -0.8884413555234517, 0.14585814656384924, -0.1762294941586924, -0.6333782781847275, 0.3396350347838106, -0.24989447418195346, -1.5370885774408247, -0.25327093659495203, 0.24797295205858866, -0.07242482777326904, -0.3356127706295561, -1.1161490378709829, 1.0228452611465138, -0.26907756693565965, 2.361004338147863, -0.336645721093634, -0.3850036365290963, 0.6063645371754393, 1.4256144969543612, 1.0880500761543912, -1.0039342146320989, 0.3820017682906465, 1.1450316165643286, -1.4760831705552635, -0.9628847238836318, -0.9772090803479608, 1.1680099878758474, 0.23764674243309675, 0.725317644685023, -0.5695430104812922, -0.6771115880206061, 1.1497340463211283, -1.8839653850823874, -1.5111151471768334, -0.05775043019885449, 0.9299643325046384, 1.3588752410428577, -0.7788211400656568, 0.6479197849115098, -0.05463078442043056, -0.7051999430284767, -0.5861955387081689, 0.31285698942613943, 1.3143705857365993, -1.2349367204780342, 0.7036404386361674, 0.8636277196253211, -0.9348875313979212, -0.8433512296515829, 1.1233361334664045, 0.32219698740028124, -0.29451189425483615, -1.1258654990285586, 1.2119915196567472, -0.9230251223396586, -0.1930085899955984, -0.1345532666890217, 3.7696798797466884, 0.6495958820851438, -1.186025669478374, 1.0448712539282914, 0.41691482410555963, -1.1273782864360624, -1.5616134136540647, -2.4016668786300714, -2.136390385821958, -1.4622898535748143, -1.4592143222220861, -0.07814716715551955, 0.03588277328514292, -0.6172989008778926, -0.44351429469267123, 0.5316412688018494, -0.24750088724570035, 1.0894876224370917, 0.4233728922916821, -1.5982899706135314, -0.1727270225668576, -1.1088828664095751, 1.1046898458875631, -1.0907797218690585, -0.3312883647607885, 1.186783581597901, -0.09879168404062992, 1.8895456711172463, 1.0766634624888554, 0.07966163254479357, -0.7418025168865693, -0.22115390866544854, 0.8060610553649474, -1.1646073376157595, -0.4876266137836713, -1.1387341873809862, -0.6794671124067693, 2.0840414848542377, -1.1450719195187609, -0.3644778960664117, -3.8207769433329406, -3.0507815388425485, -1.540691019664582, -0.5479693115799086, -1.6713689138166923, 0.3800287449761164, 0.4150678797929796, -0.30602770934255547, -0.24107160757101065, 0.6926326608907215, -0.01411361933487316, -0.6223740009461124, -1.4949402831499614, 2.2855221379908524, -0.03243882213982741, -1.7428661666870933, 0.27734870347100904, 1.1641443198204613, -1.407903666896411, 0.8759156901337707, -0.8718475293466633, -0.5060121242994532, 1.220946609734201, 1.6686273366604563, 2.2772542413451604, 0.8520448164514115, -0.1570173883247344, -1.552406847180777, -4.837805347919469, -2.241510675940901, -0.1695223243860864, 2.0447513174709857, 1.399336604514769, 0.706236116462141, -0.91447408622493, 1.3882626596931664, -0.7180858687964634, -1.756371401125994, -0.586257346436952, 0.03685266022557516, -1.1115019023276642, 0.6977960362751856, 2.0002089015809923, 0.3920199200879306, -0.3599474360181776, -0.37910261524803274, -1.7606066210228781, -0.031028190140580475, 0.014373735659099591, -0.22601062861859697, 1.723504450385843, 1.193014609704104, 1.289237595171475, 1.811917425803648, -1.2246688407960131, -3.731294500853289, -0.28868922009331144, 0.14079949565628844, 1.6444454702892395, 1.0114912937645655, 2.414660800566637, 0.8467638489825878, 0.4742026030622013, 0.31126381613856036, -0.32142438771746434, 0.08009506293399829, -0.049872195590863706, 1.5560780742161007, 0.44675843312433633, -1.6617266611645674, -1.2310968393292607, 1.023664104648773, -1.055155500198194, 0.7341999992002963, -0.49967217593328644, -0.07898196204976649, 0.4237196924408461, 0.0016257453041216426, 0.2312392660775259, 3.6522651039469287, 1.7291813615321745, 1.8629138036362496, -0.8072176466895814, -2.534020110624645, -2.832235980218216, 2.7683843018388745, 1.4709668677436765, 3.8315854129953038, 0.7773164462459374, -1.4572955550442226, -0.48998966174448466, -0.05578370071666558, -1.8799623702446686, -2.0479237845581246, -1.225607122156749, -0.43382465066704745, 0.35274337777349585, 0.2063431475503431, 0.883445335999049, 0.7322416867082708, -0.04576246418233222, -0.9411422610383323, -0.5833539035880034, 0.30843571719630336, 0.07292637410413144, 0.685785821318506, -1.324039218925557, -0.36961933091519, 1.7591230580946382, 0.8391886502547083, 0.2972307726838108, -0.7934454474106709, 2.130560024047561, 3.34480423154547, 1.9723513339794354, 1.30935488490628, 0.12212626128750045, 0.507992757446097, -0.22463242492574156, -1.4542179324075393, -0.6596707757466704, -0.740165533408685, 0.44821646655124314, 0.7127807590197931, -0.23375513933982922, 2.1225034009544177, -0.4319328180836625, -0.4367227652616054, 0.4053418431306109, -0.966610826631154, -1.20477166245155, -2.1728891127035674, -0.8539923580507055, -2.013520051938844, -0.6490595189175895, 1.156939537391294, 0.5291789253667062, -0.7232765927866392, 0.729509579102777, 0.3765549084168254, 2.5979465019179346, 2.30676814193788, 0.15353075622632967, 2.1164897898584116, 1.2744512641248047, 1.6016967736143497, -1.332255005421752, -0.04864880241360897, 0.2584049848347311, -2.2387212751610446, 1.391165756064626, 0.6922242791892746, -0.024156237926341674, 0.3063800388274958, -0.0949588458578591, -1.335204455031746, 1.1273363532725524, -0.6725164196796642, 0.32420574857279616, 1.4190461537693464, -1.9025484316553622, -0.11329357295714797, -1.8916276755405848, -1.478334624101176, -1.9609162521562227, -0.8274097517621101, -2.6076291886333833, -0.2151056403949417, 1.1500727910186888, 0.6313198030476376, -1.479523082635938, 0.08822720495320784, 1.6847060207659519, 0.7463479437531733, -0.47187506939975554, -0.9774647483484564, -0.907200142398301, -0.47909614707206366, -0.42286903335310394, 0.7498240584236182, 0.1843477265775776, 0.7089881237408506, -0.064375430951179, -1.926028066118765, -0.6410286323843858, 2.538075428090125, -1.5947118305965728, -0.38475949852393543, 0.01879763867101593, 0.035910357899497126, -0.7865593964811946, -0.22674302956795697, -0.59005071880145, -3.4608724671388282, -3.5620208401940636, -1.3071005577156216, -2.003088549115096, -0.9522263368358754, -1.3083141610065032, -0.7865959355172255, -2.313270015985467, -0.37804830471039913, 0.09383743688221298, -1.6782236417766738, 0.05240000988337795, 0.1913763338275904, 0.6754297765786115, 0.6119628040049507, 0.3789462012814471, 0.10772906678208478, 0.8114869210273191, 0.9170724141451236, -0.19329685463672383, -0.34826849953328887, -0.5020814932121207, -0.5131720407592202, -1.1263977988990215, 1.0592511351599683, -1.8573909410125635, -0.5474750966665192, -2.5843021765119323, -1.8945472249182271, -0.3856818959767866, -0.7775636288321318, -0.6481286070550598, 0.09672442143654245, -1.4674613110187273, -0.1776130745437965, -0.3257175814459376, -1.264605836531511, -0.37495336228347426, -1.3064330650175353, -0.3607947529397241, -0.5400374810593976, -1.2052564558617131, 0.4321698837506702, 1.7602744936985713, -0.6612542025054704, 0.18657319338800074, -0.2422120322230004, 0.23241526678305574, -1.4841272014778024, -0.42247661280519305, 0.8165922836518483, -2.1661312346940966, -2.6054534861666307, -2.625345326256396, -1.1722884514980836, -2.229210720101144, -2.5650480690550395, -0.8945363589607178, -1.5387332953863537, 0.5953284027062953, -1.1531636908067335, 0.8130518831303072, 1.6203655390394223, 2.4996982714880627, 0.9333242830927532, 0.9748107015972167, 1.321256807768714, 0.2671614632907553, -0.20104968211207733, -0.053467993444915436, -1.0044876929058186, 0.924137129926289, -0.5256105877021905, -2.221705841275645, -0.02452910289238653, -1.3663649456298477, 0.5666417498010561, -0.06590735515200123, -2.862344515578272, 0.05294483360466869, -1.190802473888458, 0.07391274344335963, -0.6169036748359916, -1.323685469085584, -0.5761432373827852, -1.4013570045034842, -0.040889124927047986, -0.5370986716000449, 0.3863932263356404, 2.0686888225991313, 0.6250999382694273, -0.09338045059068996, -1.1331297333503167, 1.429462548963095, -1.5300247909395173, 1.8432693785106642, 0.30486380499594584, -0.4453816100002544, -0.8827895693344944, -0.14691017151759703, -0.44952101085876467, 1.5215601224740265, 0.4028416972069085, -2.0574115066639234, -1.5965608197623082, 0.07737072098190387, -0.013065173157616598, -1.1141265008581278, -0.2767066372927954, -1.2989799912722193, -0.4172723284975798, -1.6449489618763173, -0.9758829512862803, -1.4988995099093143, -0.10343957582779925, -1.332151836629914, -0.6463622592960342, 0.837701542860884, 1.0226212505173218, 1.934488903440764, -0.7772556507906474, -2.513901031697116, -0.046204403842601126, -1.621704230180959, 0.18404050764607288, -1.2529711275686921, 2.5769215709540085, -0.3071536700210345, 1.1281926313911643, -0.05602436500507997, -0.3453770393868993, 0.7132167545070616, -1.0352085101381, -0.4537523349989127, 0.5492321273301775, -2.014653194059479, -0.563507725402259, -1.490446347786625, 1.0064694569835106, 0.7614945132876327, 0.14968337968467763, -0.394357780171323, 0.11998282663126744, -0.910708564979056, -1.5407495907902986, -0.41847799151286386, 0.6756465827763415, -0.5465557621001882, -0.27358133600135875, -0.8323418831146014, 1.3738052564899992, -1.523741034262058, 1.2442350271844524, -2.066038945974956, 2.0246024634305555, -1.1502570540228692, -2.936134729704879, 0.7957004107574774, 1.6664664160827631, -0.8059584860940793, 1.338261268403442, -0.5836220479645039, -1.886727953679361, -1.1677897047019334, -1.167551539174283, 1.4524608118209783, 1.5770243602704195, 0.6129200027035586, 0.9317818918742404, -1.7768679334308974, -1.2033986585017902, -0.9142921696511878, 1.0721374763003721, 1.2226628033921514, -1.604034947569746, -1.5046679656109463, -0.7386613113039473, -1.5274705957493233, 0.0759959027317313, -0.4578905956351477, 0.7648741425988083, 0.006434990756169235, 1.280411844152704, 1.0721149267650465, -0.3057570085486695, 0.08214034767435122, -0.47543079986846976, -0.24494024082261392, -0.9049176961643842, -0.11189716660962022, -1.2698500161275268, 0.9398572208077718, -1.6586786667848903, 0.8234618949183202, 0.22340883797104114, 0.951476099641806, -0.10462289299533341, -1.668412093324985, -1.6794137624131336, -2.5663456490333396, -0.818011274338408, -2.0246974494225443, -0.3622658447467897, -2.824145772473429, -1.2885737284890824, -2.320445431002641, -0.3159944397283631, -1.8450198124621566, 0.9175990448960344, -1.9348328909171568, -0.2816502322257516, -0.5965151985890829, -0.9229045176051469, 0.9828683248059394, -0.18101234496847082, -1.7743822683812938, -0.7336802028320334, -3.923177222219811, -1.4750451667603772, -1.0083302543356019, -2.499488152838963, -0.5609276298181737, -2.0603605462444494, 0.9717175166554659, 0.7159105117121383, -2.380725091083162, -1.3721680020668015, -0.8651479566072352, -1.9210897310434, -2.72687184228941, -2.83490668104271, 0.4741902263315822, -1.9842433757195213, -2.699644368457394, 0.1695541976617571, -1.00864715395691, 0.8258597734523172, 1.10267531504977, -1.1268216052898024, 0.20021611125086367, -1.1234808036383905, -0.8037766700090473, -1.5514057846818772, 0.2454632252476342, -0.49136574802426214, -0.7508063416934881, 1.229291752850462, -0.9990118542779289, -0.37166577756096225, 0.12036055364390352, 1.0410316642946547, 2.4905288455196666, -0.09104778505742374, -1.1562916761845206, -2.762769145279346, -2.799788111847412, -4.599563603736874, -1.5188241194847611, -0.49392763525368627, -1.967503089823121, -1.412677919532225, -0.6960775817193122, -1.7919084022386806, -0.38852879527356904, -1.4883696145651926, 1.1375943249530232, -0.4817868305375587, -1.190007826201068, 0.3477898462071183, -1.3482894417893905, -1.257170236002306, -0.8529214883783627, -0.5729182265760426, -1.4992991472505923, 1.1663051896714116, 0.9678453396206506, 0.9720298701233131, 0.8534424146362953, 0.19787976593319692, 1.8487566907982955, 0.4063440377429014, 0.4875007317482087, -1.5681781406395736, -3.897974733471438, -4.5215894539735055, -2.2679078301498556, -1.4005826560492665, -0.8286257013182753, 0.09916571643500097, -0.5388954605666694, -0.6533273239610293, 1.2288316982213838, 0.2922532513829171, -0.4591596595593262, -1.3819801473745952, -0.25123165330853436, 0.1929884693397135, 0.6862491308250215, -3.0384987804552868, 1.6827506863041939, -1.152252681613937, 0.5948506728935946, 1.247456111658667, 0.7407396287091343, 0.4719349618981409, 1.0623982330949628, 2.0934024187265066, 0.16978251924628832, 1.3527499693503306, 1.0220412099489065, -2.4219276380207138, -3.4240817122645306, -2.579564260617103, -3.4484916281097657, -1.927510963715343, -3.53650326756042, -0.6123637857415968, -1.33435052950869, 0.6440507038394717, -0.05969531723055635, 1.0784999660764794, -0.7380274409203282, 1.3012503675630747, 0.6276408029237307, -0.9500869801033575, 1.035419771828236, 0.7685134899358659, 0.8190061038167518, 1.0886909167274026, 2.1720017061878565, -0.051200824173915735, 0.7701834369650346, -1.1705730416689668, -0.4540762369655307, 1.0309065504423869, -0.6248476668890546, 3.3799144716390157, 1.513099949990817, -2.0762956155313463, -1.7867480770502728, -2.0259303917757108, 0.5003160231613187, -2.5297933067037, 0.2727682077011472, 1.1875720786580886, -0.7511733783499596, -1.7100240921921905, -0.3154461337141278, 0.5125695489561207, 1.595641045065982, 2.9097477347381333, -0.742757303535424, 0.7228849992371681, 1.1900191689267055, 0.971951135035669, -0.497891712709037, 0.2260165168890304, -0.9268630382430015, -0.7932542959122075, -0.5100347583952123, 0.920669641128014, -0.3485557246146913, 2.845209979540492, 2.755596489131206, 4.759587772183484, 2.9470651150957825, 0.7159299600143051, -0.753419152782161, -0.6636111953625686, -2.276265983983938, 0.22346700048095797, -0.06768418590300529, 0.14499780808499646, 1.027638848222004, 0.39532259147948356, 0.9460982070327064, 0.31936516682143734, 0.7107948133001896, 1.1240039204864969, -1.7621683695939787, 0.2703659232426026, 1.010087658049992, -0.5217346218917354, -1.7440450047103357, -1.0188084230173944, -0.01325346720396822, -0.04107722176107437, 0.7009863291104307, -0.7458095604510464, 0.43773300146111377, 0.4549501103550716, 0.5216390577019498, 0.8562951376119209, 2.0395557385997787, 0.6616968757075827, -0.49605296873130805, -0.44598392933106473, 0.06775582314369821, -0.8181121562947022, 0.36557518971463504, -0.10980380540667399, -0.579040319691186, -0.3081935703420517, 1.7162593679437457, 0.9777330841310535, 0.32094829751523585, -0.5200033210066232, 0.2871246099529055, 0.42959825561543, -0.439455984717178, 0.4756497987009643, -0.14563949643208354, 0.26884922563040237, -2.181940457735011, -0.4302907578251999, -0.1473269708908846, -0.17881517468873057, -0.46350188671233666, -1.3602489673859457, 1.2108834889101396, 0.4474448935330116, 0.25489025650639324, 1.1185621594658375, 0.28923990473395805, -0.37939846528078014, 0.17296082780248187, -1.0319794055112232, -0.37602293099739736, 0.27638409182571655, 0.7536339419040861, -0.28635913227061377, 0.3353421495880746, -0.2236145325445631, -0.454447839279141, -0.5957933104366003], [-0.37584302395571706, 1.2240864603525072, -0.2543669985247964, -1.1448525361416904, -0.43059618212992823, 0.09809525071757917, -1.5428973434944524, 0.688394493106387, 0.8309048521730293, -0.744021881145593, 1.6252364193789017, -0.24889268285916252, 2.088051933696833, -1.5870152532656971, 1.097994170335077, 1.2087682542087257, -1.2637340692838304, -0.6154892367642995, 0.12757143779349894, -0.5738807140340529, -0.04750190379521089, 0.41413353099240097, 0.13680511467877235, 0.48917470648660416, -0.20527383601101729, -0.6529603085129896, 2.293777565048747, 1.3700036103269193, -0.1395206855026978, -0.005468796332256198, -0.8217463562607462, 0.9692269257184918, 0.257913396798146, 0.3488631512278378, 0.14378772370088824, -1.0422495551631552, -1.25902073484108, 0.8004822691057492, 1.2800481019457783, 0.22872700758452855, -1.8017803552581906, 2.1375614811621713, -1.0424170247883509, 0.6876346729005512, 0.864604618081042, -1.4185087885445946, 0.5285640753600765, -1.211099416828282, -0.196602089967125, -1.3203877187300996, -2.114600741803221, -1.8956053797177084, 0.829724025259216, -0.3217671553188899, 0.2665451898719551, -0.8132706478917976, 1.184277801470643, -0.7208009993485327, 0.856509496679281, -0.13460605282433738, 0.10749307205522893, -2.176364542683446, 0.7879403147571912, -1.9226759055812168, 0.21443126376851687, -2.102318977807917, -2.128425538102299, 1.4763518200566528, -1.3771160261073527, 0.559251945065796, 0.01890184489688105, -1.1319770480225724, -0.049716292514008456, 0.8704820722842651, -0.4332978126121603, 0.6166971248090624, -0.24542342169510536, 0.5893630670657622, 0.14633907416690875, 0.30300337206333533, 0.681639179640762, 0.21975856061566618, -0.5802725717999361, -0.5827345754107095, -0.1634834327468008, 0.6053036139621308, -0.07185095423989075, 0.8410281844450908, 0.5899426011367999, -0.14053530722717752, 0.2534983522695939, -1.4261016207964028, 1.166242103631531, 1.529184864297521, 0.181400304878214, -1.1504032763253442, -0.9274019661969749, -0.9014296430488676, 1.7293712343128262, 0.7167418895571595, 0.7279863824831767, 1.513794385582596, -0.8035964084747595, 1.2881603263167414, 1.4126109241416327, -1.2087077090221579, 0.06700162308043744, 0.09911313041586932, -2.122144812783993, 1.4192693838840107, 0.7228827299637849, 0.02945185416333489, 0.9959299365904392, -0.31602110277072337, 0.7131253056490889, -0.09963387094731889, 0.7327292956187249, -0.6665607576698017, 0.1980223674871067, -0.24951913193434386, 0.5574540114194092, 0.11391866868252778, 0.77183892004492, 0.10555880694310822, 1.033145412848491, -0.054749496261222, -0.9272431965304244, -0.07442508789785789, -0.8961151304842405, -1.184851485941969, 1.1124395385021348, -0.7033980891150793, 1.0888350860890657, 0.06596524033064262, 0.45215630317687905, 0.2019524720527841, 1.303276785530338, 0.8741451331445095, 1.2705545447060442, -1.2804665690860282, -0.8024968177000082, -0.8384043761387192, 0.08802994741395517, -0.48239279313426797, 0.46286392505866353, -0.4140828214071716, -0.25325104616580285, 0.18476762395224927, -0.25398815628402194, 0.2974645482111124, 0.9653003033495052, 1.0672744221385158, -1.1570754583030374, -0.491180304024416, -0.7952947008930041, 0.42403773428363795, 1.1177944476635917, -0.04448170883184304, -0.06889713855679726, -0.9989111306009405, -0.8342450026085279, -0.637496278560885, 3.141459430818746, 0.7799623136716688, -1.2294871913500562, 0.6461200774601539, -0.18114012472036706, -0.8791203892596314, 0.7078651286665686, -0.6631022563945326, 0.011435106727529724, -0.5603612740585566, 0.8777335927049815, -1.8310883686155477, -0.26596580587466667, -1.9211130736494384, 1.1347178403346556, -1.1934054864864667, -0.8807364034910683, -0.6697003017355557, -2.1282617208761248, 0.4748782296844206, 2.6720667576831607, -1.1241890907811711, 0.9213904012515217, 0.8287684889937256, 0.43945380679532675, 1.3811295378352348, -0.8789040020807808, -1.2604751143300654, 0.22623090449342514, 2.232939536760637, 2.349047220771955, -0.18399842963212515, 1.1357741907837582, 0.26250699556024265, 2.135375774693924, -1.0359077286608485, -0.09361519776561271, -0.48221078983931925, 0.2561979789879122, -0.17968626102267052, 1.1403155995994365, 1.4775089314960004, -0.23813044573759407, -1.3506723598762134, 0.4244177925398201, -1.9212283827851058, 0.7497427975501152, 0.09021590900808253, 0.5149077466811955, -2.087636344447713, -0.6306323621881295, -0.47184639298579406, 0.9034842173176816, -1.0599437764121042, -0.35654065713063415, -1.5126456937973216, 1.0006083436491464, 2.5132399147055615, 1.9946036809219647, -0.36729375123732755, -0.35962232610205297, -0.6933419277398541, -3.291856944026401, -0.5320194606919068, 0.21653589993450315, 2.417195790417231, -1.3636545583254043, 0.4313215193832675, -0.09666556765210801, -0.25983916481827907, -0.7459101442224441, -1.7011298936680002, -1.1918321450343534, -0.5293050005336914, 1.0360457713032114, 0.9413919064414066, 1.2232449315357161, -0.3718741637645489, 1.5106193270029582, -0.2812344008237825, -1.074467161419064, -0.6718793808459047, 0.354850436197259, -1.7372307721024947, 0.01461643976352142, 2.717194398901247, 1.9133696320847657, 0.29442840099533857, 0.9556270027995113, -2.4011111296975045, -1.8839082830381213, 0.4064769894110709, 0.803552560937424, 1.8299327192723274, 0.8378231889279429, -1.2224747610945554, 1.2076600332266494, 0.5820683021043691, 1.219969512566207, -0.18583679908009923, 0.2476764150057483, 1.460660538720401, 1.1597872820420845, 2.662696663566138, 2.819961375691672, 1.228887105550403, 0.3163354728323193, -0.18849303782244337, -0.041911075168065214, 0.1828033581050857, -0.474239386342395, 0.15577575907889196, 0.9454317738951179, 1.229291921281328, 0.5552585472001832, 1.488092097743306, 0.4104183002392212, 1.690938078013538, -0.030543100840679398, -0.3389744780833885, 0.84457112359018, 2.5419903523997567, 2.4746800188383093, 2.8446884348910975, 1.267411255659244, -0.07349757615710999, -0.10687566692022837, 1.7072930219678164, 0.3295415950178906, 2.5614884898990824, 3.076666997768606, 5.27179833545402, 2.8902980015230098, 0.7715046345250206, -1.1783841086023412, -1.3546398664844783, -1.2762767081156159, -0.3410228238788758, -1.1157123215846452, 2.244478670402682, -0.5524915398700412, 0.35253819799625485, 2.0377179115051693, 0.3810480272967003, 0.828801821047902, 0.3044727538810445, 0.31520128895592486, -0.782347604642314, -1.3655779290275223, 1.2146438841438416, 2.8931746537502883, 1.1455777572983492, 0.33965197933270735, 0.6670312005362004, -0.8481245382504383, 0.888671215378204, 1.3166902586335327, 2.030462086687797, 4.336738256283197, 2.808681085850082, -1.169281059280879, -4.642907093743846, -3.0655363689944313, 0.7977401399544355, 0.9290323484119795, -1.4290598159465433, -2.435791045206987, -2.49411759932928, -0.4485378289062486, 0.6451626522614226, -1.2293431783790252, 0.7932248384985281, -2.096606011710927, 2.0056127970240607, -0.5907992313446284, 1.15062279921018, 0.0975903606165279, 1.0795518496798222, 0.3402705453338549, 2.5976890542079, 1.1735430139822007, 1.8976376624625813, 1.3761423162064055, 2.9488507531830783, 3.6742786147315227, 6.299326124355147, 6.222120142242668, 0.4265378147013672, -4.4956110229005555, -4.588319107815423, -1.8673241292337464, -1.5463970689088895, -3.0701929580034073, -3.2386014146287683, -0.5032286479539999, -1.8127141373266007, -0.7833680584897501, -3.6687294877161007, -1.312301991033549, -0.6291111046164914, -1.6992952266566712, 0.15719421688980298, -0.7869841090444774, -1.0266360215899606, -0.35503580820827235, 0.612654424720759, 0.25460618967932563, 1.4555806460734573, 4.041552304489547, 2.107878095408402, 2.9520821632987815, 2.438619186800384, 5.555630424255196, 2.2126026542661243, -0.23283064513448407, -6.04511971497711, -4.776582973976305, -3.6433849491229, -3.33417300527363, -5.510072095055265, -3.1031151040341984, -4.202713669826433, -2.7964256540049237, -0.575401563532208, 0.7009391985920923, -0.001095421966454212, 1.20345646034823, -1.0369312577356213, -0.6314508583175098, -0.9287464972299183, 1.1209329747264445, -0.391915738550426, -0.0781768043559884, 1.4839365981997232, 1.6283642293077674, 0.8755037227647458, 1.9666345761284316, 2.804983737813441, 1.849679858842218, 1.7590258677349624, 2.3870659490782016, -1.9247923270541238, -3.4268385203073897, -5.851179667860938, -4.6888948733188105, -2.545404792682636, -1.5826131440895908, -4.1339366356376255, -1.8758265182660177, -1.1202146853313641, -2.5963355161658455, -0.5868889783966407, 1.3102877782054707, -0.07802930710848649, -0.12943382905084874, -0.07879504098343665, 0.22522427076834245, -0.5579406483593655, 0.0817713709941581, -0.20371492216009582, 0.3609068014252528, -2.0257407080063645, 2.6413320720497855, 0.33131184577470074, 0.2067798456080774, 1.4294427680346877, -0.9422228960184281, -0.44976577071273305, -0.6670692845902473, -3.333816968005455, -2.719210599729538, -5.256988549017151, -2.4847928652399816, -0.5689016144069723, -3.5888084523603228, -2.0335534591226443, -0.34555145885429206, -0.13195723158745612, 0.05498087666852542, -0.29083969969189705, 1.325545098080125, -1.1353664562578385, 0.18573158023324565, -0.05188595226458685, 0.980028297232519, -1.4281948708141599, 1.4484679051981486, 2.04627991782982, 0.8166099517404328, 0.7537103076847772, -0.11603811077590886, -2.179574518029648, -1.6048401258678848, -0.4398038054307289, -1.137367508308642, -0.3444667285498289, -0.7187798545096006, -3.0181509336309267, -7.261814088749852, -3.5331950892217168, -3.8522935206326867, -0.22174575569461852, -3.7550116737063304, -3.2369649327900754, -0.5915094508758282, -1.1264747846010472, 1.0179328756442818, 0.3134249333058395, 1.4347287482060895, 0.048385699372145576, 0.25536141310564636, 0.2081805097413306, -1.813124397008262, -1.4830889805431364, -0.693963551344408, 0.9913594429100948, -0.39403663470178396, -0.9233176004236839, 0.08278478825669629, 1.2638034710085702, -1.4558603492463893, -3.113083303949661, -2.1196610245114904, -1.956151376747588, -1.3893412227842998, -3.5628079978604577, -2.881777342255629, -3.6883637764312804, -2.193727561099309, -4.315500441799754, -1.7165177083427101, 3.2559126187017453, 1.6485674100927636, 0.5702146832646873, -0.8526275027294457, 0.3405261521396379, -0.8768892088600035, 0.6022882518021541, -0.34301536589304027, -2.1261293772020258, -0.8094950170698386, -0.6933784941597029, -0.001953544380462019, -0.6160931483586228, -0.5118285287904849, 0.33954036639840496, -0.8661272182719154, -0.8253759761561452, 0.5406629088122535, -1.0967938098423449, -0.9275530617067423, -2.05466442866211, -1.4039013529620745, -2.0216310895528773, -4.054455553434894, -2.9176410396165426, 0.17600666277483762, 0.45519994938990505, 0.35079557394857397, 2.1091197366161833, 1.4530849859434964, 0.6839834191096853, 2.9223367144858905, 0.687553197417182, 0.8325896812638848, 0.36607702183971175, -0.3515368584844779, -1.5027666903079402, -0.8843947443881558, -0.04804323643360267, 0.7400099498344748, 0.05972796251284833, 1.5181150600057227, 0.22185493993797975, 1.5403625921862296, 0.864109798927237, -0.19047577991500445, 1.6315813871763138, 0.7953384288221532, 0.3011268442612217, -1.409181675709186, 0.16936170359850752, -2.9358495943860166, -0.17193984400042647, -0.4661273258144223, 0.8920581129298134, 0.17191438665296932, 1.0031622389766452, 0.5149617193921064, 0.42611364809862595, 1.5788313462159982, -0.5635113607803647, 1.1038553514907445, -0.8803028527961657, -0.45929719473373815, -1.315618947611866, 0.7321815098742736, 0.1723270786563988, -0.45777642993165424, 0.4867451918561919, 0.6925563289836344, 0.7099203411145951, 0.23792679388298682, 1.6567290117617053, 1.8766330273350043, -0.6430590930565593, 0.2745664795825644, 1.9062955471395995, -0.6959025887585021, 0.9541309865083037, 3.542003376786372, 1.0287747097646736, 0.22414613334543396, -1.9737917082289935, 1.1814699896143293, 0.9438926958594384, -0.8811068706324183, -1.8242790811162022, 1.3368373092188743, -0.6831349596609705, -0.14174897758930058, -0.5622086808430736, -0.30059069146410655, -1.331854754580123, -0.24032745016201953, 0.48562548069806627, -0.6370910937444306, -1.6850882349480514, -1.1768990593331143, -0.29745680606902236, -0.14324803819585902, -2.4199589994992916, -1.4883253587991192, -1.7627001815742462, -0.8311150132014883, -1.4353689474427997, 3.5818552144122493, 3.182005617191695, 0.7521331976457148, 2.860163923506876, 0.31208680301005876, 1.7631260524917505, -0.1259859605793855, 1.731994574406377, 0.8202038240429086, 0.8917734965494862, -0.9424205780687465, 0.7913180688197424, 0.1955017830192355, 0.7449478816352606, -1.0441828200999463, -0.23583347404760047, -0.8037075946159203, 0.4382144521336997, 0.22543626963061975, -1.5487633635191644, -2.5389217730755615, -0.2845358725143756, 0.8951988935332007, -0.7999730016355265, 0.0511169833991448, -1.6057255842396798, -1.5898986765973222, 0.6374839373841399, 0.3252938016786261, 0.19722101459140454, 0.623896958988895, 1.7007150953947694, 0.9045502546576669, 3.697971712705628, 1.0807478831560913, 3.1777010790263716, 0.3971362235025422, -0.51256772130083, -0.7863746574988569, -2.373509355649087, -0.03155402899180962, -0.7204720863973795, 0.8603755141583094, 0.4428518474934255, 0.06559923647214293, -0.9278539022962798, 0.4660617710218208, -1.1146309046215157, 0.04489853618847017, -0.42437800200844483, 0.6380485126854646, -0.7344352900760219, -1.0785035487808354, 1.9790245719242314, 0.5938398069159319, 1.0333427602105012, 0.8097662009384898, 1.787692723489198, 1.4849264353346403, -0.8512643452811859, 2.090877939330333, 0.5618194870354697, -1.1287064089854235, 0.9675098019428218, 0.8211759365868117, -0.7194119255416078, -0.5716130616796322, -0.6846959672774782, -0.6397113533875592, 1.178369553080559, -0.6088327096589602, -1.4400308983541121, -0.49068768043122496, 1.3252692453378054, 0.04680318412701296, 0.679094236545281, -0.163490327106115, 1.4309107653487831, -0.8439154554239134, -0.755287565650394, 1.270868830700881, 0.36814355793242215, 2.444050074154052, 0.10467425785844542, 0.3037083859083787, -0.6075831718969803, -1.0811799502740602, -0.3018064477615437, 0.8223736734104102, 0.9412131319987146, 0.2782456274973213, 0.9089830406768317, 1.502486030218152, -1.0439427378238422, -1.7493291902441297, 1.4366414153687248, -0.1969982700522999, -0.6811504231076773, -0.5365600033852673, 0.6669711202041283, -1.4710341700678293, -0.9510557421195853, -0.7874326309011613, -0.7212054480435576, 0.1274233525861347, 1.3972133946533583, -0.3339211754620801, 1.2631160597230584, 1.806979148008594, 1.2852849293163082, 0.09072931648637145, -0.9330821037595056, 0.5636141245681553, 0.9281820638387741, -0.5885212852632796, -1.589572570585119, -0.4316553004462172, 0.40590481646870474, 0.35133898904477334, -0.7253266871874811, 2.6604979501820303, 1.7816231088781092, 0.5384144101136196, -0.7686886481303146, -0.5671454880675852, -0.2640923930806935, 0.3890187896602832, -0.8301204922981853, 0.24967711080908817, -0.0016824769697823384, -1.1870600221785006, -1.0452213268454742, 1.1640509883291705, -1.4878458590835753, -1.2675836871310848, 0.11470935253593009, 2.2512604484880296, 0.8969634416871382, -0.7998271725323808, 2.02079784938638, -1.7707481209692018, 0.238915104010613, 0.47500279922121985, -1.7707450124268826, -0.2500215904876631, 0.7408707772519648, 1.1131442891519254, -0.6208602179620522, 1.8597280621855339, 2.3290056048627688, -0.08422291323057537, -0.3436879150025202, -1.7471779121650797, 0.7706504434717151, -0.5939847941280196, 1.1858412495161113, -0.8918219949081108, -1.2684258687338934, -0.5718945716722141, 0.03470932718543061, -0.9092459925551616, -1.016131300998596, -1.454743786603605, 0.5864864447520715, -0.1398929329096905, 0.38798946386414046, 0.8925530958624244, 0.48283388537288385, 0.22512185170516594, -2.0963776940827543, 0.10781914338150816, -0.6409789546416174, -0.09225648894001448, 0.5426029375782631, 1.1299262352733235, -0.18061830495758152, -0.28822833294890887, -0.12669074617622442, 0.31653940358137383, -0.9354033231004586, 0.5282147374740895, -1.2337339772754308, -0.2229944329800981, -1.1161973344555485, 1.8652818899232755, -0.8250895870860981], [-0.42206910317417085, 0.004716915585042568, 0.01089621037563702, 0.7926015452428652, -2.093222786747967, -1.4363866280078146, 0.21026015909642218, 0.011853896631620023, -3.0743980518945673, 0.36210027854879223, 0.29285189920123555, -0.9922187412518287, 1.9611365972701105, 0.5122637891216262, 0.6340658658282986, 1.6413155351786284, -0.681046264999152, 1.2702778425230727, 1.3476610393480009, -1.2798668090334848, 0.06066006250915066, 0.5537199541276325, -1.1342196493249572, -0.3051693208846059, 0.6603107758674678, -0.1005775394155029, -1.3851237951859432, 0.18691141228391145, 0.23480470889200172, -0.7306511254326706, 0.5793413351256633, -0.016687786106371685, 1.7836263991202885, 0.8971661224829467, 0.4107555332130382, -0.06287991371539925, 2.7976611471794928, -0.7873401980483263, 1.1011635353644247, 0.3396303778681636, -0.8728300120973297, -0.2165681166103324, 0.8441954511138645, 0.013005506847732915, 0.53945012984193, -1.3963276636604225, 0.9615338427180972, 0.08545647185552473, 0.7126302801943202, 0.5432931367096296, -2.8226811614982834, -1.042184394645125, 0.9292789092523686, 0.962877683141938, 0.3374002134112791, 0.2500636544136531, -0.8141003531761853, 0.43388114581607234, 0.002111919687260198, 1.1259824534179332, -0.8993093215728835, -0.01450221743898675, 0.15603461859285048, 1.2296904282524517, -0.12782493096756642, -0.028809923449279767, -0.5299497173033134, 1.2555954234645759, 1.0829197852051617, 1.4812834882744133, -0.15250011346914968, 0.17193933152769797, 0.6923719846076319, 0.5901375460638841, 2.2204180968197087, 0.257320180007257, 1.0438840715938422, -0.7150268981245144, 2.4944920163380395, -0.1838391548519746, 0.6224585398834428, -0.3350312396913747, 0.342341060819711, -0.800179264630023, -2.312565538494836, -0.6292732527294974, 0.38631574187142664, -1.704397625232159, -2.476829894161211, 0.5420801262471739, 0.192544647532539, -1.5393883185613508, 2.315644280480596, 0.40418189550583095, -0.4185369693662513, 1.6433178015602714, 3.7143499192878355, 0.041236749872304516, 2.784139389311862, 2.6306476703291803, 0.8428232298071252, 0.19781557353460952, -0.26689704050390306, 0.27586212351832107, 0.7559320526643246, 2.255938151012375, -0.7524746869893163, -1.294261945358062, -0.8662430919760542, 0.4118563318476007, -1.5056592178215584, -0.9826212433575752, 1.0396767026441676, 0.35968314034883236, 1.2433477673838167, -0.0372595918592193, 0.6524587196231115, 0.15606352110939004, -1.2318538626534554, -0.49174671553981597, 0.598022980074988, 0.30971225226213867, -0.8694656010319447, -0.9866754497998179, 0.7338589080969826, 0.8010298727613883, -0.6969908613962466, -0.7440600420836084, 0.8461082818604392, -0.580585837546562, 1.4190806691330715, 1.7956469584653854, 2.2901379124400583, 2.061015108302576, -2.186700331097843, -2.6161146032621794, -0.005612669275005375, 0.9998102224017609, 0.9605258744422425, 0.44250928798521066, 0.9879522419610745, 1.9443636923564207, 0.3542337983137896, 0.030743836154685292, -1.7706160321287876, -1.1234711919581544, -1.8379801307745343, 0.08882664005596215, -1.019676987397276, -1.0184951036678214, -1.3426130663385945, -4.087732695675371, -1.1279398916347614, -0.437932839488185, 1.4931452471136155, -0.016913817539412845, -2.635485340982633, 0.11002306598349974, -0.30079438550630383, -0.7239261855344152, -1.391760314109107, -2.6026647317974256, -1.9034007462490092, -2.2542567188717557, -0.4952139935668432, 0.7084651256212998, -0.6166265840741942, 1.5134703440942, 1.3637197490895683, 0.8157903700520708, -0.7960528989930356, -0.022238727909115796, -1.421812023806274, 0.2930566812150335, 1.0085072892609765, 2.97491981279033, -1.174048445615679, 0.16929145558935116, -0.21375248921112877, -3.346679675918452, -0.023241657153705644, -0.09677230757780439, -2.1662394470392003, -0.03873442291563144, -0.6407911645136406, -0.664727001714229, 1.6206755776852648, -3.5933851153367993, -0.45448720476172955, -1.391251538562409, -2.735504987944301, -2.284899616456917, -0.9972759115679353, -0.527337382699111, -0.1765140390590259, 0.5362861666913717, 0.680256735741758, 0.06015376590762103, 0.3959670966440722, -1.1520691555951257, 2.259538387483336, 0.07717000828431443, 0.8522024160505418, 1.67768205444483, 1.8707903760084186, -1.0227570572237301, 0.26256164513264957, 1.4969295296404845, 1.3001383676320868, -0.9560726139407697, 0.7428036697220814, 0.31283886952808876, 0.73202674243455, 0.21689182740145926, -1.0817345090926191, -1.6104599116525102, -2.069981308092475, -1.0291838580258268, -0.7539658515085256, -3.472454604153892, -1.831364287108615, -1.7383397429965393, -1.828891906744194, 0.15995965696999404, 3.41009099778697, 2.3332538819388837, 0.8552627873447253, 1.579342243802522, -0.09075754496742167, -0.474315411052301, -0.2856910732190143, 0.3138668690696271, -0.5596382440809297, 0.1038174377413404, 0.9011176388215161, 0.5537045442413728, -0.6629680328290513, 0.8647153902136702, 1.248224479796825, 1.4881032206841995, 1.1102649031240581, 0.10025072983211779, -1.6130449731361345, -4.13109024913843, -1.4557872918704131, -2.7107592471596376, -2.050441539270322, -2.1547810141065455, -2.415613745613161, 0.45378438386029224, 0.2865191381792902, -0.4779597303903206, 0.40050056341063384, -0.5041716505311556, 1.8315066206453572, -0.12755108102139487, 0.38252208487835565, 1.3165910451790799, -1.7840050565251908, 1.0962412222088078, 0.4305026871585268, -0.8130540515867514, -0.5780980343527672, 0.9519629112259721, -1.018386556024204, -0.4008491774116825, 2.359637284749077, 3.3505399719712736, 1.2788503480427984, -0.333490272045497, -1.1700567961234964, -2.4128404043066713, -3.6585503757686224, -2.848522764285541, -2.4152944477902545, -3.356950074313757, -1.319485447265887, -1.4496313962147014, -0.290468050114814, 0.20448202528749793, 0.25719938457068087, -0.4033452442936888, 0.2625366106976111, 1.1849883974321003, -0.43918278545717276, 1.0578976035050682, -0.23247728099429185, -1.845436809624188, 3.435719254722503, 1.2124147521772672, -1.1878401086748742, -2.5035907531069403, -2.623014213023841, -0.39780400344128924, 0.9569682513706237, 1.692207640294823, 1.440233799298069, 0.2317733939730518, 1.1261757364394551, -1.6312536421666506, -1.41930258603228, -1.5454851541620456, -4.957360239956818, -3.6952375435525706, -2.986704478866959, -1.1294803353969305, 0.8570606600290304, 0.07906424179848945, 0.551311672189697, -1.788982944936743, -0.10835617846645543, -2.766575175810413, 1.469746099897604, 2.264883083358979, -1.0966133819299457, -1.614414834546019, -1.033671073069196, -1.5118042705599612, -1.4875464942841372, -2.491906680401477, -4.157566833836106, -1.8377474861152514, -2.978367675666176, -1.4236248422174054, 1.384343895286669, -0.0249505528129973, 0.3877778005687144, 0.9203154559132984, 0.8144572115505415, 2.046779804730237, -2.8748776424335696, -1.7046107283476373, -0.16960968713974933, -0.6547431776199597, -0.7411725680595149, -0.8649965440607343, 0.42749542206265045, 1.6800925342622424, 0.814214770630519, -0.407905977549576, 0.3136965794347037, -0.7044672915556984, 0.7839060782449108, -1.5844758563554537, -2.523231600792854, -2.2908638931199468, -2.656810995029481, -2.0875188710531405, -2.2339223673732627, -3.4295592648046918, -3.2640715489542886, -0.9430044343878325, -2.3645227358571135, 1.2684153687636588, 0.8226505115086444, 0.31846986484081885, -1.3493529627987968, 0.07246090026778172, -0.52928499598851, -0.1608376774784981, -0.9244327682147354, -0.8890800368556657, -0.6922502435203597, -2.4383289109944006, -1.2212817630203645, -0.1211187142044801, -0.5518487531058032, -0.14125723655777778, 0.052595056776694335, 0.15198279071565135, -0.47130002288812933, -2.082191036532709, -0.9261022823188593, -3.342663535732328, -4.1266799947733706, -2.0508425904841427, -3.201118106593043, -1.4461293377191016, -0.8158054614855232, -1.2076819876426719, -1.2323617230347295, 1.854432403112699, 0.6126961219624523, 1.612960502486094, -0.6292454755422643, -0.3826053804808155, 0.8154999158202912, 1.9227303495055803, 0.43331139164323307, -0.8826075925417456, 1.0746079898935357, 0.562770920901088, 0.07656299212065434, 0.5144096454183176, -0.9826145405676918, -3.785416888450811, 0.1675810816325077, -1.0995326745685514, -1.0543418972522571, -0.3402851654430393, -3.03045019690355, -1.6558971707385615, 0.42426410806939263, -2.2131926340839003, -0.24736788079246524, -2.5747814908051443, -1.6121636369485413, -2.1514388506265396, -0.6591241009111644, -0.5041907972407936, -0.3356904181849018, 0.16026478587562987, -2.216450614931286, 1.9123872596475673, 0.3224409013647283, 1.975259069552064, 1.2159761324090417, 1.1206439943299045, 1.221017574618426, -0.08331748545754378, 0.12017756575245644, -1.3834121881025416, -0.9095576622502632, -0.8541739313840764, -1.3818074352125675, -1.1149937075303962, 0.8595333936175388, -1.9070263116871198, 0.6361902964679786, 1.4371916437696497, 0.14521143224121175, -0.8866493419748428, 1.478951696457377, -2.8385051915455377, 0.6867481778635226, -0.681818009137538, 0.915281507140913, 1.4125434218137023, 0.24348054770879335, -1.700640392202869, 0.9279734421659649, 0.0725195025780515, 2.4514216564355067, 2.2723172101023312, 2.221604277117945, 0.7553597688927112, 1.8131649899030005, 0.8110876261871045, 1.745361694260175, 0.06607368821868781, 0.8829103078275701, -0.9451583355567196, -0.31719779901151757, -0.6719207109874787, -0.502790822978065, 1.3123389528287244, -0.10340336566402267, 0.43313374115473297, 3.3365563696095095, 3.4624379970919024, -1.211874910753532, 0.5293368022488462, -0.002504338422135171, 1.1053378213165945, 0.46395594038670696, -0.31239136397783224, -1.0013236508594041, -0.13446804617898772, 1.0144622808602997, -1.1207891918440371, 1.0243895344916958, -0.48226105542297887, 0.31740812108787, 0.3222571522310442, -0.5297782772353741, 0.7812827391268975, -1.6555886425173674, 0.07191951058479958, -1.0851270052733226, -0.4212394689199737, 1.3930018285512968, -1.0021142281323459, -0.5065935453343557, -0.4541547631318528, -1.3269489589033705, -0.8777501391484779, 3.484205215503951, 3.3423213641965845, 3.2792361094261477, 1.223843259477044, 0.529273468460301, 2.9736416770109275, -0.3171613544489698, 1.2909176737521724, -0.8243349148887597, -0.5418263553291323, 0.5972113357773379, -1.7502570239779471, -1.498772452893334, 1.9433093977117164, 0.8737781199303776, 2.9388778172520085, -2.1180604026146495, -0.2647830518415668, 0.9655636973788575, -0.6611820374339715, 1.3033797253311632, -2.477011987374755, 0.1792968808920486, -0.329502244457368, -0.803348384968564, 0.025326478302634008, -2.4574722232469917, 0.9211443455614754, 1.7331326101579636, 3.976150981883655, 1.8913146622802446, 1.4945129133691009, 2.4203145908124095, 0.7456341735763361, -1.996435348049485, -0.9058603694384499, 3.5995183994390407, -1.315089086264906, 0.7915389051279522, -1.3038040050535011, 0.050510548949900785, 0.594754321083138, 1.5744129415127335, 1.5451808572521197, -0.9836905305043916, -0.2871139616166272, -0.03301088189112038, 0.2590192920031317, -1.081777641897915, 1.2318496057372557, -1.3062901449254767, -2.3553200835280785, -0.3675986602051614, -0.951320755216295, -1.2540949659194052, 1.4220963162173517, -0.9503722504787628, 2.5134879695844425, 4.797925294450695, 3.45775522424256, 3.6326282979532607, 0.6317419742453092, -0.19454389319219823, 0.8446416701006509, -0.04215568323890619, 0.9434559024100512, -1.0568263723800575, -1.3495492325163665, -0.5750197399394494, 1.3367227845639535, -0.016425783509470365, 0.038946784822450065, 0.7638492792730306, 0.7564182715783956, -0.8463074649798744, -0.08115954046232467, 0.3157136050705364, -0.3970878609840312, 0.7111571250766121, -0.2547905365842979, 1.5191979464635732, -2.529134425810718, -0.4275406285790879, -0.308728678855117, -0.4845452232897411, 1.1671201489013623, 2.435265441711863, 2.914694887803095, 3.437696677262588, 1.224112954970415, 0.3109774600460419, -0.3547275235599716, 0.7546609835678146, 1.5114267234557532, 0.7202315087037185, -1.4724997503886574, 0.22836655945514184, 0.686827710786417, 1.5713175336900524, 0.18718648952212694, -0.2226056791892379, -0.6044258257986022, -0.3929740878450095, -1.047037996054196, 0.538909059867116, -0.989781599739897, -0.0884725442567351, -0.7307075895005413, -2.3540143596617615, -0.6237953793103972, -1.1562685217724835, 1.6300761293563069, -0.02899693452397338, 1.8671261292911114, 2.350169578182212, -0.23823413449885847, 0.9741321384676986, 1.3919188163180147, 0.4335782743399419, 0.8705411499951977, -2.2065782901925464, -1.074655340196464, 0.9950928804631339, 0.46646784859898, -0.5263548589825795, 2.8228161726350747, 2.7561896736903546, 2.251838842197741, -1.2618748294095246, 1.8531423673298033, 0.44027465964082557, 1.1366359292046486, -1.5403608548334946, -0.25221986077625425, 0.4161800751180603, -1.0233543800227842, 0.5408737204587358, 0.9209009724315967, 0.40456654601420333, -0.4990347132339052, -0.35373848427951543, -1.8518516615692586, -0.7462766966204571, -1.6457153316505604, -0.15549371617779856, 0.020885927144004595, 1.0034757837459876, -0.16835983826056755, -0.5657226021333834, -1.7925373564376856, -0.8559928061911996, -0.16798828634040905, -0.8010734022134487, 2.2461705073518163, 0.02682391452233512, 1.0547501694714196, -0.742239739225165, 0.56877241460514, 1.2800396013426123, -0.6036108591364192, -1.2706842395219873, 2.9198247779417956, -0.4044726319292609, 2.3730541075931595, 0.6531237492011704, 0.14261281137822382, -0.033305084222013774, -0.9238489242019772, -0.36114498031356645, -1.8226003300540068, 0.15200988391466105, -2.079100779974011, -2.1200955682762106, -1.4342654852856667, -2.5271462638183047, -0.8220756531430945, -3.4481356826635388, -1.7083145403774418, -1.075008053670842, -0.01841477137987408, 0.9361826038548144, -0.1970660132207416, 0.3403917799687939, 0.8254232117849902, 1.653070652880979, 0.08815983464366296, 1.0178961041405015, 0.6297204330192002, -0.04769537579140512, 1.1408900789630338, 0.18786559890490623, 1.540053257233031, -1.7613526232195689, -0.3799183295618523, -0.8772530907428981, -0.2602349875948382, 0.02100409007552665, -0.6733231339157058, -0.580169616538705, -2.2473809837606824, -1.4648497019664024, -0.5604297620440619, -1.2715216968862082, -1.5371611646593233, -0.1781214967151866, -1.0527832377483153, -1.4742785719928004, -0.17470582583818298, -0.5657827269773642, 0.6368088694763483, 1.5839141740956488, 0.977505259027626, 0.9512533056759002, -0.14394926446700262, 0.8986483649251809, -0.4424057574318484, 0.5778770300467075, 0.14371454129202565, -0.42196793419216966, -1.2661803945470382, -0.05655192535460179, -0.7809752332744664, -3.446059441285049, -0.2804863551192907, 1.8784234913150786, -1.9311464556354914, -0.8179188344387452, -0.3050469980772914, 0.3051658469401841, 0.40090252686814926, 1.0249930204280184, 0.2865840920904274, -0.8766270714699737, 1.3813015001651063, 1.7450176680542262, -1.151519057312977, 0.9568230876762844, -0.647273590902554, 0.04775053680279543, 1.2885714554068706, 0.546338581516581, -0.9300666659072021, 1.4668860533561656, 3.2296950758511875, 1.5989202043994861, -1.99799148456583, -0.562341976364572, 0.37488395321941836, -0.7651777652639976, -0.1820779005439799, -1.637994448666422, 1.322476306814742, -0.05270411163494703, 0.04094216675869668, -0.06688157773902767, 1.656274547762814, -0.20823337772013303, 0.734638522658268, 0.6705336542327797, 0.4711197828577248, 0.10803274517766218, -0.6438451866614322, -1.115912846617224, 0.1420673002616457, -1.888114884619811, 0.41404895823002574, -0.21214878451412447, -0.3449006430519044, -0.4242117569865095, -0.3029984057456782, -0.4796191425463107, 0.7939351855484964, -0.6060096390166004, 1.012164358833126, -1.1659750603253898, -2.1219964942171816, -0.9162318879996645, -1.7946992666524413, -0.8200527706986346, 0.17310320062833748, 0.32609874134235983, -0.34339787897269486, -0.28397054618876577, -1.048735314087512, -0.2650389202351444, -1.502126769193703, -0.2829745132103592, -0.13978623302023915, -0.795432603469197, -0.8038726842444578, -0.6886566889830977, 1.867034946055729, 1.790113439150512, 0.7973221107777717, -0.43804768754879203, 0.04705352759878283, -0.42110883091538626, 0.91512934053535], [-0.3321240819521817, -0.8308919692859843, -1.0270437066503995, -1.1367450921925566, -1.7656884182051498, -0.028386672365095265, 1.1567110892814239, -0.5520568118200596, 0.6955517159295813, -0.4090699291650822, -0.7006915785295942, -1.6919224271470326, 0.2881124383567802, -0.5093299293115555, 1.1588797884423525, -0.8315479367302306, 0.5745648463451627, 0.24807597098725415, 0.6454477760242651, -0.3857544980993964, 0.419018094232901, 0.571567501158378, -2.14333084532211, -0.444410832232144, -0.37153608555279727, 1.6227173204165477, 0.17976744516243223, -0.35455748721767427, -0.05121187177831948, -1.3053964009047363, -0.5856134104497938, -1.6901261426384755, -0.2242908516212075, 1.1554195981883768, -0.16909728565574597, 0.8122984748540021, -0.26469245047096773, 1.538913396389672, 1.042923436770765, 0.32810163861652436, 1.329980921976508, 0.4364939296825068, -0.12157104159911292, -0.4179811021209681, -0.1368258236290239, -0.5322164855221803, -0.10963336197882353, 0.9496626517513665, -0.049435814189477775, -1.1417707820522227, -0.10276307878307427, 0.15030840238420082, -1.3715825117684732, -0.23382256226634301, 0.605422127286379, -1.2602372927937224, -0.23024315170189455, 0.7153960583853439, -0.8196584895199786, -0.15695021237007503, -0.1509133461079627, -0.11907418435706948, 1.2448970542186024, 0.1250126562594181, -0.06707559238249904, 1.2688087098683, -0.9439677927884907, -0.9080606410823246, -0.716202581710262, -1.2615248678291189, 2.162300317270812, -0.2717163516836962, 2.2267190279111975, -0.6848536281931945, -0.3322149204422741, -0.02919744332782047, -0.6123203982280966, -0.8339329470631657, 0.8172405144164652, -0.04998641797524874, 0.1860998869413876, 0.35710498986916217, -1.3571517893290657, 0.5251014355662595, 0.21870331002537768, -0.6854705627449987, -0.40942251590395295, 1.6202342835589236, -0.1867309663668365, -0.2054078198584833, 1.3444535001979836, 1.2511875177997127, 1.1108060976984178, 0.4499920271746368, 0.8122936777306492, 0.8279079506463931, 0.2893308611469173, 1.758237706724308, -0.2866824474215063, -1.0153458496376886, 2.716885182352556, 2.129341672594763, -0.14784533772980482, 0.5298851287704492, 1.3152370164427842, -1.8982029263455076, 0.3447458352898144, 1.49630710548004, 0.4447679465220901, 1.3045336774566758, 0.19489971395020236, -0.13642391959944902, 0.26457887045015194, -0.28686824420717394, 1.0641050676606654, 1.7814695619250605, -1.1110334569974423, -0.28397427011910137, 1.2688568482832694, 0.386039842933515, -1.1303260691090287, -0.1402676952135785, 2.1625448116341937, -0.9122103963573015, -0.8080923010472851, 0.5887215327091901, 0.20073347145996906, -0.009308086092674837, 1.103310996539239, 0.926646332789736, 1.5028941815293344, 0.39018015315498106, -0.6486335783717928, -0.7108899203318785, 0.7057020553040124, -1.3702107973026398, -0.744746688108695, -0.698421101246109, -1.6512054264069416, 1.09227872736875, -0.36756976623725307, -0.6691682647767597, -0.2733026291769296, -0.5308996798859774, 0.34929904083581953, 0.2548826118007562, 1.0518442501099152, -0.6049132508750275, 0.13414279074833407, 1.2503995177165252, -1.0095397311436414, 0.11709705946283855, -2.2276699523156127, 2.8647825118970753, 1.691773699079057, 0.18487352270009058, 0.38476845838232704, 0.08520125227461788, 1.302189853019824, -0.6466764324480504, -1.8325755993161512, -0.9498109994004241, -0.8934651184335162, -3.6390884681372215, -1.277993786614226, -0.6968091493633017, 1.1316711115083145, -0.48046285895738594, -0.601462226272911, -0.8482026637693487, -1.6913283651653588, 0.3692025901046627, -0.1770779389956314, -1.7097254906656763, -0.5166959858595538, 0.025883718545790926, -1.8641153066538472, -1.7586627012132656, -0.05557466745224864, -1.36599089061922, -0.10476629094918243, 0.7074909708927344, 0.34032147884001496, 0.3822652384999017, 0.3721346316796371, -0.5884166885618846, -0.10219914178060185, 2.2691955329771356, 0.5725035401529903, 0.19660930710731306, -0.9129030875744383, -1.429996776021591, -5.177614752669982, 0.33949811895262794, -0.37789848031825024, -0.18491995089520993, 0.5499402405972504, 0.5808775948598596, 0.4184098444517143, -1.1357979697533414, -0.31579608729066894, 0.3031961958526677, -0.3116776597865519, -1.3898376921749434, -2.3996299927813136, -0.8395282865874737, -0.39254799722391015, -0.2640276806934325, -0.35056799010920375, -0.7689136864028866, -1.165980285008164, -1.2941857567627892, 0.7668283966639544, -0.8140902652965355, 0.9061825930924627, -1.716255599463922, -0.47800757907911484, -0.746968150569034, 0.23800934772732593, -0.25105321973442846, -1.4020961387899435, -0.5834286894166272, -1.7927065309559644, -0.6637270150915131, -1.014789955280403, 1.2487124594730101, -2.1373065301462004, -0.8437690263089798, -0.44150165199967023, -0.9197435568387459, -2.996872320560042, -1.8421581592501808, -0.43444201524596543, -0.7933798651576675, -0.49817505479873103, -0.31498151804344404, 0.45644774659311027, -0.7712873558452389, -0.8373312732624463, -1.4668772704071051, 1.2033736016820724, 2.462422401788685, -0.9445236928673667, -1.3650907448826197, -0.7362386339672661, 0.600208544705963, -1.6596762140767087, -0.7969153671395056, -0.685759346679319, -3.6022570897158275, 1.1590779461869185, 0.26839844908900634, 0.6614443039765965, -1.128459330448762, 0.8779426932470882, 0.39020939126785525, -0.019771914771162975, 0.2689746574526347, -3.473193128418271, -1.5040886522308836, -1.0405464102230342, -2.1484752757961387, -0.6437119340399395, 0.6258984199190021, 0.6648381888361065, 1.1959855945878586, -0.45266725590081236, 0.3628224228101619, 1.1509156590994327, 0.7377131490314244, 2.381598744989816, 1.6566135100321582, 1.1380034095723333, 0.31920261390437016, 0.2515785207471644, 1.2262645900328224, -0.3067077218729593, -3.2776159433767655, -0.10522852560431582, 1.2569848281722436, -0.34484059277645246, 0.8053105305649246, -0.13274297103413313, 0.8323822577319622, -1.809712357218873, -0.3234581738683874, -0.1976219327199643, -1.897762332368067, -1.9737793505985444, -1.5247803121054921, 0.6321790375923433, 0.35519066461953713, -0.7154969182194104, -0.6259469875761984, -0.7009464323162304, -1.927922409988659, -3.518200008433605, -0.619734126717458, 2.0612355041754884, -0.22965790706871778, 0.7039383029282562, 0.6340341093082115, 0.6713339599746454, 0.7317145915219517, -1.9127989517182376, -3.556778951551828, -1.526574001303219, -1.3248465450862628, -1.4987934396399811, 2.308840595022928, 0.15747423464119334, -1.4315209341864132, -0.7113018847038908, 0.8682210506637258, 0.3982636517307216, -0.20026727410968653, 1.1528367815247336, 1.7705673813905582, -2.2802766857846803, -1.2212562570517134, -1.1431248684387367, -2.051971651217487, -3.153402818858214, -3.165578148621265, -4.622928166835899, -3.654132802625949, -2.933874308868349, 1.7551156116571394, 1.346148233809324, 2.7728468733692484, 4.612197260813419, 1.1198497510745131, -1.98167453035648, -0.6798764076481705, 1.2205752389228344, 1.4060537944146392, 0.08448939082930368, -0.42745229614188984, -0.7484086627033195, 0.10095570703393965, 3.0565656747613708, 0.369952209470205, 1.8750800617838734, 0.353829517521519, -0.8476210606929215, -1.1215357491463671, -1.5852028573705186, -2.094441619491394, -2.1168625843695663, 0.6193935378938493, -0.5611777902976665, -1.8900161131983408, -2.360391473568352, -1.3818594221613083, -1.9470008749624421, 1.56262025637434, 1.9435966755369767, 4.81681843403803, 5.104696926542296, 4.00455674494937, 1.5063129929365204, -0.418027481041522, 0.10747326919861529, 1.3249460622213602, -0.002748639530143327, -1.1152716031683252, 0.19800727478374708, 2.7508410959336995, 1.335631292419343, 0.9030700483217045, 2.348742079064757, 0.9084389046094855, 1.754379514703863, 0.3485766394762591, -0.08215562392034055, -1.301817775749962, 0.8721577076265234, -0.8010844835158575, -1.5848545274003474, -1.4474629747500196, -3.8418764233902882, -2.1207137557728823, 0.9691905127831266, -0.5030941334705249, -0.5149301420067777, 2.0234382615184954, 1.456877430753125, 2.3654314747667815, 2.9678248292194285, 0.5066431782716172, 1.1738762529223208, -1.513524549072613, -0.22392844978284246, -0.7736740512041946, -1.0100317678216757, -0.05251948431373788, 1.2590956749769173, 0.8845548821380522, 4.0043667250635355, 4.179504751780556, 1.4767951684232026, -1.1257557843598631, 1.747014522862131, 1.7281276888232129, -0.004038763281723366, -0.48157593205576654, -1.1804702795119824, -0.9689149508361208, -2.6541853517103338, 0.06349019684013649, 0.026992026338930858, 1.7078903905828866, -0.21419483855715077, 1.5536051358493457, 1.2730961825532947, 2.469978618438266, 0.2859532417840589, 2.1490809436417475, 0.8748481137304295, 2.098984477653114, 1.0734176350514175, -0.32210080221543436, 0.09991441838546063, 1.1742888251899113, 0.46488087384653026, 0.110044826651403, 2.4120021196493617, 1.3613025877558285, 1.4962835470159486, 1.8487580838227156, 2.851419080962117, 4.162922260856612, 2.3403252048542553, -1.6604702143117847, -3.1105233058448207, -1.0641310771155066, 1.5696992181171008, 0.09639411596629878, 1.4523656218821226, 0.9759529283368172, -0.1306854184399324, -1.1254281444115348, 0.13400162232282492, 1.8463660166097617, -1.5334718832638814, 1.0341326694789728, -1.3101238498283494, -1.1003330303501389, 1.9921191018860533, 0.42472506567801854, -0.40281546846663757, -0.4258401767514615, -1.8311710629289517, -0.9316718583664599, 0.5156936099926079, 0.28023562255431506, 3.2708822314313615, 3.659834592750442, 4.0471138188222, 0.8802701852616909, -1.350523077140786, -2.078475825599252, -1.19021256286962, -0.07909529258339602, -0.31037386726264954, -0.1711149171624521, 0.37958709895164205, -0.3501338810014554, 0.38759674876312356, 0.19673352136616976, -0.922030233167528, 0.42432718233214733, 0.43918514967209693, 2.962934875085528, 1.5694982779041389, -1.7761684916291367, -1.2431478563717557, 0.23185195458507768, -2.4672168819136497, -0.685836470131651, 0.9013312498230018, -0.950266644773336, -0.6517814784062342, 1.5875380200621618, 1.6306983887537552, 3.9808705822878356, 4.111965148159598, 1.8385653783017326, -1.2029699947126604, -1.9752759298388323, 0.30797341206335455, 0.5039082407166916, 0.5050688939847445, 0.385830170017555, 1.0922863565862166, 0.5107914445809235, 0.4229443141972601, 1.5944585698729221, 3.521925932114299, -0.04704512473386049, -0.6452666817697377, 0.5634442585878123, 1.4710433254950628, 0.03652386036682523, -1.4732775373669902, 0.6406842887382912, -1.8925855234797357, -1.4774206572376882, -3.309755923329119, -2.472663580082585, -0.05901354708092544, 1.9254459345117019, 2.470901093957525, 3.8871551847215025, 3.2482402139489643, -2.071301917192863, -2.9923202556297843, -2.689322088534333, -0.3625752064142906, -0.15261611440081704, -1.2403369771228647, -1.7011503804381858, -0.6821324183657397, -0.26893387151919734, 0.7243706033224611, 0.9958958264657806, 0.2765846276357654, 0.6964819915505939, -1.4831448807056744, 0.5013613935604978, 0.36179079192141966, -1.1233839130493173, 1.5033455286955533, 1.5029104311648986, 1.046681565563802, -1.2020987444483135, -1.501063507689113, 2.0597850439977594, -0.7933691698134606, 3.5440607663856447, 2.7881368782725624, 3.660898018093505, 3.9059790050552454, -0.933178608047783, -2.5884254789936603, -2.380974999579891, -2.159720410269464, -1.1074357781702626, -0.7919344624692818, -1.061372466087891, 0.44541371307159844, -1.0647728458436778, 2.9665079100215554, 2.3362714480421607, 1.8319221193786845, 0.1836758492360458, -0.24924926028124994, 0.18428705007855253, -0.2848189680204496, 2.6350241329222794, 1.8439289860328665, 1.906897067581178, 0.913252755918181, -0.7467059376580308, -1.8429673950303664, 0.4249156739326078, 1.7643199669123593, 1.80145287905155, 0.374767789583753, 0.45256503477743126, 4.253118526029236, 0.4321479353645388, -0.892130529192843, -2.144573829493006, -1.892653845477268, -1.7198515706194002, -2.5759782979133057, -2.5136263908104883, -3.1961490681080407, 0.7404510516752403, 1.2834771470584863, -0.568201266817884, 1.5442125406758909, 2.0818055076022337, 1.6206130082098544, -0.3571898676725906, 0.27230295810387667, -1.122587197555366, 0.03387960077370485, 0.8689074179597339, -0.6244505113874533, -0.38355183942579496, -0.9074227299768498, 0.07436099150379853, 1.625974491708778, -0.17038950641161116, 0.5284838767560163, -2.175330070010159, 0.4353808609890893, 1.8046673882505975, -0.2016358920024768, -2.616893311515627, -1.8879114373775123, -1.2356173880017327, -0.6976253859604723, -0.5829683231087562, -1.671119052883787, -4.14725602393597, -3.251749914477613, -0.7956589058658847, 2.3230129094558567, 0.006451091783387207, 0.35832667010019104, 0.9594008338956354, -0.15029678222356457, 1.7195513990792373, 1.0338123635982674, -0.48000195030207476, 1.7488400416167398, -0.7358765848256391, -0.86755899842128, 1.071230843006754, 1.12758010134048, 2.943836488552293, 0.8071875825414941, 1.3435635426195796, -1.1128539650802465, 0.47125652314008937, 1.6986966910515324, -1.4812868975779714, -0.4512710679317045, -1.5165274685938221, -1.6600271025535793, -2.7378026799253896, -2.9162723800461583, -2.0236510106320043, -1.4992355784621463, -0.9651833101067882, -0.9225798334557523, 1.499043288282679, 0.4768061118738252, -0.2890883586117423, -0.2676355791874443, -0.024173774610344357, 1.477468977883204, -0.5009441675960304, 0.721917200123689, -0.8823416308005199, 0.16649184998205468, -0.35829922462385194, -0.7599094077389954, -1.0391191709216363, 2.123196209238164, 2.5847782489904993, 0.3305427959324771, 0.41288767550632816, -1.204006113408296, -2.4014234843165783, -0.6077172839896551, -1.2727952609961044, -2.0245399603633834, -3.8335898982138676, -0.03694698795367912, -4.540235122284654, -3.7712059315914384, -0.9949330253357981, -1.2636487516050625, 0.8891524962081294, 0.7558637026577909, -0.571956206735944, 1.5418044237037618, 1.0095481238174016, 0.8895795564141086, 0.21229587623469642, -0.49746741445135323, -0.3339551457659482, 0.5200372108754504, -0.604184738051846, -1.009143285927619, -2.0583074261091974, -1.0769616697365416, 0.10601733842447054, -0.5319143793377732, 0.7089287624381434, -0.253630681859616, -0.6486217586407458, -1.38422895585026, 0.015710719876530443, -0.08221215623601269, -2.214876129586077, -0.6952015349874701, -0.9625134247643797, -3.9323385985656483, -1.0962778893779543, -0.6471983418636905, -1.3974309074318345, -1.8289999995666517, 1.2286421012161284, -2.038770280837199, -0.44273274620734177, 0.9929192714299394, -0.17804253557069533, 0.7976581701176889, 0.026406353189569385, 0.9637302110715722, 0.6670038612702781, 0.21233888733766387, -0.3435209415459806, 1.2580962500273865, -2.016709148220193, -2.371412734582014, 0.3696171993452897, -0.3202606222374658, -0.6469045299295697, -1.0013650246689747, 0.1838675601325924, -0.8929031632730129, -1.227560520917575, -0.7573900394773502, -1.9337466452467194, -0.21630957125896766, -0.8911257698867903, 2.205723790656374, -0.38111411370924053, 0.5157979753257484, -0.8287855819513014, 0.965117939347554, -1.0080939406024476, -0.7398798539024625, 0.2735695664415334, -1.682118516419321, -0.04046948720237319, -0.06580279998623562, -0.5072706040935321, -0.2533124983489179, -0.25546395394933075, 0.13623855817424285, 0.8669466351943383, 0.02054796117736516, 1.3271397589899339, -0.6159417087451474, 1.72028317904207, -0.6244530404027053, 0.43793520100412314, 0.4256673986936994, 0.5965359693126606, 0.3462893229141659, -0.3237298788375102, -1.3891058769735147, -0.6980507613067246, -0.1387564270863187, -0.013331886196520227, -0.5003660694011698, -1.1751956808346664, -0.7422849736173746, -0.14101088993497882, -1.1921554075073488, -0.6163579357921962, -0.12690015765383475, 0.4417286309631151, -0.05690453841631202, 0.6460563274349823, 0.6377879816877605, -0.49773129815766015, -0.784685134217887, 0.005005428653819002, -1.3558448180243634, -0.01784641685759878, 0.20356317363661772, -0.3452680293351315, 1.3949056782394083, -1.0915475037180717, -0.7572541581685888, -1.2645140692051255, 0.013825791846945148, 0.2537903714392485, 0.7709659963331902, 0.2637236384009116, 0.07860727923554676, -0.7306607697426905, 0.20336832003801986, -1.0615175985293799, -1.2060084229131458, -0.10079396838807071], [0.3233646869737249, -0.026455005442268878, -0.27011088931063876, -0.9160142859681204, 0.7378056836205005, 0.6856086338882819, -0.5556839852017348, -0.5250481884622069, 1.0857824571456351, 0.18713572271343, 0.6060851292358883, 0.2581810873506102, -0.8425122835433232, -0.9223859438344876, 1.0249339920935538, 0.4102914405116833, 0.7139795896359796, 0.33453047887799503, -0.41223047919209593, -1.9644941162613496, -0.6012477247252528, 0.6530208410773077, 0.17011268353352332, -1.5195028604886638, 1.2775653222686192, 1.1587415726037817, 0.8855320305071538, 0.20724642878185642, -0.5062030363823049, 1.9362202012910497, 2.777244541332699, 0.4646975405395097, -0.3944063828475878, 0.07443810186790956, -0.582070094010883, -0.4206833950784611, 1.504369774476329, -1.0352505498479188, 0.29887181884036257, -0.43966539805437077, 0.1933952191668464, 0.9112514411697584, -3.4991160259133394, 0.2374490326041282, 0.6571907117715072, -0.4539488675035992, 0.6756239590679338, -0.11761435600661109, 1.2848515589166605, -0.2810608506172386, -0.15281294919355748, -1.3865314820737278, 0.33612879177764465, 0.8799651001998043, -0.2912682307109575, 0.07046222689196902, 1.2010393453690984, -0.6746857279205736, 0.010449191588983222, -0.7769515876639504, 1.3670249668513172, 0.4417868199273229, 0.02600779449992876, 0.6027661379069548, -0.08322272002087332, -0.5749257916031927, -1.7963884504213414, -1.5130496286992374, 0.463976260643118, 1.1215959773592583, -0.5668653604517939, 0.07458475716243475, 1.0275233867169757, -0.5124634966184033, 1.1275253605423143, 0.25891485282536036, -1.8899004398309571, -1.0679745056112369, -0.2657747405100432, -0.9204789581486832, -1.1650069249337922, -1.080038127923651, 0.9428440172350312, -0.33911403551984315, -0.010817197224512756, 0.35604055676308627, 1.361478710361954, -1.2617073286580294, -0.2694934706094288, -0.008541282517087433, 0.590847500166185, -1.7236767614024617, -0.7206235367193401, 0.7598574345545654, -0.04023969255070571, 1.6174286869793277, 2.0773869275467756, 1.8184666181280158, 3.103352185863962, 0.8810988696927807, 1.4358785826389455, 1.1964733862390795, -1.5945397495485596, -0.7228471465930879, 0.3585052743893327, -0.05305689699799073, -0.605230926763721, 0.34235368737873434, 1.5951600205847178, 1.2526753764108314, 0.8943098924857824, 0.24694880332998323, -0.21424234307490128, -0.42460116086591765, 0.6566775380901899, -0.12740104160150212, -0.055048668401756956, -0.9799176709488714, 0.955327954070847, 1.0262587038220736, 0.8644909151148776, 1.1902493626840882, 1.0878196765947088, 1.0276644801927213, 1.1680816068421915, 1.4342216071327496, 3.344874530334579, 1.5354041787429413, -0.7842773433620055, -0.9435392242101841, 0.866629289588111, 1.4745689768446062, 1.0173668200526638, 0.5604153808739691, 0.30091722480973293, 0.05059610997270359, -0.3194738854489477, 0.041980018588405256, -0.012921997899300042, 0.4210088454892224, 0.5766340386713623, 0.3926365977610227, 1.0301720897178617, -0.07681620210553422, 0.5305856906488183, -0.3070515470822858, 0.7840234767390705, 0.32459085098818125, -0.5763112542541436, 0.8867648470623732, 1.3457277012347297, 1.609268000051828, 3.153031340240085, 2.3891676915452575, 2.8182521509617042, 0.538951515464073, -0.39418581892939825, 0.09650260711530138, 0.3411820340124137, 2.1940477914411582, 0.6321307838896871, 0.8955422066888264, -0.049627630525985705, -0.8131758737015089, -2.147380068093116, -0.4062528304064949, -1.4877511801574284, 0.6717426413640333, -1.9704610077352265, -0.47887772009640844, -0.3599198468479146, -0.0011618575668115904, -0.9319190524718626, 0.32598361133250575, -0.026625066707734044, -0.7668486601640758, 0.7226025009640484, 1.406192801008987, 3.280094397854586, 1.257795525465828, 3.107868664436469, 2.73200572282419, -0.19539737786483286, 2.142933081235016, 0.6483343558679509, -1.2793843922636712, 0.8769071853944396, 2.224527294942803, 1.7666978702978673, 0.7888695380999621, 0.5973854509462252, -0.7397205116416369, 1.0707685873272859, 0.738703470768163, 0.8704242607745348, -0.1927363386209139, -0.36114854826431614, 0.13004667825020008, 0.6967677267011032, -0.35821028619956213, -0.340856602880993, -0.5101945898053006, 0.23776936226328546, 0.48831342063140226, 0.027084930321567995, 1.8890949024444044, 1.584527128635355, 1.9270155299143954, 1.3711687181171512, 2.338710917454217, 0.18413164310165098, 1.396963844233804, 0.5480402480625902, 1.1903707421352092, 1.3976628937503568, -0.30628256825908995, -0.23436546505283123, 0.8157218989228925, -0.48648136171346035, -0.3966812289402512, -0.12232672855983852, -0.33379157613442917, -0.4909885592875128, -0.1376468820999973, 0.15280823796064646, 1.2462232569681448, 0.9542888975530917, -1.083975160804495, 1.4626593824318397, 1.8167524347659891, 1.9270195414829256, 0.8043845871820275, -0.2327527234576837, 0.18726584281480038, 0.5248732744047346, 1.4061108412372054, 4.331223660808036, 3.9642922182445455, 1.6598995263405496, -1.9589753016498694, 0.7153928124068142, -2.189955928763942, -0.4767515454598544, -1.0776845805455701, -2.073277918915209, -1.2171898292954442, 0.8562613482861353, -1.234573999918236, -1.8503091297931125, -1.1132139457249055, -0.48514320676429107, 0.08114398824259265, -1.1713582785174752, 0.8693610230656174, 0.8612218870916959, -0.18614296951038306, -0.4159305916753481, -0.37692969947599075, 0.648491229198881, 1.6388458787861049, -0.2732287110005478, -0.6142029868585464, 2.1351598278923363, 2.3733831870101008, 2.8678410761569966, -0.6387858385799584, -2.223673332509706, -3.668078949704034, -1.9702464613508504, -2.221280063262714, -2.638326679014815, -2.3400591293100312, -1.0596621756843614, -3.5939183826016983, -2.0283438207538684, -1.7695663710070864, -1.4440168443297197, 0.371005066277523, 0.5051437447615542, 0.3347802015654824, -1.2805122232106034, -0.5780566199232823, 1.3178685699503363, 0.8658497062307804, 0.0746910479514881, -0.1930435612047527, 2.1969342178376103, -1.1858472546831749, 2.2119805005241804, 1.0036165424636199, 0.8603169986597148, 2.04280507270544, 1.4616471280290766, -0.9932031400091568, -2.9863248951474652, -3.8961865017032906, -3.7031785925851763, -2.2175560381095494, -1.1989572664055463, -1.4384067907337146, -1.3953730864034, -3.773620408886277, -3.6056165180259048, -1.6894733809173006, -2.013442846401348, -2.132089962105965, -0.4987720207521889, 0.5747486095430627, -1.011313846138986, -0.9428613415332712, 0.446819448021316, -0.4808973450534489, 0.21760015296112603, 1.172943111453178, -1.0405558689931917, -1.094718190558929, 0.04323696297157479, -0.21523224914958416, 0.14130708129100605, 0.3265779679286984, -1.2131281798530476, -2.2004369426682695, -3.7763825119319803, -3.2879468691732443, -0.7249502448432628, 0.9199988544028029, 0.09622451095447579, 0.6464087048912611, -0.27449830654523855, -3.1584047267641377, -0.9390533013725116, -1.0436608090520008, -1.3412406747191714, -0.12964518766966096, 0.16520404550787385, 0.554551401175518, -0.18820503020913779, 0.7319950631818078, -0.2400506100028279, 0.591110456535803, 0.036548041443949505, -0.8129916425718228, -0.9731590733216385, -0.15304466432956557, 0.9174934097456167, -0.6557086709442983, 0.06061230968985542, -0.028443086302237415, 1.9420408063372414, -1.8703332783151625, -1.0920701097494674, -1.3318735583771069, 0.5822519589867567, 0.980634783884651, 1.8615818932202846, 1.7599664404989228, -0.1753117653636434, -1.2472379784244298, -1.878168135430314, -0.7812001182983754, -0.8063763160667035, 0.9734270276072416, -0.09264002870209938, -0.8307194151476158, -0.7625391557731213, 0.01533819202808749, -1.6676389596933918, -0.3582843598925498, 0.7369248371367607, -2.449374186683063, 0.6342570768288969, -2.9001643492138456, 0.17829185300573194, 0.42868338513294035, 1.3856972040793227, 0.38280549199231656, 0.6043967110264782, 1.0717308570277058, -0.5265472478955948, 1.738677684220987, -0.2874345026780772, 1.7174032689809589, 2.7229952694720883, 1.4181099202782028, 0.43682696546429467, 0.3322238363471999, -0.7447359650246548, -2.5440788760728084, -1.6105352399660162, 0.09137535829950748, 0.5391327506175648, -0.07189014976191291, 0.3078718827913604, -0.183087994455915, -1.3929872563354013, 0.618433526499729, -0.39167272164232086, -0.6444349408768206, -1.27086428679625, 0.34242392985349007, 1.7854810494811209, 0.17109280087999523, 3.813049744969124, 1.5113199502049204, -2.20641165077865, -0.3715979714504992, 0.2561087082323002, 3.1496312002131215, -0.6288827362661591, 0.7497780076957423, 1.293778211562692, 0.5991128080856999, 0.7808209112054505, 0.6102178802634802, -1.1855271412063753, -2.708428198972674, -2.034873942065044, -0.5493213495002396, 1.8366013452123597, -1.6026454737467875, -0.3337603109795585, 1.441519273554039, 0.12976351616673001, -2.2141466008367257, -1.233821440336068, -1.488697676737336, -1.9625521883840797, -0.6070780189500474, 0.26132601603640954, -0.5768359091849642, 2.350138631162666, 0.3885007234672724, -0.607451340153528, 3.788017513902268, -0.29686162855202664, -0.5143575291985095, 1.0376945289083226, 0.017084969300076146, 2.279793415645883, 0.6003793790053928, 1.5797069099219787, 1.9387854860263543, 0.7246527488034469, -2.990706536970009, -1.3280096748794263, 1.3804127889826772, 0.25791264513227474, 0.28952972377989644, 0.1858789616824071, -0.7290595748117187, -0.7849704683671723, 0.5788113688585348, -0.03138454294992844, -2.388168322369794, -2.3486895888731194, -0.7544320136897164, -0.647415913346648, 1.841967977417878, 2.0558747699702673, 2.033620997361185, 2.039056867401302, 0.30909308286153864, 2.593592156553183, 0.9861853568284547, 0.3940996136866022, 1.3568691634831427, 1.1906114313670495, 2.3215058885869655, 1.4544331573439404, 2.5514736522164747, 0.8641963634336179, 0.950328472586619, -0.15111380911008515, 1.1346866805789184, 0.16202170577396904, -1.9217467740204544, -0.29998470623259477, 0.17353120822245865, 0.4244854621264966, 1.0939190945232846, 0.9319858621412936, -1.0984202652163422, -1.8623507930574619, -0.29122226741923213, 0.9208698279545973, 1.0399473735112192, 0.9815040632178182, -0.3198563631871811, 0.5974257597839479, 0.08084995799543795, -0.35790401465736216, 2.497842449539075, 0.8706453516496517, -0.35917982040960306, -0.5264810814936037, 0.6550522255015935, 3.2722508038830544, 0.10538556553563708, -0.09513423007089877, 1.4872697222689446, 0.7227132294833075, 0.49216612793708553, -2.5362633024641053, -0.08079414485173396, 0.27513763241083267, -0.26932858888882116, -0.745923732041874, 1.6089993790540231, 0.9419845971598323, -0.10580989724330772, 1.2844317804587302, -0.5778444763329809, 1.4944412973993513, 1.498761561519787, 0.6193673202730922, -2.2341832105102752, -1.744026179773639, -1.0623704653947221, -1.0972627866333566, -1.2486134474737756, 0.5766292655604104, -2.0426301497754906, 0.03380802168389389, 0.952572935537234, 1.8116476641618005, 1.638607004701646, -0.13791596872824508, -0.01771094581005808, -0.6602317103186456, -0.7594760273473923, -0.37677102533168133, 0.2808257401607408, -0.5476564805484835, 0.4408949840115764, -0.8644182478972768, 0.026387392671438668, 2.2617970180107396, 0.2512473994326648, -0.5163023232674941, -0.15724465159444487, 1.510276135271278, -2.0663498150655863, 0.4838688946035882, -2.7319274232885786, -1.9334185093566312, -1.25561144597214, -0.7504390409334546, 0.7669604717636707, -0.4549190399576826, 2.1117993558478476, -0.5020838166708134, 0.18735946846082513, 1.315562135801951, -0.45222514593886814, 0.19080478149884494, 1.8354257269467633, 0.9293269566647322, -1.8990305900937083, -1.0722883851461786, 0.7501822041472969, -0.6947387704004273, -0.24086941116921912, -0.007490857629743544, 2.250995609034198, 2.924279550721448, 2.439552868274371, -0.4542227287925754, -0.3122013896077043, -1.1182922741094201, -2.0629233637381965, -1.1417353346995107, -1.9089964505774224, -2.1417860717271067, -0.9864908298700173, 0.16093776607378038, -0.4166508378650755, -0.23364472773591366, 1.551100267422157, 0.45921361972153896, 2.9776256301474002, 1.5835444231982676, 0.36912890599459364, 2.286688520200218, 1.2838711927232327, -0.3903012356218452, -0.048459323791336835, 0.7711571581869939, 0.45292443803260457, -0.6748096020984283, 1.4345830315651933, 0.8769903611473905, 0.826407141789865, 0.4693920298889337, 1.3390883757812684, -2.501028759412266, -1.18501227990093, -0.7876217637488915, 0.13039408551637469, 0.07908167356106095, -1.6831707129953921, 0.5450781805887946, -0.8042586852688997, 0.2814181726409956, 0.7590131368667262, 0.31201452429699056, 3.206914637870064, 0.4266005578104101, 2.066563673214981, 0.7878954342651009, 0.041416106027491, 0.7192967960431673, 0.30621108854405105, 1.4065889343409679, 0.7898614686253198, -0.6548655341143319, -1.4621352737948485, 1.2411948835961297, -1.3325828532114057, -1.1765716124981973, 0.8954951347357997, 1.1662818234190067, 0.5188856307745767, -0.6590524214516928, -0.8237130351253868, 1.0784692329141605, -0.9696785319112651, -0.35596410016927577, 2.2068881557874263, 0.6763229039778871, 0.7877019917551434, 0.3158931753094098, 0.8351839954646795, 0.03000255600266046, 0.15802109956246255, 0.6211652670312157, 1.624361237517463, -0.9942320190368482, 0.08624083537416913, 0.07637320671888763, 0.14694417393191303, 0.05650856398198197, -0.8412653730358771, 1.5417870815759596, -0.39682473583966277, -2.3178668606697337, 1.9903807008063814, -1.273228723756704, -0.050024635513531764, -0.3094802993559827, -1.6286404911395835, -3.0185423335975288, 0.22286630476451819, 1.5191130723545991, -0.23840866689749426, 1.5299474354372826, 1.1097951312542622, 0.681472441505071, 1.1305814728695325, -0.9384283012439335, 0.12461954550656007, 0.09080217140551645, 0.9724153096475746, 0.055678050135562304, 0.37098970326378833, 1.055164965362457, -0.3418305396439672, -0.2676548253860249, -2.6292916993950133, -1.4970225897481746, 1.2945555640456685, -0.5269318792014381, 0.03146925421640135, -0.04825977830977003, -0.22626448310917993, 0.9139223769000003, -0.2734635071976234, 0.7397323397520019, -0.4122773235853052, -1.3219920385038355, 1.7491527989271138, 1.2921686299440807, 2.9053371204544676, 1.7796104259135637, 1.7686268123201383, 0.010338972207651327, 3.1533264185759577, 0.2685831049743929, 0.9112363219193096, -0.49046509828423657, 3.1167773381332897, 1.0777827984608688, -0.4400188909794567, 1.249312494666036, 0.4288896214203812, 1.1769648469871064, -0.8662972230335501, -1.2335437953362278, -0.0913571622689437, 2.040690218584598, -1.0816680501848368, -0.051704707281104344, 0.7817086510681094, -0.2600164324397993, 0.6266175335064256, -0.7525431181482696, 0.013896697609779993, 0.9504826385319725, 1.49680815203262, 0.30214972809260615, 1.6042787072085638, 1.814358173005184, -0.019817998323012873, -0.046091068440114694, 1.7577255104371126, -0.7132466856169547, 0.9723873136784547, -1.5724432787196974, -0.2925725072514663, 1.1406275490462672, 0.4016994650987548, 0.02594842953540047, 0.44530466081174536, -0.34838547837460077, -1.4473818524964948, 0.18751968033168712, 0.03804988914618612, -1.6794144341673347, -1.0872291157959024, 1.011052698800272, -1.502885598208695, -0.9944454996242875, 1.2453503514284814, -0.15080700464123156, 0.4876696142491584, -0.872472275646357, 1.4329775922505252, -1.305866443836943, -1.4674754053687038, 1.844367360333752, 1.3375794699908916, -0.41443421231765915, -0.5923864778451802, 0.648164347204041, 0.20896277822815845, -2.922526975286464, -0.8259484188260339, 0.1706421311369594, 1.5310717321042848, 0.13084236350659367, 0.15769618421579285, 0.9951332838146171, 1.2882198278892518, -0.4473596406585054, -0.18589906097114314, -0.7250308899522533, 1.4214728760933049, 0.9998392295003179, -1.7677395795376298, -0.9554883392573779, -1.746532733767877, 1.906108601450082, 1.8144814396396431, -0.7086775221179779, -1.6580048116251649, 0.8501565864820031, -0.01236509266776165, -1.4631090749166866, 0.2646778543548454, -0.7736790965115563, 0.19430424667810653, 0.3164808522961773, 1.261187196384057, 1.4724368364956932, -1.1455327072655699, -0.2565818298553332, -0.4782778913697397, 1.3702313025155235, -0.5945277803013407, 0.23675192271285786, 1.4981708481251397, 1.1363345379143484, 1.43872969117417, 1.1011301435803857, 0.16777275806006495], [-0.6169978287618203, -0.01081626777995769, 0.4948707010450016, 0.3342195372615927, 0.19685128837016763, -0.9112246798819185, -2.370702729632762, -0.5985129379872405, 0.4604544578099299, -0.17346301608671666, -0.07085591777744045, 1.214828403331123, -1.178846433822316, 0.0886974658807406, 0.5614743674045214, -0.6560213026499929, -0.5910709416240464, -0.2147943989499054, -1.15621291600742, -0.4835352457027246, -0.5719221973070612, 0.4815346248077013, 0.9523090146168032, -1.0378995551750532, -0.13549145522222214, 0.7327989343868236, -0.6051814113203778, -0.22695836950614834, 0.2716096484164212, -0.1544888317932963, -1.1525378840669753, 1.3735816755957124, -1.5327984385823417, 0.32797247498892823, 0.5568334974637347, -0.99814581649119, -0.019716305045212858, 0.5468378194008354, -1.529571743950137, -0.06723362398739517, 1.031672928499116, -0.5279178332100684, 0.24562707599897948, -2.061877073874835, -1.0149240973212423, 1.0253654160248424, -0.44386600382873503, -0.6982927685331746, -0.767479079091567, 0.8783391037961494, -2.332272277902176, -1.9334706009593614, 1.0456060650096042, -1.0342076869891215, -1.1289299714043812, 0.935490326020983, -0.6525788606865197, 0.1630646361753373, -0.5606678289338937, -0.15615761195805644, -1.6117568109731, 0.6594568222010536, 1.4082273241339816, 0.7222800463364046, 1.4654465425276695, 0.6903770337500194, 1.2534018335546877, 0.16177475036200395, 0.9287335225331205, 0.7270319279540967, -1.2551654647063528, 0.8251702112756902, -0.612008829932669, -0.3537210096646511, -0.6897926618944782, -1.5363233069595679, -0.5702017464841213, -0.02560999875676324, -0.2984019754375757, 0.8983214387294294, -0.12952835180280767, 0.1133002488302878, 2.489700497841241, -0.48794577773805503, 1.4855347835855925, -0.14803354278249692, -1.219836942139342, -0.8143870248185843, 0.13725543941666785, -1.5559636118991143, 0.38853435202592546, -0.3735895724573779, -0.7201940123401432, 0.0010591694727333048, -0.036010118536257206, -0.03586436614601618, 0.16398598735733433, -0.44124019292554284, -0.6045998913284811, 0.45221070880250325, -0.6941073408754018, -0.9571267625826644, -1.4370407723907468, -0.28602197676435814, -0.20166218731629681, -1.4293302287838126, 0.6014169827688033, -0.42777728456810665, 0.8684030454694615, -0.9021672184275401, -1.186289650739147, -1.1867071688754451, -0.3228567258742664, 0.44861191130672684, 1.717323761550416, -0.0884650099593433, 1.3968442356410578, -0.3715329889776705, 0.21898037498425268, -1.455435358003821, -0.3569625265690835, 0.22927021764803063, 0.8133841775112605, -1.1381924372448853, -0.7937889408147881, 0.6515101708468987, -0.7093271221508622, -0.2335330855845786, -0.32883485964341685, -0.41361827197963213, -1.4932765951766245, -1.113014097435964, 0.8280114482620254, -0.10430847019864808, 1.921171462357592, 0.7882515590315998, -0.0077535989311733975, -0.04247999775931157, 0.5579096845398089, 2.3542883741016194, 0.1772901022505683, 0.5728758682988974, -1.194224337735873, 0.18972518032723493, -0.4522481989199771, -1.9125863188179701, -1.144407519443794, 0.856151382319714, -1.2352784805082717, -1.5591951999109084, -1.7283282321463334, -1.4894820863712959, -1.536118190809897, -0.46548360245972364, -0.03957883844389584, 1.0308495752324351, 0.5401120411962059, -0.3058674147179647, 0.426033637257935, -0.3240489652333771, 0.6552454266780443, 0.9055300493775851, -0.2137350324255287, -0.19727636362735126, -0.5965435596573464, -0.7933843545815027, 0.811314869867569, 0.5490971737673956, -0.8545412916566002, -0.536208496832276, 0.7846658629969153, 0.6813368964709942, 0.20038673701213913, 0.1290586367177342, -0.753061541878457, -1.18433811461695, 0.038784902898536054, -2.0358683215387336, -0.723513282662704, -0.7689076739724559, -0.12492331608190217, -1.088036304868666, -0.13878993092165348, 1.3807210238903835, -1.834509963870647, 0.9078589510848643, -0.6624116774404444, 1.0118102347980864, -0.4992387283131982, -1.3559094908382587, -0.0038517145207544114, -1.120439996662637, -0.8682115910961545, -2.6407328171653566, -1.2048911425755906, -0.8910974750988165, -0.8712023135012382, -1.3210291741146658, -1.201541359810797, 0.7371786604171939, -1.0462882715621415, -2.447250879317365, -1.444706640812094, -0.8413037605429898, 0.7670438801286479, -1.475326762939676, -0.9644002610521717, -2.8149506290811357, -1.0616115412147948, -2.937371728566605, -0.011831522307224347, -2.3476612580201115, 0.13213337536507147, -0.5029087595575026, -0.05728866118442599, -1.1081398681906092, 0.9094031591003636, -2.0744944010318784, 0.4401008371596135, -2.2323140130969623, 0.48218016304696465, 0.31998431582944453, 1.3464931990825977, -0.47731246771063196, 1.873810905702515, -0.381273508568998, -0.009727077477669759, -0.03687028164603579, 0.7498110552751814, -0.24292860581619855, -0.9201236869247249, 0.38472836084711715, 0.6600873318082834, 0.4391613161458958, -1.080735066885027, -0.581622969474872, -0.29355841253534304, -0.46771884588139223, -0.8105916552439255, -1.7314796457867414, -2.1631155284842665, -1.3894551824748895, -1.1835126870707977, -2.268982559984261, -3.082853138255149, -0.741428065355422, 0.7342069938676383, -2.389875328557512, -0.2642645337541608, -0.9853421983095598, 0.5178724042859736, -0.9821844731985648, 0.7711768577229897, 1.3254794379764363, 0.8364295601302818, -0.675355506620824, 0.32068969434540073, 1.0207168292245705, 0.013069896070922099, -0.4483979156325078, 0.6057279164976275, -0.5637982777947469, 1.0751541177439619, 1.9257210862968575, 0.4975283956736679, 0.5973989475624207, 0.5813210367891241, -2.2651646568997243, -0.9637059834202756, -1.819067105713397, -2.367615804049174, -0.7248072821009669, -0.9979002488755553, 1.0410741402845824, 0.4366692875534626, -1.0911982269963627, -1.222647831181242, 0.630440435343006, -0.9896236207510929, -0.654912570743126, 1.6802043036014334, -0.04988628894635552, 0.8231821824893505, 0.25339979714016203, 0.07040004879321712, 0.9084268610138546, 1.962818577211212, -0.12984019682400957, 2.803014069048818, 3.2358374101947693, 3.2597277690114486, 1.4244800208805501, 1.696897185024042, 2.3346947340533757, 3.5486106678313485, 1.836943234039027, -0.48254369880232584, -0.8881927675817556, 0.4979664169987115, 0.1743926099397476, 1.6547212486513305, -0.9728828999834246, 0.20010179886689758, 1.3525802037469845, 0.8159583753828292, -1.51942154300381, -0.9287639813479902, 0.5294289653645363, 0.2837021309772018, -0.04711308285052677, -0.027186355557520397, -0.7734816723448716, 1.613649674135009, 2.8836447603420474, 2.317008125546423, 2.2648102384411417, 1.3080963342296128, 0.5348585110937556, 2.875994330631738, 1.8194098902184912, 0.664502516666187, 2.3618581653212223, 3.222021472775522, 1.7090739154177845, 1.5325982991193985, 0.20197036908324784, -0.012889672866542735, 1.331530100469682, 0.7353453662702419, 2.1945988995393066, 2.096985405038695, 1.8361665667102185, 1.6515857301245411, 1.0161119105990122, 0.7111495001071794, 0.5199967971118198, 0.5178805234863717, 0.9047481270111365, -0.0409979011487489, 1.6130103256742878, 1.566274195928132, 0.17181254235552723, 0.6047472588903557, 1.2963301081014527, 2.108857969022143, 2.113537412918062, 0.5828705747419485, 0.18658807944689998, 1.8330334845907255, -0.1593781437434, 4.297262159815643, 3.7035984073732937, 2.467989493393812, -0.9807210259212864, 0.01312227396323351, -1.4612891205836338, -0.5119565735047438, 0.5907728211127067, 1.2877846050547561, 2.6953122003346803, 1.473248067354781, 0.06814232222616085, 0.39878943815242196, -2.4689715222141704, -2.348137899598145, -0.14124385423057298, 1.8594924645346294, -0.6856166536445518, 1.6625053404928563, 1.6506536378085612, -0.9405343855222297, -0.48238148097098743, -0.3036532026824571, 0.6169073857584666, -0.5324792025745525, 1.771230081805182, 1.9807083201362243, -0.21204244224582627, 2.5090474548411192, 4.8009746055414, 1.6185413020503667, 2.2232429997515952, 0.45882087038799013, -1.4915771811777943, 0.21468576947356077, 0.822968933024272, -1.6859090128776284, -0.4148812277423554, 1.806374661228017, -0.9757571694818351, -0.10879352469585378, 0.17372551909649514, -1.601274078100449, 0.626055621373227, 0.45677144670225794, 0.970060932851431, -1.2469396915119633, -0.7441480396430922, 0.14295602092327123, -1.9546293093965967, -0.6038830170324881, -0.620961367502528, 0.9341697667569498, 1.659706344581533, 1.1721074885956597, 1.5911228769194725, 1.6240050400638877, 3.5816156290192707, 2.7290240364874476, 1.7238658593265208, -1.3275173865810161, -1.3451995285577838, -2.0585962067282946, -0.7991836094426595, 0.9273442288503576, 0.01046533942360707, 0.9752682812449267, 1.076482993554923, -1.7337444891364755, -3.041773658224732, -0.36310496869071973, 0.22532693798428843, -1.048523348110568, -1.0721010543145206, -2.2967840924434655, -1.9120031811705787, 0.8768895965729859, -2.8150715012148413, -1.2816084216118948, 1.4246523039323797, 1.0845044746765549, -0.6439918353031839, -3.446516927643357, 1.0401649283744596, 4.405964461419767, 5.33593810982139, 1.178089383193154, -1.8750388889021314, -2.2567649913553804, -3.5121264326279964, -3.0042294723304677, -2.7807675719073943, -2.721191417023585, -1.081298251514053, 0.2512187501785621, 1.062090815589455, -0.03119895642110719, 1.7144611835552082, -0.0072878340325271814, -1.0030978077326165, -1.798656475780639, -1.1869602789882425, -1.4697898294137153, -1.1712699388203722, 1.1360571031709643, -1.366246426897513, 0.642268943131326, 2.664457235739751, -0.13244122918276366, -0.18127534175497467, -0.06791998678507909, 1.9593572700434096, 4.581641043682739, 2.811907574559134, -0.802176617825969, -3.9224138439601934, -3.1293150704682384, -1.5048605400196244, -2.834686560581117, -4.6416803146897845, -1.6747386149695616, -1.3304993447194338, -0.13049842086032254, 0.5514928954365927, -1.1935400734726538, -0.0299941537095006, 1.0103273719985162, 0.7715330578070292, -1.5684227727446802, -2.339202019551476, -4.055277698312466, -1.415535899005075, -1.5609382611846243, 0.17417326756444274, 0.8432116668878602, 1.6850981294274952, 1.6527371654055527, 2.485561094755023, 2.410298760121437, 1.641952557633076, 3.102967278714731, -0.478363711323751, -5.07599855652162, -3.1218663206076562, -2.5637398330239565, -2.8922262766959803, -2.195530281945689, -2.1641485247052805, -1.7932874662433398, -1.7025899338095292, -1.8954454511253804, -1.3682450536859354, -2.577153654289497, 1.3116145267903854, -0.655763398205291, -0.43605462206305445, 0.2074695379769114, 1.1973494901564294, -2.0467079226090465, -3.593479006583531, -2.0625968668081396, 0.6141377808696635, 2.0850530710227075, 3.8403998793299627, 2.0027644189615197, 3.679561830609952, 3.1844709313156225, 3.7752458421103965, 1.0798286467231577, -3.283133823969706, -2.4476651770700224, -0.4098185632665473, -0.41745422388926884, 0.3890284032976867, 0.38643452899057834, -1.0202408399177316, -0.6933885974559715, -1.471521698668982, -1.6202903594581297, 0.5539311741275629, 0.7622496420331787, -0.11865792906683369, 0.2491679781610711, 0.5893740319422698, 1.296957029298975, -2.1441997409010436, -1.8121558495404435, -2.5285648347561485, -2.5673790757420822, -2.2545276901922167, -0.28888180285394355, 0.3649596071742641, -0.626875439558662, 0.6643002465414432, 1.1929629258951262, -0.23597118543004544, -1.5411564918385676, -3.428350028006171, -1.4150662780405245, -1.2039968164120465, -2.0760481530371906, -1.4108712300208435, 2.775271708466854, -0.6214353854577435, -0.6716365143540142, -0.4517025188842367, -0.7949263307446426, 0.1477530608396649, -1.30234900532567, -0.4360230572153577, -0.26690353890591223, -0.017657681657569795, -1.1426556504948921, 0.6975602200116281, -1.6574565685787446, -3.842919189098595, -2.223769584564302, -0.6079579299402907, 0.261320228181546, 2.0625349710257836, 0.024963175013057674, 2.298155231923165, 0.14588338429028488, -1.660036574436523, -1.4267866089646304, -0.31141556706019075, -1.5596688551493825, -1.4549509406367136, -2.5306812685046327, -0.3891986644173936, 0.5508444864875883, -0.46508791589190035, -1.6451412484727463, -0.15497365898532756, 0.8242817027717767, -0.08413133137336092, -0.15544208859905725, -0.7041476609404115, 0.28122785818714796, -1.9984710954345468, -1.2940269490045815, -2.0219833437600014, -2.2612842968360134, -0.4811736851954135, 0.14121030237789142, -0.8950242750729549, -1.1386281445371158, 2.266618307124158, -0.9941449594144622, -0.9239620046360462, -0.5795429878987614, -0.00477199997061552, -2.9905327975824445, -0.8135942324024257, 0.002140795971880356, 1.2070514683868225, 0.7031972466955086, -1.1994414680952228, -0.8672709581700616, 0.27161675080470987, -0.8148789617844473, 0.2479304119419544, 0.4400497889334339, -1.3543414702368992, -0.36454450648363623, 0.6038515328194675, 0.8391664871118503, -0.7198692647768226, 0.42499826787069594, -0.2749229540143151, -1.3962671345785747, -0.9785975548452315, -0.442656543066426, 0.7464884363265906, 0.17683318746123114, -0.19526800712051914, -1.1989371009939398, 0.1137212959921439, 0.7477769266564475, -2.1446805072993436, -0.29678107033272577, -1.2067848135323274, -0.89809557058977, -0.1315358628100228, 0.622738262578232, -1.1988936374737305, -1.2653642688808528, 1.4487151314144895, -1.1858607206732128, -2.006043982082269, -0.7618744418695677, 1.0145661276607894, 0.2902721551749519, 0.16432619160861006, -0.3008661572480707, -0.7824908750656753, 0.7004479412697194, -2.018621694501235, -1.8042770251488414, -2.1851267577716595, -0.8934619994673941, -1.112319464087606, -0.8894161216620886, -1.0203737159340505, -1.1265808697033948, -0.14552077676659578, 0.23595442236938266, -1.675575284729966, -1.4433107180158742, -1.2085901666291263, -0.448610860759655, 1.5448998835567451, 0.26917590368314354, -0.714378930611083, 2.293342155141909, 0.5451288681435222, -0.3036610083378876, -0.07810302314531685, -1.4556724941820425, 0.8519903025158108, 0.3125314814386555, -1.3799819691880633, -2.164910075991758, 0.5628681061380109, 2.2833884594410923, -1.0357472169445725, -0.6742994424826837, 1.5625374608572993, -1.1636511763856803, -1.1325162273780776, -1.0927304397761721, -0.6563153508286912, -1.3260967050008805, -0.683008250758272, -0.5443020385120645, -1.8042400545068398, -1.6659145885305653, 0.43910743055268087, 1.1938493532068752, -1.032436766629308, 0.3047442176108808, 1.296839980167745, 1.4405906549507825, -0.11447208164285387, -1.7465571106255418, 0.25208582783140465, 0.5427663715208731, 0.805746183284004, -0.04683606328084712, -0.1541899540201223, -0.05155320147882356, -0.5400447134641048, -1.0390291636593156, -0.3693474324950541, 0.8912799221369492, -0.9069155465054228, 0.5499567815728951, -0.7852852817166247, -0.913243312656961, -0.910504672532277, -1.7669466291740221, -0.06002045213808269, -2.3115551293313494, -1.5647112921482795, -0.7146923854016101, -3.1178481906189908, -0.4761649879295024, -0.44938335484723124, -0.48529323909172534, 1.2254132395162574, -0.9196039275263707, 0.33557349373675954, -0.6576098301551266, -0.8732351625292121, 0.4374141536097419, -0.5090305665892035, 0.24703168676317727, 0.24869593252526637, 0.9744175180809097, -0.05848524430975828, -0.18698164919498564, 0.8171962929227184, 0.18751417084105346, -0.9629557714545844, 0.8150236110169894, 0.3850530879806892, 0.06357433250588264, 1.1747425330570516, 0.4330186125857217, 1.4695805344283257, -0.8484362732824737, 2.0576791372311116, 0.17563072426111398, -0.6067813714033985, 0.13527680882626059, 0.0008515513184685089, -0.5479952502639917, 0.9696895740170394, 1.4942666090288759, -0.786196734686345, 1.5077213145229196, 0.08186171359983713, 0.39010195107425655, 0.01768072595438747, -0.7857500467266594, -0.6271111090846219, -0.8456314129632895, 1.5716584988829871, 1.42117256216172, -0.6869653141094718, 0.07376400197770333, -0.25416795136696824, 1.3529171597392247, -0.6426005744464048, 1.55767032184954, 0.6262153180533199, 0.03370611330051081, -1.231882365530588, -0.5201593478201595, -0.38030591347483095, -0.8882606538832407, -0.4208727809078562, -0.31632607602659546, 0.02620212294726604, -0.9163935097986385, 0.6512162458593971, -0.6894407316678595, -0.787447254205622, -0.06651774286218817, -0.18936256104998664, 1.2440159269959052, -1.6193242878601903, -0.5288218711948094, -1.289025692494023], [1.0075506038618167, 0.8751274596299722, 0.6672828104986656, -1.188361377231969, 0.6512897502997315, -0.617363467203015, 0.5959453224660618, 1.6239313632870136, -0.0834037131660248, 0.1756196688031771, 1.786921831662913, 0.15525537471832865, -0.5723149897765205, -1.4169005322940613, 1.1462202956840022, -0.35867801264973037, -0.5870599111841787, 0.3919432984544697, -0.12002443161925848, 0.7338613163591033, 0.13526283334107503, 0.11193769713438065, 1.6472762554229006, -0.6925962023136382, -0.0856652309115641, -0.16009558227251433, 0.6593577423554536, -0.525415297911346, -2.0747835644836314, -0.905992576236817, -0.7699752884304031, -1.4322542675969077, 0.39749482875048997, -0.5972393302935384, -0.7112416067119446, -0.4543568468950767, -0.6014454535880085, 1.0126932412140657, 0.39749909652713894, 1.5230504527238236, -1.0678172900747898, 0.8478759544016813, -0.5727754700237463, -0.827963596678498, 0.31702448554963686, 0.4132521499428644, -0.6329922884530106, 0.8054454687174172, -1.79942731595026, -2.193093840847446, 1.9168027192727648, 0.24768572175397388, 0.36468994720409453, -0.4932643548958055, 0.06633394660940414, -1.0908504014142155, -0.918454535493457, 2.434361499288957, -0.10030862054090299, 0.8268379545284731, -1.6171118871911483, -1.314351850670645, 1.149535865268492, -0.5829152863611322, 0.47282518368609877, -1.9884500651154655, 0.6326059244087703, -0.9117165452982713, -1.622433618356986, -0.18924958190390903, 0.43011173234106237, 1.9269802790192958, -2.5351229703154363, -1.1125702009034015, -0.8603984234914039, -0.27096457744081487, -0.16091436473915605, -0.35282355348193833, -2.114817226811843, 1.06319676629748, -0.48140098981923196, -0.02427417183776484, -0.6486743356287993, -1.4980672606122991, 1.9146386076934323, -0.7378980671838066, 1.324174248336688, 1.0911083182018764, 0.3876085815856923, -0.05728430981159349, 0.8141902233881512, -0.437315337877121, -0.15703185950171808, -0.37456054012379897, 1.3096030124788889, 0.9869672325321308, -0.23780032258591033, -0.16932094457256755, -0.0763512146375224, -0.9668436512492987, -1.67542624905023, 0.1846866954852407, -0.8635819942461452, -1.3693152449785937, -0.738003953287296, 0.4842634856260311, 0.29623998686891323, 0.7046736503453123, -0.8298841198272963, 0.3495004587679717, 1.3719846523445731, 0.37562336814420827, -0.49773486194072425, 0.2722145500263375, -0.13255077598782927, -0.5060171687551094, -0.8851713633205905,