{"biases": [[[-3.4584784118109506], [1.4796722263581188], [-0.8709904323052787], [-1.411572354451139], [2.890067541761412], [-3.9913521100941556], [1.4755050408600527], [-2.1417305264930513], [0.8998320325561417], [-4.311972337259473], [0.3914856044154801], [-0.4235327922147194], [-8.346510726117755], [0.0557876776014791], [0.9617109506477473], [0.3781694075623468], [0.9297689077316594], [-1.016198922962449], [-5.106068870439669], [-1.1827931151892843], [-1.0703525511506344], [-3.2158003719033275], [-2.3069446323368443], [0.9267045870720508], [3.288920915545457], [3.7675134766322302], [-3.481394955021169], [-7.485870993421235], [-0.7351992069924084], [4.386518093788665]], [[-7.240325149372891], [-2.0793000059174], [-5.842614134030181], [-2.9787308893609863], [-5.810573664729113], [-2.186180060642486], [-5.999955537839791], [-3.3329070555978118], [-4.667466205233977], [-2.014247793592443]]], "weights": [[[-0.6338134398798448, -0.12336380313582865, 0.044996533748203456, -0.49147219009119103, 1.1269402157070456, 2.647532401451397, 0.4313258793988055, -0.42052262214690345, 0.35931066970453546, -0.5222053586159886, -1.5398885193873766, 0.3082329365675971, 1.7088005327943083, 0.9333996504061131, -1.216550043309823, 0.9205046985299157, 0.6285550152524809, 0.5160755160071471, -1.5737911923598342, 0.05054218391160984, -0.8170051883682059, -0.6460105246245564, 2.151596935190824, 1.9429621708025617, 1.8211873664198246, -0.33539451610333154, 0.8735347423985081, -0.7688962365618746, -0.3998181915317787, -0.4365325719618719, -0.3021467867277092, -0.6996545391768567, 0.36255796742086754, 1.1449044164450495, 0.4608903069263854, -0.08910902735203748, 0.9828156603817192, -0.2000567033311573, -1.544102516941679, 0.008333710364808577, -0.43832769082955075, -1.2245862341103195, 1.6262945236501674, 1.3821076935029442, -2.3680751370540647, 0.25252573420174496, 0.7795101536802829, 1.29760481819543, -0.8223498052971503, 0.22723748323019444, 0.9152977485495661, 0.8792882949701327, 0.5764396288397678, 0.2635725065614626, 0.4646514082079453, 0.9453561711395735, 0.0792725968058397, 2.08131557779149, 0.871080206218037, 0.5912425489843669, -0.010220550139576736, 0.11492020113972282, -2.1398668784689985, 1.1202587480080275, 0.6846250319959485, 0.8095073433554578, -0.4997424750706693, -0.15026659735992914, 2.2288155103513363, -0.6728275216650257, -0.3357724020135279, 0.1531209679822038, 0.5371480061160032, 1.6352102780410507, 0.7783760394192364, 0.08400275861320626, -0.18586827896727134, -0.24100867398652437, -1.7361117795587335, 0.7611290090295203, 0.3839038616329541, -0.5146078979498832, -1.4421096213878943, 0.7732795899040562, -0.04300288550770124, -2.585237025188441, -0.7812807459836716, 0.1258576430953001, -1.1187440664059307, -0.4795477554111063, 0.07908556029581905, 0.07148327764077021, 0.6299538578433778, 0.23426454707964936, -0.9051803689352437, -0.6967559552704679, -1.1216813516115267, 0.04754357867233413, 0.8940900631482109, 0.4277189434043589, 1.4797647535415894, 0.37099166123902066, 2.662376530080015, 0.8110041457504714, 0.05292938974334053, -0.18484109338169497, 0.8315666237196258, 0.9812153216374163, 1.7657405739381726, 0.43199879044548495, 1.0861242192495064, -0.1752319582807106, -0.17006404313547213, 0.37015942763001775, -0.35829119413949057, 1.0761256143282385, -1.7965466147536497, -1.5770847660932013, -1.58726705866091, 0.06505819043000645, -2.569200368480559, 0.009246716006520193, -1.6160456679913147, -1.1277996171839437, -1.744593922997734, 0.01223132217741305, -1.2252334814494734, 0.17978790192222213, 1.761830760106845, 0.0015108161672476215, -1.5445353650972324, -1.3562654020994447, 1.2179691440787426, -0.18997035018630862, 0.753165926709866, 0.80399876516009, -0.15023728881954282, 1.0458048716976196, -1.1015448232945304, -0.3617999613750016, 0.6151257923549194, -0.33239566908100693, 0.9862841820387152, 0.49698260593030874, -1.100603517626224, -1.1486164542001847, -0.8786521313260174, -0.3184741788543974, -1.2842898350737173, -1.2033398076350617, -1.0899434954032825, -2.4272309935567264, -1.0918236352952975, 0.19263923410092076, -1.0811870823100187, 0.3755228422416276, -1.7387854467799837, 1.2365325457632026, -0.05128598438356463, -0.06815711973150669, 1.2737358132385626, 3.4321199856120184, 0.06879918169126628, 1.3115463048439904, 1.1969743447771048, 0.5103762349450719, -1.1188650140174365, 0.27437188991205724, -0.2970528268816551, 0.8480520008271912, -1.053392808362473, -0.08943559346356811, -0.7210426496227648, -2.3969703100161235, -1.0601671097677419, 0.02766640040669187, -2.1180956454784003, -2.822095170582197, -0.6046051529170818, -0.7957624712853597, -0.6845277975586034, -4.281784336280922, 0.1575000032568165, 0.21466882946791618, -0.6202729094630682, -1.5839876940809068, -0.0995806447551809, 0.9928292239006793, -0.06767918400463788, -0.22916819857319198, 0.5974195539104643, -0.44791599688755973, 0.7073825652402395, -0.07682497612106821, 0.4832650995631615, -0.5810561170208882, 0.015971328905618278, -0.8985998783270012, 0.3696132085040918, 0.869987789325527, -1.8604610637387802, -3.116705408563335, -0.6872613509990805, -0.2134106271391526, -1.784082517272714, -2.2623371374406425, -1.910775918288745, -1.1259411121068335, 1.2091203966463917, -0.2548431856805406, -1.2128820775626743, -1.8113043726912152, -2.3843191470393696, -0.32299712414110104, -1.1094376773037025, -1.7469319055611814, -0.38996158612502796, -1.4641554091687035, -0.15833418922321696, -1.1093287031464019, 0.9699956620836536, -1.7229466790325845, 0.4472178472110515, -1.2544348258012248, 1.4868464959360788, 0.3355867203164652, 0.539214249504512, 0.5602505667134242, -1.4010047833866557, -1.9814001863492023, -0.2878079470411514, -2.059336362512157, -2.248134117660395, -2.490384730851483, 0.19608310121060263, 0.31163475107211797, -0.4282924840535623, 0.7114051838356639, -0.14451155084033818, 0.3452691300387619, -0.3653268172157306, 0.04214477924426334, -3.542612461971793, -1.079690954447225, 0.6753180103036144, -0.38674374361330305, -2.50539780954034, -2.2014201699321796, -2.8452706505798235, -0.6694151833263705, 2.654214842290128, 0.050060629717829735, -1.8402505457843816, -0.6775996972046838, -0.5385133960135952, 0.4611553827728655, -2.2221517670304274, -0.892164125714772, -1.4250577043903279, -1.443560447498648, -1.732676726127459, -2.2277267012478874, -0.952563902408367, -0.39453784747078535, 0.8949959092626186, 1.212305460077458, 2.787072126705368, -0.7692399761636579, -2.9202612953599187, -3.5790440804928734, -2.225179656929178, -1.9861126876388824, -1.4278499177051467, -2.2473244571865676, -1.1044181719653479, -1.8474978889979794, -3.418462496895516, -0.5823476230947103, -0.12856219403803668, -0.47874003244312363, 0.212620578280981, 0.6494214911614133, 0.2714230988365241, 0.16736390237403503, 0.004670645187289469, -3.331285435964426, -0.7068793429329869, -1.6592793822812062, -0.21434245049862727, -0.996814947751163, -1.415139243551085, -1.1869146891326405, 0.5302079414671428, 1.8127246347630825, 4.041261884544782, 2.193404736814738, -0.8158735041154462, -5.244128639613108, -3.9577101680209097, -1.2394681477371832, -2.151869890166155, -0.9370454249803932, -1.4005770897073115, -2.2582582545078225, -3.260157864771739, -0.3004411891654961, -1.8477389757067817, 0.4642549531837298, -2.0962847826602022, -1.4553473346667731, 0.27839289112696025, -1.3287566266812771, -0.6503232323515595, 0.17061938360001097, -1.6597123902971793, -0.6722563907927, -1.491437986926926, -1.5285633309796371, -2.8685441916435104, -1.9708588380601582, -0.0635593692055016, -1.9595404489755683, -0.6508509900255434, 1.0628932872289134, -0.38637293633390396, -4.3175918537742675, -2.2437676949287093, -1.5273906029987145, -1.9399978657350316, -0.3226526813106261, 1.1662636949261302, -3.6132861786578463, -1.6658042772906652, -0.30769012548537444, -1.4977979588184012, 1.749212241043227, 0.8054429773489353, -0.591043635614277, 1.4211739575873021, -0.7327894329786672, 0.4497984517300335, -2.0991327147354455, -1.3073587947854675, -0.42981564107115866, -1.0494193809729633, -1.1468717937456643, -1.7473316567003983, -1.6571098282379735, -2.8988280565794846, -4.399807003270897, -0.22858631711939226, 1.683829531916444, 0.6925060265136874, -2.2008518113213014, -1.2928898640527238, -1.816547994715428, -0.416552413703944, -0.34864547374048993, 0.45115252872539774, 1.1322599291826763, 0.5092003595338978, -0.937200744862188, -1.0780976656865715, -0.7495483424329222, 0.8070206359214256, -2.066733737136184, -0.7290155654685365, -0.05065323878905601, -0.9288090469809158, -2.513560865677131, -0.7901109566791807, 0.1069115949509086, -0.2259199679737956, -0.1262955202682212, -0.7653651231377847, -1.670428955646972, -2.2983678128620157, -1.463094787092921, 3.8419736161929494, 2.980896142761597, 1.4210390426579476, -0.6597477583342725, -1.4105356989768614, -1.80126647800665, -1.2340284787225646, -1.9687796429726434, 1.0841132829253697, -1.532183869998959, 1.1377261712909776, 1.0637661748086702, 1.2173560268248331, -1.8180984227207508, 0.4453627834589331, -0.2008762375764369, -2.403757148013957, -1.125241947501839, -0.22358487391008675, -1.544016838147383, 0.4612606713390891, -1.7621420918973103, 1.202397437805157, 1.5182464954864234, 0.02700938709990866, -1.5795397738719146, -2.354348948033506, -0.234394740645303, 2.095644570621561, 1.2557902295332617, 0.6437480076133353, -4.192228722886119, -1.8207241827833038, -1.3726587575428795, 0.5106213643737798, -0.35807677427708245, 1.1889616879384202, -0.2987596097180413, 0.8182488750919577, 1.477981948141534, 1.8952823499298994, 0.3600483278964976, -0.6145704051364695, -0.37205486219984585, -0.6884089165126257, 0.3019278039558246, -1.4421069289999107, 0.9267805420879952, -0.7161276873366957, -0.7115380939875466, 0.029384275119779067, 0.7109697623034245, 0.480788229836343, 2.1601590508906323, 0.2863730989693562, 2.571113675500814, 2.4032748648969013, 0.7033083024579873, 0.06380600002164431, 1.2056904736473024, -1.6373111257332846, -0.9470882651828754, -3.0176470046645565, -0.6877846050756193, 0.8510540780147778, 0.688783090122112, 1.562974421854171, -0.005902346456697103, 1.926015477094089, -0.4771985048562813, -1.4970662873436507, 2.7086138283500394, -0.4817452671015923, 0.11610883858226495, 0.1660441205221854, -0.3851501837378247, 1.5105624409884015, 4.547896338342458, 0.1258972579132462, 0.4000225454470316, 3.4754461206740705, 3.556974738868181, 2.351855530130568, 1.0981505472376567, 3.850461819700574, 2.7803709817395807, 0.042745444262432694, -1.2062247138525226, -1.678600423633519, 0.19354733873606747, 0.12218485292581288, -0.4489518535845169, 1.3280589298984682, 1.606316072356729, 0.522650544066172, 1.7453922655904557, -1.4642300335349887, 0.654267461701994, 1.1474400413872137, 0.398884598680839, -0.7071320066649789, -0.533681915415952, 0.47142254575243914, 0.04232926374176869, 0.020756762900912613, 1.011231677213655, 3.1531735429296868, 1.9457233368683904, 3.2352313590859634, 3.324545610786138, 2.694396761426034, 2.3081190114296226, 3.0912452184842203, 1.0886346892137961, -0.45645820199299614, -4.058786455462153, 1.0421291470582799, 0.2096670544973397, 0.9662901481872773, -1.0567397977254194, 2.4964576310596907, 0.2513094943821423, 2.0176515664509065, -0.5734139519182464, 0.5909821230446768, -0.2916350102010296, 0.7993505734120817, 0.937842854407274, 0.5352090771966012, -0.38729155435767926, -0.15588966691041894, 0.18989887088479732, 0.0498750098734445, -0.11203148363220665, 1.6005437230146926, 0.7802547368317965, 2.8093756355985104, 2.748364464292709, 1.9949789806781955, 0.40882443274952096, 3.8932620937113445, 1.1441065368793413, -0.651239511412674, -2.2922275557772105, 0.6570004184692104, -0.586650806363366, 1.1787445756542956, 1.1672750842904407, 1.5017397174294274, 1.3244152461866818, 0.363838019737751, 2.3206887301396106, 1.1376750200068828, -2.2766265058700124, -0.6613446435532926, 1.314703516247132, 1.2615193419558866, 0.632913320593272, -0.7208043618284096, -0.1638745410681408, 0.08164748817371402, -1.383990966003509, -1.008169698498986, 2.171908896651798, 2.189451740968781, 2.3691911715370346, 0.0916482689390224, -0.2822480121154211, 3.154794448690866, 1.386858853115082, -0.059260441949127794, 0.4821817139321384, 0.035526463837974934, -1.1694675192971455, -0.5124596519862545, 1.4739915285503546, 1.9228245077402648, 1.7481370856576326, 1.909095169233052, 0.3537076372099197, 0.17799733938200457, 0.5599440950491684, -0.9163176834300076, 0.1728498894857698, 0.8186539813558108, -2.4228619529543867, -0.6087773024089492, -0.6577703070352982, -1.3580371984965176, -0.13445297502421008, 0.9831861999823659, 0.7509409093748614, -1.1712460409345302, 2.4471446902963936, 0.9931736715439328, 1.0699092665887147, 0.7083006331597859, 0.9707571663320086, 1.8482876523320997, -0.33244377685209836, -0.4026199441009348, 0.6895489151630754, -0.5909359344162455, -0.04448088312621477, 0.023290049231827214, 1.4132398028516122, 0.9829474484205465, -0.25783498784857556, 0.01262905158426283, 0.12736471211187606, -0.7940353216809811, -0.7686385812052935, -1.5154654303717792, 0.13148957122451546, 1.7929639884313906, -0.22932835893231987, -0.18925898530390575, 1.4777250039948078, 2.655275501438136, 3.5081282009323735, -0.09266391142584736, 0.6783224876632253, -0.7146667074814071, 0.6796396984696159, 1.0750852010341603, 0.05426384859495512, -0.28485434167676554, 1.3629203227955813, 0.5200205590581733, -0.9109082612056507, 0.14243967941376706, 0.2714662343406877, 2.1126564006939037, 1.9426898142043494, -1.420103550706536, -0.4332068057207229, 0.3829330933707661, -1.3164299843511282, 1.0276842097656615, 1.9500601204585375, -1.1619103193345273, -1.114342530851091, 0.6254930049464329, -0.5488574506222926, -0.8110597167088247, -1.339210961348225, -1.6759453573453595, -0.6482683188548772, 0.3472799494492975, -0.6963140426385261, -0.5419094458361262, -0.07513208115922095, -1.2021813996738888, 1.468850382466396, 1.8836238661271816, 1.7614928681046373, 0.03968922359536203, 1.9288185953518835, 0.2106205689036652, 1.0413761674294706, -0.41267537351013367, -0.8510088754754553, 1.1370326388921217, -0.1405302252498135, 0.3421132026615699, -0.08452678788358003, 0.18886407010459005, -0.43734676659105554, -0.5430175524942069, -0.42016567653602044, -0.8984325854840056, 1.8771207255274536, 1.2923295209634058, 0.3569874593009681, -1.2754542277311727, -0.3954528586293247, -2.9697895062119466, -2.1662060228803557, -0.2175460382210904, -1.3614596451247258, -1.4059782701548518, -0.9514452376144382, -0.846703643621562, -2.7157931530484025, -0.02168544578855805, -0.5298364979423749, 2.0000249292593724, 0.6815202118096917, 0.7164188497100565, -0.2846692840680709, -0.6334556494498303, 2.369589748615264, 0.8587649594404987, -0.8832704031204824, -0.04080074116655443, 2.4775893358896965, 0.09092703017336709, -0.24218237742327958, -0.8067026200698917, -1.5555481924821106, 2.058878870925912, -2.682378326620045, -2.61946556851302, -1.836061763071635, -2.4922411117836525, -0.4806657252870428, -1.2790139442707622, 0.018605445295060138, -1.1744051027319409, -0.5317748795997724, -3.1175902179424178, -2.921161710793328, -1.5760268457255093, -0.379355521217657, 1.5292060958485416, -0.3679931802134131, -0.9131785031948825, -0.6712712471497481, 0.5578469201082605, -0.25325529231403004, 0.7909800421084691, -0.8197102212568632, -0.40282806862953874, 2.314728532733434, -0.7349903247608295, -0.7034738061371234, -0.8230780821014759, -0.4510856772971062, -0.9263606598857085, 0.19999094556668082, -1.6284329942423483, -2.630219456710984, -1.7086869640967919, -1.3848369320510938, -1.7490757497057188, -1.3064536641207762, -2.208235006856616, -1.1517600093438334, -2.048333336193662, -2.3259814553121774, -0.2605974871430218, -2.8752525571471588, -0.026841970477286196, -1.8956802570975666, 0.9057094447688184, -2.5886718816585637, -1.5791622147378641, 0.3966819523624541, -0.5985335302662821, -0.5732470284181336, 0.0413902429590511, -0.6211240148295871, -1.7050294353325404, 0.06359036671233695, 0.4431651899764198, -1.3521800155510295, 0.28386745837705835, -2.0228714132511683, 0.7151591743739157, 1.0766806062163286, -0.5199951726886599, -1.4523001073491133, -1.1717156065178964, -2.13311155584125, -1.9960640257948463, -0.45125317037072227, 0.6043357323132065, -1.8162811792139444, 0.7303307300752097, 1.1183193719987343, -1.216197500856325, -0.15717148717732046, -0.33371120992247555, 0.05915321756933751, -0.10338323816914478, 0.3592585350506572, -0.8843017657502183, 0.3888718387504577, -0.777530353253471, 1.1552596779665047, 0.18511995977277845, -0.2945451864868323, 0.8390955308644523, -0.012788317668066474, -0.8599499707099055, 1.3085651384283497, -0.09655724923200516, 1.2516434083592198, 0.49512699074818745, -2.1484524036302903, 1.2321118104991626, 1.1945084362829734, -1.453404572526896, -0.7620244722216901, -0.13627049759459653, 0.5031690648799465, -2.1819452951235516, 0.44277976742614167, -0.9288723663418545, -1.1674570291820296, 1.010178829527798, 1.3790928724207165, -0.4744176372167263, -1.2767121392789698, -1.9708792570000215, 0.3943094717398636], [-0.5801586139957673, -1.2598198218591539, -0.8254173597790593, -0.3672630286758028, -2.239382040541965, 0.978542912422434, 1.4886634197584665, -0.20279887041719769, -0.09527207722149081, -0.9076104256433127, -1.992265684127504, -0.26242394199527097, 0.10254316146449935, -1.536308960233009, 1.6549890398513534, 0.2916679486446906, -1.1663664576801318, -0.3799115385083248, 0.56120679942573, 1.5500101272332485, 0.11161037240866456, -1.3902853994738942, -0.589098449543257, 0.2909706965958633, -0.5680254051056157, 0.8589951564312333, 1.421932207068725, 0.9895556112707752, 1.7006812848818553, -0.4285223564191982, 0.2925930473008131, -3.1188532559597184, -1.6979154917712262, 0.8088789118776643, 1.9929951229378648, 1.7239719053786482, 1.281109823475922, 1.168651908797342, 0.2283159406009921, -0.22927333125108987, -0.7451926912370198, 1.375820792520854, 0.19950554512307453, 1.1464683468756383, -0.5616682050704632, 0.6994781894373339, 1.6351446958274058, 0.010740350244752733, 0.24615790650997948, -2.4255687220451985, 0.9785098018547025, -0.2095274257064358, 0.264435495580149, -2.0039972961605117, 0.40530874180719006, -0.13340050631416533, 0.5272385441592458, 1.057966275237347, -0.15635982670396845, -0.3285366179220624, -0.3640901735037979, 0.966048031871169, -0.42555172336447905, 0.25992873606771266, 1.4067972163764972, -0.6748193326632488, 0.2906614174452121, 0.4830401550861138, -0.09626875442785855, -1.6144440704298224, -1.3900056536177414, 0.919425289903902, 1.7382557823039972, 0.3722854830190822, -0.3570735220849678, 0.8291566740597787, 0.11816659094834886, 1.2549490427187324, 0.6866731705573548, 1.2941350364539088, 0.2845594743451354, 1.2829085395458293, -0.3006395654242469, -0.5563594447514785, -0.10824376572028341, -1.6620436326641197, -1.409393729321096, -0.7881954069317261, -1.0296496360935803, 1.3207412291249097, -0.36003665185694933, 0.6442317790436064, -0.6896254826558282, -0.5453885717374043, -2.1078981743429837, -2.6640816050392337, 0.13396054102432514, -1.2846147664042116, -2.767878818740081, 0.08240804929391041, -2.449939405163401, -0.3040532737302009, -0.8850185959315662, 0.9777011715663343, -0.05884362152455823, -0.31430991887084636, -0.040275404447151046, -1.383350013484621, -1.0721961537116151, 0.204189870407345, 0.5008728649044867, -0.19863909318949652, 0.1641516424004859, -0.3994058903011756, -0.06723520941854254, 0.6651290607334085, 0.23897709543345944, -0.6296291318046072, -0.6214128100025172, 0.0014635522501903826, -1.7841831063129758, 0.7476701447385133, -1.3698870437263646, 0.05864939361610154, -1.034382339984445, 0.18729741567117836, -1.5919772819651, -2.345918448676073, -1.6042006624878407, -2.8347867256079566, -2.228333430857633, -1.8358608770283886, -1.3363510804377765, 0.5921588280423377, -0.6562688108487785, -1.1983139152347817, -0.9430650824622518, 0.7179189402269136, 0.9845372272463423, -0.8148648823188511, -2.2562066066935285, -1.029013614581768, 1.5690706554866758, -0.3969463022892361, -0.8151880940491687, 0.5174982280834817, 1.0774588927197284, -0.6716704396887425, 0.19859917968205942, -0.1714436035462273, -2.1785048369400584, -2.206232514241412, -2.346373074183689, -1.7664857158607032, -1.0908007839236953, -0.9019650132405345, -4.760906318463666, -2.370103483617574, -3.406142034320487, -4.1358979822837245, -2.9777895282978064, -3.813520798707942, 0.03640985025807583, -0.3977561124718502, -2.0754557688595274, 0.569320473359043, -0.2064524409171684, -0.9808062828381391, 0.8082080460158332, -0.484598271332143, -0.8543472671544412, 0.960222594164778, -1.1924027643474768, 0.760534628227573, 1.6065584892095384, 1.408324297117826, 0.21695354675728656, -0.2531358415754644, -2.8948014020095982, 1.1220742713126386, 0.17864690827912777, 4.357213451159548e-05, -1.8713618053223662, -1.0709468525608723, -0.8164182898115787, -0.4062607940412368, -1.2361706375111003, -1.1055552224781537, -3.395997968994466, -1.228127676823753, 1.6206100084834691, 1.838100849710843, 0.08390656770375096, -0.26743423872233, -0.9297096226021875, -0.38617625240107145, -2.2950966895750002, 0.5641856552315692, 0.7944708583169059, 1.468263033074583, -0.21044627472246683, 1.0293280826835396, 2.4100915448950255, 1.342822786110508, 0.20907720756964304, 0.01926112787914272, -0.8725763604947665, 1.535669195964398, 1.994022385183051, 0.24210349599382028, -1.344525564144781, -2.9568580009337526, -0.6148678793447017, 0.7897281217054964, 0.010762818633181124, -1.2678000542235206, 0.9772515602318801, -0.0918831380029441, 0.49608164825787543, 0.3894388228344986, 1.0680194626711774, 0.15975071683353387, -0.6568969287840982, 1.0409842089503456, -0.5521798231881683, 0.06504266659441615, 0.34692736934514806, -0.5451370598983839, 0.6515734409274129, 0.7745145383999673, 1.0969538353781794, 2.6205789720523227, 2.0725338624367327, 0.3095395329887495, 0.35531944650052455, -0.25594004936169207, 3.3751721571919817, 0.7363895506889154, 0.6504711488615212, -0.4677469102836114, 0.17242636454556695, 2.028519880785246, 1.9504159660207292, 3.7121757104904973, 4.808276350774898, 1.7617729383232898, 2.9213192097599676, 3.0786999390474565, 6.046380306764416, 2.366176705606204, 0.0636134927543756, 0.07035308976715422, 1.1857319807158402, -0.8749947390010135, -0.18493442116681016, 0.286914706495695, 1.581733591202928, 0.8627333108787921, 0.35563486807158534, 0.760875062219197, 1.0780459764988144, 0.6374331536046521, 0.333938146480795, -0.8449081175852011, 3.133504673965518, -1.4148892149138772, 1.9696815429322676, 1.9613844782684442, 1.6855284105857302, 4.0632339912463715, 3.588257707409762, 5.006085112216884, 5.5032955283419085, 3.92775513402609, 5.1154985620256, 2.754625949858978, 4.287316082771768, 3.911898568159098, 1.2288269528802256, 0.8959791300254099, 1.08527038342052, 0.510604330511029, 0.8718770386642287, 1.394620197904729, 1.1432564308201676, 0.99947133894619, -1.158383390307049, -0.09462708685630226, -0.499958255096872, 1.922480852326213, 1.5620866621268148, -0.37332088403824915, 2.3290659529102204, 4.9185721360681915, 4.902142997649903, 4.070906303351543, 5.30189678405691, 6.215941621138375, 3.1362023284380034, 3.481764465985854, 2.1299871027069286, 3.1993186292921476, 1.579245032628531, 3.3104700197050434, 3.690133016620388, 2.8839406146147817, 0.07588642711322519, -0.046367780241391224, -0.4968142042049318, -0.5167983933881477, 1.3398361864206936, 1.721551538283608, 0.6568457520365758, -0.7414680339557841, 0.32706833630640325, 2.2879909670391925, -2.568387033278887, 2.4781572399278198, 0.6144171551662526, 2.643998037988838, 1.9431164147339828, 2.5317720143247695, -1.1734062207729317, -2.8351907265095346, -0.787165051247021, 0.9452813662192172, -2.5814506646491764, -2.0161094509048443, -1.4012758781929244, -1.0557961321489795, -1.9926464923892162, -1.4044313063496516, 0.6045422334864731, 1.4265713891493932, 0.9754304409088564, 0.8921188485355548, -0.3915317014882077, 1.4249340226586387, 0.870583482864774, 1.7335118430721626, 0.05331094977447263, 1.218628403544927, 1.49056871413778, 1.3413010284529463, 2.3652970684681565, 1.704742135978175, 2.3585428542511875, 2.4356286135638623, 0.5299356079031038, -4.329693758944209, -5.556975843813288, -3.9647891862181157, -2.9152834582367078, -3.0518452930802926, -3.0781283576003045, -2.383165209541142, -3.2487398845807345, -2.144432447639944, -2.722439928991218, -3.006366559390932, -1.0035709822443515, 1.0522422654651908, -1.1517127562363265, 0.4950296968233039, 2.1442268949432495, 0.14435167314521996, 1.0627240850907702, 0.5767164844014175, 0.02700697825459129, -0.5358476707427992, 0.9988352918521263, -1.0577625921116698, -0.932107289843038, -0.38413745700072943, -1.5326094742320095, -0.7388306161134375, -1.7642657602138967, -4.931783463796093, -4.410659738594616, -4.763977943623461, -0.5056571426739509, -2.368376528783468, -3.420649388728274, -5.267603959243151, -1.8254432603702166, -3.2270645748400772, -3.9886084765630963, -1.2506805357804447, -2.1174516182890013, -0.10467432664115109, -1.0409000389040757, 0.3115417052427154, 0.5542700649152953, -0.8045867605471405, 0.35699565259889304, -0.8162059311994471, -0.7099072333591164, -0.13593134585781902, -0.8847001797738726, -0.797470926959903, -2.7395130158501884, -2.3286974184614633, -1.3570996520772016, -3.00176031054062, -1.8323100998841744, -4.738174805737858, -1.8513111478213358, -0.49618986698081263, -1.0073414955409943, -2.3073779852369687, -0.5170526611676568, -2.2035389054747654, 0.041486543490264705, -0.7720613383225646, -1.9114835142424536, -1.7122035963041748, -1.2801397659903309, 0.11136878801554105, -0.5033240112484149, -0.47243254249280436, -0.11630230531915399, 1.0262401177515306, -0.30860189202526145, -0.9718335213112209, 0.6647779864796295, -2.5354076147792903, -0.6833617719613453, 0.5351850959445378, -1.5514640751306072, -0.46235262540002986, -1.4888875086275053, -2.1961842412074084, -4.06426797849989, -5.357080295774166, -4.207393730833261, -1.2624861243239727, -2.50725303088083, -0.3895659317960502, 2.105212912113542, -1.047402482975414, 1.6389961690286539, -2.403666165042238, -0.4054162974905725, -0.9393900157952508, -1.4466987700819538, -0.38188232995202986, 1.7821237871082611, -0.46489731048315663, 0.9519680116380251, 1.7519628127048963, 0.5779423462098444, 1.1973647749848408, -0.09175590858220581, -0.5645550104274177, -3.5222649761744163, -0.3216702052554192, -3.8887039337289764, 0.11025279892890441, -1.6093002323299455, -4.397785953622143, -4.195544625847832, -4.287011383726371, -2.4614132567329117, -0.0925223720533811, -2.5183409528800476, -0.5219226135637021, 1.2585599205017601, -2.8202977554252784, -0.04648055568034875, -0.1439082383776719, -3.253641741015777, -1.5355479847675224, -0.36768374468851134, 0.20350127313694447, -0.014606471655880858, -0.07300075921129466, 0.9369666000077097, -0.10644770304233321, 1.665932963317772, -0.69039283264481, -2.3087782367985192, 2.05344311293046, 0.3811836565692773, -1.094312683945173, -1.4171050856333522, -0.9665122333526551, -2.0211660155484443, -2.3601735498570773, -4.643744047875497, -0.8246885004163592, -1.5563260483168015, 0.0580968836570817, -0.4558035189978372, 1.4152221624343828, 1.8872555341018085, 0.01442240456280409, 0.6359419833501688, 0.5443272083338635, 1.1086151742659043, -3.05261686101648, -2.248870986138827, -1.4278980281262146, 0.7338649881940585, -0.4950658134949395, 0.35369002977092673, -0.3637865601571818, -0.06038309293434128, -1.0481462935757295, -2.628973050079532, -0.4138766445111509, 0.8193665768465542, -0.18196007857936028, -0.7510423915491865, -1.1342115713298944, -1.4814154730476885, -2.066420253310796, -0.006564428273131006, -1.2559536128612407, 1.2838891429102564, 2.0111043098011456, -2.641278730572022, 0.8014929889226035, -0.279841914855707, -1.965241824157717, -1.496024436981139, -1.2633243694183798, -4.152467111936928, -1.9390155093327013, -1.929829892977305, 0.5711450888324754, -1.7618191034494965, -0.6979322851460634, -1.3126682533470158, 1.1226786810268232, -0.21957227859418324, -0.01762460715511436, -0.8397940819968657, -2.499166207217283, -0.673654355829232, 1.8801035723181365, 0.9467325217942554, 1.1298963477423336, 1.1503033263463915, 0.20312872617029748, 0.8368943990802261, 0.05375076513850889, 2.3037076628164925, 2.149975505855668, -0.7598279657146579, 1.052825669378775, 1.1581774310759796, -1.3428911083655894, -2.039692682181409, -1.898956842610362, -0.8439851382439635, -0.5942825208224479, -2.3794003003801247, -0.13914528359672368, -0.7370665286267096, 0.19581535993672278, -0.5187776462695122, 2.8387540702224823, -0.4599262755253795, -0.07012093337128007, -0.9573225859250757, -1.447642750626551, 0.569264566149082, 0.3653078875516616, -0.790084026667967, -0.5404445534755082, 0.24423786325224076, -0.16780004045239358, 1.5678384941720382, 0.8579984760762944, -0.8510355418112933, -1.3881655936567237, -0.11336139601311876, -1.10483613774637, -0.05228828056369225, -0.6732150562736823, -2.0300659879003002, -3.0356433007264885, -3.1344804398280885, -0.08203086733616344, -1.3825265226041594, -0.7922129478923854, -0.0626374164193803, 1.553428581918935, 0.857407999127879, 1.3638817825385268, -0.43342788426868095, -0.51279281627632, -1.4538682124066644, -1.0144356670621666, -2.3753006177278166, -0.5250468614265901, -0.2793692807889579, -0.3110387805415745, -2.134433002049342, 1.6956157592252823, -0.3308284993644381, -1.4415326476839825, -1.8712027442768067, -0.5291767406233943, -1.7882586739009996, -0.12712903725426594, -2.3825727585135144, -1.472149008938627, -2.549828629748015, -2.2404226522155506, -1.2142185765519047, -1.2238668028741275, -0.7190414965648078, -0.9915515555702824, -0.530488242562273, -0.8344688497854352, -0.14513828150095331, -0.020492913322089263, 0.6770113934341838, -2.2746197256726064, -0.5127331730394954, 0.1532284142005487, -1.860428274044909, -1.448065359279383, -2.7951490228618336, 0.8950672498686169, -1.9512536669195994, -2.6610548766956517, 0.2534953114458857, -0.4268968263870197, -1.656262816842511, 1.2516443776873032, -1.040957307254132, -0.5756242767285501, -0.4474182929165708, 0.013033102084534646, 1.474430855049599, -3.2471802569579302, -0.2195087630831543, -1.1120647730804831, 1.3013456410093325, -0.8815317460181692, 0.011422157628242124, 0.8845403627170396, 0.418343401097016, -1.3668636886390628, 1.5548541042326713, -1.8864494766494961, 0.43257276232579595, -0.4405792954347507, 0.05000815943449753, -1.5438530895429479, -1.0745977176535604, -0.48508856867604977, -2.3561758506600943, -2.276839429897012, -1.3344474812895482, -1.416290605640005, 0.2229977202341402, -0.134689320714005, 0.056705206689757655, -1.130483527140377, 0.1873281494236889, -1.8074498656015239, -0.42087185677203404, -0.5534492295146569, -0.36076531111831334, 1.471735912457132, -0.6460823562414615, 2.350735913380705, -0.43584377364635024, 0.025218664745666475, 1.1139165094362138, -0.33810037573492313, -2.0505719716379476, 0.3590238580556862, 2.3384448812750103, -0.022539179971034266, 1.7701670813619148, 1.128757976097434, 0.6114931063392184, -0.1627674721253891, 1.1700336965104297, 0.927157032578575, -0.6490353302004293, -1.2113707106139984, -0.991231017434269, 0.3427371614270892, -0.44909161579830315, 1.430678239363826, 0.14802545411638685, -1.073291739278709, 0.5144237092766542, 0.9686879645592164, -0.08722526071052629, 0.11726908699797214, 0.404191843446856, 1.7793402967648027, 0.46433316525215734, -0.2778695120264294, 0.7222680379683621, 1.3487139056078463, -1.2473595284793608, -0.14720986262052954, -0.7190806644534666, -1.2184957385320652, 2.1244597889481134, 0.19765188481023369, 0.13326194039453187, 1.4663038501052963, -0.5523825173337357, -0.7292909274756094, 2.0795071527285924, -1.0965338817894046, 1.648918442818374, 3.0925846171787352, 0.3319571698354642, -0.9035510321332659, -0.03684662787425013, 0.8841455059798013, 2.0172497190604237, 0.1731416727848011, -0.7846458987127042, -0.7958745292021538, 2.017856234800289, -1.5427812935366392, -1.1263094795979, -0.48374507915492665, -1.8033954532480798, -0.7927943249146739, -0.6021895840298048, 0.600618706476999, -0.27214534803831536, 0.5102040662702859, -1.1541046302659592, 0.526409229267336, -2.0753108714131923, -1.9153345071436292, -1.675115834510867, -1.9864758949834227, 0.07476465010629173, -0.03097463960468277, -1.6491439816118187, 0.1556911434228494, -0.1499822938962593, -0.27810003708001435, 0.3924958736236861, 1.7480568582518103, -0.981955224507474, -1.371251298695088, -0.3690414088252304, 0.963291000794034, 0.6855717939693871, -0.36083319451120577, -0.9765543248352332, -0.32059096578525026, 0.8818552823742499, -0.2164631023729798, -1.3691516721543873, 0.6099458690174374, -0.3876337096412493, 0.07372788908753393, 0.7696790257394016, -3.865521721967442, 1.9261630873420792, -0.22986987645472404, 0.5553599364208389, 0.22511557636257754, -0.5380700084261222, -1.8021941921417475, -0.14112398688880098, 0.004377757536928488, 1.3739051398668094, 0.6132588554309525, 0.3301918813848491, 0.7648685350424697, 0.47996548292740265, 0.751436230567764, 0.6521931729121377, 1.5819199679200744, 0.03700750340397772, -0.38653752428315086, 0.1057357697101039, -0.7757060791101268], [-0.29184715292591756, -0.29587945396577114, -0.020515435529020742, 1.0663005052856904, -0.15031307139592706, 0.03791522100908075, -1.1279022610859148, 0.9403251796861936, -0.14139233422260933, -1.3385147221690499, -0.027888482192689832, 1.3466812081609447, -1.2007135768473831, 1.3521777732691174, -0.023856487679719842, 0.6655570015901922, -0.21976086305602696, -0.7115483186688936, 0.7043222607902098, 2.049585744491213, -0.18226234044937778, 0.26087277890343985, -0.3055086736479175, -1.1840131363480164, 0.3926123541066264, -0.8701444353749241, -0.317246665117911, -0.29514839983289065, -0.7854894477823373, -0.8212500718158124, -0.13447798926004717, -0.24116274336717128, -2.1869564615691837, 0.7430843638855494, -0.4320478561486693, -0.6481925491216607, 0.44540404526133676, -0.8296482160381331, 0.21363211444430483, 1.3787834013032567, 1.4135228753086961, 0.3515448096532732, -0.10450609538012282, -0.9232393754951262, -0.709498355476721, -0.7877737516944777, 1.3643347623390982, 0.6842366898655519, 1.5045047764486983, -0.38963713758122737, 0.7876012924944659, 0.6839447032816923, -0.3972796706872609, 0.3795009404696161, -0.19546309093640074, -0.9922202255594589, -0.02695405237152199, 0.9958217373845645, 0.5820733691940743, -1.1303945642515232, 0.947798155651996, -0.7919514583073257, 0.5890952410941722, 0.3449293189726463, -0.3658875030417271, 1.400491509954289, -0.007616333889659501, -0.3894458029338934, 1.147360178830895, -0.32018684380071816, 0.8853207060860189, -1.5215278551129925, -0.0015302037401707998, 0.6858055540735298, 0.5871264782793382, 0.18122400244660952, -0.44546335952118615, 0.2473389872210707, -0.051636369203875224, 0.9910228424368281, -0.6751054944091797, -0.3914678778933009, 0.052274595922391656, -0.29250839651867655, 0.9943434707885351, 3.0361508887900577, 0.4236083230985446, -0.6138127697646218, -2.2297069071184135, -2.0543755112302398, 0.9847418514377717, -0.3868967063304925, 0.6571687749794632, 0.7964984795187391, 1.3901563885886508, 0.8879734767220008, 2.3295739119566754, 1.2961574012872024, 2.082357232979978, -2.8468725432637023, -2.1390450626626314, -2.254944014064117, -1.6519871965656192, 0.5801569149659742, -0.5451293594890384, 0.5002923534404128, 0.2922432359725149, -2.2557705842795897, 0.284722233965034, 0.24229840964131397, -0.07127447524484787, 0.8314192098123152, -1.0269262392434, -1.7377513947174401, -0.743378813017377, -1.3266047248031443, 0.6229208123540618, -0.7839867022466609, -1.8292930843653366, 1.3685886442105637, 0.4693049856457482, 0.4332675432526833, 2.041657917838331, 1.6075584917407897, -0.23498292011503372, 0.22301510634426572, -2.101704950416654, -1.6435760735916343, 0.6934764200286974, -1.6355498249735392, 0.404326343313418, -2.261741434359213, -0.61137086152237, -1.8961238187719496, -0.1616657798632085, -0.39194151083447454, 0.8986126016753047, -1.6513008509166034, 1.5874505371209522, 0.7888846475604305, 1.4505381916956253, -0.749938985200521, -0.4528008296519393, 0.35533733933825307, -1.1066523527939498, -1.4934638392051018, -0.2507681291891924, 1.3394205393982659, 2.9733038168877326, 0.4778331391498282, 4.111699080139596, 2.531252912385358, 2.1871799260141893, 2.8762182322144936, 0.8949738031142151, -0.48596869637396545, 1.810689897477379, 2.8592352202324594, 1.1438836886747832, -1.4447356859530367, -0.4651019541278599, -0.8720689996098395, -1.7101301801554327, -0.4111934825364683, 0.21454520408687278, 1.0328711963343915, 1.5676225729746016, 0.3399517679674308, -1.0621856033803496, -0.45822895185179097, 1.9843563227207686, -3.139947234758956, -0.21901401675705698, -0.323557249993989, -0.3694876022210428, 1.3583603488458744, 1.0288820919385686, 0.23802006747306037, 2.453564968056139, 0.4423273897574698, 1.050921577476438, -0.4071311498685264, -0.7749199955624583, -0.6081051675060354, -0.10097154087591724, -1.202848713298304, -1.2465863487548299, -0.9011543448745709, -2.2154611502957797, -0.013017912179142178, -2.9225663218783904, -0.7715246151591226, -1.3345135421070666, -1.5221083701002347, 1.3070531003203731, -0.32747986055495637, -0.34388063579219963, 0.4333070939387016, 0.7708241362731908, -0.08922034480865221, -1.07060016628211, -1.8952567721481852, -0.4108236195779552, 0.7822751900862308, 3.326318912330245, 1.3737875640855932, -1.0049452053960226, 0.9651445735218941, -0.23716704189763915, -0.5209847523106941, 0.3838715487541309, -0.9958316666292795, -0.24019937699889377, -2.4024030857049055, 0.46016656118700733, -0.44241233444505157, -1.6894242663341836, -0.728026731201785, -0.2661961308339649, -1.2046025191433714, -0.24761134296122675, 0.24177740306634407, 1.0992434499332921, 0.6386418515257652, 1.501405644334731, 0.4867859103347785, 0.746180844741578, -1.0758633929456172, -0.18037930736744381, -0.10396190742243491, 0.4167341334276185, -0.08602673112164996, -1.2508586472113754, 1.1178778533242901, 0.5738717224359203, -1.9456979175758375, -0.2842653248583339, -1.1218655625747236, -2.707331801820279, -2.944157638030345, -1.2277688614470068, -1.2249721754451774, -0.5741835420212967, -1.2697849978296403, -2.6920286179595996, -0.5643044340376315, -2.910572731094946, -0.8048914293167013, 1.7767750199932681, -0.5086225100421377, 0.4637595790949509, 1.6350751114384356, -0.9244628657200515, -1.2831754019769663, 0.11175705619133287, -0.3487700323464495, -0.6564903247336334, 2.181324817855747, 1.1531836529077244, 1.0972520713075156, -0.9352682119625847, 0.6534754405237564, 1.7462752940375834, -0.6815335808314789, -1.0041820960738221, -2.4974840320045666, -3.267382998786972, -0.5707895369512058, -0.5387463281237066, -0.004787728669431406, 1.8598736935770739, -2.3794908931314755, -1.339512168845344, -1.3195347500420043, -1.6335740165508361, -1.3577820499835693, 0.3025781556172265, -0.16613576617033282, -2.023203970666513, -1.7921300599408025, 0.17599478490169781, -0.46406142539077255, -0.08572735682785634, -0.3092548324198734, -0.385131021707729, 0.7510677360121897, 1.4430741164079552, 1.1223551174850999, -0.3005309535189253, 1.660163125978119, 2.6372811500723565, -0.8312466337365236, -3.3128466641048933, -2.0958525188244774, -1.7839537379405848, -0.5472729753034868, -0.3243333407838309, -0.42121432138349335, -0.10451555900544067, 1.689723697520827, 2.2732932420538092, -2.544245829397464, -3.2153919808508373, -0.89263332459546, -0.9503351037811205, 1.1868292576446993, -0.6551807362901504, 0.6630562257965804, 0.4938206244365768, -0.7761848593617531, 0.6303927457483838, 0.9421126430253796, -0.5064453915574848, 1.348641340164031, 1.54697411362264, -0.6645424749577572, 0.686949991096891, 0.8158438322200731, -1.0700211190391578, -2.723322838188891, -2.216632311606114, -5.516275689569332, -3.123784273438359, -3.2487510979706284, -0.9082432677565587, -4.4908710927640705, -0.5005791019881756, 0.5800953977055479, -1.1820184506990528, -1.0895955250411289, 0.011790413109474773, 1.081687381355397, 0.13167404989296017, 0.6545447366939872, 0.29602775320496894, 0.4073666393038456, 0.6439063949714255, -0.4392750996395026, 0.25137658615575587, 0.47012897068493203, 1.6220480095410634, 2.8216737584946543, -1.0774990023046347, -1.3944637724182558, -0.1251077334708151, -0.3575971274010149, -2.5677321712190033, -4.107997285626449, -6.1138476464437295, -3.290132499767083, -4.117892027530597, -3.6650534687693783, -2.600736705349899, -2.513347829871729, -2.351726017552061, 0.022701678834727575, 0.3971749563177349, 2.8061857143786786, 0.18777922660206747, -1.3654312075537558, -0.11593250153956751, -0.19114426532890239, 0.8875105031955929, -0.827135205069058, 0.23933523970181164, 0.7258371043586339, 0.3616025002143984, 0.6868570124692617, -0.21995295860664515, 0.6067348624287096, 1.7323782952108762, 0.36588874290940926, -0.4864201894463214, -0.6349254786199666, -1.0891394753251693, -0.8785731056369148, 0.9996512163180842, 0.8408772497627697, -2.3522382114982725, -2.415185837014191, -2.7139948336887283, -1.0164585559622872, -1.169403360174218, 0.3444018810282969, 2.0709403741764896, 0.9058859554997312, -0.5297616161301683, 3.0702169912817157, -0.40620252701214477, 3.02275774521242, 0.266931387550349, 0.16413380637948483, 0.9546117524507807, 0.5798314454562218, -1.0888144732347693, 0.535131489626168, 1.0602341856987083, 0.26658947977728087, 1.7090060372575628, 2.837938262305872, 1.4100548486482138, -0.19518167682404117, 0.36212792330096083, 0.4952899390791058, 1.260184473664443, 1.0123763003915176, -1.2443173994016397, 0.17911318871540965, 0.3547346918890906, -2.1368963277759567, -2.259696264162423, -0.17000224776670825, 0.7071699450554088, -0.9345830245012703, 0.44573058565380447, 0.486048036974599, 1.1569102827659103, 2.605582635968148, -0.3582194561474546, -0.1360655901200087, -0.06806167845050452, -0.3333703269434339, 1.1009885264926127, 1.4877447796456889, 0.7210389781105896, 2.386271850891348, 0.26110552158056766, 1.3027862833197725, 1.7126663561475668, -0.637921144240643, 0.5175144206874001, 0.17186795779166952, -1.1584202320064048, 0.8268623841128196, 0.5882887501339662, -1.312189960837112, 0.42282398956252887, -1.0353473506384587, -1.6531419294880603, 1.1491511582004865, -2.1461641744058695, -2.578606282931629, -1.9243672911323038, -0.27254075111143894, 2.124263528337099, 1.7749423306479908, 0.8550521621609203, 2.7117136191442275, -0.3940401172585804, 0.8284854031075795, -0.9025465167642315, 1.1903161519982444, 0.5744688449655005, 0.5450088155615298, 2.3362301444536153, 1.1633552775609846, 1.0649928601756977, 1.042131723975959, 1.8507964296935395, 1.0005864060633038, 0.9479435599986142, 2.327854305894706, 0.30211115499051994, 0.3272028085884904, -0.05101942734526381, 1.3119239019991544, -0.5524024460815146, -0.35664582852992516, -0.34125495676410633, 0.00461581767814017, 0.842100864968075, -0.2324697847002482, 2.0732123648429113, 3.46259529880017, 2.0224034669761055, -0.1321420987386434, 1.380134493540869, -3.0396797184757567, 1.661388287421583, -1.0684648725473984, 1.5145563682520777, 1.0112929457079303, 2.9794653191887512, 1.5135497849841366, 1.650872348305598, 2.037793357680512, 2.810553563484317, 2.455112296372164, 4.262478973673874, 2.0947831866210724, -0.6379698384089864, 0.3713637699904647, 1.2906743596697572, 1.0248996551809209, -0.2728388628489451, -1.183634809030925, -0.7441330821514495, 0.9258816077632286, 0.2561617556223377, 3.0622152705195185, 1.7400227435683295, 3.7826029309848446, 0.4736837055562732, 0.695061181149631, -0.5263388284397937, 1.9924316009763015, -0.11534894465793756, 1.4122677001670911, 1.1383653736146748, 1.8164345187188167, 1.5413049908649799, 4.85066945207055, 3.72179328359995, 1.5956606070163966, 1.2994428017469604, 1.84385949643159, 3.400268137668909, 3.116543037236868, 0.5598740693006876, -0.14917389636579034, 0.7040745995428397, 0.17393063083187144, -1.7700917145317319, -0.9468038785951505, 0.6178319084931059, -0.21087727816032076, 2.2071342031058614, 3.553445292809368, 2.3952005470342823, -0.6197035037173324, 0.807866174147437, -0.8942201287274342, -0.980902141934088, -0.6598672487394085, 0.2561787720817756, -0.7928773638912905, 1.502784514684089, 1.8945549337636645, -1.6750680264946913, 1.5800778169504905, 1.6594180990505687, 0.009296319608603715, 1.3096494432160781, 4.0482009458861725, 2.1800607315727096, 2.043264319043346, 0.6888973543286425, -0.9625057737906263, 1.2866220000242068, -0.9440991156891991, -0.2528358349107231, 0.27250777964461304, 0.9415596627067312, 1.0865674885989212, 2.6400741504895033, 3.0729869953903823, 1.833793725816732, 0.8228546958350063, -1.7347578909334096, 0.34581358465465406, -0.7461624927772136, 0.9789761578701499, 0.42129555621632603, 0.5257005511729923, 2.333657921169706, -0.12742762717051204, -0.1813744994340815, 1.6993810807445597, -0.3887441724053546, -0.1292963559136123, 1.011594944940708, 2.221551554890105, 2.193386075768486, 0.8754901714432688, 0.392037197176831, 1.8129004998241323, 0.3577626963847052, 0.22697638433159528, -2.6241782425059497, -0.016814893588540058, 0.8410565617255101, 1.7369889725035705, 5.410155434121093, 1.4782499914499567, 0.22514738768696357, 0.33396973193329155, 0.785385635707338, -1.1736651763878219, -0.11463323153791583, -0.601972142307815, 1.5101806619141798, 0.6649512319082181, 1.8329972151995657, 0.8252860614856871, -1.1027029119947818, 0.778374456737372, 1.3741392814281521, 0.1019571300438223, 1.0532031426836552, -0.5808240724926241, 0.8521099976034474, -0.2829765495184805, -0.03208261473003086, -0.6008008917755985, 0.8975692824740817, -0.31732108137738985, -0.5066246295917748, -1.453383279922535, 0.9606711965432573, 2.503816340022044, 3.0399898141308306, 2.5239381321277117, 1.3965323167822528, -1.460610550118508, 0.7394984474058085, -0.08239177647614213, 1.1768948068358431, 0.8967953688576569, 0.061817560176846025, 0.9373912536028259, 2.330012131998066, 0.33295319671504775, -0.47356205262627943, 0.06500247041552457, -0.8854875960384306, -0.4709187566689133, 0.768278571549129, 2.0129936359966383, 0.24512668032771476, 0.029662637194077777, -1.1959722206071852, 0.38002811164290545, 1.2263359240065397, -0.5603778695934157, -0.5734101112274652, 1.6032677147821248, 1.4936126892337402, 4.224657569102907, 2.7147520485262904, 0.3355102536616329, 1.356997253628386, -0.756393417602932, -1.3920559548874119, 0.10943569541191776, 1.1547944867938968, 0.6078386176466466, -0.18850756948229816, -2.0626467854812702, 0.02765579970441572, -0.9957338737987995, -0.3111579442355138, -2.4923172701445484, 0.2415729346216518, -0.27252817628168347, -1.0371933072233255, -0.0224920471876315, -1.2231064230604285, -0.5096620925018317, -0.7811450535909307, -1.2591388695716008, 0.216929612268009, 1.2205825548514453, 1.5671565033862183, 5.220345016441421, 3.2186764507718233, 3.181296819715227, 2.3821558300086716, 0.688193220179016, -0.37893423571623747, 0.31313632631714483, 0.7049375438785573, -0.20412834388291357, -0.2188385179381761, 0.4785024797705504, -0.9202565428639179, 1.5282989120991455, -2.3238592119375165, 0.08677422240808194, -1.4610200701137515, -2.2449369819739187, -3.275872789227827, -3.404881928510171, -3.9317394457862833, -3.4434737889713327, -3.470919035668681, -1.1391800380264803, -2.4163924149282425, -4.3870736908548045, -0.852720188754984, -1.2699138040836224, -0.9207932571754246, 0.8349105583536528, 0.7323686520527369, 0.30271518056785524, 1.7377687710354988, 2.342324408505761, 0.8215386071481412, -0.8282816005429959, -0.42679616481081045, -0.3341903429370953, -0.2652973323103329, 0.518519282772938, -0.01394410732973611, -0.501280898749537, -1.006269737317002, 0.2663782655234233, 0.8963609874599309, -0.9144169592445348, -2.914234771037674, -3.2572094515932686, -3.249042474048993, -1.6339265372928156, -2.7098102676144045, -2.559106637618184, -4.156348102630109, -1.7834597599879216, -0.3997812482720211, -2.53477333885379, 0.6711255948264812, 1.0266897718684311, 0.1982658388403928, -0.41453727116785055, 0.7478392323234528, 1.0567310348528993, -1.7545747817956954, 1.5950368215125865, -0.22663534232644433, -1.4427148961057943, -0.47513594791360864, -0.48300219821958185, 1.0144047322048033, 0.9065054288930445, 1.1433920976170866, 0.11565976864415554, -3.097615854684579, -0.48118933184126234, 0.5089014881393636, -0.9695873008619463, -2.2885637958118474, -2.292089105877413, -0.09753206385235037, -2.422988917978495, 1.296172389716862, 1.3345069945319754, 0.635784790986148, 0.7918655408852159, 0.9402697258839939, 0.43908977103135377, -0.5084659434951865, 0.4719666884787653, 0.1821464311234902, 0.38330409660941733, -0.11420560257148941, 0.31040090060492515, -2.333921514841017, -0.20989984642954418, 0.38523249727367115, 0.5813155973659989, -0.11975805068789057, 0.9462202021745753, 0.5575042748833817, -1.5540371608540666, -0.6080997476417123, -1.6516627211137598, 1.2486565383395574, 0.044685585080734856, 0.6809313469276305, 0.5513415219231879, 0.4493956876172962, 1.8733303080432446, 0.233744820358467, -0.9069038367019184, 0.0424238215049444, -1.335561624912742, -1.6718549137980565, 1.8791279025636125, -0.5537255721655372, 1.368386182150077, 1.8962715919308952, -1.0425785844951636, 0.6919375605192328, 0.5451647577332833, 1.5901601707542743, 1.3083540676976009], [-0.9574036946132175, 0.6041853232525127, -0.5583200223773244, -0.07038169338681474, -0.5246575470594604, -0.5501613020934866, -0.08489283684267614, 0.8095080721880556, -0.7296048943349734, 0.3318894629770099, 2.4165532733547814, -1.6101617872047114, 0.8837965239966693, 0.35595234372137896, -0.8747016031542214, -1.4068905609088254, 1.2057782078617691, 1.0738466187429563, -0.31316617570896244, 0.3465278158515688, 0.75122181740824, -0.2612832210664006, 1.4618984712334742, 0.04253958958362181, -2.8589720492501054, 2.22070018801432, -0.3243832899233979, 0.17772661308572224, 1.224747373130778, 0.36493460643612013, -0.8859248060029552, 1.566723865994388, 1.0626674815351576, -1.1836843315698444, 0.4950061805931204, 1.6774916939935876, -0.48318092649380395, -0.3734035688084394, 1.3803351970660278, 0.37416640098988574, -0.04838371267619968, -0.2910645519546168, -0.7674541242546794, 2.0746437964241164, 0.8419562898070663, 0.4615186561697891, 0.8538071456524817, 0.4699812510686339, 0.33499265984094356, -0.5087215049835363, -0.07647098635188003, 0.9600728959385488, -0.37238511609605623, -0.06718575943457529, 0.3390527443031243, 1.0856612104737278, -0.8656751758309387, 1.8047412378705747, 0.42815990649118174, 0.8042033144635282, 0.17926339865111446, 1.4171510771616178, 0.42756636619157573, -0.5282760583923991, 0.8619566426824072, -1.1909742405903192, -0.053648092008222584, -2.0256100289286776, -1.3300058554036667, -0.20590059790229234, -0.9253884674833853, -0.897360802840747, -0.5765139829626603, -0.5709794804394838, -0.4780240267458171, 0.7941687942550403, -0.6857262705208881, -2.4754596891509375, -1.3756885229889868, 1.057304071330377, -0.28571899134676376, 0.18825477543989733, -0.4633784486305586, 0.4794413405466406, -0.09997959162832314, 2.5447396564133817, 1.82217506225094, -0.4322017328841884, 0.8264164341837025, 0.10913942713868212, -0.427857092343989, 0.7627547766275833, -0.1828680022397258, -0.9433378539752193, -0.2853422753633151, -1.9965764579588512, -2.9640591881310163, -2.5084442851921187, -2.2131451629703616, -1.6966547354573576, -2.4307765877093637, -0.851891067204207, -1.2110088698404473, -0.999755131565753, -2.716485305414102, -0.24432476382479484, -0.773020731514342, 0.14036399042893008, -1.5339456105569194, -0.9736964857592371, 0.4681526354884242, -0.09109725121700916, 0.9800827608443115, 1.2008400863260684, -0.5362813475825401, 2.3043619704118496, 0.15865193390627422, -0.433998275985664, -1.546087091476926, -0.3692992432653072, -0.3453068331794964, -1.1699333639379859, 0.8077873895810086, -1.9069803838970785, -2.9248971705502504, -0.20955937605317906, -1.5607008280513848, -1.8776500125638864, 0.8866065953396238, 0.6213721984899051, -1.3796386332033415, 0.055614523150724154, -0.8384273102206182, 0.7207947594205734, -1.0536831993959153, 1.0029804951975052, 1.0743016757167938, -1.0047058069548405, -0.9169253868752737, 0.13828874200390873, -0.04937151998810423, 0.11115505695159272, 0.6542811268243571, 0.0333108631795343, -0.8086805263416791, -0.974947106521805, -1.6100698330343526, -2.1818126057649163, -2.516010062565685, -0.9671247878003495, -1.8161126600289932, 1.7892716646320066, 1.7002698743600753, -0.012657164619425723, 0.26888372877727684, 0.6854678086249892, -0.5629272498993717, -0.1359192187765154, -1.7305570829699648, -0.4643914376323614, -0.1504846661521542, 1.2701447349707427, -1.3571427809571428, 1.2056370517158579, -0.5802853193529521, -0.20504155941769553, -0.8475603458070946, -0.2479609650667941, 1.6230579387719968, -0.7704897419350276, -0.4010986633413487, -0.3822411218373965, -0.28064971912798226, -0.474883136890049, -0.06437287489729825, -4.10156735118143, -1.8315251827223402, -1.1909389643676094, -0.8950680677660737, -0.6340908766993776, -1.102920724170128, -2.5893882194996443, 1.1052202789929546, 1.2588472244337523, 1.3971887189469534, -0.5031385306265898, 1.8435123309620138, 0.43285914354174704, -0.5203417250028233, -0.720595042986081, 0.010972995012442354, 1.293867624451445, 1.4188669154891205, 0.8957767721177763, -0.4221000743053038, -0.4529858534675411, 1.0871930876372962, -0.03415236705022659, -1.429501992265062, 1.1736448895782174, 0.38429944988007275, -1.8039259103556098, -0.5002414312181619, -3.236890869572969, 0.5465677078557931, -0.9410825314332704, 1.8813272533109342, -1.852571690732206, 1.5618747069699175, -2.5394084191447996, -3.302931798798323, 0.5922786511214515, -0.6410144943670382, -0.1897064347565885, -0.12166708645349238, 0.04441182596933469, -2.0633341813937682, 1.141302281462056, -0.3730505592455561, 4.062618408202665, 1.2622659579324433, 1.1323423730538706, -1.1336478345628471, -0.950806877819332, -1.478853575668021, -0.1245354624727362, 1.7265488500068873, 0.2782965809986111, -1.2916670053098356, 0.2902314036338061, -0.2993904441578425, 1.3603422864429455, 2.452296577168031, 1.6363022081518594, 0.26745134059149345, 0.3375483032321365, 1.8728582006002814, 1.04772512184405, -0.1923031193485963, -1.4206328885102188, -2.051192321547843, 0.5725493724688587, 0.5982703873390213, 1.231447345438417, 1.2598482674166478, 1.4940588450063808, 1.1293896108050885, 2.386754903203522, 2.744469123146208, 1.6855496866477313, 0.9124787151430269, 0.40180296329757853, 1.5226129381555489, 0.47600521013251645, -1.081001325344047, -1.0292037478305198, 0.7212578906723917, 0.21733400479592407, 1.6557364402815027, 3.4665684589928922, 3.537360953232662, 0.7147645290527338, 3.1636779237474184, 3.91839047522453, 2.5801004814021122, 1.5627673604179273, -0.2857944957322858, 0.9455291275808845, 1.1804344325231453, 1.6130707353181453, 1.5613257382986925, 0.8762934997436758, 1.3310785747069913, 1.7792508783828025, 2.348785067738071, 1.8747203074044003, 2.4748056756463264, 0.14109526299864814, 0.6623457386626462, 0.29649793933004776, 0.26593454159247304, 0.8563713766716098, 0.7095920930712506, 1.4257928263846782, 1.1179812593754996, 0.77158828284244, 4.465647079380459, 5.729952003873113, 6.635654091604005, 4.506714573286484, 4.294647913626773, 3.53410045707807, 2.541904993718573, 2.8269059727256804, 2.0276729130087583, 0.42104017444199243, 0.6062632894291327, -0.03779923455655684, 1.0590449355629643, 0.20265696294865493, 0.06152997467067619, -1.218823291441844, 0.5735400659713354, 0.9630952410444282, 1.6652139697112935, 1.0921534490545526, 1.1149031613598412, -1.5545315975605811, -0.8894401563875325, 0.684573817111894, 0.27487531957230743, -1.5391816503508973, -0.4136948582932541, 5.09551656493708, 5.016821044869835, 4.9495808437572135, 2.763932646077973, 3.5324655194919274, 2.876240200260085, 2.4576371546962292, 1.3913084003904848, 2.2800813858901194, 3.779871335237718, 1.8728579738144964, 1.2109601991861938, 1.0320021872359304, 0.6605596965534986, -0.13762166153948185, 0.7124996695679027, -0.699752895552551, 0.886065604794404, 0.6844247842365245, 1.414602979370649, 1.0074343988025447, -1.169616608459074, -0.529117545324599, 0.9348666991188282, 1.3739094567809798, 1.2207016895944307, -0.22126401383876462, 0.6804829819345993, 4.694453772180146, 2.203164741613702, 2.705230336447794, 0.033000267506817345, 1.067746800401168, 0.49201906990360095, 1.3612299471422182, -1.0435513313716354, -0.6472501950890798, 1.4987554769759435, 1.3308490976194434, 1.1734314580411511, 1.1557785186883116, 2.0362037148376566, 1.8260606636418786, 0.705685138582603, 1.9625389305162335, 0.27363134517098603, -1.9761716755951568, -0.48342625324802546, -0.5046181532351758, 0.4270871668034414, 0.8633744463962496, -0.7390882358361565, -0.9610522971561845, -0.08835922939945129, -0.4146234649494493, 1.5159173880534123, 2.7516535204219394, 0.8418305863294482, 0.9148058109984676, 1.7636578305109276, -1.2122572176195516, -0.6807981271092107, -1.427313685934156, 1.8943235925278266, 0.6041462820044161, 3.1227880062095696, 1.9897880891575879, -0.2968936401663226, -0.41104954536797067, 1.6075712909029458, 2.9528564078065846, 1.774910662836699, 0.36019962320365684, -0.9474653103165224, -0.4273394066671885, -2.974548018164785, -2.271813979477126, 0.5425409838174436, -0.34785138592130355, 0.7958482949280269, 0.8668595385410051, 2.496065409322088, 1.6188641037818285, 0.36016165210732504, 1.4244369702811894, 0.44529324974952395, 0.06608464776378484, -0.2690030922473795, -1.6606873259425594, 0.017620103531595446, -1.782655130007403, 1.2880744472079049, 1.3897360462443349, 1.188920254511781, 2.179693783628969, 0.3502196805494831, -0.2310082303106864, 0.5847120800692525, 1.6730212171558871, 1.111153169181349, -0.1580452979358969, -0.40343074236450216, -2.813371878966226, -2.128021320247165, 1.0735211527798902, -1.3230477740166124, -0.9800942698300108, -0.5746466729784381, 1.0399592441636145, -0.019491852153313484, 0.9455147782086715, 0.09969492340838944, -2.5038733819265384, -2.246897306576575, -1.262600945619505, -0.24567395781650916, -2.684779604628808, -2.0298279389664806, -0.5439711607595394, 2.008437066267155, 1.8481472961683576, 3.607625078869533, 2.4981380381710787, 0.4536623109071054, 1.6548525249880626, 0.0806203934035144, -0.5650668496894065, -1.943844070960175, -0.5646587164400553, -3.5808901341208954, -2.6295108000255554, -1.9868886243626347, -1.189227345882621, -0.3373189230825598, 1.0746868735710582, -0.5687208727228954, -0.29756787313908023, 2.6468325246923596, -1.7974726557341123, -1.7335949855639068, -2.241494503240548, -1.7236495023489664, -3.049168676466096, -1.5031443731433047, -1.6889837017036813, -0.3729457953976941, 2.52303419510812, 1.563464869078426, -1.0304416850174063, 2.335099249292687, -0.1356215415284104, 0.4818448028794882, -1.0014662640013714, -2.6900540138072424, -3.9001358657560816, -3.6468885364698536, -1.5800424212442532, -0.4036804605852785, -3.248153142398962, -0.6982123550349048, -0.3689551038550162, -0.3480360909210864, 0.26502550889919974, -0.1445071928614307, -0.340096947433848, 0.26532046909182383, -0.07398885491953634, -1.4710894596556836, -2.908115066526175, -0.9304600195544926, -1.6352341883088388, -0.6830247273584251, -0.4514611392835885, -0.890983472449763, -0.9988733195697701, 1.1058377033168676, 1.9477972497205684, 3.3703612036613078, -1.3299980923217158, -1.4595248219264778, -2.6035798958848604, -4.218111419845166, -3.627375313032224, -2.492445663748722, -3.0919771374292453, -3.4504415440722305, -0.0511920667678021, -0.012127620946319096, -1.0099599102790493, 2.0689044387624724, 0.1951161810084914, -0.4421102449031339, -0.30835226495882406, -0.9933871806243586, 0.6161337285185464, -1.8216832158144027, -0.7489103924629333, -1.4149805630203267, -0.17459538711391523, 0.2287540687446199, 2.3004380854129907, 0.5734696192225172, 0.2224966110999666, 1.2229084201804297, -0.08557007648044941, -0.2937679871440722, -3.318899993155836, -3.3190767456545185, -3.288116943440064, -2.623754914783477, -3.794596490810152, -0.8135728559440654, -2.7538618755000948, -1.7433786614789344, -1.4569373113462172, -0.41993579190933306, -0.2598551042434209, 0.18149871707624876, -0.9322889790544243, -0.4528300820282491, -0.33233903903768247, 0.6264320726826579, -1.5570268015914894, -2.1427721249503175, -0.39528431051163, 1.0403659493747153, -0.0873494572983776, 0.4064656096846507, -0.21897783877117374, -1.243612354369753, -2.4536286632421453, -2.9807650740408946, -1.0178213390613033, -0.7294324016560255, -2.620893944162784, -0.9904792182909509, -2.4275758061430817, -2.945511250022526, -3.2289010128930964, -0.15823581723258343, -0.971392417214325, -2.7786272427197627, -0.5009373853800626, -0.2793125511963102, 0.22554706905298813, 0.9881813429865279, 0.10964040314216887, -1.8496171810256115, -1.623978165507523, -0.07043762311725137, -2.016122141607404, -3.541306731756167, -2.189319067252289, 0.3519005746486637, -0.24090030078934427, -0.3223770938989031, 0.014210356525422647, -1.3122482506415745, -3.7365367748277007, -2.550439000940438, -2.0830718807281383, -3.19614212967608, -2.51228736135406, -1.405425681944797, -2.171769922325986, -1.3787171175918593, -0.45462944908480973, -2.183933386691691, -0.6546829618990267, -0.3427214341743405, 2.2391816745063005, -0.2991586442760309, 2.352594428437908, 0.649035290094826, 0.3909464088878271, -0.7992402305982541, -1.6878574922156517, -1.040684572938175, -1.2166709204436517, -3.113459388405317, -1.1222062068974576, -0.09682505118705949, -1.7559443838875146, -1.6792707320894966, -0.4530682324789839, -1.3437359695873303, 0.942307665031881, -1.3965719850479084, -0.09847578594451706, -0.2972704266122609, -0.2209245809019869, -0.9600361324842036, 1.0335660939739368, 0.718556135767096, -1.0815348368962354, 1.6834931998496907, 0.5792014956654401, 0.8386014403000507, 0.5002398942085774, -0.9047611365914051, -0.8138778762598053, -0.7747072678030595, 0.5672079487694437, -0.279461414511524, -0.07679530177420514, 2.268574917661578, -0.9095959421643838, -0.3367581291348792, -4.371344969494254, -1.2664031277950136, -0.7983098604334743, 0.16476983549755592, 0.21523834859018234, -0.9422679198871305, -0.34547031939016154, 2.1072586216364737, -0.9793446788732915, 0.3153233829755043, 0.839612694874428, -0.3126780054578956, 0.4540205900503487, 0.5726172988644507, -0.806830644295857, 1.3546368629724674, 0.5607940218620538, 2.0590084899888184, 1.5717827740839627, 0.2382198188200822, -0.15124260571148357, 0.9670484809146879, -0.1284404338169491, 2.4786611804781953, -0.13847880247189054, -0.7029560523455048, 0.16607859645591114, -0.572488793912516, -3.037021554304538, -0.3696936870434928, -2.1967735479372528, -1.4529843408662173, -1.1356474454960557, -0.3215865394793184, 0.6657923922134311, 2.294005292508567, 0.676560687830152, -0.03571984455323217, 0.4650080939967454, 2.038449751015307, -0.5114094489469572, -0.7333512069003947, 0.02140132869265379, 1.4605936807813422, 2.5364663285526667, 0.9170004419221656, 0.07852138159567715, 1.4363786743999012, -1.0089371811992955, -0.36606948474386136, -0.6408932640169512, -0.3528669576678214, 1.1547859178532989, -1.4777747825790926, -0.11988144498156554, -0.6574448168176281, -2.4189900022779347, -2.6895386210289534, -2.49092539941223, -1.2200942319821129, 0.24541689023554356, -3.030944127337619, -1.1167887915576193, -1.0132130708089775, -1.2533244736352074, 0.43281461514870967, -0.08873617423004473, -2.5556713873437102, 0.5945736640148759, 1.6254155648504622, 2.079946331889081, 0.4872185274999998, 0.041921133290985, -0.04624145915813658, 0.17235731209913058, 1.1204797418003103, 2.0299788455157937, 1.6019843864265377, -0.23478060682780563, 0.4579300814508239, 0.9395627290966144, 1.1891311622046854, -1.7176636927310578, 0.8102102387977654, -0.5216461916262245, -0.4635310427741306, -0.8605520510347672, -0.5482941082055128, -1.9908029924353128, -1.708403548419295, -0.7972241698263526, -0.8370334265319568, -1.0548675059518107, -0.49308106275290586, 0.8356184239847732, 0.5902868536858915, 1.735220461974705, 2.003936881010283, 2.0618624003825046, 1.4791466424876372, 1.5996842844476977, 1.0814657902750053, 0.6495914007600361, -0.24912125430250398, -0.9001417000641784, -1.0095639723081518, 0.2828461444468384, 0.0750276027933015, 1.3869388038800243, 1.0724009609054095, 0.4969649769760147, -0.04524706405493037, 0.7744067105893842, 0.9271947647383795, 1.1211438039581672, -0.47787152528931964, -0.061288127751766855, 1.7094007464149317, 0.9680566083323391, 0.5222014181768143, 0.26269011351568644, 0.404260802315608, -0.4045367467638657, -1.6335551799912105, -1.6476266469276544, -0.2093431608621937, -0.7629172754326614, 0.28325758824691305, 1.7121074036948838, 0.23726625097080487, 1.5045249720533618, -0.6531642825453328, 0.4770339252633393, 1.182699063904244, 0.9983135008019463, -0.6377306546606678, -1.6567476229966858, -1.4143722744531178, -0.5644049418094237, -0.8006317838462168, 0.3339195938769279, -1.8427537661619438, -0.644724752525286, 0.6993314950000149, 0.41289863573305263, -0.07973740692660725, -0.10966513319352124, -0.8240301064043769, -1.7061141443645778, 0.5242179033008456, 0.875915203767806, 0.4293195580824991, 0.631367808317812, 0.025498006797688894, 0.4956214821774987, -1.2362083849577907, 1.5601367330693248, -0.9849440737046934, -0.3537916232358685, 0.37387393799342306, -0.9479922231699179, 0.4697734659703896, -1.6107541839985142], [0.8308401003647257, 0.6231673450541101, -0.8930656473779239, -0.6641092823529151, 1.4240635040284761, -1.1615910579207043, 0.2860114848803171, -0.036851839141532144, 0.1820350138748627, 0.9133611880897047, 0.567442452992536, -0.678527166986294, 1.7542179642026967, -0.7827699515833132, 0.3913492380292014, -0.8313468239302089, 0.3114635214979608, 0.5123415608888229, 1.7249541167863773, 0.9088123553635702, -1.0857652511237368, -0.2602840955851772, -0.38102535720099445, -1.0083097642464827, 1.0666716469760116, 1.9653427928678031, 2.7293629314124908, 1.6735257412911306, -1.5102160715745478, 0.66477799009116, 0.16260954034463973, -0.9430862486979281, 0.8679910343041921, -0.7983709693258021, 0.8830394420433778, -0.8603140858751983, -2.396284794873435, -1.8241841993083647, -0.9167244612694414, -1.4982887007516115, 0.4273097215414948, 0.8081917648365794, 1.214705167263614, 0.7852774574447126, -0.31835884052742464, 0.3828997151058323, -1.415145520089536, -0.559893778662127, 1.3497499669680968, -0.3473820442219347, -1.2908638099574632, 1.379438621813222, 0.8443991117170174, 0.6252623023795936, -1.541623130849899, -0.3353696979331722, -1.3315476084287545, -1.3249786391924905, 1.1331375638730496, 0.9059449226815839, 0.8889364966352205, 1.0307255410514835, -0.05626228607126495, -0.3600022885397299, 0.767042389243211, -0.6737628626879572, -1.3599288790184867, 1.2376458273534927, 0.040018785977632504, -1.030942629475303, -0.09997709673077167, -1.1209658468752046, 1.2821892367166117, -0.0021648891745700283, 0.4075600577523083, -1.2263602047954618, 0.31499812087843926, -1.5220151559839463, -1.246666414528197, 0.5021418184446529, 1.0744312105111435, 0.15750920904098092, -0.6964920346456793, -0.026428797961608505, 0.10884021942285473, 0.410658144315387, 0.19570371695027464, 1.1021181809271732, 0.7730750399338148, 0.1394250056697617, -0.6053921427761505, -0.3342979034966278, -2.1300760727784063, -0.5218015738828059, -0.48588786771855824, -1.3560432466121106, -1.9338107726801606, -1.373955376812514, -1.0528310351764094, -1.0151659472367878, -1.0160477163155008, 1.1674349510544364, -1.3280478217403762, -1.2879510093897453, -2.103727384773362, -2.390959377009713, -1.1171058189918128, -2.92845999849833, -0.4898784659778617, 1.2133175118142776, -0.10361928178090186, 0.3280159280764075, -0.07284961287792362, -2.121313278420003, -0.17134954053995416, -0.8290673241473768, -0.7706370399071046, -0.4618051551666313, 0.04052995639703838, -1.287521405391603, -2.4867977494687628, -1.7698895699984467, -1.439298826798732, 1.454754381557941, 0.30463926547945536, 0.3612787261744736, 1.100607886176548, 1.701547453902843, -0.5930935830253442, 0.4802719792957628, 1.9198178880941001, -1.9963823603227469, -1.6316127940677292, -2.1410171964362776, 1.074497495961804, -1.299125719539633, 1.9019324694265922, -0.3115465831570322, -1.3566951527268027, 0.6898275207300197, -1.4631488348234631, 0.14221925228441473, -0.044556955831921936, 1.2635127358346463, 1.4807561845769228, 0.9418194771683556, -1.2517021602810927, 0.4231893464745465, 1.1638029148913687, 1.7567274031625224, 0.9532807223816675, 1.918344873429344, 1.1912783216316156, 1.5505533326035312, 3.8613550139064623, 4.926695857813834, 4.647588209082095, 2.808326367874531, 1.7734205582179607, 1.6031733815452143, 1.3019297037132347, 1.1427977325831378, 0.03721834153698338, 2.189108917997996, -0.44789077786574505, 0.35177299891715275, -0.5016030921940089, -1.117985904676149, 0.9272664966343311, 1.084532273292338, -0.12485132320906754, -0.39093938952794005, -2.1807085771875516, 0.7527039717113211, 1.5619757961386787, 1.325244900185844, 0.9071698950011657, 1.1570798502919495, 2.447479475550087, -0.6930217448625884, 1.3041986114911177, -1.7145766028847855, 0.36933194660259, 0.7230637999843296, 1.2390078349080642, 0.9574915597116627, -0.7285665008323242, 2.5010049065066777, 5.576876273794469, 2.58975650912483, 1.9885170908861907, 3.2721347489172175, 0.7703571800861719, 1.129339042242542, 0.25719700679287266, -0.07164854839345731, 1.337671208761446, -0.009750246431726442, 0.5798225617307262, 0.359663480299414, 1.2122943405932838, -0.13957180524512194, 0.045653448916273064, 1.2140545530679074, 0.9698596454301017, 1.3071653800274101, 0.5900485533369008, 0.303660813065543, -1.0747090151348146, -3.124713342221864, -3.221390326684558, -4.254678230909568, 0.35293450007446137, 0.6318961513897149, 1.4780504198340485, 2.4085293718025294, 4.04695359079636, 4.045236134969083, 3.7172746518193547, 2.658515337557494, 0.7988437168182202, 1.8195330979404383, -0.1257352203659446, 0.041507835155501556, 0.43203512390785526, 1.7592060924897537, 0.40717563300455134, 1.0351962766035852, -0.8120929747325586, -2.267317136409984, 0.723742272349941, -0.9376521746738227, -0.08179191352081168, 0.16478915556376128, 0.3294759479393653, -0.035603626223452214, -0.07811553687912376, -1.25914942051726, -3.21095990765016, -0.8645045235276881, 0.6980622592904288, 1.9952572422426647, 2.084705650760463, 5.752211594647617, 2.876040260683043, 1.6780986126933937, 3.7006153496210477, 2.955366175048959, 2.386103629023947, 1.840271870078046, 2.4103791755496444, 0.3304854825363446, -0.892184839147143, 0.3733162202604789, 0.5109221265363905, -0.3144307229944518, -1.1134339169402077, -0.44100367461756523, 0.025121988821613973, -1.2250123757766638, 0.23211757697819385, 0.3947016039355463, -1.7762283855361725, -0.9476454104919297, -2.2049727669405716, 0.10517648426836432, -3.5427897006348807, -0.6513001664674523, 1.462410673537854, 0.20171498230388016, -0.8191033129832761, 2.3561583505675996, 2.5360687740414485, 2.175915252927541, 1.8442241002397224, 3.879095664388064, 2.7650255853598056, 2.9336241820964073, -0.5558598514859578, 1.4955435865964335, 0.030590062123509402, 0.35194668388160116, -0.6008657508589139, -0.28350674485095817, 1.8568822966017524, -0.46363097329959174, -0.97872808831156, -1.7765572740928353, 0.646703266125957, -0.00767640012167755, -0.8422306893021796, 2.3950160981008106, 1.6977169745266596, 0.2360155323013637, -4.186658114419599, -0.9639758428368655, -0.09332030314313235, -0.03759913407665982, 1.1988671787527927, 1.5256022509602358, 1.6849794931384385, 3.5818273002940284, 1.6174170873923464, 2.8391786973820228, 1.3995307383856341, 3.0727394197851368, -1.7839324549988638, -1.0528839327543362, -1.3166266765744135, 1.131916229624006, 0.19841696586846416, -0.20631453466912603, -1.0785979410386717, -0.867783748746781, -0.15299985470220337, -1.2033534065588212, 0.09792079735232763, -0.2058852674021063, 1.7513268062112866, 2.244802624275164, 1.4939006245164657, 0.11226252805487681, -3.059678866025519, 0.7896531254041496, -0.36378608385704536, 0.04128849050034983, -0.22493960387321876, 0.788887268235942, 1.1692557227945821, -0.46298834501195446, 0.14505234802952904, 0.8885053099380016, 0.24380614094731418, 2.1986209657905373, 1.4444762606746009, 0.7513403714772026, -0.19708434143812115, 1.818082050393385, 0.03293665822568042, -0.5852066763911722, 0.004384227787172991, -0.9370913239254526, 0.40282442710073435, 0.24316116696377432, 0.08212046354799993, 0.8255519629583974, 1.951942202838466, 1.6878932039320393, 3.0388048292854286, 1.073116406151738, -1.7853873608966484, -0.33504198247033046, -0.03662309221045457, -1.214563610180006, -1.8542074033816962, 1.2623166385009843, -0.45691827338591146, -0.4390557081198959, -0.20460808880914216, -2.0027990219372604, -1.1685993978961002, -0.8829521980112413, 0.8964252533632286, 0.5371816909906415, 1.463821837151211, -0.21991713311336047, -0.612476191307523, -0.8019999056874016, 1.8297885020866707, 0.7588864824096786, 1.160507113635991, -0.24012499992940814, -1.021456763344817, -0.42081726232735056, 0.15812226259708545, 1.1820153787667522, 0.35266471604496213, -0.2071464264748188, -3.336298902405219, -0.031649592811067745, 0.41705510644846905, -0.3778798603189359, -0.20423663130224104, -0.19069064530482813, 0.10004809670804189, -1.7798275017912817, 0.07772864122841044, -2.1995977973142713, -2.4419289359089333, 0.3912144137852789, 0.377223604831404, -1.0224339643388107, -0.5001368642237038, 0.7036405923702523, -0.11051953250570488, 0.2007798213417971, 2.1213704964362345, -0.9056197544781219, -1.6560239318027867, -0.5042682152259143, -0.7835191695411533, -1.5944880358722595, -1.058008076526285, 0.19555584665458503, 0.1663401620123248, 1.0377423034561557, -0.39952887183793334, 0.21982644369126117, 1.122772360219648, 1.3041922564051724, 0.24854717042999266, -0.4550824087193303, -0.8284132306970148, -1.9850253389361892, -1.7898312410037105, -2.9844745284441974, -2.6739745343066343, -0.30599908916164975, -1.246029424201768, 0.7543974315979609, 1.6176276501141187, -2.037706030869428, -2.1837568569288366, 0.14234294225287544, 0.492903450832144, 0.8973823341823199, -0.9312066425413175, 0.02909370336223781, -0.21186191994319153, 0.8578337493263365, -1.137838034526314, -1.365747132131461, 1.2654470204682193, 0.26415706345513357, -0.9054368068098265, -0.7318080629774475, 1.241299847973076, 1.285896390428308, -1.0832611350624155, -0.07701214783896086, -2.1339480787188085, -3.1787569770181627, -2.9670337994021407, -1.850359296181379, -1.4308021562501851, -0.11020205234442158, -1.0602453897847788, 0.09181480166504702, 0.45290777429230106, -0.2673654312312545, -1.559316940092004, 1.3263025701468503, -0.7531617262180916, 0.490929329237148, -0.5719000837773334, -0.907384491244939, -0.1027234756881184, -1.8226284346831676, -0.44771864906182435, -1.5198812321290343, 0.2766782017503725, 1.3648918705235236, -1.5265844670909434, 1.8245614889046686, 0.6346935910824308, -1.0348365855181783, -0.5294525851420011, -0.90288885942551, -2.1818617060780707, -1.090626628125809, -1.8410565683881106, -0.8974988559978597, -1.1559028654036505, -1.1070934062098838, 1.3882352955062942, -0.2234377824003494, 0.13586720414715023, -1.3898790196701072, 1.311739543379978, 0.27004138442084835, 0.9606148402508645, 2.2468742681159704, 1.8057949147401555, -0.024817706093540517, -1.3411514523101906, -0.31837355397090783, -1.2551110683667122, -2.0790853099827604, 1.0082351894810198, -1.5992278041419683, -0.0922475028280537, -0.5447167124343816, -0.7655119494056672, 1.1799896795365636, -0.6528445047587158, -0.4938433257037781, 2.347039732990748, -0.2948734826497485, 0.14151643032996358, 0.053484267994673304, -0.5991019971191403, -0.9743731036229084, -0.782145508208554, 0.9133353500972748, -0.4668051606691815, -1.3060751970112356, 0.5348933775164085, -0.13930349105798373, -0.1304803912602213, 0.8021905099075064, 1.69630207454073, 0.838268948188483, 0.48684091991546435, 0.6874635017478994, 1.2462240159958518, -2.1524275215437454, 2.8070269479452454, 0.00863266183591094, -0.44581291809683676, -0.051342945856247116, -0.17603658491537366, 0.015016967100619005, -1.8493920452713468, 1.5544371293056383, 1.039692803188154, -0.44393565320560374, 0.5743055657159848, -1.263757324346503, 0.5445598402342406, 0.48086910785093084, -0.20362397073747457, -0.9086074963954686, 0.04694896722389014, 0.9291797150247566, -0.09187249833229298, -1.3937934206791844, 0.12775578722294273, 0.32993678672750043, 1.5839308689110565, 0.6713987990614108, -1.518252713894523, 0.5433806532199804, 1.8338367927495918, -1.2346055853277094, -1.906788213973009, -0.5603642191957523, -0.8072732622375552, -0.557582218896631, 0.9843223097658031, -0.7427841828161862, -0.6707880320276579, -1.2321299524333797, 1.6306593681231378, -1.5730363963163123, -0.10859039953955904, -0.9682893389059242, 0.7722679071767269, 0.6553315365945551, -0.29321690306370757, 0.9242733291673318, -0.6644883802892727, -0.730896874984559, -1.345139354378976, 0.6961807398523153, 1.4681350672956692, 0.40491993420826805, 1.6639618779611105, 0.28794888519329503, 0.6154046516457586, -0.43068448774704654, -1.1245397571206732, -0.9464582182916498, -1.996349782174741, -3.1321148694893077, -2.853272838504875, -2.5679148879394322, 0.5349324138739282, -0.9128609698829064, -1.7222829603725167, -0.564734445692508, -0.32109393639361367, 2.9302657409981308, 1.929807650603552, 1.3834962935970427, -0.3248260745887522, -1.1369482568648492, 1.2051965240396527, -0.4477023864500882, -1.4659576860371817, 0.05288022642909554, -0.7621776091513054, -1.2561599189007695, -1.6702874684085258, -0.7142701716921054, 2.102486770582935, 2.2253169290687347, 1.7270803612745693, -0.5817977494293288, -0.8581088942765398, -2.4400340892912893, -0.9543923239827801, -0.11423400059671733, -1.0768115191174876, -1.9100399864937818, 0.2603276050667631, 0.8774239450952825, -1.4462675505716718, 2.741947245820541, 0.9480651292046544, 1.7230803246390538, 0.5523342298678862, 0.30767751762506645, -0.600861960923067, 0.8428043288445279, 0.24232882610891354, 1.2254564214226735, 0.4786784325725768, 0.7699209369814072, 0.9470655543929801, 0.7373029498211844, 0.5361540783534982, -0.00564990375006094, 1.2533904793604462, 1.4205239179619802, 2.879466976048192, 0.0005738316040848708, 1.7803479397096382, 3.0764000304893946, 1.9358447762443567, 2.5277370162073054, 0.5168397104274434, -1.520552679384843, 2.6606447728256657, 1.0577291275112106, 1.3352077688636723, 2.76770174620031, 1.7684815968792102, 0.7622183535531492, 2.1732394491404805, 1.1050636526404138, 1.4587727903567653, 1.2888553955241444, -0.09900075928452447, -0.1280091552607173, 0.6545620090118096, -0.0512947781584408, 0.616558484063721, 0.06852137989896034, 0.9864473102767928, 0.79930660014415, 1.7629379428488527, 1.7381189276501525, 1.080388826262011, 1.9014366134454395, 1.4013406235482222, 1.6857393593879595, 0.7959206722739092, 2.4940400969546914, 1.501455044857413, 1.8313401621169791, 0.856432589554863, 1.8213835407190642, 2.947578211347606, 2.5940739773685797, 2.946669089997687, -0.8176458703171121, 0.8690656955282116, 1.366834277299081, 0.8517240185689193, 1.236610903061851, -1.817801328233463, -0.6775011526048275, -0.40196394744930825, -0.21050228080851155, 0.3096071684754849, 0.1474720251666485, 2.279360930904864, 0.790459291666522, -1.32575818462679, 0.507191839526712, -1.1012462623755155, 0.14469075281791516, 0.16366807638431244, 0.383757347852327, 2.9014247305439613, -0.5292763210705101, -0.4302779500587757, 0.416681234609661, -0.2186099951588508, -2.0217083581133175, 2.361707223002285, 1.0852059279735047, -0.4465798225857832, 1.848399844683824, -0.5488524165875225, -0.776008978149201, -1.5633886706168525, 0.6561538396435614, -0.8342103925172206, 0.23654227559951507, -0.5673709462444976, -0.5816100332665153, 0.343027648446634, -0.08462354364814713, -0.555430277538609, 0.5611455537201795, 1.0266256031000358, 1.1722271729538658, 0.7985575204549541, 1.8321877681139105, -0.3489298095948811, -2.6794641876125525, -0.01938984173672697, -3.572840154146611, -2.303009975897645, 0.18194036040258565, -3.5270028423287987, -2.2003189477376437, -2.396463290918912, -0.8146912632270924, -1.3062663615712442, -2.620969200356808, -0.3465069579209857, 1.1307241189008468, 0.39467365776743385, 0.6085283999713059, -1.3538361557374228, -0.6723065037502012, -1.5103874420930499, -0.2631165894669893, 0.3399293857963002, 0.3810209338219878, 0.4019899389859662, 0.8826894521271925, 0.23117777525828298, -0.7566962502851428, -0.12506390199218148, -0.1460636189394986, 0.9401294936418392, 0.9262664634529719, 0.3910032468184744, -0.7772471328727268, -3.048842856168497, 0.8112729129892122, -3.3099792011161315, -0.7845917377668855, -1.400150821642716, 0.4608276383270096, -2.1746966328819366, 1.2980812703677354, -1.1474268441138888, 0.744303934077831, 0.5493916432688661, 0.9192967313074814, -0.22023053908945564, -0.7283039937663403, 1.0106663750151912, 0.24989903079645095, 0.9286034499161152, -1.9071397013343334, -0.11752145543479262, 1.3630514115350145, 0.5939671577992911, -1.8663613549424778, 0.6468458548870135, -0.428250773323123, -0.2631373796706404, -0.21312559120181918, 0.44554710735248837, -0.1372056282644676, -0.39230450471846995, 0.9632209807661755, 0.8675750791657937, 0.5506307491346093, 0.08098385384793658, 1.403741117010114, 2.53150371076375, 0.7836208827132033, 0.7583912501440528, 0.7747100586247023, -0.21097914616458857, 0.3451294409351441, -1.4611321195984868, -1.1164366739353584], [1.279186057516702, -1.1281929678600173, 2.3746450892147077, 0.6510500723345782, -1.1153260273931584, -0.23235111440789508, -1.2240366407724057, -0.398604474261987, -0.596163565105013, -1.3021913325838248, 2.3609412166519363, -0.9664937096579879, -0.3353027084264423, 0.11185419118142269, 0.19235798646432317, 1.2241704988024311, -1.7989918159166423, -1.189578377258109, -0.2984346833782617, -0.7878602592722737, 1.5288096329801946, -2.2989120104798357, 0.7081306770554586, 0.9068599719421655, 0.04408670239706475, 0.4532157027726318, 0.3912450416325739, 0.6875721204628815, -0.07218679845593852, -0.6559854501445319, 0.05060896468851938, 1.370879116139655, -0.13146980498610197, 0.564462715599212, 1.5855407168063178, 1.4949350867103675, 0.26979333755595075, -1.4714609064743185, 0.5174072365591966, 1.4635274385711574, 0.8499129748754821, 0.009916673102838962, -0.3770881196211368, 1.3409279916973222, -0.9950643370464772, -0.44170636374791983, 1.1439254611763436, -1.9511667866611246, -0.1981700997682996, -0.2802161763015521, -0.15605573116247481, 1.0771582224711214, -1.4113864984450537, -0.6723009239608214, 1.2269149551094165, 0.6484364470530397, 2.1085776095704607, -1.3145274209983644, -0.9987245107007103, -0.8728866621485675, -0.5325013445644583, -0.6641456794921662, 0.5920818595060672, 1.9784363971729282, -0.5424038654845483, 0.7851881333458666, 0.21631753928140626, -0.9718952035199075, 1.9718639184676812, 0.021030333151249345, 0.9947808299238522, -3.029903065613402, -0.8671016243196142, 0.9991069546031688, -1.972627307824498, -0.13800460710352425, -0.5536297872383845, -0.2791724262172578, 1.7301756801657984, -0.7277194591210743, -0.381884932165749, 1.001172753605212, 1.2386965344620118, -0.8283526936629044, 0.6803177976946773, -0.6568961405656598, 0.7813092846546442, -0.002658215122710142, -0.812478805002895, 0.8273242598566694, -0.6071938350409563, 0.3530077537540791, -0.5621762828248484, -0.17975067150292173, 1.376760995549382, -0.6313127745164638, -1.1471178013491838, 1.1714289468148287, 0.444957102710631, 1.5339445254484818, -1.2359054423921187, -1.2187292926802238, -2.0444177195271203, -0.8981727116181207, 0.6686299389532688, 0.5046392870697308, -0.6471403064238342, -0.5498691425405441, -1.6712555347072513, 0.4678579610879595, 0.9427242364532044, 1.9686499679804634, -1.7865546001772579, -0.04938924181259554, 2.196256375891255, -0.2644217753352707, -0.09231830815324131, -1.2992668204298015, -1.4201002178674833, 1.6570453466145885, 1.5606790046165038, 0.06744654094539693, -0.8117294781280809, -1.0292869228117583, -0.77972812751947, 0.6052323528598587, -1.0670137374398758, 1.826725315653553, 1.282173136047652, 0.2540152072603002, -0.7346952158762096, -2.231414220683103, -0.8539347683599913, -0.16149518550271785, 0.027630857003418295, -0.862233243744477, -1.4149467463728065, -0.37061739381978365, 1.401758777450653, 1.5732359182827065, 0.47421048488209355, 1.0196318360210055, -0.7813939222814341, -0.45144476823425655, 0.06604774332437226, -0.7632250737926023, 1.5285273782308575, -0.35815283799490366, -0.25465747161736735, -1.0031053361148823, -0.2507371393755917, -1.0646785718985654, -1.029442549434974, -1.421232368870885, 0.0023588720116146144, 0.03878807781283188, 1.347500456724652, 2.2489440270528624, -0.00986795473102577, -0.9259727368192422, 1.0815227351344472, -1.7605319056230233, -0.435324147434082, -0.2136789698589262, -0.9802782604496191, -1.6912458985176668, 0.35762561263804726, -0.3395226375865041, 1.1830344447430414, -0.03627828972314288, 0.10814105048472629, 0.10602068479952428, 0.27790379604842363, 0.09497816042589319, 2.5933710761709845, 0.6247273344089557, -0.88619333481222, -0.5832361348558747, -1.6258108214549922, 0.14894086430339745, -2.0051316308830116, 1.221252152064229, 1.0263453084282137, 5.090718989025804, 4.15210477419366, 0.28910833947947356, 0.9558575216261699, -0.5064795263163359, -0.8793571076264978, 0.12061095994984943, -1.012028090685651, -2.358757788168851, -0.07542845757547141, -0.015699220356833247, 0.19151028915663706, -1.3777486755158594, 0.8040375229200399, -0.5071122097145832, 0.65800856301332, 0.6148031410973279, 1.0783950617286953, 0.2670071903056264, 1.5766848092498282, 0.09752870584732302, -1.3472852164186364, -2.1843123361369376, -2.543674382819562, -1.745844922974354, -0.716928779621854, 0.40685366069193873, 1.2239523945336972, 4.941028275888064, 6.212994362803672, 0.6884943580177092, 1.0869454998117578, -0.8541745871247305, -0.7362994483160952, 0.30031595211021483, -1.8161253460370568, -2.193921091218765, -1.4428629066718341, -0.4054238953122213, -0.5625415406684983, -1.3876092672034543, -1.3304032513958888, -0.20112893080180938, -2.246659908716548, -0.8853595051835546, 1.3215689029053017, 0.2731934339268706, -0.5123690760881959, -1.1196978888127802, -1.367672323516866, -0.33976540076831313, -1.785243965131873, -2.850386046128452, -0.9366871525322009, 1.2572619868122603, 1.74070754556924, 2.385760582581219, 2.9415841827868667, 0.5097910514947149, -1.4165786738208939, 0.2753744504227939, 0.2892471484084762, 1.202269956516249, -0.6079223555791216, -2.4560836641746113, -2.422369869924449, -0.38501519831661707, -0.19115992462921916, 1.622329785168894, 0.5784915766455094, -0.958387929349071, 0.14007198505292737, -0.6866234274206716, -0.7287895108028186, -2.1838294921630848, 1.0205837877797044, -0.9844954524517263, -1.1532405230623373, -1.6508736487937947, -0.4612311466981593, -2.707255437199051, -0.9188127387442823, -1.2936197426191882, 1.13356468567613, 4.455715625683558, 1.4504059610711433, -1.9043385016015395, 0.8561205529010852, -1.1969578090462372, -1.7791546612833775, -1.9162979721273727, 0.10304246726162411, -0.4411177027631598, -1.258481151777103, -0.2628773491614154, -0.4636992124714954, -0.3207762066795635, 1.8646517000368714, 0.3866448434040888, 0.17286053170374122, -0.4095698004841887, -1.0057006455620356, -0.7700140151473003, 0.8296378412791614, 1.2390701606068715, -0.27136541576629486, -2.933313968796057, -1.392879430198231, -2.197491603227773, -2.1454618018962925, -1.1396114412316367, 0.17953032989991968, 0.35918343073444026, -1.5315176291101211, -1.9129143340375536, -1.4556563531333557, -0.72814481228073, -0.7610323799710026, -0.5252674522537641, -1.0706805844137062, 1.6747014358494288, 0.34694600379345963, -1.5561832645368965, 0.7995774235163338, -0.4898256229155319, -0.3665928962015929, 0.8307708609351255, -0.23270877546277646, -0.37057855755811353, 1.1128331823787232, -1.0588302142694663, -1.8715225220232337, -0.5471097254892654, 1.2732539670873746, 0.7085255724102648, 1.6922080942812956, -1.2401318153565042, -3.032858513609129, 0.38401974664683586, 4.195858605638957, 0.8571082542208572, -1.5070461962550077, -0.07951107759304675, -1.7074033505845707, -0.4538946964342448, -0.08776308776004434, 1.580242591207644, 2.2240615065016653, -0.5365921181756645, -0.9656075184101269, 0.23151634509251942, 0.04303271813896252, -0.7903982975860995, 0.5668297396263501, 0.12371594784150827, 0.30773923095371686, 0.41884653961902724, 2.86624818089852, 0.3054193930360918, 0.563139310918829, -0.9673830210186946, 0.03410089327360393, 0.08891114624779381, 1.1307859700343914, -1.0098624977731507, 0.002436387048532402, 2.8840873122004873, 5.682424896382734, 1.4958074012146632, -1.5346953073445146, -0.2074729709460452, 1.0386541965249514, -0.08760075113345138, 1.9952690518456417, 2.41302869468047, 2.574227893771824, 1.8495159283002822, 1.9539929284922524, 0.11634366207086082, 0.8381374394443686, 1.8041370582343514, -0.20707892206252224, 0.6135351908296497, 1.220686820386826, 1.1228752909404935, 0.21100820591922667, 2.150692496399984, 0.22167225839710758, -0.7329510064208726, -2.2494193339913506, 1.0841353098735302, -1.4521314139227237, -2.074618900532194, 1.5202715904639144, 5.0697193410805514, 3.8214048040047577, 0.8022158781583345, -1.2467428354278973, -1.2107843082735434, 1.0963971505345695, 2.585314386203293, 2.07702454077243, 1.180097307942603, 1.0159108688594876, 2.3398000245356836, 0.05321182463201698, -0.4427327508442538, -0.07959218995333896, -1.0641500490660625, -1.1826084752888433, -1.1811227715521517, -0.5494444937783809, 1.414325590613176, 1.505727978749309, 0.7830184944594926, 0.5695757068148246, -1.0252317912115856, -1.0116271534047592, -1.7574834090576175, 0.6876042674144686, 0.4664859176522289, 3.688969201173961, 4.416013453692405, 0.2437579494007692, 1.5595644260529742, -0.28291639842392274, 0.589430018844821, -0.14083696307172897, 0.5703816653967946, -1.123202833115758, -0.8722813224965048, -1.8646822763325857, -0.4129524909121303, -0.31648160232825157, -1.4425373852692305, -0.5370052965580904, -0.18213848870996657, 0.46867224150473485, 1.4414975155993535, 0.8309773052518795, 1.4604796820874761, 0.1413349891307264, -1.4485790644622332, -1.1520571532931425, -0.6236021547719045, 0.3548097263345624, -0.40290946726616056, 1.3208685734996775, 1.301587700893695, 4.116497060528211, 4.361698741207303, 0.253778219828254, 0.12238934807890824, 0.8604244878666647, -2.1133462873653914, -0.2864045875164398, -3.5594807656954006, -2.9237536581837964, -1.7543133415629524, -1.3919285936225525, -0.39558371632559164, -0.7855319578164962, 0.23648665194220253, -0.649931527872263, 2.6051560964931464, 0.9412713430918852, -2.6059183317655576, -0.23662695739513076, 0.29648063293239646, 0.6459881436966787, 0.5648828810622213, -1.304635939095376, -1.0810909001733446, 0.4331155793782872, 0.5591895181452706, 0.4703423182448064, 2.6587671808085247, 1.8584217948804156, -1.6920449449686787, -0.5088123528315384, -0.3167513272078715, -0.903536544196232, -2.5224663965384364, -3.3212461003959066, -3.6342346943913495, -5.690676363912647, -2.6535124831632255, -0.5543596632224512, -1.3007270542042533, -1.592246774012658, -1.7402115866637666, -0.8519577477847854, -0.1317920376914287, -1.7078132879775845, 0.8571434340479538, -0.3379326871300233, 0.35383900167099164, 0.9905493807305786, -2.3568669353179823, -0.8313400186964657, 1.3325982748228893, 1.3113794524658602, 1.1809468981064648, 2.6560680757711164, 2.20003787997284, -0.17257726926952502, -1.1378271588237463, -1.1643392017531, -2.1305571689462073, -1.2330287230226138, -3.7212948085684565, -4.03772197231262, -1.583487967814838, -1.2745434099186952, -0.562433108306065, 0.660364814738097, -0.30642306503372435, -0.15989390930609268, -0.36046728930802996, -0.39869667312138396, -0.5170812961196118, 0.4507112243317277, 0.20387225422006494, 1.030607319938169, 1.6401967806236257, 0.08468370359095814, -0.22404193441143005, -1.449189874314257, -2.6762698349291325, 0.8156157567072388, 2.581011505022831, 5.357808681430067, 0.9580190592805298, 0.8727451377381995, -1.5703573955164138, -2.524453045710365, 0.6376481134491709, -2.435820233966907, -2.8559432000255405, -0.6278305281698233, -2.6703785479298907, -0.44048664835583856, -0.7225680200891783, 0.46304543966514605, -0.8803583292836853, -3.3469397701549646, -0.03401534106595565, 1.3397539653369375, 0.46500953998665684, 0.4703495471934236, 0.4512458210625349, -0.5343612761652847, 0.6811234789281737, 1.0967416182837633, -1.6780345178091856, -1.7520114022375939, -2.2861009339537137, 0.3973133501786375, 2.102813964766364, 0.7670252483888612, 1.0662195578133786, 0.5956425503602588, -2.1540619381589163, -2.2879684654116073, -1.1316911488883847, -0.9318798904946716, -0.8127663919011014, 1.1815487628914094, 2.230095122844453, 0.4998251820906501, 0.14421646637988145, 0.6528993964334701, -0.24350900145767718, -0.10802420417251188, 1.5118432872594114, 0.8100179598374597, 0.4096005752934538, -0.7929599664823882, -2.1653859503060433, 0.7239184421114047, 1.5761195452620809, 1.1687419082496044, 1.2423529351633094, 0.618147228528065, 0.27895942734305373, -1.6441378161571243, -0.9378760263277384, -0.27372444991793177, -3.2535497953541217, -2.1219263222350784, -1.7472621927813141, -1.9991313616567516, 0.8901789903084143, 1.505938726336897, 0.7066787130285183, 2.2201678789012824, 1.2100767523459746, 0.5281497858965533, 2.3913129935078588, 1.6129289659848292, 0.5206117758034453, 0.4438124813370355, -0.5382913662070621, 0.6577400622107875, -0.10516443074899702, 1.047576133001243, -0.35098288281594997, 0.1483933755271011, 1.111085340914422, 0.9863044659837835, -0.0817504588963942, 0.08762505310350237, 0.9350124326227409, -1.1928347706796176, -2.9341548275998526, -1.4860245307557194, -1.8337699651874815, -0.3071629074539853, -1.6363839683421875, -1.2696712534878007, -1.4559807495588066, 2.501191472435983, -0.021758709446053237, 0.7692575682245006, 0.5531307579055663, 1.530475302621536, 0.09279891824373929, 0.21535207005749044, -1.6350812325660429, -0.9868332453921921, -0.2524060382304918, -1.2633472509506558, 0.23948658773998707, -1.1595717389108335, -0.3966728611862627, 0.6519904862246371, -0.1505556677487236, 0.3562694140725577, -1.133122493851448, 0.10898649968611238, 0.4362183495270908, -0.0013600560328958708, -1.8411192220711785, 0.05369012883245513, -0.1535724158367164, 1.251479786983717, -0.47715971845381355, -0.8877329056031646, -1.8273403688381247, 1.031387547314303, 1.2786945135936585, 2.306143248523625, 1.1889537544297337, 1.5610504080854144, 0.208070575596449, 0.43913340547667107, -0.8428657859742394, -1.8870231705552307, 0.49709440236147145, -0.10897734695596283, 0.9780457607274297, 1.5570069219926812, 1.3407604210766182, -1.041549572554334, -0.7204650142389317, 0.46869253176963166, 0.5624591259977797, -0.8353716186778828, 0.039069682906986626, 1.1855402116225098, -0.7696502301526477, -0.776203787655019, -0.8526434337931912, 0.6782031062823027, 1.58794130645839, -0.1130699294247028, 1.3574744010042048, -1.0594755755840708, -1.3640595775592357, 2.3883388308570055, 0.4409737032902321, 0.18563507286118366, 0.6007446730295057, 0.7696535892534236, 1.7250533163332398, 0.601912704400046, -0.6650289138008036, -0.0454568945941065, -1.6722437400637766, -0.7249764159737606, 0.040583198662653655, 0.12888962485132222, -1.9185346492925388, -0.9648330933426196, -1.1531034809688596, 0.5969748977026014, 0.29567677693218125, 1.1510768571742773, -0.5416740407586796, 2.4595656115106452, 1.7433972702479343, 0.7122987113424843, -0.4198733892246065, -1.5505357838266962, -0.7351560084332829, 1.2669111435049059, 0.6297321243596734, 2.556420832703355, 2.7226263741233456, 0.8036799696058826, 1.3355726133543462, 1.5053416811226008, -0.8755977370775418, -0.4422412666035814, -1.8141800405609256, -1.1172775617446045, 1.68712766041127, 0.01643444530475716, -0.7578511247836529, -0.014934595573570221, -1.671205046831918, 0.2498764365170012, 1.1037795288767962, 1.4957423237480565, -0.06921363054427764, -0.8715047050601245, 1.3209813655281109, 0.35067764796779255, 0.47900874202976235, -0.12302698181095979, -0.30049731736570473, -1.1997054687064088, -1.5073205719828109, -0.17940754425323843, -0.302268888520731, -0.08547881670694285, 1.27591404514364, 3.8328629411529502, 0.9616432054818332, 1.623900373741898, -1.3342124313569639, -1.1895568794072784, 0.8857773587217175, -0.6287079257081442, 1.4048411793703772, -0.3561084201024664, 1.120901547388273, 0.7797405460624032, 0.8366479719879647, -1.1800725462157673, -0.2617825880079192, 0.5748479224029707, 1.035700957272611, 0.9541086861973689, 0.5160547892556019, 0.7356930833131822, -0.039016505837524675, 0.6526998010623587, 1.0843488783076076, 0.833129213251615, -0.7044084091719347, -0.08550183298300133, -0.5566470175865963, -0.5397833239237037, -0.7566024724432833, 1.0661022569095868, 1.1438955751993667, -0.6661396606194927, -2.2568768874834664, -0.6607573067552379, -0.18855973382808666, -1.2466250620930492, -1.739136397432126, 0.5275750595458615, -0.9651590075370298, 0.846084616978106, -1.332082624147711, 0.7143565640940853, 2.1840209220087954, -0.049495028970570724, 1.9096516435528454, 1.2625751789934034, 0.25241245127886436, -0.3082667455867419, -0.40791319174004737, 1.3610116652894717, 1.2401103200547858, -0.7793134351420316, -1.321811611398954, 0.4838093643456887, -0.7579577885312273, 0.525197020961878, 2.8077517462422423, 1.0368309781448655, 0.8690995422551372, 1.4102403875374, -0.6708060884229932, 0.0720649173927198, -1.0227527584547302, 0.39104942871638426, 1.0428096915193024], [-1.108315336723585, -1.1498021343603981, 1.1797455967516512, -1.7593869025293056, 0.16543284942412145, 0.12355943690764332, 0.7022828774696632, 0.8063223993387347, 1.6914495968910797, -0.3754350396220254, 0.639779681318271, -0.41282475765035787, 1.726427597765945, 0.1935589855531957, -0.7187116886269883, 0.4287298358351875, 0.8213130241838268, 1.0942861641096409, 0.5088268439720518, -1.1944714380845982, -1.1454240231998687, -1.8252157081003442, -2.911417904920995, 1.5268343743714448, -0.040241117571031444, 0.8890237465477416, 0.5926512262023909, -1.4573966364754312, -0.8836269846577491, -0.29901591304141145, -0.04272911599510113, 0.7159004617626177, 0.3272986373896345, 0.39209610684877155, -0.5169876572328986, -0.5394551400571781, 1.900554863351368, 0.29323410906234887, 1.1304577608755646, 0.6252187218208234, -0.9290948416638866, -0.3211265247918087, -0.3784178508942565, -0.03428536367592578, 1.1900331416360566, -2.314932997613239, -0.6325736598278718, 1.3649951208136921, -0.7616427067949816, 0.11787608458712252, -2.1280503247624183, 0.18213489107382286, -0.7577948566073016, 1.1073932326904499, 0.7954597392408944, -0.41617390009055205, -1.5797043044935783, -1.6082166575540013, -0.10366842841447564, -0.8287610893008786, 1.0709542064380038, 1.3421456075134774, 0.13736050317717288, 0.46055359339444746, -0.19567238520619867, -2.064125005473237, -0.08347640706135291, -0.9558917112871357, 1.1143875689842053, 0.8958942721496256, -0.12557794939234992, 0.16497098476519348, 0.47416460667806865, -0.5777546035557652, -0.9617879274128266, 0.3190312083627575, -0.6312734995879086, -0.5623250472991934, -1.671312264248559, 0.25739013358573465, -0.28095347727777237, 0.12197313020105574, -1.0618314829275695, 0.15265272202795924, 0.7011685414533636, 0.0152184968286121, 0.4236378082490234, -1.0274233663857621, 1.0809839632923912, 1.5723965810644909, 0.6769210641024479, 0.07497493392150655, 0.9099262141227065, 1.6083157436520754, -0.7674894938448681, 0.11009155176071822, -2.079903373429702, 0.6912570656686787, 0.9085890024479238, 0.5888174765697051, 0.10523427515771835, -1.9023790535846348, 0.08663330625605521, -0.22427812954579204, 0.3490368508126297, -1.3529715201762098, 0.8136936926681562, 0.5092812338370454, -0.23525395552455933, 0.5577003719782798, -0.9667874106309147, -2.053059625406051, -1.4792927319622815, 0.0873789375204127, 0.05861565126917389, -0.7940236664746031, 0.9155805756126988, 0.9396035963575988, 0.2981569408725525, 0.28824702457453194, -0.03867758411575903, 0.29616683523644705, 0.07643027778427029, 0.750988018898517, 