{"biases": [[[1.0259359143548228], [4.556789749479412], [-1.8167876906849674], [0.9863487314028723], [-2.351605769110084], [-3.27405753875574], [-3.092688954644794], [2.4885167942757125], [0.8440708456696556], [-2.1466845181959626], [-1.1356153215613063], [-3.3976193665599155], [0.31118391935251033], [0.7816710708536978], [-0.1901908331804479], [-3.9459061151069763], [-0.8698359271048793], [0.4473558745524396], [-0.39930716253898846], [2.2498988815985674], [0.3981580679057762], [-2.869610181515575], [-2.7642725671196713], [-1.7005798927465405], [3.5260102646148797], [-3.3989705044436955], [0.25048599981671194], [0.4809175841496123], [-0.7597334303340483], [-2.7133275126945398]], [[-2.0334349743739963], [-3.3951941393707457], [-2.4668803360460707], [-7.481318385672687], [-2.1484485135436606], [-3.762583966345552], [-3.0546214430850513], [-1.2783218573633153], [-2.3635372669300807], [-1.3793513183710566]]], "weights": [[[-0.227596207341427, 1.7820986828545669, 0.14272483742674552, 1.4913679731116976, -0.013904564229099471, 0.47457169271281113, 2.41489239760577, -0.13460171687029623, 2.370320918702815, 1.202719277240392, -0.262348748059115, 0.17838318655000976, 0.10854900628044312, -0.8341754024816103, 1.4721187795812345, 0.4456658492352634, 0.47434453380093616, 0.7821811569575349, 0.9393410580784957, -1.9408189864791179, 0.48611247587438566, -0.1260236358272348, 0.2627872382834826, -1.671222925924909, 0.4579537601918661, -0.3781564887546866, 0.23515362056451228, 1.2465147233414617, 1.8272267529953696, 0.5150010376553126, -0.8938218641626393, 1.4586737950764541, -0.3446414120673063, 0.0077634144904900025, 0.11936539999382566, 0.3616480813760593, -0.23891782120799285, -2.9381619062134425, 0.5925322080289892, -1.0844610490653486, -0.838543643286051, -0.44140421284513864, 0.36289080691314324, -0.11171022578693678, -1.806454900085119, 0.7100476189115859, -0.07115009039707254, -0.8443314090250378, 0.670406888750399, 0.06690070185568836, -0.6814538691882278, 0.24058182682808457, 0.6483524697860741, 0.31706450147192466, -0.0016272513146771033, -0.6032612688084936, 1.1383043554671963, 2.1119888116201064, -0.48936226162807106, 0.24822595253920726, -0.21311916262241473, -1.2452763033935974, -0.7779657054169374, 0.4352338865609673, -0.1970214661137887, -0.09912929900848322, 0.4201719121376804, -0.05547607500113676, -0.2286611136608037, 0.06763567450309757, 1.102289675181542, -2.541869724109279, 0.5349904454930337, -0.7728600652608991, 0.47202335481993846, -1.9143186461712667, -1.5437804735384117, -0.8974338930788264, 1.1825716247330607, 0.4506392779859122, 0.5966198192494222, -1.0151627014944373, -1.1730277904100175, -0.8381040582433418, 1.7213372878384485, 0.20609210012687737, -1.5734573224801907, 0.5930548636210621, -1.2657843888013125, 0.14575560050316175, 0.7591465337744377, -0.8752079397321856, 0.2914629568660571, 1.7601944199734567, 1.127689351618293, 0.7011779940575655, -0.5403658782655668, -1.6974527376548265, 1.308073949389886, -0.37348955370144904, -0.7396364506554969, -0.47415967926773345, 1.607456643373775, 0.4485571548356045, -2.057994327873394, -1.199733401098713, -0.09093969146869417, -1.366606639231592, 0.822231944801875, 0.6007621165904559, 0.12358179949741359, 0.19419423854251236, 1.0813174777393186, 0.005683519517974551, 1.6960918461797154, -0.8952631484603704, 0.210367914693714, -0.8670285408569655, 0.8363241142429272, -0.19047885254633853, 2.003745500603487, -0.27815004063615206, 0.19637027703962828, -0.2915327053232017, 0.7145507626106846, 0.015895613643303923, 0.17323147092858468, -0.4468143526246348, -0.9065816675966746, -0.9417769618208461, -0.33525081121347566, -0.5319421467607194, 0.9181518193209435, -0.09077901506599942, 1.9388771065742472, -0.8131429129262376, -1.0184832914935273, 0.7582649500230179, -0.03562007334024435, 1.0684163694515778, 1.3801209302207187, 1.9751352933459954, 0.5021513603367792, 1.1600196963433838, 1.1260888301521692, 1.5220239520323073, -0.1292900074052372, 0.7623318324513378, -0.3287888638935715, 0.26727173077448696, 0.9590308548910895, 0.23775355916685395, -3.1358559671073944, -0.7971505717100081, -2.092927322215547, -1.0866302002653123, -0.21851419368190073, -0.28672003986888994, -1.3103399460610279, 0.5044160987452425, -0.6524714521036628, 1.219701928890233, 0.9334562120043145, 0.6564290432146038, -1.4379141759520722, -1.4686501240116474, -0.20640709019527714, -0.25505188393179473, -0.3527592350595126, -1.3909293071911943, -1.3453944338128863, -0.7864231253023272, 1.4156894286703325, -0.5549409453381998, -0.5827085284901221, -1.465813899618466, -1.378569576700036, -0.387291739211491, -0.8170593225326952, -0.5791071909671578, -1.087992578363923, -1.19292959895894, 1.0575243616484336, -0.7729058614543506, -0.6125851224363281, -0.647194416231887, 1.657073347736875, -0.8771123153556869, -1.75974874008788, -0.668863343475395, -1.9059268770120235, -2.0315238460601885, -0.1274421126288345, -0.7192205370358958, -1.1092877020717915, 0.4971250522279792, 0.32842774332354135, -0.6247813076180365, -2.0623053030148832, -0.9348405278796516, -2.0377708335349616, -2.871289880604938, -0.2760049619498043, -1.9685854894710775, -0.4334484921823791, -2.0351200042176267, -2.4537705549854008, 0.2893043549173431, -1.6530110333996668, -1.9810691428943341, 1.0436402717014053, -0.5342852527859674, 0.9104088000218241, -1.0895535133569973, -1.385359227301796, -0.05450014930372579, 1.2953326609444133, -1.376692900718186, 0.6411717556093648, -0.7515455124336001, -0.9832962451578722, 0.8020794564602761, -2.0459446400195884, -0.23809528761707724, -2.05500407476723, 1.0935206418369556, -1.1423722320290128, 1.2061607873257576, -0.5664696995750828, -2.761113521033492, -0.870158665927372, -1.3826326109527924, -1.2443663402149172, -0.3317237689081401, -0.6027722136134526, -1.7928917289556419, 0.1251434458248297, -1.7752659524435193, 0.9582669276329667, -0.9300332365839454, -0.6646916103935699, 0.22051095253659905, -0.5914870593810178, -0.3250938101900199, -0.17732381469726707, 0.6439933080297907, -1.0424074054790582, -1.208733209265871, -0.8279672671940087, -0.8586064299481465, -1.6177079650224955, -1.0951831083326844, 1.5369520654824478, -0.9504073558818926, 0.19087719433424008, -2.1644259600320024, -1.3797306732230377, -0.787942800182356, -0.7755262916125829, -1.754327861317112, -1.055921992912479, -0.23506546857485172, 0.35292689034169966, 0.039635140883682925, -0.15734304184077774, -0.26407735033007723, -1.773751415683914, 1.325492429006684, -0.9716992221367912, -0.6354220840787816, -0.18369794624510247, -1.2280860008037255, 0.6191600077084589, -0.03770749891419774, -0.019563922042023084, -2.5392853740016115, -1.5564821009402865, 0.27050373095489, -0.8920081328821702, -0.49592175506070285, 0.2815760322719152, 1.510770907261259, 0.7598709529405314, 1.0268546132432321, -1.0569818488190066, -1.7293166658414802, -0.7168112152251507, -0.11513966393901832, 0.9609633889042047, -1.9481694987727443, 0.8459586310065228, 0.47016827895068986, -0.7647005206262019, -1.7260316734181178, -2.3784360187535314, 0.3410338662618425, -1.0757059075766207, -1.1638054273340501, -1.2405450371698186, -1.3373333187999357, -1.689087674229073, -1.2523955815526764, -0.5504998191402217, -0.933089586987811, -1.715197987028301, -0.6606332902701559, 1.8398938790129697, 0.26983585688848255, 0.8241508477511932, -1.7623577506831343, -1.1921190633311964, -0.3394453380670908, 0.555498854028307, 1.5323540993304539, -0.03967448901597551, 0.18689244084837217, 0.3093926476476252, -0.40858490830848265, -1.2422727967323146, 0.20071679855132182, -0.38439602906185116, -0.6766010647282688, -1.5167297897166465, -0.3093955475461655, -0.8633346848002806, 1.0294914978204255, 0.05847933170545823, -0.8198036419286345, 0.050654784733711634, -1.1748982415987306, -0.9511399692917255, 0.3373251325108241, 0.8962961727487683, -1.7308526092949352, 0.2921708290607145, 0.4430817180033932, 0.4714420461199029, -1.1658215356804444, -0.7795273883647343, 0.10829940449615102, -0.22860101810517924, 1.0579418955862294, 0.5423403649252682, 0.24369864666009725, 1.355227174529263, -0.29495962432038314, -0.11557947857940218, -1.0905984217144156, -0.5606212200280999, 1.9439570507010862, 1.638760786626724, 0.8515461798390415, 0.4207351496839494, -0.3675538760458926, 0.25063718582034333, 1.42621614549183, -0.8804391567654175, 1.3947407225370563, 0.1665331393427411, 0.8159957567703209, 0.5329702319861722, -0.469175969175152, 0.835915734168495, 0.24252962550233564, -0.2342824492380934, -0.2643355987300425, 0.05993934213050713, 0.9065337793310525, -0.43259116402558995, -0.014190796771466275, 2.0404304440456467, 0.5006705415631449, 0.555643503477811, 1.049983538302102, 1.9516352571967788, 0.9730166388787276, 2.4840865038037134, 3.1174729295618677, 2.0487170929084377, 0.8155019180857281, 1.3481419416047524, 1.3993716185454386, 1.0678486263915004, 1.2290240407903583, 2.7690718480728544, 0.46614580751999335, 0.10434026178560797, -0.07237303616793485, -0.04063871220956048, 0.8630520979247123, -0.25418301965636153, 0.005155609595461163, -0.35187938995363355, -1.9075412986908276, 0.9720114026146581, 0.11378323366481612, -0.14532796296443556, 0.7543506434916812, 0.5980333269750697, 2.9473320886740426, 0.7966714984646425, 1.3182224324400729, 0.9427001599749458, 0.248897256422656, 1.4559558700126412, 1.6784050682044644, 2.0879514208424133, 1.762219758852578, 1.738262033916959, 0.12156817083773164, 1.1002467789718702, 1.4358131908399872, 0.6305791281592501, 0.2762454211190707, -0.7579626474247222, -1.473744430862509, -1.9611585956523794, -0.2989958871501978, -1.4432872069647598, 1.5721648292883563, -1.254938845697421, 0.9109618266145332, 1.0227803604922179, -0.22378291921771706, 0.3774699746747531, 0.1479775342103313, 0.37143235343111813, 0.6049161757163571, 1.7930458525678277, -0.3812705183736252, 1.6733845989774985, 1.1992040114687972, 1.284107044145084, 0.7593824150827709, 0.5941679738417096, 0.8529203902374518, 1.6670207358087583, 0.5781027887635648, -0.4923903786504238, -0.6080001583000068, -0.6277377627991585, -0.4495433061962925, -0.7012543443845981, -0.6020251589429938, -0.7826923165233755, 0.1614399632234435, -1.1058782245195178, 0.2027468955576072, -0.6077165675382946, 1.7517084455981962, -1.4478007482189894, -0.649884728562414, 1.0486256599552983, 1.307753022778499, 0.5619937253324309, -0.3524571773357882, 0.3814974261506244, 1.1114745011637257, 0.3200681046505351, 1.382764710159794, 0.856125450847546, 0.8304634696777708, 0.5015247478847957, 0.04353889829740746, -0.39589275952629516, -0.4661059475600758, 0.4499777615495863, -0.031609791690479346, -1.3800820749778895, 0.6881613176618326, -1.2929503499134654, 0.4053342581663623, 0.6067844611300173, 0.34119541101119377, 1.3745307219196188, -0.2254911076163313, 0.40079409267768806, -0.8911309010599063, 0.6400720443329501, -0.5854851868608539, 0.9162527878983561, -0.2375118236340226, 1.0955284428341, 0.20636202477103946, 0.2013913549046134, -0.42339248500065363, 1.3336278218650004, -0.0053615396741509315, 0.25154053996374914, 2.01149335937642, 0.8973184332130996, -0.9547535695187841, -1.4010465727204415, 0.10843172634277799, -0.9092308084027094, -0.9138614902083324, -1.2447629225175032, -0.774743997123568, -0.14792339909328822, 0.7701314107144851, -1.3519689915700746, 1.0290957779938725, -0.0541367388172248, -0.7917448856654569, -0.2529210547259255, 1.7801981749678297, -0.12629429905752765, 0.9992184542098178, -0.589803758854208, 0.25318981867345874, 0.5620571309158061, 0.6854264463446968, 1.43415691226713, 0.25837206576586874, 1.2009244341902146, -0.46547299352771715, 1.0341823430894261, -0.8586938131325381, 2.1461656058467966, 2.9614127301144806, 1.0203997261856625, 0.6874890405662277, -0.8788107249840605, 0.9722722191817427, 0.4533493956425847, 0.7528223220746625, -0.0932130018692594, 1.426398938626985, 0.363623420059822, -0.08495601319936444, -0.27143806255823494, 0.16187775586753422, 0.5408120547911067, -1.2177917700798424, -1.9694003488851157, 1.8484509970690786, 0.5227776438691886, -1.8011911888364662, 0.9390546694604393, -0.45753619724985767, -1.5786700637107562, -0.05017291946020067, 0.2125735742220275, 1.411088701066758, 1.2166338257764635, 0.6424017149676676, 1.0734561534507547, 2.000476905582063, 2.860202886215998, -0.6412009498088849, 1.3391461303143628, 0.18752610123544616, 0.3453695703128446, -0.7531291412384001, 1.1311891630947566, 0.9301400907267953, 0.5620973076822141, 0.24531833283771573, -0.16226135662917673, 0.20844523377805124, -0.2352508455391015, -0.4112563536638865, -0.819066717346049, -0.8023534897112174, 1.805511661714026, -1.941010170077796, -0.6027368096615303, -2.248130748375515, 0.6977054168908319, 0.4310210094371242, 0.6821617663970637, 1.9552957936634845, -0.08577944932779487, 1.0211879305672968, 0.9387749336754861, 1.284794865375401, 1.5060254044551888, 1.3405188701305983, 1.136851257192717, 0.6658288806779977, 1.74220127273304, 1.3726339969166348, -0.6365256551561034, 2.2889711312550687, 0.8254978382393903, 0.8437006078237362, -0.9844434278709416, 1.514602920417507, 0.8076571242886236, 0.7316108365458177, -0.8560921465278958, -0.2931667652880749, 0.5282985533600074, -0.6494636227489193, -0.02308504715861183, -1.1150585779109103, -0.8438178298378192, -1.750492423156795, -1.047793681007945, -0.18534210728744505, 0.22752919901602897, -0.16274741455294717, 1.317368924746347, -1.7268455207821958, 0.9313542312896579, -0.47163856732092857, 0.13817889708468867, 0.29321973461137124, 0.945166546585814, -0.9320245862665607, -0.31622666830537616, 0.6784397135460603, 1.0712541326723688, 1.354494476474742, -1.7183637738593966, -0.3933068066894063, -0.059229144540982666, -1.2967371590645411, -0.6148245828108154, 0.7408496074448615, -0.8977109125048011, -1.8207135433020383, -0.7932819427872346, -1.9837111816752084, -2.502552350687254, -2.688962417231677, -2.394092382804567, -3.716199270221488, -1.1030068348452524, -2.126357727186288, -2.2538574660090838, -2.4265749130274434, -1.2518339368185354, -2.075254233300702, -1.2099680955188394, -1.454393551775299, -0.6028777432528365, -1.7474613112499398, -0.2510100579068771, -0.7878372586443894, -0.9763992466856377, 0.3527856509948822, -0.3112385293105309, 0.9377651808807634, 0.4623514412345459, 0.8701618508982861, -0.3793468389440611, 0.9552582683367491, 1.1209391440899583, 0.1310748647426014, -0.9072679912703931, -1.7402346400517466, -0.3727310894590303, -1.1090404192514387, -1.208098899656999, -1.4293724209502758, -2.538339418960182, -3.032307441875528, -1.983760243443453, -1.4261619862936206, -3.777816155476265, -1.9762885545707167, -1.4547113187557095, -2.003314434472193, -0.7252476428064418, 1.3201031540734094, 0.880806564071132, 1.9090284359163456, -1.4780959567042302, 1.0132730608287053, -1.5598995039034622, -0.29204135752738086, -0.15892736963646878, -1.6515854145136133, 1.3674499700593805, 0.04465006287077444, -0.7442912737107089, -0.27697858156453115, 1.3604046767683382, 0.5445495497639212, 0.7982623073533743, -0.7975580462659746, -1.28495936119278, -1.0480897840588748, -1.2092815898569176, -1.5009777734458911, -1.0910241669033076, -1.2369195883869988, -0.7544282526404047, 1.3547738800444362, -0.8610924781934898, 1.5147124635633942, 0.0524657352406682, 0.9714114639827195, 1.7298747298115087, -0.1370337357718009, -0.6660807302063915, 0.1590858555504433, 0.5216639522078352, 0.4606384471504284, -0.28714034900585783, -2.294797470346537, -1.4179180334982937, -0.12925507925165508, 0.8656743083878348, 0.5667042565566562, 0.0695361720335524, 1.1028206878906117, 1.218161978274052, 0.1303512781329869, 0.40198105849808397, 0.1577456093749289, 0.1646259209567828, -0.843535475269318, -0.5011842090365154, -1.792834938997943, 1.1517343862424394, -0.3202467466152403, 0.6033907992169797, -0.2783318807844255, 1.720314089670455, -0.7039449523679985, -0.7052498068501948, -0.016009371636447316, -0.5922900090876088, 1.4485754168341007, -0.2117148001061412, 1.0943950637846713, 0.9696642584468466, -0.2611817078575894, 0.7934172234065519, 1.060040874532633, -0.37563564622457096, -0.7447734055310499, 0.07620340320083982, 1.6122587519565912, -0.11715905804533945, -0.23062465523031878, 0.5661474221972906, 0.737724577897094, 0.0783635051102138, -1.0165021542774695, 1.6818454013312696, -0.364257139580954, 0.30412435904919144, -0.27032059706268624, -0.7506968279183851, 0.08222708192412449, 1.1601555514992548, -0.2269687932627354, -0.5765812414585187, -0.7218412820909313, -0.7829180790327275, 0.16267795259841947, 1.0449887005263852, -0.6810996211788782, 0.3685557188598825, 1.4287836619399543, 1.3728894445524658, 2.014470057168189, 0.39759305860664845, 0.8797954196143657, 0.5815667290876873, -0.2647410115505822, -0.8843598396088979, -0.730512426733917, 0.838188666864538, 0.7513045214408121, 0.4842417483511952, 0.3074661478766416, -0.2894278856613398, 0.1418040239265431, 1.5497464619160355, 0.4770394603987338, -0.1030368017964435, -0.4724137500849568, -1.6016725909830904, -1.2961212806631561, 1.5336753053098797, -0.7282940288144912, -2.2759857547095312, 0.21786566368268184, 1.3484300648338703, -1.7078765439284203], [0.8702888385940126, -0.7746937846015971, 1.8559547268044265, 0.37994448054699054, -0.7559245308135949, -0.6053893638060684, -0.6035598978952921, -0.5699679326559463, 0.05619732741658638, -0.6858156201115886, -0.8854674567290887, -1.2952729656065478, -0.5986578125066331, 0.9968455540712305, 0.08385935890300003, 0.383218117779443, 1.152417235581033, 1.0698106798459917, -0.7764375326443795, -0.49560308374388623, 0.33410425556206996, -1.242043820180171, -3.0431491715546213, -0.14868115811471916, 0.771647317245747, -0.2895951769532894, 0.6247408387103437, -1.1870401195538092, -1.3635570940506123, 1.3613374344388955, -1.2836914387596643, -1.735609516305262, -0.9872683888406825, 2.0855679507928593, 0.8534827124397005, 0.670317950819688, 0.0699079513718083, -2.5674368909790144, -0.24986653851572246, -0.9077463099720908, -0.3483469584785448, 1.7211542399045117, 0.7892505329119358, 0.1850007444596928, 0.6533137253717195, -0.056266798233719044, 0.33507780313014296, 0.8183084207080158, 0.43500457479941507, 0.7312078371145525, 0.4846625888700057, -0.4105654742741102, -0.6638290345046032, 0.023145443666145443, 0.843938434361521, -1.0238450946909887, 0.12622787619226536, -0.47852504524096173, -2.0720324780266868, -0.36749333046909627, -0.7425863542314807, 0.8257293092217715, -1.4019655824812751, 0.14207955308318404, -1.3259642850297293, 1.9163715810202036, 0.4570009105144432, 0.32168043967158333, -1.2577938541352942, -0.013523604560907775, 0.4776591635238183, -1.7388788744582153, 0.9569371581434701, 0.8856029873529908, 0.23518878860509346, 0.7990786052582081, 1.1696053166242142, 0.5162853556929365, -0.6327840961238489, 1.4114610127907485, -1.060402189214922, 0.12544569809624456, 1.020892957356083, -0.9333355381228086, 0.3042560977059728, 0.1174899210329861, -0.5329254017719784, 2.192411708717164, 0.7515382638937457, 0.7736898372127696, -0.3008041627322562, 1.2429018030253545, 0.44164380980030704, -0.04800392386404804, -0.7330781151983423, -0.16922896742169843, 0.9265339302992884, 1.2831066828044917, 2.061537944148052, 2.1708493131168582, 0.11089789615516236, 2.480033294394607, 1.68448895161936, 1.707145471580816, -0.056049819279557996, 0.49503666987666944, -0.8250923330153869, -0.2064878368308989, -0.9798876979606113, 0.6452423110578541, -0.09455449222568989, 0.45828787216498046, -0.4661472152238517, -0.07460926329690373, 0.02775424633607424, 1.2024780927082235, 0.48049800896907985, 1.1291656165420538, 1.1518232583453398, 0.6133291213823852, 0.7316267607146043, 0.24330687532305467, 0.6718790426618848, 0.06886558792963787, 0.13176982369952, -0.5038711729215036, 0.5918677154790294, -0.21291475517942354, -0.08058450918359716, 1.057370692399373, -0.15797209557218922, 0.7598010682907675, 0.25870306219386024, 2.8165982664684295, 0.9454365721554062, 0.10938803598198767, -0.5227719967355342, 0.5147161281743002, 0.5186962606961872, 0.24802474430804863, 1.5365440497504903, -0.2846212436254319, -0.10528136511897337, -0.43730010860998725, -2.506972215392905, -0.7702309008021682, -0.5422111672979874, 1.4161057792847729, 0.3311747604383724, 1.6364266216143355, 1.9135314427472068, 0.13214101530554342, -0.7525723188337496, 1.0599671614559127, -0.6340917060715363, 0.28694394524261657, -0.4786485576853908, 0.7758991389012352, 0.09407975943198593, -0.5251558270563292, -0.539318792156882, -0.07387523728123646, -0.8967740057999299, -0.043817164476575646, -0.015124260424854177, 0.035247599186593224, -2.181933429971307, -0.14599787530335662, -0.29948184013418894, 0.06943907955839072, 0.32652952311130123, -0.7739914956104765, -0.25741428170600955, 1.1258835684440311, -0.490475266776368, 0.615347515928641, 0.13727417834453987, -1.0257894509659793, 0.549557917830975, -1.2175957843843952, -0.5486004781164392, 2.1632294374713297, 1.0153874862370822, -0.734478792951622, 0.07982781389103237, -0.21025969376843734, -0.00098250537316029, -0.38537546632234443, -0.20002566906143734, 0.6057091647110744, -1.1126532571398247, -2.070680213827622, 1.3070650059394662, -0.9817950121005097, -1.2677349500623636, -0.5098564542308177, -0.4415849090883596, -0.6380366664447049, -1.9154119501708544, 0.23715197831345558, -0.066735338496504, -0.9394132340464026, -1.533555615520844, 0.6039302597950269, 0.7165034613878332, 1.5248474863095698, 0.0683337142286336, 0.14738530527465446, -0.1144115163541474, -1.0475025129763904, 1.2198931113973046, -0.13470547045919315, 1.3531127914035872, -0.21247093456216204, -0.39682650940400455, -1.594156186636962, 0.2844343196736642, -3.0401916765752994, 0.3292130626993695, 0.43211708582555547, -0.23576215459575936, 1.855495100404672, -0.47306736105180386, 0.9714063692179665, -1.0297250925179362, 1.222332473311199, 0.3299485058895709, 0.4407882742350497, 0.4069495825227735, 0.9985612380520714, 2.074344342992863, -0.11069560531637643, 1.4941240999018468, 0.21710679040299705, -0.7408427420189716, -0.27631962268814897, 0.027705138490773003, -0.7190113319951732, -0.7841235324773879, 0.06175697842071736, 0.26537719776840246, -0.6127981250888246, -0.5817813044649036, -0.5098015627848179, -1.337234242359776, 0.03948019167138726, 0.5196380345045728, -2.3380756401762146, 1.3747542682688931, 0.15195109843218993, 0.00976895615888205, 1.1246227280757441, -0.09726241600991614, 0.7972640959633144, 0.041134286918613455, 0.632638008251498, 2.0441171034467933, 0.09719574500666608, 0.7693785799549621, 0.03574555650981465, 0.1480038844375258, -0.0542209822388885, -0.7425817712031031, -0.09468391660948047, 0.3395381015607269, 0.12727284687242033, -0.538901539488023, -0.37452410033724165, -1.4380028908215532, -2.143551011673421, -1.33712292008702, -0.7416646533167364, 0.39924567692699764, -1.1699207307592387, -1.046388622591374, -0.8648260208829079, 1.6285506593519572, 1.6863874985656924, 0.4253465217314655, -0.4867152984551328, 0.48896836700888074, -0.6893272356242066, -0.28447943408132426, 0.8958153516055531, 0.8794281474487796, -0.5122726487747921, 0.08770023754703707, 0.6615376743992684, -0.9464867919642352, 1.4729235893853059, 1.8315059133311413, -1.0396834707772196, 1.9560229606170736, 0.9232893067116723, 0.24410289892368625, -0.9176213228100756, 0.35248078314317777, 0.13734312965233988, 0.7396243787324748, -1.1308673608096724, -0.05064046010750062, -1.732375895462943, -1.0831408318873261, 0.02448091266397914, -0.45703458466247493, -0.23008104781086136, 0.12576641170484834, -1.347014004753852, -0.4519917204815744, 0.6569492414715439, 1.7760020041050184, 1.004369564265524, -0.9205021616967966, -1.0870541880124518, -0.5228173313344253, 0.629359816132181, -0.22616765588152618, -1.546088364529872, -0.7003372228271502, -1.3542325843913294, -0.46553403908075836, -0.42557698065000477, 1.359438170577122, 1.0691835732857549, 2.1435337711063043, 3.2460296431943414, 0.9375734567201185, -1.70874835736165, -2.0512890336853333, -1.1332228585009527, 0.7245965584021102, -1.00563337177468, -0.03940688157330488, 0.4149216484958504, 0.6035895188684902, 0.03264179978953647, -0.011629048441967113, -2.2856667750560757, 1.427929965940196, 0.24297924471602153, -0.2745813162403212, -1.0996320578294152, -0.9451728569870382, -0.9983636155470608, -1.2886127597957429, 0.9376521196299729, 0.6301740661813431, -0.781607503050518, 0.6888683033281002, -0.9764944150497731, 1.6405244007886706, 0.7687156052446616, 2.5182308252516723, 1.7962940554840388, 0.7555685056495991, -0.0908576943833722, -0.14574309833965982, -0.3414363159248446, -0.5119495163732244, -0.30051202194384985, -0.5471314526347346, 0.4594345924735113, -0.07876086632228368, -0.7821043658075136, -0.19077718776957506, -0.807422549836516, 1.8837230067132698, 0.20438674374919819, 0.5470666084375311, -1.2181089022389153, -0.8543822395313339, -0.46667263737973846, 0.5047095981954828, -0.6661000284562373, -0.6788712253173056, 0.10780877738664564, 0.09041971406645838, 0.5343536638775533, 0.4017428826994816, 1.9177314837841468, 1.9885539596046728, 2.8245078613180445, -1.1756658479626383, -1.1502885299362664, -0.0793770851942847, 0.2227416054346861, -0.5526286529471802, -0.2268254994151892, 0.005436100011295743, 0.49455693101528914, 2.7844026007634866, 0.010839308983356024, -1.145796387087968, 0.45592990604589445, -0.7047482393622098, -1.717698476578158, -0.20068438029177335, -0.975433154413283, -0.6509308120120896, 0.14165315770638975, -0.7072207754784829, -1.060476371771042, -0.390173567772307, 0.24394401581586098, -0.5597748988871958, 0.616929246554806, 3.199272852730139, 0.7995091155338183, 3.452003055768268, 1.4496391483823035, 0.9848670362111921, -0.7877447192792528, -1.7177149420724127, 0.00926570624691159, -1.8402670651905448, -1.5866969554427903, -0.5979187329256284, 0.30231369810691777, -0.1366569868218535, -1.1825288181832685, 1.29956503766045, 1.2405771077589052, -1.6656883676933363, 1.0598531029696194, -1.2689069977046543, -0.33560033829849634, -1.3097050797968102, -0.9328853783152916, -1.0805331608156121, -0.2037348935210991, 0.6900043684419868, -0.14474053420309838, 0.5858187943107938, 0.3381112764029042, 1.792685422044156, 2.0797530463958136, 1.2484022339759568, 0.6657752978137376, -0.036814448734771014, 0.2970162867008643, -1.6055353142599054, 0.8012321325128318, -1.2590920718502925, 0.6452583873837395, -1.212111657177142, 3.1423521625225197, 0.7431293575705444, -0.834393222095583, 2.0370463956925504, -1.7076543440282959, 0.8849719417941163, -0.6421226210103725, -1.5279666429759537, -0.6192197814817358, -0.1971025157689956, 0.1156316465483104, 0.5040418721620762, -1.3656212209870027, -1.2180411678465004, 0.8644091687826075, 0.8802646874403769, 2.5865672391334433, 2.0488648676162793, 2.5164804442117097, 2.3863139752347804, 2.6656716205384035, -1.3922636062726885, 0.22876479678351652, -0.8846055619539472, 0.10868514809547337, 0.15050160664676984, 0.1736044202568155, 1.9830751640094775, -0.1799130448002187, 0.9579749316231002, -0.25299147252579146, 1.1171247945286973, -1.2556408167440956, -0.545279672661143, 0.5582999296713567, -0.01521427180044885, -1.100211884137167, -0.6993922253530483, 2.007569388596879, -1.5875623852779919, -0.9686351099926243, 0.5083440908447525, 1.6620330780920316, 1.904780731733823, 0.9791939633640613, 2.490177448028175, -0.18466714753900695, -0.26188700894939004, -0.826213841364883, 1.008855925168175, 1.0461242164057718, -2.498354869484896, 0.6855412497293754, -0.8654669917198657, 1.067060063872568, 0.1690623165176752, 1.1606472796966136, -0.7886190520566939, -0.1965467338512559, 0.2458956328936964, 0.8380683188898116, 1.1406689751222283, 2.284700355046666, 0.37695624626164653, 1.0320864099052678, -0.26953107681726307, -1.416322436016642, -0.06488412656356883, -0.8385526482108074, -0.9463027408478994, 0.021246247959838434, 0.2798228448217173, 2.2268130691189283, 1.3165986277225696, -0.34113059606375534, -0.5253069501826149, 0.057191791642391215, -0.0057439981143427065, -0.31999957206369845, -1.0025322090005788, 1.5429397551293105, -0.48047687248270426, 0.12743271351663352, -2.029084476174104, -0.6380693370733515, 0.0789183829390099, -0.026633491968705087, -0.8066592526863574, 1.5418680830938174, -1.46528370982657, 1.996847981975371, 0.3485685360478746, 0.7062673246422634, -0.6951338770926085, 0.6793504192667896, -0.29969626839315333, 0.29968391455788235, 0.2260566317103554, -0.1874605848133603, -0.7014012256984287, 0.30210998416366847, 1.125857972308241, 0.32706832694410143, -0.56928048400303, 0.7307013392734535, 0.9088831712156873, 0.7492424425866288, 1.1451940731314965, 0.08543827713731664, -0.5137340037105425, -0.9936693074180706, -0.5512014797552166, -1.2958389530747854, -0.49910822013319955, 0.6204390005606308, -1.0095316255001603, -0.2727694448732867, 0.2493035621763751, -3.316529016155496, 0.02711253599310831, -0.7786251645244168, 0.15224579545724343, 1.191782732486953, -1.3058373081258596, -1.2818667622400346, 0.30126336455451225, -0.5585665135657019, 1.3305196664524945, -0.4780692539959636, 0.6607121222152049, 0.6751396342555046, 0.4246371858324759, 2.251843703295612, 0.2912675095382372, -0.0013926481434005044, -1.201534711579831, -0.1582162704192883, 0.6026316512834115, -0.19792023810174367, -0.6853084844666875, 1.7199073199536625, -0.6379110468674702, -2.4055528310016423, -0.8949248692704947, -0.8357264929442616, -0.11638577923157624, 0.7786211603993602, 0.6183842728650625, 0.46017164948188705, -1.7009989085116515, 2.1155900687585496, -0.98750858637815, 0.8214703813565735, 0.22698433016332642, -0.3684568358912522, -0.1943662858332518, 1.217346203970944, -0.9666540349611719, -1.2105395197618039, 0.5758185819214106, -0.18098222654134943, 1.1668681556550895, -0.2026097858158371, 0.6406866573729436, -0.8351296864341845, -0.3771713089797083, 1.3164928687378705, 0.3542771972683722, -1.970228118058941, 0.7894458022372698, 0.1914731952556981, -0.5216154525356573, -0.3108110977452558, -2.232986325985063, -0.22121908735951876, 2.097311678203487, -1.3271340236539109, -1.1625792624109395, 0.4769884291104195, 1.0311084767184524, 0.07245675247029856, 1.2532817561027323, 1.2411616773196288, -1.1906084416067448, -1.433817197767016, -0.1464818703168647, 1.2961493629417804, -0.5214524479718885, -1.1693353146857641, 0.7435396561158268, -0.2857463342063261, 0.8933225563605197, -0.5524668491686465, 0.013493221464687401, 0.5431930672904584, -0.21045372735325726, -2.071000434220551, 0.5529539611089298, 0.15568774651307388, 0.3939882855859268, -0.9902111051113038, -0.33299181603442535, 0.39163252281656497, 0.7178121730973229, 0.8894815144725607, 0.027629655610729362, -0.14835587061943314, 0.6455754935018244, -0.7476019799289505, 0.27630948689850604, -1.0839615371338673, -0.6709448820913907, 0.6611801265406871, 0.5222638131488196, 0.04358185977944108, 1.8732635735773877, -0.028599099398301037, 1.0241987878319194, 1.251392898881241, 1.7168673108805705, 0.6749340159477342, 0.013609742230860672, -0.04748695778428995, 0.7598092996566082, -2.25887097488243, 0.2930048863256754, -0.4705223230509378, -0.21182733769649423, -0.479936657393655, -0.868509352124112, -1.3804806726165006, -0.20952158929366196, 1.4079780685122179, -0.3427398490973042, -0.589186605506332, -0.7685561929922159, 0.20101105931231092, 0.7754444603623418, -2.048065461282975, -0.0895323408125699, 0.06665548439956422, 0.1847104464742231, -0.04287067240891033, -0.05741948027795419, 1.1533301111850425, -0.33233840596668174, 0.27332253135738155, -0.20400217375741717, -1.4929260970070406, 0.5809943071214414, -0.3819497217036406, -1.054995263378696, -1.2119732442832665, 0.23535864986693716, -1.1864810492099984, 0.4633747206102622, -1.0677860652837854, -0.9456169681473264, -0.10637678034047003, -0.4364386700557882, -0.19218087115093282, -0.6148108912534542, 2.7792957436850503, 1.893113168298163, 0.22392588335737174, 0.1121376273775956, 0.8770172257783342, 0.7265981537927613, 2.257552533148561, 1.0006456162867041, 0.3379713385086784, 0.7851508407612764, -0.31075334973284996, 0.35273461830932035, 0.24183776178066732, -0.6028423207656048, -0.3670326958862205, -0.3732275391203374, 1.6661716729039464, 0.8901549786556495, -0.2744127232111298, -1.902240575722997, 0.7614603683232625, -1.2770906300995615, 0.2924065547324703, 1.433738474889749, -0.7891649905859744, -1.635111948759772, -0.17096506434179218, -0.22093633046504263, -0.04242344847312241, 0.8072425833240463, 0.9167732080300761, 1.139981222313108, -0.7025839332737618, 0.5788917228925179, -1.2725235594320257, 2.359765836966525, -0.47378110813311275, 0.38948390430424445, 0.7343798130568064, 1.714697765415642, -0.8371173278558756, -0.15494449005904268, -1.6491784072370763, -0.018561907878477675, -0.16811941650182763, -0.363528118756577, 0.7866608994569181, -0.7784859939071179, -2.2314179424433087, 1.3713838976451114, -0.8851738661581944, -1.779583169684379, 1.4884669406158757, -0.9580164121482396, 0.467605404160217, 0.8878671424635713, 0.5037949642580555, -0.6902864971931355, -1.60558230413137, -2.8954428113570088, -0.6825142206107256, -0.5919080708926949, 0.086289046500194, 1.8989164520644641, -1.134291197652124, -0.29237584976037484, 1.1630278602892998, 0.36599721772254956, -0.25363558508266837, 0.7595323536128316, 0.1847929579542571, -0.3117526539721116, -0.6228382991147358, -1.1273756018505154, -0.6690043070268835, -0.9217953892913593, 0.000918666040287363], [-0.6300501630604204, 0.778897341101133, -1.9231256631433293, -0.6863054071110196, 0.3211012722422512, -1.1581311371060807, -0.06403625653319685, -1.5032384809523165, -0.3207651828004118, 0.11239669863338617, 1.761349748118532, -2.477583614542414, -0.369088661983376, -2.0902120682052305, 1.3985303001351534, -0.12571070320689987, -1.4387767125802329, 1.1427161650389384, -0.9430028213701492, 1.0991438264793887, 2.2040705254545516, -0.40165993637149083, 0.2893717229346826, 1.3734147039509168, -1.8359885904066884, 2.2068877954308546, 0.6651192089844447, 0.25227709193724596, -0.14993315700561136, 0.2955418687417918, 0.2558791922892244, -0.4646172839809754, 0.38607446739868373, -0.8160961725287618, 0.2161928838566354, -0.5477611627659831, -0.16489348760901978, 0.06030860792770572, 2.4169153979225864, 0.35306297669978, 0.42417504380599785, -0.6252614727521222, -0.4087444106662342, -0.6750109803171723, -1.2855272771593949, 0.5113279101629992, -0.2297872875436137, -1.216619596609462, -0.8378310566521705, 2.5433637814498864, -2.186151614914522, -0.5530005397360123, -0.9611061084506113, 1.0957920330180302, -0.2021568075868159, -0.7967490001895737, 3.483475160341796, 0.829320299270234, -0.4085016488420544, 0.018494734460390957, 1.3257592615699836, -0.04396133190886631, 0.9323472050830222, 0.6420006767021935, -0.3910898083018531, 1.4273018826544634, -0.8794515016465722, 2.11827683547219, -0.3242754611508861, -0.5898693074147, 0.9847090577208332, -0.7760825395140433, 0.8597646856617588, 0.41855345409809774, 0.3225593189006922, -0.5306372092122685, 0.5014118460060615, 0.7125524655804245, 1.2080141961643007, -0.3766747408781553, -0.35389759599086007, -0.9560026417081221, 2.126800349383615, -1.11069246446157, -1.1486301781453334, -0.688402865280333, 0.6903736011821899, 0.25547690670669276, -0.127266135545871, -0.14195124256118605, 1.7264807179051502, 0.3518509599746982, 0.7463493591577148, -0.6139805852078563, -0.8705226441706283, -1.6379613846098358, -0.044692437046159675, -0.8220901202432469, 0.7883570627339515, -0.03198721171204035, 0.6369350263141474, 1.1994009801107692, -0.15724075741020926, 0.37663085456275597, -0.7228114286420575, 0.14850108554719169, 0.3353038962970276, -1.1946262450071476, -0.048715972251746856, -0.8310873655249622, -0.8772654226877132, 1.2316487311537037, 0.357267173105135, 0.2743006056161778, 0.4214976736599117, 1.0992351312021336, -1.704485297367585, -2.3523380775237195, 0.8019493763291968, -0.5179150960051478, -0.12194581415024508, -0.7727574460623754, -0.20288489594964773, 0.46377745282999844, 0.4854130705389858, 0.7979078189777946, 0.9699470461581775, 0.13542859871437554, 0.8579667334496403, 0.07629895424249307, 0.648299497328351, 1.1032060844211955, -0.7864646158984488, -0.6285133699338241, -0.32101194379699377, -0.0038676440222754817, 1.112497641688852, 1.4611506470913584, -0.9840384965333127, 0.3794109193348054, -0.07784151165756355, 2.0338712039859024, 1.1399813425502054, -0.055580015441465506, 0.8479661782646027, 1.1275005148863388, 0.12657804711146467, -0.1877954429203659, -0.12020143561729067, 0.013268656442345544, -0.5729898990741578, -1.3860672621096672, -0.811695825647143, -0.1811470100720204, -1.315612681977639, 0.679475463432449, -0.40383393942037404, -0.5456159298415226, -0.9700494720922137, -0.8362446117796853, -1.9435826724554328, -1.2729734393643612, 0.3865360567060801, 0.33476200138382356, 1.2886889183048036, 1.041861005735569, 0.9268391556722021, 0.6157238187654741, 0.4889704780268169, 2.3358792502013164, -0.862819197153968, -1.2408732530955027, -0.6851803223630164, -0.6284916859873229, 0.869589273195696, -1.5114693189429544, 1.8538496354862832, -0.6375898297978364, 0.742626784360825, 0.979992104261663, -0.023731907974617765, -0.33924883038209436, 0.9362016030815277, 1.243104464951128, -0.49650717622423063, -0.192681781834163, 1.535686523967043, 0.131191252663614, -1.2577922186468269, -0.31599423594364917, 1.3725263815326734, -1.3035668052335423, -1.6619816860788341, 0.9566949056569369, 0.8771288056750696, -0.8857071750372973, 1.4813575089889395, -0.3177618068242023, -1.4964041772947707, -1.0859501636914959, 0.9649041561174264, -1.2284992453905117, -0.802639969532587, -0.1820490607889346, -2.7035626718522727, 0.6808500165303468, -0.42164057189430565, -0.8744941637258158, -0.6539798805694911, -0.7833143331150031, 1.3850125265734579, -0.2579266065408821, 0.7012362901072181, 1.1561459245714392, 0.9306003181224893, -0.5644206640262177, 1.8950751186746124, 0.07611083775760254, -2.392802956229895, -0.9682271351549963, -0.560722773202984, -1.0406130203245352, -0.06875852817001622, -0.17700759537774205, 0.4076584547745986, 0.49180384768901025, 1.3752362445131412, 0.3146520222327098, 0.5791085154106128, 1.2830352908870426, 1.0966659492944018, 0.07506161345371617, -0.6253069066069424, -0.06626175760782185, -0.26129964242997766, 0.08385386333492056, 0.5647806111740329, 0.05297545788254347, 1.0331262783112707, 0.590533471142313, 1.8480938331644352, 1.699157652158911, 0.1077988570926466, -0.49952977829043177, 0.9459335660099402, 0.05661798394406081, 2.8034139970242204, 0.04030707638442842, -0.3778470591855942, -0.5765660600766515, -1.0293748333054253, -0.5380624714404708, 1.8332453691843447, -0.21196091249759547, 0.25920987112666893, -0.12325128806343963, 1.1175977921545586, -1.3600023513603405, -0.07308574446761675, 0.2375790413717817, 1.2431229758938676, -0.11739197267736874, -0.6165515326251397, -0.9345250719987566, 0.5776677826816179, -0.20611455543703366, 2.0877031920673392, 0.48887587092170265, 0.7190163826258996, -1.2839957743787018, 1.6852110615681761, 1.3748332299143706, 2.388527388658371, 0.8465047468347334, 0.3515646611210081, -1.0046256393704405, -0.8792737911794315, -0.39162924373153624, -0.19589388430070973, -1.2830793698499716, -1.4601195202713075, -0.7861587866185312, 0.03746839167771309, -0.7884661664478598, 1.4476954627735543, -0.16855658973049395, 0.4622736471781502, -0.5668935555129476, 0.6364185391257594, -1.9444125502230478, -0.6287540661205372, -0.7547907415129183, 0.06215452379550305, 1.732615079360742, 0.9291658430452622, 1.4827757355212834, -0.3574028027835718, 1.7816696034365032, 0.3143420555151695, 1.6637534373010174, 2.7743064762774137, 1.8164103098775668, 0.7606325483766695, 0.17213841000871444, -0.029303889326821885, 0.15943180521136768, -0.3696865144568349, -0.8986596509910479, -1.3126931151545531, -1.5744422044588782, 1.586245005563177, 0.011406558017677784, 0.6325531895082144, -2.0261878956570927, 0.849829357077418, -2.0996059896934693, -0.22610400762926863, -0.1599677358466493, -0.3458274895644123, -2.2439260217462698, -0.7281564868001935, 3.1741179077526853, 3.0118404352445953, 2.8093211524656874, 0.8622553648830558, 3.1121580899415053, 2.4330807477612866, -0.03372457995439859, 1.9607823852708692, 1.0164522517362762, 1.2673724671893458, -2.3948489171233454, -1.5051486876945959, -1.5245685721545539, -1.3843300646053875, -0.48116881163926806, -1.2068093652027303, 0.656017049348584, -0.17436392770601072, 0.4744312568874095, 0.7770230123036013, 0.33910678065035055, 0.31406289001402043, -0.0735676417926747, 2.0744734013992763, -1.4754316958273552, -2.0889595097876543, 0.01110650890977164, 2.8263207192568873, 4.473911554207788, 2.512594206407263, 2.462832293556344, 2.0596104129332193, 1.5353569977436148, 0.6338953392388801, -0.6933493400124608, 0.3224395742366431, 1.363495985354479, 1.4822278211799438, 0.7679770934740601, 0.597097961318334, -1.7411968828299003, 1.4250584782236506, 0.37889477029030005, 0.8767812156929377, -0.8869686209624327, 0.2373808231352819, 0.2172677876377397, -0.44041831358786065, 2.230043963880132, -0.16351153483473646, 0.03599658885132863, -1.2466081052398799, -0.6420447357296731, -0.15125965096417976, -2.0165993917940015, -0.15026743377730423, 1.537771252882246, 1.0302482605818646, 0.33229190585990576, 0.90947655420974, 0.4010650440213775, 0.964579984854136, 0.2840290099097172, -2.59618636855999, -1.8043037003919307, -2.0870762793160185, -0.640195946114502, -0.4914890100102254, 0.49177478969528743, 0.18317735204011135, 0.7102313241509064, 2.7118511177804434, 0.2150573144820376, 0.71590283856488, 0.8657879387603892, -0.5607859906814074, 1.1722298623321041, -0.08703799872208065, 0.2075842727075461, -0.2013118258400861, 0.13047743729654962, 0.011034254781609893, -1.839247292408579, -1.412192738718229, 0.766249359720895, -0.28712074855166037, -0.09170741868281145, 0.604358526965991, 1.5934709957744224, -1.3446332638306173, 0.9117355568155505, 1.0772834232970385, 0.09572955503226147, -0.5625640485341694, -0.9273936110677238, -0.2942786290601449, -0.6442634733469107, 0.14766979306342967, -0.2963566453745846, -0.24535624391513702, 1.128964166670623, 0.9717097557344717, -1.327703098006106, -0.3150865683948185, 1.3352977722011916, -0.6967449400555074, 0.5210269051789077, 0.42249456535306484, -1.2630299941447545, -0.6124258730245059, 1.3866952027696122, -1.0055566088883188, -1.1194867196067317, 0.6584744987564322, 0.786913271234807, -1.3469053432985716, -0.2568751222366551, 2.0479505767657096, -0.1721715203583772, -0.5687233658341929, 1.6829003873628976, -0.31207642657101886, -1.1092448019045127, -1.4535237706017412, -0.002774298499166617, -2.6436469230657305, 0.7314782684114922, 0.07254511262591712, -0.4931974266445376, 2.289593729039861, -0.13737080960336023, 1.543746753253154, -1.2229737193959562, -1.5143163077672817, -0.6251667039395623, 0.4118700950565735, -0.251358328297548, -1.0898474125822106, 0.455008449037153, -1.7887329688474394, -0.08046132991441185, 0.8498405587763681, 0.6744415034290597, 0.3181801306264508, -0.31288205076578596, -0.005055888803193003, -0.5236805227462277, 1.0771237686515047, 0.07059209411732924, -2.058795090991095, -0.9812286898114762, -3.0572284996763535, -1.5165157468877217, 0.972636641028666, 0.11606118960049272, -0.42514823610633695, 0.3600939458256404, 1.104328028169622, -0.28849939895599286, -1.2710098599677668, -1.2699517879689537, -2.6432303034922593, 0.10229434140994148, -0.940335191799613, -0.8866089269369066, 0.4954933379472457, -1.54937441709186, -2.099640800539269, 0.05177576414674624, -0.7121609153190953, -0.4436543115524673, 0.3920237178258824, -0.4789295732011824, 1.5847930427993773, 0.5933950745727278, 0.7059039611769622, -1.4832928202220566, -0.8230149704482376, -1.7472953681302361, -0.8902157371662556, -2.700208216551394, 1.3008825913150968, 1.0845461494298465, 1.6791007867043786, 0.29474714915361666, -0.10201137278068334, 0.45321306393046806, -0.6546440561523834, 0.08299619957365584, -0.24829623881029386, -2.6709630301049487, -0.7126774838625041, -1.8702124187278675, -0.8579696215122739, 0.210689383703016, -2.058631071019088, -0.8692616537374128, 0.32567572880323326, -0.60358948213525, 0.034131641711282204, 0.12156647660851654, -0.7047985869287685, 0.7616328898468921, 1.4536488509604562, 1.4862415108043123, -2.1415682327484538, -2.8792094864587687, -2.482042851147895, -0.39254058473666487, -1.1661982043272219, 1.671444689529498, -0.698903612179809, -0.7377334526049114, -0.7189842231379667, 0.5066412293278818, 0.28947934338079534, -1.0082312636650188, 0.016594061094292643, -0.46514971200766, -2.5399747512766067, 0.17305146053161427, -0.5767621619691083, -3.013257913888033, -1.635846814825824, 0.037701379237611396, -0.254719473999332, -1.9940503211268967, -0.42530045659175186, 0.4321027891114983, -0.3618607569950884, -0.15035979151190249, -0.7830190449552843, -3.276329683993299, -3.6986066786148974, -2.3085400923482977, 0.7276026354886848, -0.4604044817964873, -1.1293662880583626, 0.6292117902784431, -1.3445722529936708, -0.6551452818782352, 0.24783197105427096, -0.4545948007408037, -0.10176848109197184, -1.7327851622882793, 0.3868316027677101, -1.167045328601902, -0.3355520071357184, -0.3266375776682555, -1.6645867245345423, -0.9130614563732175, -1.6333222458984082, -1.6090789431186423, 0.3718161919268333, -0.4487451418014839, -0.8960452240503981, 0.49854744511564303, -0.9343896574795316, -1.6480361665871577, -0.22882143105973785, -1.058980858749069, -1.6588836712945039, -2.8573637520607917, -1.1223714076377012, 1.253802030984917, -0.47807215296605743, -1.5336389505455785, 0.9284856602315044, 0.005790446072997519, -0.22909388797827232, -0.7750112993160463, 0.4989661526445813, -0.5806412542693421, 0.7303161719689532, -0.488302918584399, 0.2711898396944051, -1.4603148199409821, -0.27863133258531914, -1.6943903280553445, -1.2400792299887864, 0.18953366375904374, -0.5894214918665814, -1.037692769788149, -1.3142535886757907, 0.15239049472354005, -0.8086087497029264, 0.2522529602354698, -0.24457574489442865, -1.0391766294089575, -1.6321863693298617, -1.9375708501811162, 1.0596747965688351, 0.6748510120768999, -1.0124054595053003, -0.46621050205115805, -1.9311889925946122, 0.7944903695796851, 1.0690909325029823, -0.7296437645797162, -0.4394394079813832, 0.5156327286937761, -0.16489496128640352, 0.24105347200223878, -0.018174642341383808, -0.9461846064053981, 0.28955895953458693, -1.3418734739136975, -2.1792386457514588, -1.2905228315509332, 0.4513379637459494, 1.3497039208308, 0.5800873442942456, 0.5813851308943002, -1.526511396595334, -2.688572548381291, -0.1327614937857558, -2.576591713268298, -2.2148411225948736, -1.8915392766437935, -1.076794749334596, 0.5147952216509405, -2.5964758113230304, 1.7055601037417083, 0.41316609243281494, 0.7630722501627512, -1.3179515248595237, 0.9610322403230189, -0.8702961572632546, 0.12242320441394201, 0.8735671043547534, 0.0778409914314963, -0.7826991106189432, 0.25360596268398555, -0.18785200406275213, -0.4547335524320629, 0.4285669722580652, 0.5042796091771771, -1.408636022403662, -0.06951722451301107, 0.27581415871306464, -2.0347531000966255, -1.7980103932848504, -2.5012758024762443, -1.335065611889454, -0.7183019748266718, -0.7283053464779469, -2.727288761218316, 1.3801019372556773, -1.1564061143935092, 0.3755056405577377, -0.25070713630060937, -0.10527201564020577, -0.8676285916349931, 0.3950355408852565, 0.1465852359851524, 0.053101487636377384, 0.661305245856201, 1.818837263172757, 0.19326716911859831, 0.7545829856466739, 1.813216472837165, 1.9829704544911546, 0.580170581753707, 0.4430283584090698, 0.010579274623549887, -0.10385382492605237, -0.2280347226329976, -1.156995344816626, 1.798567035820752, -2.6299717161815384, -0.8601600492256383, 0.21113438281787905, -0.5240708891479622, -0.6805128065929679, -0.7147113988441455, -1.9619097914327548, 1.7104043114929575, -1.794125517005551, -0.3551308508293821, -1.5242019949240218, 1.4029889009625596, -2.2168481516402445, -0.22987960271088514, -0.5825533381881194, 0.14887274018276436, 1.4113355976071214, 1.6247338135775464, 2.666794995614111, 1.212140944410213, 2.724889194192442, 2.709388319535407, 2.1283246543095338, 3.376063847149025, 0.8094203562448208, 3.0865240324364414, 0.2481189128569449, 1.6467071642141038, 2.9391519650930023, 2.101044645553112, 2.1451037699370423, 3.174346865484097, 1.7756420127477919, 0.2247960889210007, -0.4793677256679829, 0.8482250217397815, -0.8394872717150158, -0.6908506220571449, -0.7427969781032105, -0.7132102865456419, 0.7795456972929979, -0.14764920268505924, 0.8812598836043646, -1.2804905166056375, -0.4445591942086194, 1.5873913522917686, -0.6635302869645677, 0.16309858650945122, 1.4407536311280367, -0.8921339631022778, 0.9963439901005953, 0.23071570449720616, 0.6246373026758963, -0.44645877851373483, 0.5510197200094781, 0.3791582701566178, -0.8817026905302509, 1.4516286600513089, -0.6064603899992277, -0.9763382927329075, 0.6826786060850253, 0.8898392402262164, -1.4180611070678293, 0.5560085386000088, -1.3566303759233902, 1.4830831042474342, -0.19545584558279988, 2.129869488474086, 1.2449147041007471, 0.2685785534058694, 0.21716217074509095, -0.4330044831446554, 1.5781446027640356, 0.3074289748678308, -1.0053133582102716, -0.5748881128454181, 0.18382430156924592, 1.3965773015288658, 0.9204850123522239, -0.24847087108853416, 0.5452852155262177, 0.31936353627064057, 0.9799260386157941, 0.12919569323754357, -1.0196379205040944, 1.0739093839541551, -0.32320800547005146, -1.5293669677151396, 1.8259886843261586, 0.40711620558129935, -1.1046151680618734, -1.2835025233346988, -1.3912139212444208, -0.791683087066171], [-0.6882951788940767, 3.490991497169211, -1.902320481457054, -0.2694944796631415, 2.3785728656939296, 0.23719008971819852, -0.22547084042853002, 0.3515187798879994, 0.4739127425410503, -0.2053360445765076, -0.7883319622304878, 0.5904193103173418, -0.18441438912828936, 0.9589762833082783, -1.0098642405747, -0.32128869976830066, 0.7774549793949384, -0.3372443929352362, 0.7837742472148117, 0.3107816097942894, 0.9080107886989338, -1.6935085444932603, -0.23535404322346667, 0.7194774280492192, 0.9337450660029255, -0.6390282961591994, 0.3097701339431849, 0.13018492644110444, 0.06086872121636661, -0.0476680889472393, -0.5204675034166549, 0.3576297214518133, 0.24649298539354816, 1.3213902403340567, 0.12556431017900357, 0.5566612068848413, 0.7638794460169575, -0.15473396797866468, 0.4703733617337393, -0.639473792027884, 0.33586670720936374, -0.5188950705565323, 0.9796106857672617, 1.393000953281561, -0.22893039708552154, 1.9009578665230988, -0.4232598456536163, 0.6276441962760028, -0.3362162229874151, -0.6264265640595109, 0.2919290595556793, 0.06277417686539433, 0.9945494024107203, 0.895590831328082, 0.05084115081024242, 0.7090454158737609, -0.04493947258832633, -2.4354738584747166, 0.29898291106209546, 0.06813285125458003, -0.5557356862042845, -3.0594801306719575, 0.7019116860691186, 0.6129902247989405, -0.2214654337851635, 0.25947138097658184, 0.09357407526434985, 0.9420523677933657, -2.2251023318021836, -1.026852704589405, 1.242331497179309, -0.1811766343341332, -1.0153994143739549, 0.5194776634147191, 0.04206528820066881, 0.1368714011863229, -0.8245597059152947, 0.6982880758669319, 0.19530990465886314, 0.43811318718016945, 0.5953366722445996, 0.7814272336797724, -0.932954735036427, 0.05889421762165261, -0.854271442306853, -1.612400317595381, -0.3572279298486901, 0.82389597843676, 0.7819919701888451, -0.6060893321475994, 0.2996340408721368, -1.662148496648265, -1.7713437244292278, 0.7599059405804806, -0.9633443176009664, -0.8200248110506211, 0.1623789241390676, -0.8031333210039471, -1.9833984492190138, -0.30042640869214365, -0.9301974169343711, 0.5695210983964278, -1.2099776056149198, 0.968798944632, -0.8659402083571394, -1.5925240661481856, -1.3285632532064817, 0.22960907923088916, -1.0219909966696883, 0.7042000468498139, -0.3102855483518685, 0.14593425950753433, -1.9444883520318577, -0.22616592664128538, 0.5734794860956357, -0.5849983038868789, -0.4814852957409276, 1.1990033995989928, 0.9505561963259672, 0.718740554060894, -1.6359045683153133, -1.069803729674926, -0.7151185374650013, -1.7709602880584305, -2.0572777373875994, -0.971136968357556, -0.3226061980652965, -0.5043322678023562, -0.4874836442580115, 0.4006691353957955, -0.7427161175459795, -0.6520290017792875, 0.04290121538312004, -0.7717622057488893, -1.1905697296471054, -0.07782646684828927, -0.6894795965250146, -0.9411343771692289, -0.40724059465041845, 1.4390244870002173, -0.6762072856147382, -1.7950185588778238, 0.05810731948861559, 0.4261916879156087, -1.1172656038035955, -0.09250735897122105, 0.253477231058617, -0.5348897287410042, -0.6367258151714925, -1.5424719074309177, -0.15487429162457828, -2.0785933552639, -1.2675233223563944, -0.5531191800883761, -2.136225571637158, -0.3616277291667085, -1.9103673417065417, -1.2875307687924187, -1.8112867234592662, -0.49234941241711866, -1.441255388277006, -1.903682909775893, -1.4643763983161826, 0.00022634446173088046, -0.6928805712982291, 0.8988620507116599, 2.036726669406074, 0.8724651940085614, 0.596530235886578, 1.2323785109167216, -0.7663284221927054, -0.8094419862550616, 0.5992135385481556, 1.2954492614070323, -1.0333669209036238, -1.3066503693348912, 0.9372399544805861, -0.8605670868810013, -0.6399791895758685, -0.642822507621573, -1.0720819611749672, 0.9672197785458055, -2.197651015879249, -0.5445330490887996, -2.2391114033964565, -0.16542229107660453, -0.6692520401788831, -0.5364056113842992, 0.0490413755816965, 0.6054045441389545, 0.33620005858867186, -2.0783137714289843, 1.1225543118313528, 0.22244166714172306, -0.998187060806296, -0.8610916636975434, -0.4709600062179341, -0.006559154729075036, -1.6689841195479986, 0.5362983567145119, 0.6259392208483439, -0.7548352354506604, 0.42673090752811105, -0.7133928957561274, -0.4236587869584245, -1.5773401137496135, 1.3820261680448607, -1.0129536814539377, 0.08448810850543105, -0.216691658968839, 0.5251498331817948, 0.6384061972816784, 1.0268475987435755, 1.676892493472856, 0.5315607861519058, 0.23055690830185566, 1.6566110128923597, -0.5710468425532005, 1.6097686875003905, 0.4244787843267177, -1.3518866446388473, -0.4573636889466385, 1.7925680929732122, 0.24010961174667617, 0.5563874097668376, -1.209972791881834, -0.909713633348394, -1.659701898812475, 0.37973839605154025, 0.3290587541224498, 1.887384552717849, 0.004381206905928851, -0.024016788854811583, 0.8857410310031306, 1.6036637234030302, 1.2616982586197767, 2.390209749403729, 0.6247801593905832, 1.6977663798000155, 0.9078225230078308, 1.9280249391631765, 1.5068799538653004, 1.3836294228173895, 1.9144955687005387, 2.5842866444981327, 0.39319196058684036, -0.10619531517513608, -0.9091415252444442, 0.5949025192221433, -0.7743240932092118, 0.4305606095682637, -0.21822647435836207, -0.055859715047182776, 0.7147848996642645, -0.17794414289765384, 0.9905954887754245, 0.09678271466268899, 0.07666823504361354, 0.1899354076859444, -0.3110517734534798, -1.3091210772888993, -0.5137029343443799, 1.2220230318139624, 0.343989441479544, 2.426999759399431, 1.367217289478455, 1.2415911946616058, 2.670290379443929, 1.2812740765638762, 1.4447052452974891, 1.256189975539015, 1.699227222972297, 1.8591146042769562, 0.5467661102638625, 1.0618304730173722, 4.120194130482506, -1.0468771584179486, -0.17460304675585078, 1.1993224395762792, 1.2445925006684286, 1.0724995050008475, 0.37956489414498873, -0.3499949385583297, -0.2022169958970634, 0.33823391718826756, -0.17547050802107458, 2.1819481707651387, -0.7564441337303972, 1.7967204171119637, -0.3130097518888302, 1.2820343310789317, 0.1827768969836204, -0.00867904450820315, 1.070054319681978, 2.592590293395629, 1.408391357476637, 1.4893341781854323, 0.2375526559618159, 1.423354494723929, -0.8133387585312416, 0.8318006353005167, 0.7008543677119551, 1.3376252630710945, 1.2485667977791095, 1.4961190844247263, 0.8166491759781063, -0.5419186390619439, -0.09912567131122799, 0.33428958699621836, -0.16463600484154103, 1.7013299913668856, 0.45801318246416345, -0.6354542522238957, 0.18201443411581456, 0.827403581193827, 1.2931666986988413, 1.5748340093821744, -0.0931058950704269, -1.1661017102797537, 0.7463774793688899, 1.1560487432544893, 2.0704529925279203, 2.270194283147652, 1.1395319968588966, 2.4243923982426074, 1.5326086863514214, 0.3847817408925537, 1.7316064266075573, 0.8127957443798072, 0.9835438839822935, 1.2250875051116181, 0.7775011246824173, 0.07296620570447727, 1.1619284581583182, 0.4850918819918558, 1.5324144746575779, 0.8472829276967133, -1.2231351377542308, 0.5287946515229616, 1.3706087518082373, 1.8462437248754242, 1.9134355810793318, -2.6435488439069172, -0.7835881657100922, -0.9828625079080161, -0.6213339836805014, 0.01903951766968551, -0.8143686246515178, -1.004496244835921, -1.1451789654595819, -0.13979724333549517, -1.3767591401059527, -0.18028348243484693, -1.0370328688088675, -0.1497667986816462, 1.353416807196664, -0.24922744609775951, -0.38409908987490177, 0.9290406645204571, 2.5584920766165884, -0.6615353416584382, 0.9997976266416765, 0.2014279984515832, 0.2429609177737472, 0.8366369088992988, 1.197360884219918, -1.693294790857617, 0.055494264342119154, 1.3039284169830538, -0.18926440361932584, -0.872916486018085, 0.4168480057378435, 0.4399350755636621, -1.984586711550168, -1.6574545440213595, -0.09930509877075538, -2.128437090810022, 0.4305555645021155, -0.5897118776220226, -2.1102463438462156, -0.44283702005835746, -2.2476727914686343, -1.381447919266889, -0.7699027748141529, 0.2932109098231433, -0.2925795835045125, 0.05762494658205696, 0.2537371676029415, 0.6438009594629833, -2.554227069918154, 0.5791550797310738, 0.16431219463690494, 0.6035957472158436, -1.0721624239667678, -0.37728193169066854, 1.716641810828937, -0.45829971897903904, 0.3868530596900466, -1.2930843879628178, -2.1806086786080634, -0.03679815807477839, 1.4574207738871046, -0.6991339986160693, -1.6610661818347292, -0.7282101024799083, -0.227679398454761, -1.0356328120233151, -2.1210028823265854, -0.12985752535613695, -1.0795363957644022, -0.4550183770011982, -0.7340067123063024, 2.074026022125034, 0.42556271880477425, 0.7327695091859854, 0.37817582106312236, -0.5842546786936641, -2.724303810022034, 1.7299519486809494, -1.3958344455553997, -0.14919883565940886, 0.4687455899511324, 0.3714820886199476, -0.6557875786210083, 0.6374272678449301, 1.4976659744448875, -0.23309913235029742, -0.6766102259701784, -0.5063362371849851, -0.04012159816821579, 0.9370576610507114, -1.5791511829664189, -1.6335105167636, -1.7532111096053435, -1.217416280646142, -1.0272890823166505, -0.8157160356253653, -0.18528392668466057, 1.020899783486609, 0.6479370491757918, -0.38770368035173763, 1.318696337050104, -1.4177914248050127, 0.09662299670180972, 1.6671535674542641, -1.471504769253416, 0.0676397809006344, -0.6100567515250985, 0.6275585382056253, -0.23087972664417236, -0.049825817084117874, 0.9441682745627331, 0.08476205322142753, 0.07384107726802448, 0.09919886867513783, 0.4308957297355775, 0.06743681695772923, 0.6582359638889888, -0.362436646153479, -2.527103290184219, -1.621127368909155, -0.5658762265153674, -3.613297361832708, -0.6767981100417338, -1.3481183491476203, -0.30574594165910546, -1.0950366384239683, -1.8356107133768096, 0.6197977822164206, 0.5644226376374865, 1.2455000088205723, -1.3076954216292578, -1.1398065448064472, 0.7839354559913899, 1.0281108723717018, 0.32904554201033037, -1.304917027891566, -0.3403366486574629, 0.9662480539975415, -0.6777317608376985, -0.5146342908696931, 0.2376917148207185, 0.3785331386273703, 0.032255669919319045, -0.3116695732219163, -0.7204477093626214, -1.2954103826909884, -1.8753090861553035, -1.9756915812957374, -0.4908852554154036, -1.1697520280807232, -0.2704248360239635, -1.0260312018023254, 2.661568169162853, -0.7727978993991168, 0.6329696612514455, -2.221510688486716, -0.9565542282283559, 0.034612451844082445, 0.256829132743828, 0.33977815970852143, 1.6430708714528537, 0.4074648390150518, 1.2819462537282516, 2.4964760602157146, 0.9049465054983258, -1.5777914128640882, 0.09562359782136412, 0.10906628670470858, 0.8756401511255252, 0.3488481781916431, -1.3364140019482862, 1.4182142123354902, 0.04127322950460848, 0.7070927489581504, -0.6482738036975955, -0.6961719589740651, -2.398886849666171, -0.07984346157161805, 0.2258637799414535, -1.9854320555594995, 1.083426410493178, -1.0269592927463533, 0.31557731491713825, 0.4878404797932248, -0.20979412558049407, 1.0482817901124952, -0.6682156424908281, -1.2793922644789912, 1.010403459885875, 0.36984232134640677, 0.9390364938818829, -0.2536662281297086, -0.43546551226846136, -1.4435564659814755, -1.0059896863893503, 1.5714210749002149, -0.024166577347962414, 1.765915193862307, 1.565760990842193, 1.074844029035582, -0.45636149324510306, -0.9701389143275078, 0.5015805277916113, 0.9397844520510502, 0.005819165682438593, 0.36534256555787875, 0.1440533542683012, 0.3640152782717566, 0.20335201272460796, -1.3682965900921868, 0.02719995000457801, -2.4713951146921143, 0.31426009426497403, 1.3537077623679896, 2.0578166562313127, -0.44169695536333486, -1.6833416435774688, 1.0991897651813116, 1.0567033424813532, -0.4911285118153373, 0.13352123750853512, 0.8750208417819747, 0.16216002264247678, 0.7133385847406244, 1.3474074652983898, -0.4303979602037822, 0.6568088602629173, -0.7639534809935072, 1.0264595407005086, -0.5017038054377676, -1.6206182361230261, -0.6966221843290114, 0.23459667364504147, -0.6436996827847835, -1.8487529041221207, -3.3363165849225465, 0.4108876822317743, -0.7988040613977515, 0.3364190700204059, -0.15985819236037496, -1.7606733942786004, -0.4474207822916029, -0.5091973894959394, 0.22061761706181923, -0.3410730691753069, 1.1731629178043819, -0.9513898853057411, 1.025362413117475, -0.9990459455276952, -1.160250302510647, -1.8444632750782102, 0.2723617397075327, -0.006716013730724684, 0.06670644357430433, 0.12002871287128895, 1.0725700889815692, -0.5521922617027892, -0.10533461613572771, -1.509872729535225, 0.0666249796200303, -0.18272752155384336, 1.1355000352121731, -0.23518338552478477, 1.1013119957504445, -2.7001304378158664, -2.497800839914958, -1.1826014219176566, -2.3544344309165375, -0.012463598524102368, 0.6917828750879809, -1.813385104473689, 0.9050696394412389, 0.22980827552026414, -0.9651188200450911, -0.02708668243140319, 0.37806947144446174, 1.8685837690956235, 0.6500845520259035, -2.332112509380244, 0.42680394169588515, -1.0467142789391621, -1.5415040018213275, 0.1295476620612149, 0.6340284590674142, 1.0452667904780801, -0.04192552074349305, 1.382408154517756, -0.6197501958958007, 0.7057658999835199, -0.9866660070697694, 0.6261511774417425, -0.5966948593172777, 0.017106430399839334, 0.9830882662970596, -0.6118234718011392, -0.42135346706841714, 1.5969501157788362, 0.7876921399817163, -0.24900036854693305, -1.1803620813904228, -1.6499516950492918, -0.02906674275807786, 1.8019613624509376, -1.969510229378909, 0.1554157626269264, 0.28764872378627954, 1.1028906935389187, -1.028525804594953, 0.16527854308130493, -1.058940348384586, 1.4912369519481956, 0.03916703261956937, 0.7345761198769668, 0.6814320264190953, 0.5940430499837626, -2.087863357782213, -0.3573208744203669, -0.6143320919589835, -0.3738347593612079, 0.6833821576963245, 0.9305328467289399, -0.34727684912357876, -0.6343800552276952, -0.5177907396614019, -2.212161760682868, 0.8373418244853527, -1.5362966954941035, 0.32142545256868166, -0.7619096455473605, -0.8639203155273206, 1.5757733362281137, 1.0251050769101588, 2.2940672819263384, 0.8874214761307316, -1.0199162599154539, -0.5354927171615015, -0.2529981081036295, 1.3426256677758892, 0.32032213739420873, 0.17108199758400638, -0.41048231952047315, -1.560191519374691, -0.6903352698277655, 0.2511604006576621, -0.8626797843289473, 1.248864959086573, -0.974760767360069, -0.9388823135959324, -0.11549373209288906, 0.2482531121404535, -1.0084602894031152, 0.5363630462187013, 0.4074374020779066, -0.8918269192865039, -0.272340865103127, 0.5770596470005512, 0.19002149340076407, -1.6342495794302494, 0.31030176103909796, -0.055657405984226714, -1.597430729760631, -0.1459964736438245, 0.2573346261669002, 0.01107318165989703, 0.20227892975902803, 1.503351297367651, 1.0138562202683266, 2.560513783348268, 1.9730933461351081, -0.6765692501759029, 0.7864687754293058, 2.5176843104139, 0.7068072868514902, -0.3179323059207676, 2.035189487791417, -0.47809143226271467, 2.5369724487681946, -0.522041645625433, 1.1316859513400297, 0.3811589030084097, 0.20942802720286724, 0.8020156171705208, -0.7391692940127216, 1.9971727113651314, -0.3426622306060609, 1.2398404864355292, 1.8401379763795223, 1.072080153301791, -0.2925336246262646, 0.31087479747388075, 0.18693101552490074, -0.7638248202835589, -0.20789534892495146, 2.2891766525603567, -1.5348609266325834, 1.0647762634374942, -0.38430711829216135, -0.01638764047031997, 1.6972784318499938, -0.49289478233974193, 0.1951438342293239, 1.1443455109669172, 0.2291411236958214, 1.1895128444661427, 1.0872778946678103, 1.4015541504887001, 0.8620255986970792, -0.5657785547517032, 0.449935285817387, -2.9737397911706256, 0.042953618000987646, -1.1777589565403332, -1.7415318505007042, 0.11211750006167698, 0.6811949627656281, -1.6778311465036302, -0.9143871314400002, 0.27181502053742385, -0.9010597469575852, 1.1341860441118643, 0.411619985153168, -1.6633414583498607, 1.3663482525065573, 0.7275319349332708, 0.9479367429810589, 1.6872882096651316, 0.6594325656486292, 0.7389534924815817, -0.09348271990700235, -0.5387347012584375, 0.37084801571129866, 1.5910291665097935, -0.27881033024696494, 0.16300544150592566, -0.6275684447549762, 0.012768848958295212, -0.9956865395909947, 1.353732129853728, -2.4004088725758335, -0.62301481648045, 1.1409768030699876, 1.5399686572914748, 0.24768384372910396], [-1.8399386409447602, -0.545684883619342, -2.1027763697043254, 0.40027783056722027, -0.03662064401772577, -1.2251604489810575, 0.7747883006094385, 1.4915715299064751, -2.300499243598839, 0.6485600620960948, 0.8107896919857664, 0.6740770884144054, -0.807815580021163, -0.493995851241981, 0.8944321310752856, 1.1255829952410388, 0.00046815980282726566, 1.0506687558665992, -0.6661708175601031, 1.0192087960649032, -0.44812116912615313, 1.3779667028547078, -0.6534771596709804, -1.2892320995949393, 0.11520113178345201, 0.5176011586177475, 1.530646902720188, 0.34571999818527843, -0.19860935282095687, 0.07165620549973971, -0.3016354456657967, -1.4148685691939198, 0.5628128349332501, 0.13219102437907113, -0.21433659395128335, 0.921507653207367, -2.978976182818106, -0.15177821202947964, -0.7447049302406537, -1.4980398551767087, -1.982645630734564, 0.8030262269820948, 1.4964565147628999, -0.8814232240858346, -0.9059847289560576, -1.0649469901237898, 0.6729635106318711, 0.3446906980351985, -0.10482417882887132, -0.7064270592633445, 0.2882022834043454, -0.6319680403862081, -0.27378747816202853, 0.9519747694627745, -1.49280568036869, 0.5304779991202386, -1.4685297211191537, -0.9982510742041572, 0.2624732034053321, 0.7527857226727948, -0.040883247816513556, 0.9884548528450877, -0.8633311401649191, 0.5032303395816948, 1.0569588794480205, 1.034483219130251, 0.24676805311948632, 0.413117625357661, 0.08506731294357038, 0.06760471340233708, 1.1478004093311929, -0.08959388156609943, -1.6437901959632821, -0.040085746944296646, -0.3013264235071505, -1.2073436358325955, -2.0247322076017884, 0.36408269480908123, 0.34026784736324606, -2.298313469879401, -0.1284985767274628, 0.1708396175579555, -1.1521994951983456, -0.20979751576214647, -0.6697367949999155, -0.2405859797015672, 1.0303369767172015, -0.7833117583876313, 0.32989796575951374, -0.7060106590177737, -0.8446179738959594, 0.12605074649644604, 0.20232086960052445, 0.2109824639030185, 2.4559426531990574, 0.5613697551399187, 1.499046702248077, -0.37582546583387955, 1.6118737360211506, 0.897208468768309, 0.8891021204868387, 0.6391365863466725, 0.46707398663957017, -0.9605923440524121, 0.500459436842762, -1.2896165891899016, -1.044092810307705, 0.18136249713001268, -1.359015412194985, 0.7148483092546901, -0.06654373639962242, 0.10061516439008945, -1.2444676223000721, -1.3082161030217963, -0.06642339123761146, 0.4575927904129654, 0.9152398364395488, 1.9394269500475976, -0.6699662241303501, 1.0173311487772654, 1.345403000673471, 0.2706131272225218, -0.4116814367527517, 1.5855802844080986, -0.053704795003578935, -1.231693857263708, 0.7136777575319977, 0.6890189065304075, -1.2703257960885246, 1.8734267528871973, -0.0977673991482831, 1.9166943038548436, -0.6088469881257568, 0.025303594213765854, -0.41788500560353853, -0.5553554861352118, -0.18110387457492141, -0.5328601794143222, -0.8213101653506603, 0.6140224767772559, 0.5823174278519183, -0.09549169247609199, -0.20900918297609086, 1.029950064330199, 1.8081710399475752, 0.8104856478776539, 1.5423059886051083, -0.2919252416007757, 2.068478825604048, -0.05088717718435808, 1.06371187884895, 0.20789986212202416, -1.0371090330066883, 1.4011715243165932, -1.0428872857589064, -0.10498869231263876, 0.5722774584095872, -0.9251383785365717, -0.24242504794150108, -0.8954681925210811, -0.1946297218151321, -1.9127912749323424, 0.3359979571898237, -0.4815123221040028, 0.8604319010190926, -1.3233330527101261, 1.269381013010128, 0.3385844267020222, 0.09243684979945972, 0.024715530600599077, 0.19947225610863165, 0.8380609578583419, 0.3063509260153839, 0.6523914889521414, 0.11180621217096877, 1.471242584258737, 0.4762916948067382, 1.2202767871808196, 2.1902045826893635, 1.7296525791744757, 0.380340844889748, 0.37181861924359033, 0.883683870675938, 0.8877788202346227, 0.31562268956825595, -0.5292833303987474, 0.6951960679405775, -1.062928573504739, 0.36001454076562106, 0.17265663009360505, -1.6139392635862755, -0.4747716170447413, 0.33867923411510853, -0.21664896101063674, 0.06168417609327245, -0.18713165725213451, -0.33002722812579355, -0.7706781644356443, -0.830151029773774, -0.24165428712319362, -0.5439812036652092, 2.9219619556297682, 0.075190683388453, 2.019214391746966, 1.956022495702221, -0.00513096398753122, 0.14722756242461574, 0.7668485147167179, 0.920394704738227, 1.3731755852320804, -0.6957754307969647, 0.6235046159940366, 0.30695281623099896, -0.2832452172046676, 0.6969187793809861, 1.120779734249892, -0.9280124679350105, -0.10927617339684338, -0.1462470784491964, -1.5402680239045536, -2.293006833875162, -0.7618509124316708, -0.2319946825114982, -0.7291163383219564, 1.4046557590162247, 2.0679588864278933, -0.1590680232544084, 0.21499113450892426, 1.0085757789011744, 1.4112107668280542, 0.5368452841559327, -0.10549808083789486, 1.4385706481981995, 0.9090671031360331, 0.9663509381006447, 1.1600616009288849, 1.705767506695878, 0.7786026212804248, 1.4951436367658588, 0.5890370341806148, 1.0103564777942853, 0.6515655482239545, -0.00502267418562478, -0.005849341583278418, -0.01903793018534462, -0.1589807435143818, 0.22231193464000035, -1.3957716134058942, -0.9472944605682123, 1.1586077078083503, -1.776639330903233, -0.7175157274047668, -0.1375669857389703, -0.8259559527687107, 0.32228356237454725, -0.47718922202646896, 2.6670753354997303, 0.037146425783065436, 1.4774455638615183, 1.1247713392404595, 0.41729377383538974, 1.7525235552597198, 2.4650444113243895, -0.6660306244098562, 1.0722681238954748, -0.6120606683369957, 2.0706281311210835, 0.3922190031384153, -0.5088441553278285, -0.43807391041576754, 1.0700369485138737, -0.8471367957595277, 0.32144795899571804, -0.922400417359235, -0.7916810195271053, 0.8057143325249532, -1.4725711534291381, -0.09443121590341964, 1.3563718533185634, -0.04345414914665383, -0.7239138480648061, 0.1948619721061772, -1.7201814980523296, -0.4359273390973062, -1.399673862142477, 0.6909515919740263, -1.0951526398269404, 0.0852947882368596, -0.10666892818380595, -0.16913592366360344, -3.2032473664711847, -2.31904336123467, -4.088836446407182, -4.728659705849096, -2.796711241981546, -1.2608910962388375, 0.09228188932822548, 0.49848547103514074, -0.7475085357238428, -0.0739712411020889, 0.17585764558841405, 0.6162057579376898, 1.3238875896425455, -0.6405196687628197, -2.255780784941196, -0.1929584476888885, 0.38574314503216167, 0.8205454479489405, -0.817407845556851, -1.546829718839705, -0.5072107826507911, 0.01719474668575264, -1.5935859461504998, -2.8893803710821944, -2.533452585152843, -4.664250848819371, -4.812847812739153, -5.886739679247781, -5.0910545417848345, -4.358998316474756, -3.6449239803129028, -2.247905611969614, -2.1866754723004194, -0.19557770562214044, 1.0170096132540707, 0.08262562634569386, 1.289480445975375, -1.171355564842313, -0.37472218376826144, -0.9277404544060573, -1.3227295130257104, -1.0022075642217627, -0.38313283353241123, 0.23541842484040243, 0.5348429400594417, -0.9859549674098054, 0.5703471476823304, -0.7248633256960122, -1.2995791897128077, -1.4389691872083827, -2.5178537264532466, -1.9351952167349704, -4.3878362871509715, -6.086507868166342, -6.75507456534266, -6.4595704115163715, -3.7800805145286565, -1.5389715953036056, -0.5204541763960233, -0.5266949738994883, 0.12732135168365027, 0.008804104309632639, -0.7093059696362455, -0.3403519561627001, -0.3293501580732281, -0.5680585976569237, 0.07299752785668506, -2.02732738923564, -2.0765389856129444, -0.9298752455092234, -1.3241734342353229, 0.5634470755712332, 0.27100862702936984, -2.965821552991799, -0.030723410727590546, -0.5943732030646857, 2.2773294211746293, -0.8804159884327855, -3.2368418720899177, -3.783600150767318, -6.256643647162278, -4.229299802351492, -2.8639628419299394, -0.25539326047286715, 1.006511668716918, 0.03964446799146761, -1.0417711852394878, 1.4314978692781135, -1.1316755795563573, 0.06774586128662749, -0.5046377048441043, 0.44070630719985604, -0.16318970605805566, -1.0158441032554448, -1.419429259477502, 0.4564417097556324, 0.2583954294719046, 0.8577679446458821, 1.8473942885782668, -0.3874464789651684, -1.1293813548061096, 0.31069051598764486, -0.5316190985431583, -2.251930855034904, -1.4346863831712882, -1.216281994632269, -0.5262195837183654, -2.889976484327807, -1.1901409366069562, -0.4701397845237416, 0.5422068070127766, 1.8395231766974984, 0.42757645323039273, 0.6075736675511961, 1.1171457717355424, 0.1866491727353971, 0.26236774222991904, -0.8298663722994611, -0.5938404060140542, -0.381012573539559, 1.51349001699254, 0.1591132204091159, 1.9605323110027282, -0.1835604307213234, -0.5205441724765684, 0.9368100843242156, 0.7651171098222342, 0.3306899390542137, 0.7395978504825546, 0.030084576247259496, -0.5649411021215833, 0.6026531725694338, 0.5483024493611004, -0.9871403697923666, 0.9344788189339166, 0.5265908535974417, 0.5444783427274922, 1.6708092132349661, 0.6168198961703917, 1.4494568380956654, -0.053219600822485086, 0.6699761702728653, 0.04665631668870984, 0.4498284380818314, -0.7078733129201386, 0.2422036334779758, 0.8912900312724218, -1.164958664593477, -0.3091434243794524, 0.012050634871283192, -0.2688404074924762, -0.3387217877537944, 1.305696898255704, -0.2161879489481453, 0.47885267826788525, 0.09888525605730751, -0.110127613368501, 0.9666673156715198, 0.7369495691669984, 0.40623294341667043, 1.4274737268055875, -1.4451139540209392, 1.1908108189207751, -1.5187268318879987, 2.2473420336215364, 0.45540548942600056, -0.356978176904692, -0.24895287444460473, -0.865094818340175, -0.7225832129375565, 0.5475790720519187, 1.0087714413017075, -0.23788866959896934, -0.1809716011722213, -1.1009249590278212, 0.561328540932836, 0.32812177623106115, 1.0064963243130054, 2.0987551220397034, 1.1964323392732632, 0.44556333311475554, 0.36490536411130287, 2.3406098142269864, 2.1129263273039394, 0.6547908451838994, 0.15751968894938412, -1.080872783649522, 1.644030197753135, -1.5513304321517654, 0.5599725712732243, 2.6514260059307273, 1.5292803874049226, -0.2666620197183656, -1.553520243044708, -1.539231121271237, -0.5044019295042634, -0.6364072908697029, -0.8252107377939994, 0.28518829051264916, 0.5451124688749577, 0.7615882330360637, -0.10475029343042912, 0.022582584597500083, 0.43735820739283093, 0.8929422874899721, -0.9279285869722075, -0.9385098928414148, 0.09523323820080135, -0.2675717571044096, -1.2266056747927783, -0.002981459384745596, 0.2660880079544954, 2.1147521979967645, 0.8580086780053857, -0.7720924672510231, 0.7123900582551971, 0.4239658007458599, 0.9806616646827171, 1.8534601800554455, 1.1598824540049708, 0.805229612632696, 2.0786138299015984, -1.6172563768844468, -0.46597020039332, 0.8348535602555965, -0.22893239228914322, -1.139334779198454, 1.1730891872848328, -0.6709816265926871, 0.8059088081876059, 1.742494347476428, 0.34345455130435365, -0.08737302984708271, 0.03563062147208056, -0.6539901355631049, 1.1580548732534817, 1.8474985281365717, 0.8602084368488783, 2.1620706827048477, 1.6209298014948923, -0.10938354839450479, 0.018478870886774173, 0.9843663949373066, 0.14263657367773896, 0.4639518425710217, -0.8358095186470554, 1.1352700823438728, -0.857941695947694, -1.2769877635333442, 0.5233661665681387, 0.33761852164099493, 0.7157838134223803, 0.5536836082756829, -1.0833706819226439, 0.7734997909956138, -0.7791464761728728, 0.569776450680295, -0.4620890461210458, -0.4565749722985371, 1.3025912564634785, 0.03587006265773329, 0.7175895547700927, 0.22684429096619022, 0.8227431272179657, 0.7715114939920457, 0.1243556856349154, -0.39872261802663506, 0.2453628012020467, 0.4442743439889324, -0.17767142543326112, 0.4850666942367361, -0.39349907376913856, 0.16504514740050683, 1.0774313399430069, 0.31902419937306875, 0.9359151209732718, 1.030756921700083, -0.2687281679674821, -0.28636983793085985, -0.308997057539994, -0.9937922629853202, -0.0002744374437952061, 0.003084473018278248, -0.2678557261247316, -0.2727669987897362, 0.744485936064307, 1.1062632411246915, -1.2767153261965676, 0.6575461808428652, -0.6226579100042293, 0.31258954631877134, 0.5847777130797206, -0.061804751133901194, -0.638433274058941, -0.5569492115673979, 1.8150156900186427, -0.052658394699567276, 0.17445369823433143, 0.12407421940556344, -0.8972500031180454, 1.4572932794263136, 1.6791740122784302, 3.3351441115159055, -0.8569876026222033, 0.43377737847694425, 0.3612638187581545, 0.5146461760706937, 0.9594893415906584, -0.03226863937116487, 0.5300414122434963, 0.2047653187226999, -0.37117357056060274, 0.5396830841793153, -0.9131324474359059, -0.29920136209855946, 1.2690716128276176, -0.37587394214881625, 1.7526881597462745, -1.2925626777328287, -0.7777325988615315, -1.3951868478729466, -0.030050349915698358, 1.591517560270779, 0.31386140063070356, -0.7370736183686117, 0.49333411022056617, -0.8543130035411204, -2.2823560651470354, 1.381536415291406, 1.9344217967183825, 0.16234909132557843, 1.1055223648245278, 0.05260182280667068, -0.2637498357944477, -0.4384445779506587, -0.3056432122766553, -0.2661433161761602, -0.5478294153976907, 0.24223438297803782, -0.5008418916171666, 0.7171062771979719, 0.03113314141032188, 1.2371896764419053, -0.6544997852654126, 0.761885298615111, 0.1895940928608718, -0.2558731247190599, -0.23119410998717968, -0.8635373484443798, 0.6047344813274961, -0.48557908919748943, -1.196456306944505, 0.2911027235169377, -0.6220887834735235, 0.6039325723144294, -0.08351069505482366, 0.7411518689678552, 0.9126326888342318, -0.4136107620073478, 1.3784569594466538, 1.0838426440345292, 2.3448705552814717, 0.3631006280332532, -0.6729391196208871, -0.526057955398235, 0.48965325612974625, -1.3494796122979698, -0.3234617413015443, 0.05069895376407153, -0.31397250231917606, -1.3591739125890576, -0.2073442713219459, 0.8235433434714291, 0.3479614312701267, -1.758441373208121, 0.4005169746836091, -0.17870077403543222, 0.3378016313199584, 0.8928567257791196, 0.05331297665807933, 0.2775485995339885, -0.8018200828453674, -1.8429621278071704, -0.6171133320366177, -1.6160610725864935, -0.4367400951111076, 1.1869893956837132, 1.5536548744870788, 0.8520667510435829, -0.1724726281528238, 0.4201566669413115, -0.4598868904365086, 0.4622001540234077, -0.4029790770714917, 1.0620106430651948, -0.7337201377399031, -0.3583174098428916, 0.18987190417600167, -0.3090778299182865, 0.4723454024038323, -0.9883451920658033, -1.2281385371843923, -0.25810134130269136, -1.245156784481794, -0.8751201612649255, -2.3218574334511355, 0.4919400567333314, 1.2031772575705482, -0.024488369328432957, -1.080982798370656, 0.7502894046976915, 2.3060034771074323, 1.1830748734388865, -0.13651724074726554, 1.8954614863229116, 0.6876031176104853, 0.2585788895891967, 0.19833329491446322, 3.074989360511058, 0.27735349764362494, 1.6944359147978634, 0.8176147042435109, -0.29459471692353223, -0.5562556361247079, 0.6882298170612773, 0.9411483761432006, -0.6195338909978959, -0.6032463982682011, -0.368160771390998, -1.5159858209766526, -2.272508257481319, -1.355841168571712, -2.518217968149704, 0.18243725810733263, 0.19125482726720833, 2.290262666699337, 0.5139702702247674, 0.704998621876082, -0.4747217926433031, -0.1942832092313513, 2.972604338108528, -4.208712040245063, 1.7212042496852682, 0.2497608979091774, -0.7444673896634354, -0.9608788775733562, 0.07448497202751075, -1.178322355997567, -0.4233756853158163, 0.029302094354422426, 0.5616980348661376, 0.353846725748217, 0.9186676213090037, 0.6015792318105506, 2.0768843110037074, -1.0996373041618348, 1.1208397992518662, -0.08760797701879687, -2.1067645135442645, -0.7239972956776756, 0.4995214718135861, -0.011527342620635088, 1.2790896237093206, -0.12188443795706953, -0.535876608306663, 1.2840648049429715, 0.5759809710440464, 2.2713897990362937, 1.009416802693168, 0.21058878002600515, 0.46822194886438206, -0.305904531780097, -0.006964640706111595, 0.21362896148415123, -0.44525530946943453, -0.9253065659696662, 0.8791626587308601, 1.1024233154250422, -0.1172603989639099, -0.22550971195546687, -0.4260822279305589, 0.30143145501235846, -0.6180219163806929, -0.12398362073498123, 0.8204976170806737, 0.4247861882943045, 2.2316480052636454, 1.455061385180474, 0.4000823880648349, -0.6935532054542749, -0.3417610941051697, -0.20684856084938688, -0.8569721111241038, -0.7048221554294335], [1.2189921719742387, -1.828787556710612, -0.4177858986836777, 0.6328938586575767, -0.07327627680578995, -0.7226276186042678, 0.3637449964252881, 0.4678728954037138, -0.37942466364263966, 0.8208952193454184, 0.2108772156592625, -1.5338073880731193, -0.382052918445945, 0.4872727993738544, -0.7630822186844475, -0.6870258195958447, -0.15354598201068978, -0.2911665196685533, 0.6188031113047806, -1.238928764040961, -0.4437818721916132, 0.07735974177202809, 1.206916449780547, -0.6742304269575309, 0.8430718052357258, 0.09508193257270774, -0.07388920408004451, 0.04785751096486134, -0.10447318813178735, -0.8231319187882723, -0.012746604614130354, 1.420002169965336, -0.1571616456496605, 0.4011485961150702, 0.013014044330463229, 0.15439318151515585, 0.8506462280969933, 2.042063625486842, -0.32289872688092003, 0.4386821941103203, -0.5781746432627151, 0.46558473346084084, 0.09963728166253517, -0.6401530443016481, 1.243709429019295, 0.07835431571654583, -0.6485656194820903, 0.13982382992817383, -0.9206972028641963, 1.3926919250381522, -0.15136470321720105, -0.26648824834085827, -1.2992773292917312, 0.8878739033456545, -0.9231953086741689, -0.6833636459758041, 0.5540832267132001, -0.244751120059476, 0.5150839066468974, -3.0089618861852343, -0.19188253902623512, -1.3536112834981786, -0.6049601401733259, -0.06672213189696265, 2.3787835997462197, -1.2335746959951466, 2.099267404506767, 1.615094370894598, 0.7769347663323726, -0.2774248048948235, -0.9493955685411901, 0.6892196136237748, -1.3700201444211706, 0.12587966398160197, -0.1601430823601312, -0.6388962982154237, -0.020682616168676147, 1.4528911541522174, -1.0051006200748547, 1.680281947609866, -1.4313067828002586, -0.1962040211548566, 1.129720727023821, -0.3882503812729521, -0.047319945768141386, 0.5439439380577377, 0.158401670746576, 0.8395598090494701, 0.08445177776844504, 1.1730349280442847, -0.48246487141781225, -0.6640566702094362, 2.3131724119325203, -0.2863636191463305, -1.1946134128049946, 0.29447994272973427, 1.0847251059802783, 0.745082983385511, 2.5981035177128544, 1.144608326985875, 1.0130143712480866, 1.8663080241405765, -0.8670453992779447, -0.8221516858933234, -0.27246897217018784, -0.5762687649212437, -0.7420914262613615, 0.6227585802949549, -0.7331875203447226, -0.2748990580421192, 0.6829445667257924, -0.9215515353231682, 0.9659520207877722, 0.33224919053404545, -0.12066560666493333, 0.2608033632551893, -0.10160690892492197, 0.3736907806074359, 1.4177089303706576, -1.6917857741917781, -0.8523105059607501, -2.1872068553697224, 1.9321503394655735, -0.2927800176322592, 0.3737368675142715, 2.263606093388568, 0.5833409076742714, 1.8408970616835414, 0.032052452451520004, 0.16980747967780158, 0.5705993529967618, -1.7145862577938675, -1.4954987824318768, -0.29469291059628244, -1.1502729242501382, -0.10020924381978341, -0.2562505411885581, 0.2965283085874687, -0.09582633673045027, -1.2981002936513937, 2.058521358192752, 0.5048543918929512, 0.12201391296847554, -0.4060992982006037, 0.5739136648568302, 0.8315525335995599, -2.1128676957720853, -1.2926292950598595, 0.13098818111855895, 1.6348555084929923, 0.10981347702294621, -0.15438167212512882, 0.5433547243955824, 0.3077269290788164, 0.7420833714168028, 0.8361090904819714, 2.806207761580273, 2.0678824776878186, 1.6764044325628198, 0.31756595785181063, 1.322818339821554, -1.314186590812534, -1.2049109121991235, -0.7317110181274795, -0.41895332216709485, 0.11873359140213306, -0.5468688031831233, 0.18151961744969397, 0.2872768900721649, 0.48852028994627755, 0.8483499601440835, 1.9984972063825137, -0.12371751835599996, 0.9520205049775184, -0.42391301302611417, -0.24995882856948032, -2.31941770533886, -1.0018066306702271, -0.8110232097064884, 0.7537773001652867, -0.18411891050412746, -0.8679148886328709, 1.1675245428213579, 1.0624924381653047, 2.775900599792191, 2.057172739870311, 1.6725677830982153, 1.9999850462439255, -0.0995505932449344, 1.2599927886117797, -0.4061555343729377, -0.04727818924805173, -1.7755521779046426, -1.8400900337375714, 0.779836315824671, -2.1672940336438007, -0.51494546999248, 2.053494610793009, 1.516181662524253, 0.6761115542140398, -0.8204706595360759, 1.5365094122467111, -0.34988593050815947, -1.8374689382451412, 0.5685686883129469, -1.5306360709552687, -0.31053439921820214, -0.036751723154256226, -0.12405061456849945, 0.13819538072361814, -0.09365690387303863, 1.1508597420607372, 1.4038988155375578, 1.7779008687489526, 1.1898591161422774, 0.5620323384413098, 0.0398836700296354, 0.4514317882652392, 0.41203111494460276, 0.38090239980240487, -2.6434110362248506, 0.4242679050102978, 1.4697740813458293, 1.227732024530203, 0.6566720071810475, -0.577120170859252, -0.21587614896538224, 0.8532790615881097, 0.3988636025214068, -1.4243649594803693, 0.7396552341444625, -0.5036187017391841, -0.34794563686247637, 0.12385244885198307, -1.3880412859534557, 0.22766009234073833, -0.49539399052941563, -3.4937264947615296, 0.306107841465071, -1.0932686979700208, 3.3188686069939073, 2.409234564523558, 3.035610022541055, 0.8275750491035277, 0.9555565139252366, 1.252586475355364, 0.33871374472334964, 0.10752883895384947, -0.3847776324729656, -0.7916387542225215, -0.8286283934697898, -0.9773030809889588, -0.9453381315205127, -2.5030580549083123, 0.33424696328658304, -0.22270008261346994, 0.722036904492753, -1.7693694897571652, -1.0119818758910926, -1.07935138437366, -0.056039293760615186, -1.4649891075952024, -0.8602355471922004, -1.663762266511744, -1.5140666362802453, -2.56026990754247, -1.8702792400309611, -0.2390961889620356, 1.9367819256775116, 2.6109306468619837, 2.400636124177299, 2.2404339685857515, 1.0946987005150541, 0.9133260996773392, 0.0661028456982316, -0.709631375908147, -2.242980547845655, -0.9660899436359358, -0.36090910803149295, -0.5061502823485834, -0.049373994687679605, 0.6979943675004255, -0.1101287082389935, 0.560425224389918, -1.7352748087524228, -0.4954145292316259, 0.9548097698450251, 0.22631999253726456, 1.058382832668532, -0.6859466767441569, -0.7911900758409895, -0.3922020514236615, -0.5754731942644588, -2.7998215911542057, -1.2770166011968456, -1.7761434239773897, 2.174859582262373, 2.351884670071049, 2.9817293355282875, 0.3839102609979175, 0.9061725217450561, 1.3802802948096558, 0.6292248152658582, 0.3549982277030448, -2.5109444359268607, 0.3449562421567243, 0.08407671013912801, -0.7793829960053129, 0.03552064412328815, -1.0510913341347186, -0.7088768883109983, 0.7870784840604531, 0.945658192472787, 0.18821087347156296, -0.6751616036232547, 0.21564995260708975, -1.4538297742885138, -0.25668280147391287, -1.6980984693399073, -2.3287768650388423, -0.6205619453774184, -0.8763061980949471, -1.9526169850951478, -2.7224200506755634, 0.6701568553737299, 1.6141958798185083, 1.4208567880768146, 2.4531083600139394, 1.0186027720355166, 2.216827324348484, 0.08760706848924492, -2.0350630839160897, -0.9316385803766949, 1.0386980141056585, 0.6442835062938153, 2.465743207053444, 1.3142108560191823, 0.6419250850408496, 0.9856571625863336, -0.7271282026333903, -1.3776180603519537, -1.2256712065654434, -1.2097634208159842, -1.8386494822827282, -1.0998580897884818, -0.6583272222520155, 0.5365916165758658, -1.0264122126657418, -1.540542229254088, 0.527986731553027, -2.412523228998875, -2.03291540954754, -1.4565917679674896, -0.3818694227601979, 1.5208340525820623, 1.2964587504965672, -0.09324611803386909, -0.22863333992841822, 0.8265676627435478, 1.1113434557230042, 0.6705240781317335, 0.5830299353529893, 0.0835955884326578, 0.6508211242426145, -0.8972671318858585, -0.2853670442599742, 0.34882415602224287, -0.006750572571862233, -3.09277498152065, -0.8727140410267096, -0.7369419037744067, -1.2045083774403365, -1.4546159022085239, -0.5336654848265423, -1.4683527062972332, -1.7058585775257147, -0.9161795965799503, -1.1640617478157356, -0.031544941158122786, -2.4148343926899423, -1.0710234990502017, 0.21321323483697902, 0.5599493167891709, -0.743034249672146, -0.3788216904491437, 0.6141528646708508, -1.6847778741410546, -1.8617917630295537, 0.05884456982115272, 0.4816661756348479, 1.4446296116287412, 0.156351803525498, -0.906701257533585, 0.0005552946945578396, -1.3571306303490367, 0.496393486661253, 0.07319378899199674, 1.281397210408217, 0.9356225622794508, -0.0664567394662113, 1.2044203995032794, -0.11205040687240543, -0.22209805111605171, -1.9279232574716307, 0.3552047113505634, -0.08364841140903524, -1.967552633271265, -1.9264458830212363, -1.171552995605139, 0.2840723845285651, 0.18168739947152557, 0.3357798084713343, 1.0923495037151154, 1.3465071845048746, -0.2281367341651573, -0.2742400112716058, -0.9477280003438479, -0.14548121237950637, 0.551608636598099, 0.9782589069581846, 0.06545270603580931, 1.1148446609523053, 0.6666762687625737, -0.9931238720426973, 2.2827727549173633, 0.15712571208506626, 0.8210997319180787, 0.7669158484975743, -0.04173811816687814, 0.306284683715239, 0.5317818487961077, 0.7366770105579025, -1.330286458686494, -1.9428062311249101, -0.7331130361014281, -0.7860719788491344, -1.1312007797876087, -0.03981687845370284, -0.21566396714805697, 0.765702070010481, -1.831773262549669, -0.8863274265563815, -1.00223092763565, 0.025898324297648222, -0.48279761141129796, 0.3166145680733527, 2.270184537185526, -0.7791022715031765, -1.1911393207338585, -0.9898157943243419, -0.10856741387555238, -0.2603281123106566, -0.3490993544662865, -0.8611967764456241, 0.6428275048752953, -1.9355364410284217, 0.03336988507290232, 0.02246367531009775, 0.5779970384183841, -1.8176319599237856, -0.4172003147708732, -1.0205646513278483, -1.3117008921438853, -1.3836381938312157, -0.4011116968461466, 0.38812877373355475, 0.33975115693216357, -0.2720135338153019, -1.6415950085218847, -0.4375406280513176, 1.253711259693799, -1.0715814872524134, -0.9363966780559893, 0.7163001615941489, -1.0660563688603315, -0.10240053818264566, 1.0615033579581141, -0.7759143502380644, -0.4275555988625161, -1.5559500365510368, 2.9759571716600983, -0.3447499481170497, -0.6491770946063767, 0.2577259849662336, -1.267632511720203, -0.608234641409292, -0.38501221721257894, -0.3357192039271879, -0.9089158508177664, -2.6154058566828593, -3.303098327610556, -0.6404977229645509, -1.8860086200416049, 1.4740181004375859, 1.2358670484032386, 1.8468311106913031, 1.4378566272639326, -0.2577187883702082, -0.3603655735923512, 1.1064627553795054, 0.4061512057560624, -0.29473168133948385, -1.056209950915416, -0.9667959941632742, 0.16923956056981798, -1.5976158476986675, 2.276894020958323, -0.9973236556405425, 0.3634635154741774, 1.3778257353195966, 0.4032749099674897, 0.08393648177959823, 0.6750149916487167, -1.0416482930238797, -0.1347825987370615, -0.3796924796631993, 1.1642476583928838, -0.3740348841650109, -0.8035657865601336, 0.6983035794130401, 2.073356723364407, 0.827338022330855, 0.553491893643215, -0.23405414584430123, 1.229263089415659, -0.06763714687883446, 0.1036629179470584, 0.1668915532165274, 0.31767215952266986, 1.9520791495906966, 0.5882160508620002, -0.6964906796053659, 0.8788675399237068, -0.3913038653268052, -2.4407814667104986, 1.7584897456401296, 0.3079691457496246, 0.6838742132732977, 0.40055331352943224, 0.9220511298472625, 1.3156375129589883, -0.04121299973500489, 1.3412723405597313, -0.08782788237191438, 0.6929053638675937, -0.6078047838441654, 1.594162952790648, -0.22818039155836867, 0.3652154763807284, 0.053168173103277185, -0.53767163338658, 0.8201936440113653, -1.831138268280367, 0.0052181227397034395, -0.7770381048306851, -1.0971935321539836, -0.3644892362338616, 0.8284936803561638, 0.22063832418614915, 0.19399988392794695, 1.9459388074642807, -0.5458492330715274, -0.9698504398408564, 0.9209132747809037, 1.2369234152599342, 1.2564742013242804, 1.1799299324093777, -0.5443731327014363, 0.6168909132960158, -0.7364775168489912, 0.034489188105490884, -0.3847763298557436, 0.4591525237244486, 0.5222271727348686, -0.9470408254339145, -0.2962299649543111, 0.2766162500079773, 1.1465485568612563, 0.34519186560828136, -0.6229035152918385, -0.17418839697060004, -0.6143476685097248, -0.7235267728874993, 2.2798536878668383, 0.5367032919502093, -0.056636039890237154, -1.1282208527307884, -0.1877520250204937, 0.5302492213290423, -1.3008505859414232, -1.2019121865818558, 1.9266721425676825, -0.18030471144773988, 0.4432639760456369, -0.4947532386250484, 0.4004763586586515, 0.34489253154242033, 0.14411722430274176, -0.8391899710217937, -1.0798133516188801, -1.8995506218034306, -0.07460306281388976, -0.5772778220706991, -1.7055936761774815, -0.08323719900818276, -0.6322724405309347, -0.37090529485385604, 0.4539229293796331, 0.6303352830432131, -0.556979188783559, 0.27422370465671353, 1.3161413533511097, 0.2946066084779973, -2.1028114714088035, 0.5843647278822914, 0.14778978337281506, -1.4921838211124372, 0.12012651442913978, 1.0721521298319252, -0.2994181097159036, 0.48584871086903725, 0.8753874273766592, 1.3462827623811195, 0.7123621622034219, 0.8948724852473281, -0.8930001798692735, 0.5335501941182982, 0.24361828694916107, -0.360525670768542, -0.38998803718131714, -0.23483790129814433, 0.6785384771012748, 0.46286578000037193, -0.30336745001702153, -0.3629739606139821, -0.33675742834419087, 1.9898040529494376, 0.003989983711633152, 1.9468203761797795, 0.4571210794640839, 0.17128522548635644, -1.6702073905140935, 0.9564808590590803, 0.043703993916522646, -0.8681853844416941, 0.3530568567487416, 0.16065392555995475, -0.09060515225853587, -7.092907997535148e-05, -0.013292038118928495, 0.9683363082982308, -0.5144327455444772, 0.557306190828977, -0.8597184459877325, 0.5290031323080143, -0.0988447914963265, -0.8327242276163848, -0.39363619226043184, -0.46303200044412807, -0.8147257455138472, 0.1307219230662546, -1.1804486515993637, 1.6115226732379482, 0.8844747986681002, -1.3899326759692021, 1.7087872265476394, -2.123552668648026, -0.7405470525636229, -1.4529973905478266, 0.3905142613351395, 1.8288061529452802, -1.5706040069373446, -0.4607514872375537, -0.35598557676179365, -0.37006764381756274, -1.6135971024070195, -0.5148894387926775, 1.2694349664592919, 1.23367301476402, 0.4742039075380614, 0.3209190561450193, -1.3927948253727132, -0.9507079102502849, -0.829110553226379, -0.6956318819025737, 0.3415872729935012, -0.08527555110416409, -0.27562755092155805, 0.35799997533906947, -0.6581773785298676, -0.8637259783355291, -1.747013783237344, -0.14472201723484182, 1.3652428695722973, -0.76092376889748, 0.6521452770037631, -0.5780338781662604, 0.8321787832409159, 0.11813609633711489, 0.28151595832481596, 1.2125968522006583, 0.2648338211664475, -0.772891979306133, -0.29331407915823315, 0.3775880776116917, -2.0846256667280754, 0.004357037096886544, -0.09188605432444881, -1.6853433143975698, -0.07110429324487345, 0.6564762725796865, -2.318519860098552, -0.6698036474899801, 0.38547169531695935, 1.084458567940404, -2.1982464357785982, -1.2030229306877767, -1.1278072593424842, -0.05417410359634742, 0.3892962147387581, 0.6309959366576054, 0.5749001073751797, -2.156343169912961, 0.48134879402480907, -0.5216487787119637, 1.4562514841170873, -1.0133430008380642, 1.4112833545390011, 0.16730334754136855, -0.0791869686993037, -0.023299298166634116, -0.7155593456537109, 0.975557026216703, 0.008779438812701915, -1.0548575725983635, -0.939261981263301, -0.2690947217607687, 0.3643205882731581, -0.7853523844679776, -2.5366381499511945, -0.6551417944802888, 0.7000354986098702, -0.138347221095843, 0.41856109444848627, 1.2266815126334585, -0.29731488572839093, 0.4352458548705604, -0.7371673268799184, -0.46141181237486223, -0.8097378253030239, 2.0518207381752984, 0.5854039037430264, -0.45022171112763926, -2.414675781801681, 0.46678369430074396, 1.6522013017415593, -1.282843949465518, -0.9363556168351913, -0.7366879812319541, -0.5930795836520363, -0.2828884441241462, 0.019649488886477193, 0.5206182152676186, -1.9529452935116525, -0.5902336925907956, 0.11714609787822876, -0.762082081392662, -0.5703264030716021, -1.1909009495955152, 0.21146959444922517, 1.4712839095934722, -2.703112289859719, -0.7294390116419398, -0.14114369716825612, 0.9272525800769481, -1.2818081480732944, 0.8349271368127963, 2.1183443334944374, 1.2235963580397209, 0.7560383845303039, -0.22210289512928366, -0.20559326423380167, 1.1064666475300404, 0.11499726106174617], [-0.43472378753983, 2.2161890396380155, -0.5499053843825316, -1.0183644767034545, -1.1468994583101888, 0.23282007240626604, 0.14861986894486975, -0.5148420580032513, -0.4293140786087172, 0.7845195265999795, 1.8391854579103477, 0.9658685090693224, 0.5039792663123888, 0.7209030901506657, 0.1939558534813076, 0.7040368878642859, -0.445987799103311, 0.2233633535146681, 0.024206511677169883, -0.5155464602781373, -0.4634258464023703, 0.5655589007719919, 0.45409523139295593, 0.6765373528138262, 1.312552652172712, -0.9539656037179969, -1.0396381817210765, 2.9415281384120124, -1.9703788473899013, -1.7305758944606513, -0.8886709253021882, -2.2081759358978013, 0.8264652798333326, -0.026582904772130225, -1.3263240278797832, -1.2650095714217688, -0.8894523297781103, -0.5883661919060775, 0.4618938693697695, -0.40191088767184324, 0.9974108496514623, -0.35994104018566836, 2.2674977800425307, -1.708697406244591, 0.028961226203198603, -0.7652021042854764, 1.503803126190214, -3.308410366349038, 0.18223580684827462, 0.08169548042111562, 1.5596472835288264, -0.39975588442086374, 0.5889092749374573, 0.8039793220529154, 0.2974847939618848, -0.8428679797070542, 0.7789417712310458, -1.0609089583051547, -0.8621433666117188, 0.5166236282562989, 0.021850704067796198, -1.64742926370903, 0.3722883119628867, -0.3464986047567775, -0.7113190241549547, 0.328766722436824, 0.3562472566006449, 1.269483763864212, 0.6116063941902148, -0.27455470744440424, 0.9240494538049467, 0.7361039824649264, 0.6299306693869334, 1.6830463566893412, 1.6965275822735542, 0.5700305892587257, 0.2718323483723351, -1.0084325678320119, 0.013451157080006645, -0.6614335544617008, 1.1894622163880653, 0.3851688618741195, 0.7659070418308884, -1.7020453093624943, -0.41990138305858465, -0.44546580601584906, 1.8412515516176422, 1.3550259844003973, -1.9176007952641227, -0.25193869441991185, -0.4158590006886388, 0.406059269038841, -1.6340673797042735, 0.6664597365459134, 0.09796129541517129, -0.6540110459332893, -0.7553663084599823, 0.6352053288432493, 0.9518270737483572, 0.29483473336353266, -1.5070566404580648, 0.18678815873855184, 0.3909662565719725, -0.4805062610313572, 